3283 128
35558 0.132434 0.598762 -0.0436272 0.301551 -0.359151 0.0767483 0.0715169 -0.0475729 0.0172196 0.388634 -0.211004 -0.226709 0.443682 -0.223129 0.27314 -0.291007 -0.286884 0.505286 -0.0200806 0.20799 -0.198809 -0.446193 0.0916511 0.399175 0.261465 -0.213231 0.254664 0.55138 0.0411078 0.0564786 -0.169382 -0.546925 0.0151827 0.164986 0.0038697 -0.0920031 -0.651548 -0.0370453 0.0929142 -0.0644994 -0.174984 0.373871 -0.147263 0.41494 -0.119027 0.054113 -0.610126 -0.245311 -0.239573 0.271222 0.143295 0.456304 -0.0577003 -0.353981 0.356631 -0.363855 0.22251 -0.584716 -0.0138741 0.551591 -0.482855 -0.704738 -0.0581083 -0.250455 0.132153 0.381312 0.0996273 -0.303638 -0.346723 -0.27117 0.064455 -0.0524401 -0.657755 0.23082 -0.560063 -0.54007 0.231618 0.282702 0.0206971 -0.161709 -0.788559 -0.502243 -0.120458 -0.192001 -0.148248 -0.877871 -0.024879 -0.662404 0.156553 0.229626 -0.198634 0.193452 -0.205442 0.265716 0.520692 -0.804324 -0.465462 0.208733 -0.898322 0.0329621 -0.0299508 0.448073 -0.658831 -0.429789 0.24805 0.0619255 0.0646514 -0.364921 0.313492 -0.0916576 -0.830572 0.401764 -0.234436 0.156113 0.112341 0.759428 -0.244443 0.564739 0.01156 0.0970232 0.502051 0.0764304 0.245754 0.217096 0.467269 0.263323 -0.457705 0.158098
35557 0.0683451 0.667249 -0.0648851 0.34365 -0.443201 0.117996 0.0572158 -0.0400977 0.0136851 0.446889 -0.21922 -0.257184 0.503948 -0.286298 0.320176 -0.257031 -0.232195 0.591865 -0.0452905 0.224363 -0.24562 -0.61849 0.0956872 0.532629 0.293368 -0.202462 0.305173 0.613914 0.00147834 0.0398596 -0.157791 -0.676631 -0.00573446 0.208063 -0.00609989 -0.0818987 -0.799192 -0.00276567 0.0870125 -0.0460525 -0.201896 0.446895 -0.197975 0.484825 -0.116891 0.104318 -0.718717 -0.338157 -0.300161 0.2487 0.176214 0.504205 -0.0448935 -0.458614 0.468417 -0.404887 0.267516 -0.712345 0.0105186 0.663303 -0.524043 -0.77355 -0.0223961 -0.342904 0.161563 0.439436 0.113486 -0.403064 -0.341064 -0.328598 0.0427584 -0.0690429 -0.76002 0.292301 -0.664538 -0.657412 0.301577 0.320812 0.0327493 -0.23495 -0.891578 -0.526407 -0.117374 -0.205414 -0.191616 -1.03623 -0.0130603 -0.731698 0.179164 0.277295 -0.157527 0.256614 -0.229728 0.348535 0.652032 -0.939653 -0.530361 0.199097 -1.04261 0.0223205 -0.0686102 0.58123 -0.796198 -0.603096 0.318578 0.127697 0.140889 -0.459697 0.363529 -0.211875 -0.940922 0.521738 -0.222659 0.148722 0.179515 0.87566 -0.331568 0.695235 -0.0249186 0.115409 0.556463 0.0989745 0.337947 0.33644 0.516986 0.240143 -0.575984 0.156623
35555 0.0953764 0.608186 -0.0254514 0.312043 -0.354452 0.0912213 0.0789352 -0.0352421 0.0316956 0.372682 -0.223249 -0.224613 0.431294 -0.252082 0.269397 -0.245386 -0.273266 0.525705 -0.0141448 0.220982 -0.16638 -0.47914 0.0725476 0.439966 0.259437 -0.194591 0.286005 0.535881 0.0296909 0.0263602 -0.162565 -0.566473 0.0073174 0.178234 -0.00891148 -0.084877 -0.654392 -0.0747314 0.125913 -0.0662321 -0.175246 0.381701 -0.135119 0.420155 -0.146005 0.0803293 -0.630231 -0.249539 -0.23677 0.261369 0.129094 0.450144 -0.0391356 -0.364546 0.359546 -0.353995 0.211893 -0.573145 -0.0126054 0.562395 -0.474965 -0.693618 -0.0588368 -0.243517 0.187094 0.390624 0.101832 -0.325739 -0.334183 -0.289684 0.0578214 -0.0690869 -0.650613 0.218074 -0.545883 -0.552239 0.210895 0.265163 0.00737685 -0.176564 -0.772114 -0.482492 -0.128078 -0.200957 -0.143207 -0.863145 -0.0329593 -0.654451 0.157984 0.241241 -0.202626 0.22009 -0.187963 0.268145 0.527968 -0.782783 -0.448107 0.20661 -0.889351 0.0385245 -0.0414635 0.456023 -0.665982 -0.433601 0.271497 0.0736628 0.086159 -0.363093 0.307941 -0.123261 -0.812108 0.379468 -0.246432 0.146426 0.118429 0.734261 -0.240628 0.590663 0.0240136 0.106584 0.495439 0.0749606 0.261107 0.245605 0.423606 0.258219 -0.462525 0.157012
35554 0.101773 0.586897 -0.0591714 0.2755 -0.356633 0.0679951 0.0785059 -0.0498146 0.0220514 0.365168 -0.248494 -0.20491 0.467132 -0.226916 0.291931 -0.266329 -0.304935 0.529385 0.00356197 0.225025 -0.197918 -0.447725 0.0650712 0.405641 0.235601 -0.188099 0.268947 0.558818 0.039594 0.025036 -0.17052 -0.549713 0.0276029 0.175542 0.000404462 -0.0784721 -0.647082 -0.0664752 0.108388 -0.0448589 -0.171459 0.394601 -0.134656 0.420504 -0.117891 0.0559334 -0.634073 -0.217681 -0.238553 0.26174 0.123078 0.446524 -0.0450635 -0.355974 0.342169 -0.36069 0.216395 -0.603549 0.00806827 0.542235 -0.475853 -0.704796 -0.058607 -0.244547 0.148589 0.402218 0.0728156 -0.30382 -0.337948 -0.253689 0.0777289 -0.065757 -0.638674 0.215303 -0.564828 -0.52928 0.2402 0.278626 0.0175134 -0.172446 -0.774118 -0.50219 -0.122666 -0.1957 -0.156075 -0.875536 -0.0111343 -0.659525 0.16624 0.218477 -0.203228 0.212504 -0.215149 0.259448 0.501498 -0.793832 -0.481375 0.213975 -0.892401 0.0307937 -0.0254232 0.461047 -0.662828 -0.44868 0.27853 0.059804 0.0555905 -0.353242 0.299537 -0.0853579 -0.822689 0.41124 -0.240622 0.185373 0.127471 0.77947 -0.252397 0.574893 0.0147753 0.110874 0.491804 0.0588506 0.242861 0.233221 0.464223 0.278626 -0.449026 0.172789
35556 0.077734 0.586361 -0.0398527 0.28121 -0.357974 0.0864825 0.0610113 -0.0285417 0.0268556 0.397622 -0.222046 -0.218716 0.429999 -0.243414 0.27742 -0.256781 -0.270712 0.526487 -0.0216841 0.226967 -0.188248 -0.47985 0.0605541 0.427318 0.229343 -0.167107 0.273653 0.509076 0.0321388 0.0335231 -0.154188 -0.563314 0.0026488 0.175106 -0.00839408 -0.0810993 -0.647053 -0.0368552 0.0818507 -0.0576026 -0.175749 0.397611 -0.1534 0.428042 -0.105129 0.0792788 -0.622522 -0.245372 -0.231722 0.247126 0.141447 0.462311 -0.0401801 -0.361829 0.353951 -0.344802 0.225114 -0.591882 -0.00557677 0.550221 -0.457841 -0.703829 -0.0460901 -0.259824 0.18774 0.380862 0.0874003 -0.307938 -0.386635 -0.290785 0.0515255 -0.072269 -0.636594 0.232948 -0.546893 -0.541043 0.241032 0.272863 0.00874766 -0.185687 -0.76618 -0.483113 -0.118156 -0.1759 -0.144146 -0.848301 -0.0231539 -0.637516 0.138769 0.211942 -0.17319 0.223314 -0.203544 0.271312 0.529711 -0.802202 -0.44904 0.210217 -0.889248 0.0447575 -0.0299552 0.468066 -0.670485 -0.461776 0.263481 0.0486389 0.0846901 -0.349712 0.300138 -0.118184 -0.814485 0.410233 -0.23482 0.152543 0.125745 0.764602 -0.259278 0.576175 -0.00471466 0.0877566 0.486974 0.0791702 0.240831 0.231066 0.459703 0.254692 -0.468827 0.158613
34073 0.0901129 0.582232 -0.0570278 0.294599 -0.358798 0.0836835 0.0706948 -0.0318227 0.0135504 0.380056 -0.221719 -0.228792 0.449662 -0.231467 0.27853 -0.264102 -0.266567 0.53248 0.0110542 0.229099 -0.195223 -0.493076 0.085138 0.423254 0.232184 -0.197927 0.257148 0.546148 -0.00890047 0.0171032 -0.162005 -0.547586 0.0240783 0.165357 -0.00664727 -0.0675567 -0.652426 -0.0495224 0.0965827 -0.0467403 -0.162267 0.382253 -0.142846 0.431908 -0.108668 0.0880659 -0.610659 -0.228093 -0.235979 0.256634 0.12129 0.438144 -0.0490688 -0.378953 0.34452 -0.360069 0.218071 -0.597454 -0.00489249 0.572094 -0.47836 -0.702724 -0.0484381 -0.265622 0.165437 0.374135 0.0865554 -0.304799 -0.281949 -0.253999 0.056657 -0.0473602 -0.639802 0.216562 -0.530895 -0.544417 0.23979 0.253051 0.00936485 -0.17221 -0.755827 -0.490765 -0.14911 -0.186047 -0.176107 -0.853086 -0.0193884 -0.655216 0.146802 0.226757 -0.199367 0.205202 -0.206019 0.271723 0.521057 -0.782319 -0.454606 0.208035 -0.908706 0.0218136 -0.0358278 0.470551 -0.658535 -0.446048 0.272024 0.0720813 0.0758552 -0.391105 0.28894 -0.0985542 -0.804778 0.412536 -0.250917 0.168327 0.129595 0.746942 -0.248872 0.588675 0.00141746 0.106316 0.489301 0.0866227 0.229004 0.252189 0.4286 0.257322 -0.446722 0.16904
112 -0.216066 -0.17309 -0.575109 -0.434381 0.249358 -0.256336 0.0715533 -0.256691 0.264822 0.405549 0.0492861 0.226449 0.432562 0.00165534 0.384539 -0.0156872 0.333828 -0.147098 -0.541725 -0.252536 -0.151787 -0.340589 0.449025 0.0717319 -0.131616 0.144641 -0.153421 0.297114 0.146255 0.610968 -0.300319 -0.351753 0.37246 0.20294 -0.224342 0.185549 -0.365568 0.179759 0.300576 0.141663 -0.0963803 0.347628 -0.542907 0.357274 0.245747 0.134996 -0.263206 -0.400013 0.0620656 0.252355 0.886698 0.0490665 0.00679258 0.113422 -0.267833 0.198226 -0.225973 -0.449013 0.0230666 0.0499171 -0.329091 -0.352161 0.372586 -0.243745 0.10697 0.269148 0.0206567 -0.131269 -0.0179336 0.173277 -0.14848 0.322719 -0.408353 0.384144 -0.523154 -0.426566 0.335254 0.156515 0.337449 -0.162139 -0.588122 -0.521856 -0.0881769 -0.233842 -0.0539864 -0.488508 0.0555759 -0.0156279 0.182108 0.00929569 0.031701 -0.154122 -0.437844 -0.0769247 -0.729885 0.107384 -0.287661 -0.297964 -0.406016 0.00555242 -0.31375 0.375029 -0.0359888 -0.748694 0.0125167 0.628427 -0.0256999 -0.81925 -0.203965 0.282059 -0.161776 0.218945 0.572101 0.268774 0.0734785 0.479632 -0.684113 0.477225 -0.309264 0.371822 0.26989 -0.12838 0.360452 -0.238868 0.375178 0.263821 0.066658 0.0466207
4096 -0.358196 -0.241991 -0.619464 -0.436487 0.243654 -0.277197 0.0450942 -0.259573 0.247231 0.361414 0.0687273 0.199603 0.493647 0.0453226 0.400072 -0.0262694 0.361201 -0.197789 -0.567324 -0.299564 -0.258247 -0.364325 0.459617 -0.0213522 -0.118829 0.149403 -0.251815 0.354514 0.127105 0.613515 -0.236407 -0.354959 0.369496 0.170953 -0.238123 0.199785 -0.297211 0.221335 0.224329 0.176358 -0.0416811 0.323504 -0.602736 0.317203 0.240402 0.0981433 -0.209805 -0.334701 0.0495691 0.161787 0.936153 0.0374803 -0.066603 0.137447 -0.251589 0.208574 -0.296601 -0.419878 0.00702008 0.0929627 -0.292622 -0.235438 0.444728 -0.238892 0.117045 0.249801 0.0179002 -0.130306 -0.0523604 0.170269 -0.214953 0.327066 -0.348372 0.394366 -0.454947 -0.408479 0.265412 0.135801 0.414011 -0.143361 -0.562046 -0.470268 -0.0566253 -0.18813 -0.0450565 -0.540499 0.0968517 0.0442537 0.247383 0.049112 0.105894 -0.144988 -0.493807 -0.0338296 -0.780028 0.177836 -0.325777 -0.293691 -0.379976 0.0788168 -0.338018 0.366781 -0.00880642 -0.812212 0.0411713 0.595127 -0.039354 -0.813592 -0.175501 0.276478 -0.129856 0.243397 0.66761 0.239321 0.0783063 0.497651 -0.692104 0.439158 -0.27404 0.386807 0.280179 -0.0990567 0.370766 -0.168174 0.302905 0.254402 0.0725252 0.0726917
239 -0.575456 -0.330266 -0.539647 -0.481076 0.177882 -0.130939 0.277235 -0.251352 0.157215 0.208228 0.276206 0.225292 0.423212 0.104813 0.215654 0.072132 0.529685 -0.270135 -0.526507 -0.282298 -0.205266 -0.274279 0.232415 -0.0744182 -0.0806737 0.222689 -0.203052 0.290385 0.14744 0.582063 -0.0824286 -0.206621 0.174785 0.128904 -0.312641 0.113047 -0.210352 0.347419 0.208251 0.189086 0.0838979 0.356604 -0.377257 0.259129 0.371164 0.0362487 -0.164401 -0.277105 0.0349733 0.130525 0.734906 -0.105153 0.0473336 0.0668533 -0.222881 0.154188 -0.355713 -0.319324 0.0364495 0.121531 -0.144171 -0.266985 0.299885 -0.168121 0.230933 0.230912 0.0678961 -0.0665753 -0.193243 0.1579 -0.298075 0.301965 -0.294478 0.294813 -0.38023 -0.278209 0.289223 0.0724648 0.346614 -0.141392 -0.501151 -0.402908 0.0406392 -0.300932 -0.0752544 -0.400046 0.171988 -0.125176 0.144014 0.0153606 0.207321 -0.120555 -0.552049 0.0324418 -0.643879 0.127066 -0.191194 -0.199753 -0.222493 0.0627394 -0.314442 0.264237 0.0328977 -0.730957 0.0704528 0.512499 -0.00116789 -0.578345 -0.127447 0.162861 -0.0117078 0.239409 0.481944 0.182061 0.00279436 0.360142 -0.627002 0.37673 -0.332427 0.321917 0.23802 0.143641 0.214133 -0.105491 0.234759 0.228258 -0.0622159 0.0891833
2943 -0.471959 -0.390293 -0.0820527 -0.547333 0.219624 -0.174034 0.343233 -0.220366 -0.0307043 0.237806 0.384716 0.24305 0.204744 -0.112668 0.31315 -0.0204491 0.456171 -0.342374 -0.258203 -0.369144 -0.0759991 -0.170117 0.0582208 -0.00529001 -0.122483 0.259578 -0.0217825 0.00698787 0.307005 0.621814 0.013071 -0.255227 0.0325609 0.181696 -0.13557 -0.0127434 0.173659 0.212488 0.134621 0.144652 -0.134653 0.325159 -0.24104 0.446793 0.553563 -0.124899 -0.0691412 -0.378985 -0.0923647 -0.120324 0.54694 -0.128287 0.00208261 -0.267731 -0.0875192 -0.107945 -0.335157 -0.379237 -0.0866725 0.21091 0.0130888 -0.0696035 0.313862 -0.191469 0.528662 0.135386 0.144526 0.173098 -0.352956 0.0832932 -0.204319 0.380712 -0.326122 -0.0149432 -0.369598 -0.488078 0.400042 0.276401 0.328305 -0.275225 -0.224868 -0.341399 -0.0199462 -0.190156 0.199946 -0.158931 0.0817918 0.0361454 0.0306148 -0.0527722 0.441495 -0.526072 -0.343389 0.098051 -0.223116 0.0709532 0.117533 -0.168947 -0.307896 -0.0562605 -0.10005 0.422104 0.325476 -0.724094 -0.0431209 0.487104 0.136921 -0.168605 -0.0623142 0.0266845 0.179121 0.131313 0.412446 0.0918876 0.259649 0.530974 -0.444336 0.230639 -0.303055 -0.0335112 0.271235 0.245582 0.20414 -0.0868738 0.145058 -0.00766979 -0.0901007 -0.100906
1180 -0.546164 -0.411226 -0.238581 -0.60471 0.0823424 -0.135282 0.253591 -0.0846263 -0.00672793 0.321869 0.359485 0.106158 0.208884 0.165135 0.286962 0.0365069 0.359384 -0.434217 -0.34225 -0.207106 -0.151068 -0.248152 0.100942 -0.013255 -0.0322998 0.166215 -0.0488356 0.00524257 0.405547 0.75248 -0.154156 -0.138905 0.028349 0.196346 -0.168538 -0.0463655 -0.0142744 0.240121 0.275198 0.254294 -0.0986114 0.386819 -0.240867 0.247322 0.406356 -0.00777586 -0.068938 -0.486181 -0.0629752 -0.0845372 0.471082 -0.109178 0.187991 -0.243037 -0.112013 0.0989056 -0.341832 -0.20785 -0.194531 0.263852 -0.0561691 -0.269208 0.283927 -0.0788838 0.332755 0.320173 -0.0236764 0.146839 -0.421754 0.0984994 -0.210919 0.282015 -0.297895 0.124005 -0.415758 -0.520437 0.332415 0.127205 0.183994 -0.272409 -0.413906 -0.190248 0.0612563 -0.29302 0.2682 0.0147872 0.0263923 0.133718 0.148128 0.0332103 0.290874 -0.395174 -0.363175 0.027357 -0.422497 -0.106954 0.0882261 -0.202598 -0.214016 -0.142231 -0.0585719 0.267283 0.0815948 -0.577695 -0.0143264 0.559889 -0.00582212 -0.412356 -0.0741677 -0.123663 -0.00276084 0.0245372 0.444196 0.255016 0.224711 0.445312 -0.576211 0.214154 -0.345861 0.207441 0.149899 0.121529 0.203269 -0.253003 0.306822 0.176552 -0.0490012 -0.130416
891 -0.241937 -0.410826 -0.314071 -0.525584 -0.0475252 -0.138199 0.0870197 -0.0638757 -0.0496812 0.111015 0.397001 -0.0125527 0.37498 -0.0791448 0.14176 -0.2599 0.400145 -0.286514 -0.22595 -0.0534665 -0.181798 -0.0415441 -0.15518 -0.15939 -0.0731981 0.270934 -0.234708 -0.0885876 0.156711 0.478053 -0.172758 -0.164682 0.05174 0.0489076 -0.0889061 -0.135883 0.0829535 0.490142 -0.0997676 0.133134 -0.120294 0.585939 -0.0227425 0.1524 0.52011 -0.122338 -0.110191 -0.110525 -0.144006 -0.313175 0.426246 0.0743408 0.0506829 0.0640232 0.118538 0.0485026 -0.123888 -0.371307 0.15796 0.227729 -0.0189817 -0.0363318 0.00811122 0.00883487 0.489772 0.408168 -0.0677056 0.268596 -0.531828 -0.0760743 -0.439525 0.275543 -0.0886028 0.0877413 -0.589468 -0.243618 0.760734 0.0990024 0.278895 -0.202508 -0.381126 -0.328007 0.27323 -0.413317 0.194137 -0.167179 0.106804 0.0664107 0.0570629 -0.0342865 0.389899 -0.567602 -0.563847 0.0614627 0.0212415 -0.435616 -0.313939 -0.107377 -0.0364325 -0.195978 -0.0585999 0.333568 -0.0379984 -0.24258 -0.0842309 0.311609 -0.0230083 -0.412896 0.157674 0.246995 0.0723754 0.476152 0.333504 0.27386 0.223324 0.625475 -0.594261 -0.0283439 -0.38174 0.0030153 0.0755209 0.376127 0.0375851 -0.0691834 0.522776 0.111596 -0.299039 -0.0421186
2946 0.0144508 -0.27519 -0.0286145 -0.292073 0.0898891 -0.159649 0.43408 -0.266838 -0.255479 -0.0110451 0.348325 0.0694335 0.435234 -0.139097 0.45142 -0.511103 0.554386 -0.221821 0.114155 -0.155268 -0.256832 0.169839 -0.314662 -0.183286 0.0354309 0.218251 -0.185846 -0.050144 0.0973494 0.378425 -0.109242 0.26314 0.0832896 0.197486 0.132657 -0.092743 -0.167269 0.239941 0.0105221 0.35405 0.116823 0.383476 0.166889 0.157468 0.350131 0.214877 0.0432335 -0.329267 -0.0161376 -0.510166 0.172739 0.231005 0.0785922 -0.117912 0.231377 -0.0644441 -0.154781 -0.503026 0.301278 0.279881 -0.0465224 -0.26723 -0.0345291 -0.322435 0.596753 0.420769 -0.280104 0.0829926 -0.488355 -0.268735 -0.0684466 0.148605 -0.247217 0.135731 -0.308223 -0.323631 0.793269 -0.071685 0.198048 -0.12607 -0.259289 -0.0368908 0.205116 -0.218948 0.302235 -0.322245 0.0151489 0.23957 0.187989 -0.0986078 0.358236 -0.441072 -0.424689 -0.0154404 0.0436075 -0.429208 -0.184172 -0.307014 -0.0944587 -0.0693761 0.11393 0.466342 0.0403605 -0.427197 -0.06348 0.356293 -0.0654823 -0.128874 0.294532 0.151137 -0.144788 0.464617 0.292682 0.0830575 -0.102436 0.611588 -0.46012 0.175603 -0.206386 0.0990259 0.0650112 0.301216 0.0546382 -0.197299 0.394617 0.273772 -0.246736 0.185672
688 -0.40295 -0.285308 -0.215597 -0.454541 0.139477 -0.274394 0.192904 -0.286818 -0.0455296 0.0442619 0.388933 0.391731 0.233396 -0.0290455 0.281071 -0.199134 0.60273 -0.186895 -0.0655295 -0.251818 -0.164403 -0.135688 -0.100229 -0.178056 -0.0173296 0.340339 -0.138636 -0.0234428 0.345997 0.643442 -0.075153 0.112765 0.0114006 0.141068 -0.105478 -0.206553 -0.144341 0.452958 0.210632 0.298856 -0.0334856 0.58475 0.215606 0.360353 0.471416 -0.005496 -0.0985032 -0.327937 0.0353905 -0.224453 0.446813 -0.00624612 0.0373853 -0.222329 -0.106035 -0.0161161 -0.242918 -0.278477 0.216281 0.00463025 -0.0855281 -0.228253 0.0968744 -0.126269 0.542275 0.120337 -0.0491687 0.0767314 -0.558792 -0.0685554 -0.206887 0.276374 -0.345627 0.080126 -0.434414 -0.448247 0.705689 0.112571 0.272171 -0.336969 -0.275155 -0.103276 0.137557 -0.338135 0.290133 -0.252454 0.214377 0.0346553 0.178396 -0.106921 0.247868 -0.526583 -0.588079 0.0671631 -0.182033 -0.200434 -0.0620509 -0.181178 -0.102978 -0.0525416 -0.0179714 0.366988 0.141885 -0.668687 -0.0229248 0.431911 -0.00276776 -0.240956 -0.0756461 -0.0382019 0.0416568 0.258858 0.314317 0.297273 0.144559 0.662476 -0.495853 0.157895 -0.275031 0.232081 0.12538 0.122753 0.0108956 -0.285468 0.334752 0.184967 -0.211055 -0.0679784
7167 -0.434618 -0.213435 -0.152012 -0.269645 0.127481 0.0577227 0.175674 0.0219641 0.0595117 0.0377505 0.399226 -0.0312275 0.249997 0.181009 -0.15715 -0.0251955 0.464412 -0.45206 -0.329852 -0.0526254 -0.11838 -0.352345 0.0104578 -0.0515231 0.0965175 0.142158 -0.0512749 0.112945 0.401499 0.383636 -0.137957 -0.0436423 -0.0227126 0.0833565 -0.125944 -0.050951 0.0468085 0.309742 0.106753 0.098133 -0.135783 0.374056 -0.0736196 0.116914 0.289392 0.0940033 0.0339783 -0.392118 0.0868704 -0.0378889 0.361532 -0.238542 -0.0804188 -0.250543 -0.0647617 -0.00223611 -0.140331 -0.21314 0.0222924 0.341393 -0.119911 -0.0407272 0.160137 -0.0850361 0.355957 0.112752 0.0319046 0.247157 -0.0652417 0.121894 -0.177462 0.290731 -0.163005 0.209895 -0.201832 -0.281461 0.469095 0.375718 0.296599 -0.0936261 -0.336959 -0.284601 0.0380336 -0.331398 0.103847 0.0314382 -0.0523757 -0.067247 0.187351 0.00229581 0.363305 -0.387903 -0.525874 0.0953528 -0.321583 -0.153633 0.0526607 -0.279255 -0.0798493 -0.119356 -0.19634 0.373145 -0.0388569 -0.476051 -0.090573 0.5925 0.0735534 -0.275637 -0.00933726 -0.254095 -0.00454799 0.273009 0.239697 0.212179 0.248186 0.419399 -0.478426 0.310746 -0.287714 -0.00772456 0.167733 0.490494 0.0314489 -0.246501 -0.00889191 0.0664639 -0.0751662 -0.0298119
292 0.00616784 -0.05521 -0.0634889 0.042028 0.0191171 0.287458 0.27144 0.0872813 0.0142365 -0.306123 0.47039 -0.103946 0.458887 0.0506006 -0.150202 0.0314595 0.219458 -0.253076 -0.00546505 0.192638 -0.0416923 -0.166226 -0.0500993 -0.0888014 0.292927 -0.20141 -0.0716674 0.172192 0.118923 0.339604 -0.0198103 -0.0738782 -0.13939 0.248089 0.233988 0.00547817 0.11262 0.337094 -0.140623 0.0979307 -0.206687 0.182898 0.0475009 0.051337 0.374586 0.0646094 0.138693 -0.323653 -0.14054 -0.206196 0.0684364 -0.147657 -0.15996 -0.328883 -0.00406384 -0.252618 0.0748788 -0.228202 -0.0271673 0.406486 0.0111458 0.130803 -0.0452853 -0.0568761 0.451907 0.064063 0.0565711 0.162415 -0.343831 -0.234931 -0.101754 0.321582 0.136563 -0.0528422 -0.328156 -0.251125 0.565885 0.310506 0.34646 -0.218392 -0.336011 -0.207557 0.118995 -0.172931 -0.103709 -0.105876 -0.0149947 -0.248629 0.305278 0.103277 0.230592 -0.251748 -0.194424 -0.0209921 0.0863816 -0.252477 0.132924 -0.240032 -0.025819 -0.207137 -0.112955 0.487137 -0.343865 -0.079001 -0.136008 0.291551 0.145121 -0.0544291 0.110133 -0.291511 -0.169391 0.300175 0.192879 0.101283 0.0438481 0.29123 -0.328273 0.120057 0.0442647 -0.256871 0.216776 0.395294 0.0128206 0.0987992 0.183288 0.0591374 -0.177866 -0.0343577
2631 -0.210987 -0.126802 -0.139786 0.159238 -0.0564311 0.0986399 0.152955 -0.10382 0.336626 -0.135005 0.278054 0.172159 0.594055 0.0145155 -0.103773 -0.0954872 0.313354 -0.499617 -0.179608 0.081971 -0.439481 -0.0662998 0.122032 -0.043995 0.531299 -0.19106 -0.12698 0.237712 0.30807 0.465109 0.0662302 -0.0613296 0.137161 0.31702 0.160028 -0.139273 0.228003 0.425907 -0.0852826 0.220088 -0.15117 0.120855 0.0939745 -0.0956177 0.159569 0.101865 -0.042929 -0.317358 0.00676174 -0.0987621 0.124296 0.034722 -0.391124 -0.204457 0.00406673 -0.224349 -0.0140436 0.119119 0.0642693 0.484631 0.0851999 0.211449 -0.348628 0.0685595 0.463177 -0.0725148 0.00951426 0.104944 -0.32212 -0.00115055 0.0877915 0.329488 -0.397698 -0.0669024 -0.423853 -0.298975 0.454732 0.259675 0.416153 -0.201447 -0.15183 0.148736 0.0248987 -0.0688956 0.117445 -0.361152 0.360274 -0.208418 0.344629 0.22468 0.192067 -0.154409 -0.32707 -0.101069 0.00362114 -0.195305 0.0348349 -0.124799 -0.0129051 0.0835855 -0.022679 0.465576 -0.152206 -0.230735 -0.0885267 0.529814 0.152307 -0.0671139 0.248886 -0.59847 -0.0353704 0.508085 0.221526 0.177856 -0.147376 0.461669 0.0329961 0.195524 0.211953 -0.0872698 -0.0686898 0.285291 0.143684 0.0405099 0.0651497 0.174571 0.0596037 0.120095
1164 -0.1594 0.0058474 -0.0113023 0.0200601 0.157601 0.284178 0.145624 0.0125604 0.0051801 -0.265446 0.416766 -0.136378 0.408208 0.111046 -0.26244 -0.0799721 0.325816 -0.389267 -0.156219 0.140776 -0.258006 -0.134775 0.140013 -0.0505507 0.344365 -0.234028 -0.300781 0.171239 0.0868385 0.313882 0.00197504 0.00906239 -0.161159 0.140196 0.14296 0.0118546 -0.0291348 0.284636 -0.0237054 0.146599 -0.386445 0.156541 -0.0155777 0.0198147 0.312014 0.026145 0.0199704 -0.327328 -0.103676 -0.0954287 0.12922 -0.105864 -0.169961 -0.248914 0.141615 -0.176213 0.0176776 -0.194066 -0.112981 0.275917 -0.0156268 0.0143765 -0.0826888 -0.0475978 0.220903 0.0833379 0.0963428 0.0898472 0.0114205 -0.203411 -0.0921752 0.377391 -0.071962 -0.0801575 -0.26958 -0.305513 0.486356 0.369875 0.314745 -0.236633 -0.353564 -0.00125864 0.0934835 -0.087 0.0775552 -0.0352136 -0.0677032 -0.296618 0.228964 0.174409 0.190964 -0.325567 -0.121847 -0.0118271 -0.0744501 -0.323842 0.0770442 -0.178501 -0.146271 -0.0279188 -0.0247318 0.444566 -0.206351 -0.159456 -0.180678 0.327501 0.210253 0.0213367 0.140215 -0.312996 -0.235621 0.234544 0.198093 0.121599 -0.148353 0.361245 -0.21163 0.049251 0.041126 -0.122309 0.0898375 0.380334 0.00382865 -0.00457808 0.11659 -0.0186602 -0.111098 0.0042755
5625 -0.0775625 -0.0815067 0.0632699 -0.0496858 0.113204 0.236855 0.116462 0.0512714 0.14521 -0.170679 0.441944 -0.186849 0.425922 0.123023 -0.29118 -0.036782 0.352041 -0.476991 -0.110826 0.135214 -0.191767 -0.226931 0.0841094 0.0294001 0.386594 -0.229561 -0.316094 0.198639 0.281217 0.263716 -0.0268432 0.026266 -0.118696 0.214893 0.181315 0.0924163 0.0433429 0.315384 -0.0196044 0.169159 -0.370389 0.0974632 -0.0221716 -0.0995167 0.288932 0.066914 -0.0233621 -0.239042 -0.0525069 -0.0219858 0.0622242 -0.150425 -0.153352 -0.328705 0.267584 -0.256076 0.140576 -0.183204 -0.0767237 0.428789 -0.143775 0.0577667 -0.107615 -0.0980172 0.133968 0.0370719 0.0887414 0.17741 -0.153491 -0.192461 -0.0510382 0.372172 -0.155173 -0.0581776 -0.34869 -0.290664 0.510775 0.399096 0.385922 -0.234161 -0.325237 0.0880461 0.0216511 -0.0143359 0.0109273 -0.0935957 -0.0134588 -0.288221 0.238026 0.165454 0.213606 -0.236262 -0.178854 -0.0713046 -0.00190034 -0.30169 0.159471 -0.0802728 -0.0912423 -0.0347899 -0.0345566 0.463274 -0.216101 -0.165622 -0.0991665 0.353921 0.321331 0.131221 0.215706 -0.396358 -0.206406 0.354135 0.0570907 0.19031 -0.192448 0.342166 -0.126992 0.177205 0.00397001 -0.0796974 0.203147 0.474658 0.0528617 -0.132758 0.206779 -0.0603708 -0.0979629 0.00294532
801 -0.214984 -0.0495428 0.0642552 -0.0141161 0.149751 0.2555 0.14438 -0.0526566 0.0731544 -0.240562 0.474172 -0.170753 0.426952 0.145185 -0.265681 -0.100087 0.407177 -0.541118 -0.189152 0.0210493 -0.250848 -0.182894 0.0849568 0.0261699 0.379678 -0.139224 -0.24774 0.183005 0.188927 0.258459 -0.11031 0.0205846 -0.164122 0.0990332 0.102208 -0.00669287 0.00294984 0.300155 0.0229433 0.102226 -0.270458 0.162412 -0.0202801 -0.041886 0.307597 0.0787086 0.00859487 -0.324126 -0.0186843 -0.0799815 0.254448 -0.18964 -0.15119 -0.297553 0.189976 -0.218413 -0.0327945 -0.157827 0.0346351 0.283706 -0.0713251 0.195269 -0.0860389 -0.0677231 0.0789096 -0.047431 0.00433217 0.084679 -0.109154 -0.12757 -0.162772 0.388052 -0.134132 0.0161327 -0.297262 -0.317683 0.532482 0.325429 0.368246 -0.276774 -0.34781 0.122821 0.0831763 -0.0841678 -0.000543711 -0.0664281 -0.0910521 -0.235661 0.285855 0.215873 0.283126 -0.30002 -0.292531 -0.0108178 -0.0507811 -0.261285 0.132769 -0.250972 -0.128025 -0.0933453 -0.10996 0.495271 -0.248505 -0.213399 -0.109609 0.42829 0.288507 -0.0315687 0.0916801 -0.373749 -0.21375 0.465772 0.153923 0.162187 -0.112693 0.336032 -0.267154 0.109381 0.0122035 -0.117808 0.258626 0.539549 0.112941 -0.0321784 0.0550868 -0.0955831 -0.00341253 0.0742886
7691 -0.10843 -0.0472914 -0.010152 -0.110834 0.273924 0.206478 0.189718 -0.0295309 0.106376 -0.22031 0.47765 -0.128855 0.393557 0.156173 -0.27008 -0.0596537 0.270687 -0.447293 -0.147989 0.0852424 -0.209629 -0.182865 0.156767 -0.0520552 0.365581 -0.0869303 -0.197686 0.169739 0.140601 0.329236 -0.0654006 0.00151488 -0.178983 0.0754845 0.15172 -0.0222828 -0.00620791 0.356259 -0.0229224 0.149118 -0.347131 0.276428 -0.0166476 0.0533126 0.159168 0.10606 -0.0418101 -0.29956 -0.0677874 -0.0898901 0.149766 -0.14184 -0.167472 -0.311373 0.155508 -0.148905 0.0722781 -0.183227 -0.0383829 0.271742 -0.0532077 0.0611751 -0.0518315 -0.0662435 0.165353 0.0526464 0.13416 0.10372 -0.0981315 -0.0975626 -0.109879 0.40715 -0.0559486 -0.0635274 -0.217442 -0.277677 0.516904 0.397722 0.33156 -0.250447 -0.453075 -0.0862844 0.0357451 -0.0792867 0.0428982 -0.0401167 0.0439476 -0.314368 0.216641 0.202509 0.254884 -0.309796 -0.400534 0.0426101 -0.0475297 -0.299395 0.112868 -0.148634 -0.108344 -0.0313006 -0.128631 0.406502 -0.249398 -0.20842 -0.107636 0.329466 0.233225 -0.00948936 0.250422 -0.404566 -0.240714 0.322025 0.0648256 0.142273 -0.17042 0.403064 -0.186855 0.18469 -0.00750883 -0.0495149 0.12552 0.429336 -0.024895 -0.0820967 0.0235003 -0.0587465 -0.0221411 -0.021117
1538 -0.141616 0.0469156 0.0325197 0.174558 0.247007 0.327044 0.0755111 -0.0615282 0.166188 -0.289397 0.321959 -0.120448 0.427686 0.0337814 -0.365172 0.0487625 0.415935 -0.482565 -0.208157 0.0958717 -0.208011 -0.242568 0.117871 0.0195736 0.366113 -0.0763717 -0.172003 0.154867 0.150839 0.145979 -0.0724346 -0.0425618 -0.155381 0.228782 0.214683 -0.031782 -0.0329977 0.181801 -0.0621207 0.124151 -0.392414 0.0813724 0.0235261 0.00410149 0.166773 0.122127 -0.0191414 -0.27599 -0.0284007 -0.0943716 0.147532 -0.110158 -0.181606 -0.243579 0.278135 -0.187751 0.0289468 -0.143111 -0.0167114 0.27867 0.0539777 0.171676 -0.0587502 -0.0318239 0.169223 -0.080955 0.104935 0.0285979 0.0250591 -0.140269 0.00333049 0.416995 -0.13593 -0.121314 -0.319736 -0.242673 0.495834 0.357976 0.332797 -0.211982 -0.274787 0.153717 0.174022 -0.0367162 -0.0383295 -0.112003 -0.168006 -0.212808 0.31458 0.146668 0.27266 -0.246069 -0.162956 -0.0540439 -0.097866 -0.251898 0.11454 -0.231198 -0.0902325 -0.0985413 -0.106455 0.522009 -0.37317 -0.19476 -0.0580512 0.382228 0.349883 0.0696397 0.114195 -0.528759 -0.274812 0.305711 0.189898 0.142601 -0.0616964 0.349648 -0.129216 0.151171 0.0766022 -0.213989 0.234275 0.439147 0.27868 0.0597803 0.0696564 -0.0430654 -0.109507 0.0969273
7797 -0.112324 0.0108057 0.0921285 0.0107277 0.201389 0.315218 0.232471 0.0891224 0.0168497 -0.21534 0.419007 -0.164141 0.359702 0.0742441 -0.26346 -0.00762007 0.443214 -0.475567 -0.16883 0.0614994 -0.0949065 -0.207087 0.105318 0.0568273 0.298915 -0.208901 -0.223759 0.179748 0.140762 0.294996 -0.100189 0.01483 -0.196332 0.170125 0.115892 -0.000903443 0.0953469 0.33653 0.0214668 0.198059 -0.331743 0.187065 0.0122021 -0.0230712 0.199756 0.0733222 0.0386407 -0.362719 -0.053208 0.0260934 0.121919 -0.247283 -0.186438 -0.283237 0.163543 -0.23578 0.06246 -0.0702906 -0.0748517 0.350958 0.0307874 0.0822196 -0.0603366 -0.0181483 0.186671 -0.0457898 0.132334 0.157939 -0.0920144 -0.154016 -0.0964892 0.393274 -0.168658 0.0275707 -0.244312 -0.293262 0.42666 0.481113 0.317246 -0.132046 -0.313696 -0.00910253 0.0765593 -0.0913204 0.0078637 -0.0998262 -0.157305 -0.320988 0.195229 0.138574 0.199132 -0.340852 -0.222908 0.0412058 -0.0628871 -0.255933 0.118771 -0.13142 -0.0848644 0.000592547 -0.104101 0.403455 -0.117842 -0.136903 -0.103865 0.294813 0.246933 0.0394418 0.103511 -0.375457 -0.203406 0.244396 0.152287 0.0761709 -0.0397125 0.303351 -0.291927 0.133238 -0.0280862 -0.0569437 0.0924288 0.566874 0.0684364 -0.0519714 -0.00164351 0.0332929 -0.0502887 -0.0456012
4678 -0.075062 -0.016386 0.0422824 -0.0353194 0.154751 0.240139 0.187872 -0.0720814 0.0750059 -0.233257 0.451132 -0.118407 0.463276 0.180071 -0.384131 0.0205038 0.36941 -0.512009 -0.173352 0.17637 -0.170749 -0.183478 0.135386 -0.0414914 0.433771 -0.131234 -0.204574 0.222171 0.18498 0.277079 -0.0680861 0.0941011 -0.257229 0.1932 0.200936 0.0644293 -0.00477388 0.366762 0.056092 0.084791 -0.326792 0.22025 0.0154887 0.0422093 0.20255 0.163022 -0.00554659 -0.340979 -0.0225705 -0.0581532 0.128489 -0.209622 -0.174692 -0.444582 0.164914 -0.260072 0.0547443 -0.131517 0.0311925 0.3638 -0.0392598 0.144734 -0.0976675 -0.0731619 0.150321 -0.00609362 0.0628546 0.119292 -0.0571924 -0.155069 -0.0466905 0.408394 -0.152461 -0.0700045 -0.28674 -0.352574 0.567448 0.428738 0.40656 -0.329315 -0.403382 -0.0147111 0.00464865 -0.0913486 0.0329335 -0.0944074 -0.071304 -0.266012 0.244253 0.154124 0.208641 -0.274251 -0.256893 0.0349444 -0.0588913 -0.228295 0.147405 -0.162376 -0.165937 -0.0922392 -0.109038 0.50851 -0.287335 -0.197791 -0.113657 0.354645 0.282474 0.0852781 0.107762 -0.384036 -0.2771 0.343346 0.0460455 0.267894 -0.13238 0.329124 -0.167615 0.237267 0.00085873 -0.0566188 0.263805 0.5241 0.017693 -0.111813 0.119064 -0.0218804 -0.0565405 -0.00203701
3218 -0.141551 0.0114934 -0.096704 0.0437686 0.228684 0.314582 0.26521 -0.0734226 -0.0338342 -0.205289 0.514265 -0.0388001 0.465298 0.104628 -0.319903 -0.125482 0.329358 -0.520083 -0.128893 0.110866 -0.18345 -0.249589 0.115427 -0.0189985 0.316291 -0.162323 -0.182202 0.210466 0.165336 0.27386 -0.0422755 0.0731636 -0.16594 0.184443 0.108037 0.00409662 0.0625124 0.336006 -0.0108941 0.190425 -0.331326 0.161042 -0.0293822 0.0208404 0.173192 0.151219 -0.0607325 -0.346458 0.00941063 -0.177168 0.0783042 -0.220621 -0.260423 -0.372297 0.212066 -0.147699 -0.0136222 -0.219647 -0.0128548 0.450554 -0.0056277 0.152431 -0.0356414 -0.115594 0.235135 0.0120258 0.018652 0.154531 -0.0714473 -0.159302 -0.0386166 0.397281 -0.087109 -0.0920054 -0.283293 -0.249086 0.464496 0.42749 0.284765 -0.282008 -0.346694 -0.0465569 -0.0171846 -0.00185184 0.0560682 -0.102645 -0.121774 -0.204955 0.319514 0.188452 0.263945 -0.359175 -0.234086 -0.0377976 0.00218055 -0.285499 0.0317676 -0.0535656 -0.124224 -0.109115 -0.0950931 0.445756 -0.231458 -0.253982 -0.102237 0.363604 0.167721 0.0167455 0.0524847 -0.375619 -0.254313 0.33068 0.141234 0.0341465 -0.0132702 0.357048 -0.312808 0.174835 0.0207477 -0.157821 0.0934147 0.483534 0.0883545 -0.0347371 0.130205 0.151254 -0.0605217 -0.0367123
3108 -0.184881 -0.190125 -0.046554 -0.0909356 -0.0481425 0.0524472 0.182009 -0.218509 0.0826637 -0.0799359 0.288492 0.102229 0.719899 0.0438201 0.0204939 -0.055381 0.251173 -0.43058 -0.133422 -0.0764021 -0.095646 0.0170167 0.0378536 -0.0283233 0.53944 -0.0817102 -0.0337898 0.29627 0.408897 0.334442 0.0431835 -0.0103658 0.128739 0.374644 0.0877591 -0.0951441 0.23965 0.280124 0.063448 0.247339 -0.165475 0.0520586 0.027428 -0.210022 0.197054 0.0150516 -0.109762 -0.24632 -0.0753715 -0.0569558 0.020686 -0.0478778 -0.364544 -0.231445 0.114602 -0.275565 -0.0183652 -0.0221256 -0.0614964 0.389204 -0.0380797 0.14665 -0.322288 0.0124939 0.41051 0.0835034 -0.0976488 0.0149047 -0.568597 -0.194594 0.210775 0.385109 -0.350954 -0.212622 -0.533002 -0.193793 0.56363 0.321984 0.350757 -0.425304 -0.307601 0.0490941 0.0165374 -0.0266279 0.214204 -0.293494 0.258793 -0.0346218 0.375605 0.294965 0.192354 -0.132643 -0.179127 -0.16365 -0.0682216 -0.336122 0.0230704 -0.124312 -0.157196 0.0146711 -0.0039664 0.461648 -0.13365 -0.280559 -0.205518 0.359985 0.213323 0.111565 0.248384 -0.430137 -0.0825335 0.431 0.165803 0.129568 -0.143113 0.341907 0.0938999 0.135282 0.0886105 -0.10677 0.126195 0.293906 0.218721 0.00376833 0.192694 0.210602 -0.0336343 0.156992
313 -0.0350241 0.057938 0.0417456 0.0323102 0.213875 0.346852 0.203189 -0.0637176 0.0178943 -0.248765 0.402406 -0.177542 0.450035 0.0863992 -0.27408 -0.0480352 0.332452 -0.494508 -0.152418 0.092813 -0.14272 -0.308743 0.143971 -0.0298317 0.289528 -0.184492 -0.16725 0.136101 0.209846 0.171751 -0.100374 0.04613 -0.141293 0.0952254 0.127407 0.0526991 -0.00339357 0.259257 -0.0885121 0.175433 -0.304225 0.184486 -0.00256719 -0.00324767 0.162859 0.0687779 -0.0514271 -0.374546 -0.0425157 -0.142773 0.127018 -0.190094 -0.237669 -0.216003 0.28885 -0.225372 0.0552544 -0.209397 0.00597645 0.41053 -0.106775 0.064483 -0.0763696 -0.0857812 0.187549 0.0497414 0.0647308 0.177134 0.0108573 -0.172649 -0.0906461 0.34897 -0.0736052 -0.0297026 -0.169006 -0.283372 0.579747 0.445159 0.354259 -0.229029 -0.386677 -0.0685872 0.0800042 -0.0514947 0.0124143 -0.0805772 -0.0586701 -0.270293 0.238954 0.128709 0.304311 -0.336244 -0.261286 -0.0228004 -0.0258615 -0.256961 0.0820265 -0.123254 -0.135364 -0.0202497 -0.0463105 0.471004 -0.242588 -0.193453 -0.136293 0.33673 0.268343 0.0475439 0.124268 -0.317205 -0.277525 0.35538 0.114112 0.0513625 -0.130165 0.366676 -0.334187 0.0903536 0.00462814 -0.203299 0.217015 0.52762 0.1562 -0.0311315 0.0495643 0.0356248 -0.105559 -0.0113856
745 -0.323735 -0.286305 -0.191583 -0.390414 0.121991 -0.0176629 0.304378 -0.077472 0.0875212 0.0188346 0.441231 0.00492173 0.310679 0.327546 0.0134259 0.0452471 0.224139 -0.483892 -0.428059 -0.0747535 -0.196296 -0.420237 0.138273 -0.106034 0.167151 0.145296 -0.0877424 0.137966 0.471323 0.610431 -0.0284738 0.00408559 0.0369122 0.0218341 -0.0884132 -0.109833 0.00442988 0.317189 0.104319 0.138638 -0.174689 0.32603 -0.0397919 0.160888 0.308445 -0.0225751 0.0337395 -0.37397 0.00774619 0.00291476 0.385697 -0.28257 -0.0848973 -0.277915 0.0158836 0.0617305 -0.0344017 -0.126862 -0.0141325 0.241293 -0.130851 -0.0561808 0.169202 -0.144009 0.386636 0.15882 -0.0606969 0.236499 0.0115378 0.117884 -0.0730973 0.368578 -0.174237 0.135788 -0.183701 -0.356228 0.552264 0.364378 0.319084 -0.1295 -0.349913 -0.256596 0.12201 -0.338046 0.239854 0.0509888 -0.0555911 -0.104628 0.183219 0.03232 0.449359 -0.325412 -0.404428 -0.0296932 -0.288004 -0.172689 0.0125445 -0.289786 -0.0511926 -0.00987316 -0.136786 0.283043 0.0221223 -0.479755 -0.0525917 0.513969 0.0730881 -0.30649 -0.025544 -0.336823 -0.0901621 0.260574 0.253518 0.243583 0.0257129 0.487157 -0.48135 0.21952 -0.257481 0.045649 0.242493 0.337538 0.0631273 -0.24403 0.156849 -0.0088586 -0.0360557 -0.087144
1763 -0.0455162 -0.0870074 0.180623 -0.18969 0.159787 0.109942 0.0345682 -0.0400424 -0.256116 -0.272275 0.302634 0.187641 0.871765 0.141319 -0.299808 0.0512895 -0.0298843 -0.156976 0.069262 0.121547 0.0496105 -0.347598 0.116752 -0.187976 0.359351 -0.0850571 -0.237653 0.407418 0.0481019 -0.0706363 -0.102545 0.139668 0.0747193 0.309376 0.277734 0.413118 0.0420481 0.509068 0.21599 0.132281 -0.474496 0.221246 -0.114162 0.138644 0.0801251 0.20972 0.0488781 -0.255047 -0.260205 -0.306693 0.135416 -0.529231 -0.278097 -0.527844 0.293657 -0.236434 0.08042 -0.338633 -0.146898 0.57307 0.0221096 0.404807 0.158741 -0.0213067 0.0969581 -0.0722538 -0.127137 0.296585 -0.125336 -0.289401 0.0871552 0.752653 -0.151255 -0.103052 -0.655169 -0.147763 0.549426 0.137761 0.34522 -0.608195 -0.303947 -0.0348054 -0.113868 -0.187083 -0.0908199 -0.153576 0.026704 -0.038783 0.416037 0.23086 0.426712 -0.0735102 -0.219028 0.071846 -0.0872802 -0.238027 0.209217 -0.305165 0.0117804 -0.0214881 0.113557 0.739976 -0.303646 -0.149554 -0.144427 0.241813 0.161542 -0.283536 0.157233 -0.25851 -0.174272 0.432729 0.354333 0.313962 -0.175933 0.425027 -0.15738 0.226291 -0.0664864 0.144665 0.220201 0.288318 -0.0923236 0.262764 0.12758 -0.109829 -0.0911104 -0.0324736
76 -0.346798 -0.518939 0.131425 -0.531436 -0.0373915 0.154087 0.365262 0.169559 0.146543 0.0525881 -0.0207101 0.259669 0.190792 -0.114423 -0.0272232 0.187114 0.104563 -0.188107 -0.166025 0.187165 -0.310082 -0.0194544 -0.155476 0.344119 0.373775 -0.198338 -0.258727 0.391092 0.243663 0.329667 -0.129445 -0.310395 -0.226131 -0.00553798 0.103969 -0.0480368 -0.176058 0.245041 0.220855 0.17529 -0.289265 -0.142168 0.0800816 -0.155705 0.774899 0.0247426 0.219144 -0.278132 0.0806333 -0.0870707 -0.171471 -0.358 0.104318 -0.439063 0.252351 -0.25983 0.0245077 -0.25264 0.0888813 0.0732872 -0.150547 -0.445578 -0.0790782 -0.385931 0.540239 0.26814 -0.317051 0.123023 -0.47486 -0.534494 0.0539694 -0.134357 0.234408 0.138924 -0.759043 -0.162284 0.562787 0.283021 0.431994 0.0743642 -0.21705 0.163923 0.0284762 -0.0344113 -0.0506288 -0.254758 -0.435971 0.0376039 0.138639 -0.268126 0.290489 -0.283425 0.110769 -0.0680718 -0.129542 -0.269178 -0.0370295 -0.332992 -0.342753 -0.0873463 0.0835047 0.606451 -0.426325 -0.466181 -0.359975 0.218069 0.191511 0.0421415 -0.0917311 -0.387138 -0.052971 0.451024 0.190565 0.134851 -0.0541171 0.29228 -0.216809 0.204593 -0.0415227 -0.162092 0.362953 0.476076 0.304992 0.210015 0.0790603 0.135388 -0.076123 -0.200168
1405 -0.460379 -0.41887 0.0256316 -0.370254 -0.217852 0.145857 0.196051 0.134768 0.20806 0.225181 -0.00435753 0.15501 0.156068 -0.0531057 -0.12936 0.332052 0.330472 -0.203994 -0.245389 -0.0261004 0.0339683 -0.175016 -0.22607 0.403344 0.10728 -0.054056 -0.134121 0.452656 0.508208 0.147982 -0.116589 -0.315122 -0.108654 0.244467 -0.122134 -0.00248304 -0.239837 0.27852 0.168632 0.0491207 -0.129169 -0.27639 0.0949991 -0.121063 0.597553 0.122096 0.131392 -0.163215 0.177293 -0.0605135 -0.320354 -0.49738 0.0428905 -0.48174 0.12272 -0.228824 -0.0434103 -0.207042 0.249897 0.18953 -0.138776 -0.25832 0.10232 -0.528685 0.647506 0.272135 -0.43844 0.318783 -0.52451 -0.480306 0.118689 -0.259296 0.102069 0.111319 -0.714705 -0.0990314 0.457657 0.412504 0.383638 -0.145138 -0.211568 -0.0102455 -0.0645993 -0.279115 -0.0957346 -0.228756 -0.463053 0.223432 0.202762 -0.207765 0.369709 -0.179856 0.0609529 -0.0256385 -0.147335 -0.302783 -0.148633 -0.151781 -0.368905 0.0602944 -0.125915 0.574634 -0.228221 -0.744333 -0.110974 0.152086 0.0996971 0.0156855 -0.363951 -0.182244 0.256525 0.384311 0.265683 0.120355 0.322491 0.124708 -0.598489 0.527637 -0.295084 -0.175217 0.279959 0.591214 0.257547 0.000913054 0.250935 0.14662 -0.439822 -0.0789722
764 -0.215326 -0.257915 0.0499463 -0.307452 -0.241753 0.186175 -0.0538743 0.0907297 0.0744294 0.240482 -0.163004 0.090176 0.153578 0.172173 -0.343506 0.420588 0.290073 -0.0992819 -0.222349 -0.0129228 0.318983 -0.231655 -0.192434 0.342091 0.205809 0.0703994 -0.233067 0.260187 0.471299 0.0746735 -0.0852643 -0.373812 -0.0912477 0.320341 -0.184779 -0.166551 -0.267922 0.449838 0.237138 -0.210879 -0.108423 -0.319178 0.134359 -0.0426951 0.588818 -0.0601329 0.00606651 -0.345361 0.158923 -0.065017 -0.289217 -0.662792 0.0824636 -0.474111 0.244827 -0.161246 0.0820409 -0.168101 0.326727 0.252292 -0.190919 -0.0701669 0.00648845 -0.453811 0.377489 0.030933 -0.433124 0.305748 -0.798053 -0.609773 0.163065 -0.126631 0.102362 0.204858 -0.720279 -0.0541673 0.436092 0.437876 0.419103 -0.151355 -0.0682532 0.365029 0.0194441 -0.120212 -0.0874405 -0.305797 -0.520046 0.0560333 0.119396 -0.229087 0.511109 -0.183501 0.283535 -0.0529146 -0.266429 -0.362248 -0.349398 -0.206832 -0.344174 -0.106522 -0.0774087 0.492704 -0.368798 -0.650016 -0.0370747 0.183543 0.166845 -0.0614195 -0.311741 -0.351734 0.0389114 0.46389 0.304468 0.120603 0.300456 0.0798007 -0.55298 0.294661 -0.235697 -0.259993 0.30817 0.624649 0.389988 0.065232 0.235128 -0.0585546 -0.422151 -0.105106
4168 -0.341636 -0.0388473 0.292474 -0.204206 -0.0559536 0.163534 -0.154819 0.24295 -0.220655 0.109942 -0.00979781 -0.0291488 0.392691 0.172355 -0.200276 0.147514 0.583646 -0.245108 -0.216852 0.101584 0.610618 -0.364148 -0.184259 0.200193 0.202764 0.0101333 -0.300375 0.435741 0.58778 0.123289 -0.239704 -0.0487934 -0.10325 0.340716 -0.00138587 -0.0887675 -0.018256 0.334322 -0.0131606 -0.128264 -0.199888 -0.283232 0.0126803 -0.238311 0.413323 0.0907349 -0.0184642 -0.160121 0.271285 -0.141431 -0.269962 -0.467443 -0.0417276 -0.406209 0.356625 -0.0124697 0.222542 -0.104119 0.317269 0.364758 -0.322277 0.0445108 -0.109557 -0.545619 0.172668 -0.100108 -0.421086 0.148589 -0.993414 -0.752499 0.003792 0.0543887 -0.0850558 0.215009 -0.367446 -0.198741 0.492598 0.485235 0.536242 -0.262611 -0.202203 0.608774 -0.0247895 0.0500714 -0.024541 -0.15482 -0.405023 0.183525 0.102335 -0.0426785 0.353549 -0.0961445 0.224345 -0.0549549 -0.271034 -0.498218 -0.114786 -0.390604 -0.249215 -0.149333 -0.125868 0.494952 -0.198257 -0.507531 -0.227714 0.28124 -0.00301569 -0.20864 -0.266591 -0.46614 0.0197212 0.408914 0.229119 0.0544501 0.0938479 0.0875314 -0.590995 0.138349 -0.20385 -0.255211 0.156805 0.685384 0.658917 -0.00268438 0.168303 -0.179445 -0.249815 0.187883
316 -0.187183 0.0821121 0.174344 -0.0558631 -0.0526735 0.41473 -0.0690888 0.180606 -0.177045 -0.0887383 0.301252 -0.147164 0.457494 0.136447 -0.281875 0.0182686 0.537818 -0.340632 -0.154926 0.139208 0.453468 -0.286792 -0.0858617 0.142021 0.305558 -0.183412 -0.395487 0.551688 0.32603 0.0874964 -0.16134 -0.0615857 -0.179598 0.2791 -0.00897177 -0.0663205 -0.0273215 0.45302 -0.00709487 -0.042296 -0.296949 -0.0849886 0.0514259 -0.154152 0.301192 0.134594 0.0844304 -0.10047 0.179285 -0.00913183 -0.250832 -0.492631 -0.175051 -0.46257 0.233477 -0.0644054 0.141331 -0.0256184 0.15709 0.354434 -0.247813 0.192509 -0.0852337 -0.366126 0.10789 -0.117538 -0.290259 0.192971 -0.790086 -0.755397 -0.157279 0.20226 -0.0204685 0.0741249 -0.385908 -0.184279 0.344348 0.526652 0.492696 -0.308229 -0.35993 0.320098 -0.146709 -0.124228 -0.10829 -0.127515 -0.402831 0.0329115 0.233931 0.142864 0.17523 -0.212056 0.0329338 -0.0422387 -0.240838 -0.421018 -0.167168 -0.368716 -0.236142 -0.0149396 -0.304695 0.596196 -0.165033 -0.384478 -0.152496 0.367997 0.0135452 -0.171305 -0.175445 -0.460787 -0.00425823 0.34303 0.213801 0.112181 0.0790298 0.0368975 -0.527115 0.251144 -0.116092 -0.13473 0.173254 0.765671 0.313831 -0.105 0.133384 -0.203043 -0.126245 0.0356831
7789 -0.0266745 0.065629 0.0773574 0.0575136 0.0990658 0.200429 0.11283 0.0379788 -0.029417 -0.185302 0.452031 -0.120305 0.409927 0.0782799 -0.369329 -0.114174 0.315275 -0.362151 -0.0872627 0.0601742 -0.194164 -0.232779 0.121722 0.0699506 0.365831 -0.135783 -0.244009 0.248674 0.124797 0.213115 -0.0517012 0.102109 -0.267693 0.277418 0.206644 0.0771265 -0.011951 0.410616 -0.00671701 0.185001 -0.445266 0.189117 0.0304226 0.0134804 0.206134 0.200108 0.0156921 -0.273366 0.0668925 -0.0810982 0.113659 -0.232174 -0.270339 -0.413995 0.226315 -0.211193 0.103849 -0.2431 -0.0806891 0.347984 -0.0440473 0.0970741 -0.0558273 -0.164988 0.174204 -0.0575217 0.100667 0.172815 -0.0779083 -0.138552 0.0177753 0.3716 -0.191194 -0.00422871 -0.30718 -0.307309 0.443928 0.453344 0.342075 -0.24642 -0.304375 -0.0103934 0.0246683 0.0253608 0.0507733 -0.158763 -0.14099 -0.221215 0.285185 0.118494 0.20711 -0.324634 -0.235104 0.0145076 0.0856149 -0.289226 0.136774 -0.138794 -0.119265 -0.107245 -0.0782304 0.412432 -0.26734 -0.145172 -0.140747 0.246625 0.250659 0.11052 0.0328413 -0.383593 -0.255713 0.306111 0.0493121 0.11401 -0.11284 0.390929 -0.21417 0.183987 0.00709384 -0.0388208 0.111798 0.511175 0.0156099 -0.152833 0.0244725 0.0648843 0.0349107 -0.034944
5287 -0.250911 -0.129537 0.0656901 -0.272095 0.288448 0.0720961 0.161262 -0.103074 -0.239428 -0.138974 0.397237 -0.00329957 0.63232 -0.238891 -0.055589 -0.409338 0.376342 -0.406739 0.0279746 0.0242365 -0.0695528 0.155857 -0.0894068 0.00212492 0.0805602 0.00966469 -0.304115 0.10939 0.179896 0.302946 -0.30564 -0.00367687 -0.017518 0.23085 0.00472374 -0.115659 -0.000773666 0.311084 -0.00849797 0.163664 -0.24251 0.36959 0.043195 -0.0801602 0.363303 -0.0383669 -0.17197 -0.250784 -0.0348058 -0.254042 0.0870942 0.0210216 -0.05966 -0.153866 0.110843 -0.0852405 0.23874 -0.288859 0.0204585 0.196638 -0.0507505 -0.0587972 -0.150805 0.00406265 0.458441 0.318832 -0.136131 0.158576 -0.401383 -0.358113 -0.174331 0.296767 -0.103514 0.0377616 -0.437802 -0.302241 0.624164 0.357079 0.218662 -0.251336 -0.373795 -0.0497341 0.123624 -0.105768 0.295821 -0.0264187 -0.177968 0.148449 0.121538 0.0288557 0.261274 -0.585515 -0.313226 -0.156296 0.0449793 -0.620909 -0.00213846 0.0240486 -0.0338962 0.0103144 0.197353 0.27239 -0.137641 -0.256041 -0.0480146 0.0881103 0.156327 -0.0599741 0.186565 -0.032379 -0.21594 0.383153 0.144345 0.233903 0.122586 0.555833 -0.486718 -0.163725 -0.163539 0.0475862 -0.00820467 0.43718 -0.0299627 -0.119261 0.432561 0.0403967 -0.127169 0.102003
613 -0.111824 -0.146133 -0.0675853 -0.301193 -0.00610688 0.190358 0.206609 -0.0909443 -0.0501823 -0.190141 0.430917 0.0811272 0.582442 -0.122159 -0.0107784 -0.222347 0.159683 -0.327882 -0.0666258 -0.147409 0.0157933 0.124306 0.0926089 -0.191505 0.10299 -0.240054 -0.0159754 0.305818 0.381094 0.23699 -0.013106 -0.0234236 0.0435525 0.385046 -0.00558735 -0.112428 -0.0319213 0.293143 0.0717689 -0.0443402 -0.12414 -0.0450707 0.201075 -0.104397 0.258823 -0.0775891 -0.0530177 -0.18633 0.0284838 -0.190919 0.0273055 -0.00840938 0.00226037 -0.154185 0.094246 -0.169271 0.060046 -0.210534 0.0427463 0.208477 -0.21103 -0.0777622 -0.125101 -0.176564 0.525052 0.124306 -0.210721 -0.0401662 -0.491644 -0.334383 0.153764 0.206869 -0.00813962 -0.317225 -0.605131 -0.0625324 0.461807 0.339349 0.225184 -0.392884 -0.249852 -0.335357 0.186563 -0.0780245 0.321079 -0.118201 0.053951 0.0222562 0.302006 0.239909 0.101744 -0.308799 -0.224034 -0.166585 -0.0786028 -0.518431 -0.00214822 -0.064538 -0.18211 -0.0353288 0.196819 0.515039 -0.40927 -0.159509 -0.15103 0.360543 0.335434 -0.129782 0.0771208 -0.173498 -0.0066072 0.221179 0.19867 0.240665 0.050055 0.295182 -0.0847364 -0.104765 0.140731 -0.240794 0.293093 0.408083 0.289586 -0.0649453 0.46839 0.150869 -0.348996 0.00208619
15231 -0.132839 -0.217526 -0.175164 -0.442875 0.0789127 0.174214 0.251414 -0.199394 -0.0789019 -0.143241 0.462167 0.0425885 0.557703 -0.187138 0.154231 -0.165747 0.191446 -0.434808 -0.175646 -0.37296 0.223945 0.0914903 -0.0660121 -0.109509 0.193664 -0.0674455 -0.0676303 0.319885 0.353156 0.245439 -0.0539403 -0.0284679 -0.0165094 0.267812 -0.0899731 -0.158655 -0.029448 0.184768 0.221955 0.162928 -0.232656 0.00731655 0.0820189 -0.21006 0.250481 -0.117449 -0.1642 -0.218177 -0.133322 0.0991201 -0.00254288 0.0049118 -0.0872622 -0.0956338 0.226255 -0.192632 0.0802085 -0.183956 -0.0501289 0.1617 -0.161714 -0.191864 -0.300153 -0.229194 0.460429 0.229 -0.246423 -0.131109 -0.577749 -0.36436 0.26188 0.0188889 -0.126579 -0.26154 -0.475532 -0.116571 0.5458 0.349509 0.220447 -0.28121 -0.453739 -0.112581 0.132063 -0.094467 0.236541 -0.136161 0.0264561 0.00106925 0.22206 0.267206 0.0570742 -0.30916 -0.0500435 -0.193677 -0.055065 -0.580817 -0.0840862 -0.0274154 -0.242153 -0.179614 0.195476 0.279493 -0.23313 -0.220893 -0.165797 0.279187 0.336023 -0.0647056 0.120678 -0.216606 -0.14634 0.199291 0.206356 0.194312 -0.113952 0.217397 -0.104243 -0.0221436 0.15127 -0.108466 0.0944969 0.318647 0.331023 0.0232989 0.341426 0.122465 -0.134165 -0.153993
528 -0.355706 -0.418725 -0.213808 -0.467446 0.196066 0.275016 0.30759 0.0988979 0.0400355 -0.0138071 0.256397 0.0766212 0.450699 -0.035007 0.0298833 0.0636105 0.330865 -0.360232 -0.203755 -0.0661402 -0.263018 -0.15367 0.222278 0.0207989 0.282219 -0.402215 -0.241441 0.400999 0.311694 0.51155 -0.0389716 -0.252247 -0.103467 0.0328107 0.228632 -0.00910419 -0.037066 0.310961 -0.0906826 0.230664 -0.304546 -0.0207707 0.0241682 -0.135026 0.588802 0.125569 0.294756 -0.164018 -0.165942 -0.0580185 -0.0394828 -0.191946 -0.00301306 -0.0649056 0.377877 -0.278295 0.0133122 -0.262565 -0.291841 0.219281 -0.205573 -0.367598 -0.208482 -0.139906 0.641632 0.225926 -0.0340812 0.0132366 -0.371913 -0.422642 0.0179104 0.0665971 0.173169 -0.0844143 -0.39788 -0.388368 0.500269 0.315493 0.541497 -0.0575052 -0.391013 -0.130625 0.150933 0.201063 0.0908115 -0.105947 0.0167865 -0.170159 0.187744 0.053564 0.188862 -0.238495 0.0711319 -0.194285 -0.197936 -0.321412 0.184799 -0.276709 -0.13542 -0.3061 0.142572 0.460546 -0.146107 -0.148606 -0.338812 0.29398 0.264853 0.0105666 0.0619987 -0.379797 0.0746279 0.0892294 0.244501 0.150482 0.0137738 -0.087299 -0.0754941 -0.082044 0.132176 -0.186668 0.056813 0.355914 0.270657 0.198381 0.180639 0.0520747 -0.0826531 -0.0464085
733 -0.561593 -0.475568 -0.163058 -0.514238 0.0947227 0.309443 0.555002 0.148691 -0.0217034 -0.256225 0.307339 0.224296 0.649902 -0.0572624 0.095358 0.0832979 0.358826 0.115054 0.0846159 -0.160761 -0.329391 -0.19694 0.179405 0.262288 0.0880428 -0.679772 -0.310262 0.109786 0.37426 0.47635 -0.12569 -0.46184 -0.247597 -0.0783801 -0.0393445 0.0175599 -0.229666 0.255813 -0.145332 0.138275 -0.194654 -0.381518 0.0680925 -0.0270089 0.87502 0.492653 0.533659 -0.265194 0.0574355 -0.0909651 -0.211259 -0.419625 0.0955779 -0.0529681 0.093463 -0.390908 -0.219608 -0.217188 -0.22245 0.176131 -0.271796 -0.674201 0.0516941 -0.148633 0.715801 0.185543 -0.0965473 -0.13991 -0.0303053 -0.220382 -0.172274 0.260728 -0.0250377 0.0151697 -0.526655 -0.597927 0.550444 0.21213 0.554322 0.150394 -0.455341 0.0994644 0.161388 -0.126489 0.00109519 -0.199575 0.170791 -0.0106018 0.0844498 0.0555983 0.0949077 -0.00431707 -0.132208 -0.0609225 -0.322236 -0.0488011 0.210771 -0.28204 -0.216534 -0.246899 0.108921 0.422384 -0.306451 -0.393491 -0.190823 0.225899 0.163046 -0.0797904 -0.31177 -0.450784 -0.078439 -0.119927 0.29264 -0.0193072 0.0307818 0.11973 -0.403893 -0.00824755 -0.239413 0.0102368 0.012561 0.259447 0.364881 0.262796 -0.0342535 0.19773 0.0746651 0.0326975
531 -0.399104 -0.364759 -0.100437 -0.427259 0.163608 0.308223 0.218413 0.112319 -0.0943234 -0.108596 0.105671 -0.0835763 0.340672 -0.0485192 -0.0209515 0.0830986 0.469357 -0.257235 -0.11115 0.0261074 -0.544983 -0.189224 0.264479 0.0961466 0.130855 -0.534458 -0.377792 0.329257 0.279352 0.547406 -0.184982 -0.380552 -0.189986 0.0701734 0.322761 0.0501436 0.0259908 0.33749 -0.18525 0.285081 -0.25907 0.00764237 0.0181864 -0.0174487 0.66763 0.243969 0.406437 -0.247836 -0.141278 -0.0593565 -0.118776 -0.173032 -0.0178365 -0.138655 0.184359 -0.371957 -0.114758 -0.157187 -0.27869 0.174661 -0.159865 -0.443045 -0.101677 -0.135411 0.382071 0.236919 -0.0235583 0.0623106 -0.0337183 -0.294924 -0.0934145 0.199957 0.113305 0.0552657 -0.356339 -0.500151 0.51133 0.404244 0.572052 0.122158 -0.407434 -0.00904748 0.179079 0.100494 -0.0394057 -0.0688843 -0.0443389 -0.137334 0.171279 -0.0634295 0.197629 -0.316669 -0.112655 -0.04874 -0.293802 -0.206419 0.189846 -0.316318 -0.302784 -0.236109 -0.015884 0.593918 -0.103556 -0.319014 -0.184279 0.355153 0.303727 0.032469 0.0045086 -0.488458 -0.00562246 0.0459052 0.452725 0.150135 0.0713339 -0.0672478 -0.220146 0.0234257 -0.0975584 -0.139312 0.00722667 0.244999 0.243705 0.139569 0.0949183 0.141553 -0.0337185 -0.032558
312 0.0335607 0.0663207 0.0460895 0.0958583 0.170164 0.328799 0.209843 -0.0212133 0.0191998 -0.325411 0.388933 -0.147936 0.418265 0.0817296 -0.367195 -0.0882094 0.313367 -0.395651 -0.163421 0.110273 -0.217922 -0.231642 0.152617 0.019168 0.388421 -0.196963 -0.27844 0.250044 0.0672767 0.217178 -0.0859203 -0.00025953 -0.189759 0.0407758 0.201392 0.0146933 0.0162064 0.356909 -0.0179362 0.138696 -0.324632 0.164746 -0.0103547 0.023838 0.19883 0.0656114 0.0490021 -0.348994 -0.0285466 -0.0619332 0.21522 -0.175579 -0.197048 -0.257714 0.215795 -0.15889 0.0530121 -0.129742 -0.0621443 0.395728 -0.0701792 0.0518284 -0.118761 -0.058065 0.282179 -0.0869732 0.144151 0.133026 -0.092476 -0.158594 -0.149827 0.47122 -0.0963663 -0.0376978 -0.158792 -0.247427 0.493915 0.436419 0.37888 -0.112309 -0.341281 -0.0303439 0.120715 -0.00234758 -0.0268963 -0.159591 -0.0883212 -0.343158 0.23442 0.175586 0.176305 -0.263916 -0.294382 0.00212193 -0.0605036 -0.266569 -0.0247789 -0.106423 -0.0878679 -0.0841609 -0.0782844 0.454578 -0.266746 -0.0361345 -0.0699491 0.27158 0.287521 0.0049466 0.172656 -0.399609 -0.307661 0.354385 0.150647 0.135898 -0.112067 0.347699 -0.24911 0.115929 0.0844053 -0.176949 0.179599 0.474292 0.0391895 -0.0102015 0.100149 0.00885432 -0.0643681 0.0266728
2613 -0.116901 -0.0979655 0.0326264 -0.324783 -0.0140589 0.256229 0.00511611 -0.128244 -0.277567 -0.00585258 0.418061 -0.147019 0.852094 -0.1112 -0.0196091 -0.384068 0.226182 -0.515681 0.122622 -0.125988 -0.259261 0.0103541 0.0252777 -0.215938 0.121598 -0.11148 -0.257808 0.207469 0.194214 0.111942 -0.280189 -0.00104552 -0.122209 0.256561 -0.0916804 0.000441009 0.183603 0.218466 0.0504065 0.0777175 -0.524775 0.146696 -0.193481 -0.143942 0.423517 -0.265456 0.0457394 -0.275149 -0.147568 -0.0667003 -0.0188393 0.170029 -0.118055 0.132463 0.364429 -0.408611 0.196325 -0.17073 -0.103099 0.248956 0.0149087 -0.0537005 -0.147745 -0.00735014 0.210166 0.182647 -0.0664644 0.21278 -0.50381 -0.460836 -0.00223181 0.514873 -0.203403 0.0437162 -0.555785 -0.0913525 0.562046 0.488234 0.189784 -0.376638 -0.451947 -0.0325446 0.0415852 -0.217668 -0.108959 -0.14568 -0.24282 -0.0155777 -0.0925398 0.101895 0.233696 -0.481914 -0.256071 -0.0565907 0.210323 -0.604388 -0.115446 0.0736747 -0.0710879 -0.321958 0.0405956 0.327406 -0.128837 -0.200421 -0.291878 0.201395 0.147724 -0.137437 0.159806 0.108528 -0.306332 0.370205 0.183802 0.365494 -0.046548 0.317921 -0.392032 -0.168007 -0.119492 -0.124188 0.0895829 0.546495 0.10108 0.145962 0.542991 0.0492478 -0.383903 0.0434809
5926 -0.035284 -0.0486889 0.00846548 -0.20949 0.110148 0.0694257 0.190449 -0.0120667 -0.156035 -0.251049 0.361717 -0.323126 0.77047 -0.183774 0.0945135 -0.352226 0.286919 -0.499267 -0.135612 -0.140101 -0.230003 -0.106503 0.10174 -0.116572 0.204141 0.070118 -0.0822494 0.143048 0.156744 0.223176 -0.380477 -0.112764 0.158482 0.094466 0.145619 -0.201094 0.0221878 0.368986 -0.219058 -0.0366821 -0.354349 0.220988 0.195567 -0.306935 0.522503 -0.149139 0.105322 -0.16234 -0.108001 -0.342607 -0.0849249 0.294247 -0.0652147 0.0955894 0.261892 -0.223556 0.317117 -0.393775 0.0346385 0.374322 0.108083 -0.140802 -0.0356873 -0.159173 0.159984 0.363474 0.00377623 0.433693 -0.432489 -0.0807481 -0.201334 0.339352 -0.255164 0.187174 -0.435431 -0.167584 0.848378 0.258636 0.317105 -0.122835 -0.501765 -0.0680055 0.318014 -0.182271 0.240281 -0.119822 -0.0910206 -0.0429694 0.0043069 0.152081 0.554554 -0.561136 -0.120082 -0.158635 0.256473 -0.475414 -0.190144 -0.00462753 0.0215011 -0.0319979 0.124968 0.351401 -0.0666502 0.0202103 0.0356208 0.200897 0.0538094 -0.0661641 0.186213 0.13606 -0.248737 0.321377 0.242494 0.288996 0.233891 0.693805 -0.425543 -0.0236207 -0.189219 -0.0364702 0.115634 0.300848 -0.0451749 0.134807 0.475336 0.00923843 -0.467693 0.0709274
478 -0.612318 -0.25678 -0.235503 -0.340237 0.196633 0.0804055 0.116784 -0.0198348 -0.27623 -0.211754 0.344776 -0.0162352 0.850586 -0.0271067 -0.0468724 -0.164474 0.0564411 -0.36199 0.189479 0.218728 -0.0606745 0.169107 -0.0888061 -0.137726 -0.124828 -0.0485401 -0.168272 0.134809 -0.0181502 0.44984 0.0599952 -0.26776 0.184708 0.204829 0.140744 0.124553 0.236596 0.136359 -0.111542 0.0742563 0.0232 -0.182101 0.00728115 -0.185847 0.503602 0.0469727 0.0640233 0.144692 -0.116466 -0.0833017 -0.0632042 0.164335 0.183115 -0.138818 -0.343625 -0.415748 0.355862 -0.513136 0.212227 0.27852 -0.161817 -0.165995 0.175078 0.186661 0.524995 0.28626 -0.221326 0.431139 -0.185315 -0.147749 0.166182 0.238439 0.0805039 0.344478 -0.24206 -0.428422 1.06275 0.352472 0.31004 -0.469573 -0.0933509 -0.274151 0.0181562 -0.161267 -0.0745925 0.0392782 0.173984 0.00665934 0.22698 -0.0348027 0.0211967 -0.432653 -0.321267 -0.115816 -0.0736602 -0.428631 0.211101 -0.0612749 -0.11538 -0.0655893 -0.0943351 0.29864 -0.0436895 -0.296719 0.206268 0.300056 0.291805 0.0172127 0.0483847 0.177137 -0.211374 0.479757 -0.00580589 0.501788 0.0838284 0.366144 -0.335443 -0.300982 -0.0526274 -0.142921 0.285042 0.216588 0.20923 0.0116394 0.447002 0.545585 -0.200413 0.315144
5 -0.558508 -0.329042 -0.466249 -0.118643 0.277319 0.207809 0.117809 0.199433 -0.119945 -0.277975 0.240763 0.22941 0.26884 -0.133254 -0.00135892 0.153198 0.0734459 -0.112148 -0.0883023 0.0989991 0.0706826 0.206536 0.0197492 0.0216576 -0.160557 -0.165158 -0.28056 0.109499 -0.0810491 0.187869 0.0600715 -0.375834 0.20858 0.242748 0.116894 0.0833422 0.0944366 0.390086 -0.20397 0.159241 0.105139 -0.0352417 -0.0323279 -0.0166798 0.172244 0.135697 -0.33715 0.0717123 0.0433481 -0.251174 -0.462599 -0.0265507 -0.0872822 -0.120247 0.105291 -0.497399 0.124381 -0.542477 0.375563 0.569724 0.410903 0.062187 -0.0169358 -0.0153274 0.585479 0.205302 -0.18829 0.146606 -0.0662325 0.227296 0.0383864 0.00984274 0.0797725 0.0432518 -0.307709 0.0616153 0.503289 0.460352 -0.313971 -0.0458734 0.144487 -0.178644 0.130485 -0.0271702 -0.323706 -0.125022 0.00054512 -0.227875 0.368966 -0.138154 0.304576 -0.0648513 -0.0792174 0.0801203 0.150868 -0.389931 -0.262352 0.12151 -0.125843 -0.290095 0.0437466 0.323257 -0.142812 -0.51394 0.140981 0.251508 0.0543414 0.083597 -0.0833011 -0.0924317 -0.114112 0.715277 0.128607 -0.0193524 0.325784 0.110691 -0.337216 0.148019 -0.115552 -0.129005 0.0863918 0.277458 0.193054 0.476499 0.327424 0.398131 -0.250776 0.0144148
75 -0.787633 -0.273252 -0.399246 0.0870864 0.270548 0.383241 0.0388239 0.239036 0.0755032 -0.18436 0.0797614 0.23235 0.542892 0.171528 0.0942831 0.139218 0.256639 -0.120356 -0.103455 0.0131089 0.44639 0.133175 0.0657419 0.208002 0.102793 -0.180212 0.0451403 0.193202 0.0277406 0.0878914 -0.0276668 -0.239416 0.161722 0.207487 0.0152274 0.0632859 -0.169397 0.0129688 -0.0502909 0.00775547 0.13799 0.125152 0.135755 0.097187 0.323048 0.101974 -0.46423 0.0262997 0.15712 -0.105035 -0.314321 0.0641269 -0.0608124 -0.037103 -0.0899564 -0.469483 0.165335 -0.420936 0.287156 0.363076 0.372488 0.266655 0.0826897 0.107008 0.592848 0.282245 -0.0293067 -0.0107797 -0.153073 0.19136 1.61018e-05 -0.231535 0.0106819 0.290634 -0.488282 -0.096867 0.525201 0.507671 -0.0931769 -0.107003 -0.144001 -0.268398 0.0938629 -0.145752 -0.275708 -0.267898 0.00863946 -0.304969 0.329871 0.0648313 0.170244 -0.0131292 -0.00672212 0.0191908 0.0554906 -0.26878 -0.35974 -0.0261611 -0.278314 0.0284425 -0.000975747 0.224205 -0.187969 -0.596179 0.278344 0.181728 -0.108081 0.048342 -0.151885 -0.0679283 -0.254828 0.467212 0.239952 -0.174389 0.502346 0.192186 -0.380472 0.228585 -0.067558 -0.262188 -0.126454 0.308899 0.306723 0.433282 -0.0956861 0.2391 -0.0796223 0.181843
6664 -0.7377 -0.0477302 -0.243845 0.190963 0.144242 0.355066 0.0461852 0.247382 0.145131 -0.121183 0.185012 0.243807 0.641487 0.444952 0.254631 0.147849 0.281727 0.103497 -0.444373 -0.0452799 0.171397 -0.0189777 0.116612 0.288051 0.16015 -0.214148 0.0683063 0.148634 -0.0992161 0.0970141 -0.231751 -0.545301 0.0656949 0.131196 -0.0737637 -0.117545 -0.230263 -0.176955 0.255784 -0.145306 0.215361 0.222236 -0.107729 0.460691 0.427301 -0.0646917 -0.370889 -0.0930676 -0.00572696 -0.216781 0.158083 0.0556256 -0.0309748 0.207287 -0.151668 -0.337255 0.16556 -0.155225 0.0999746 0.0523507 0.328136 0.106717 0.396291 0.0144349 0.0497644 0.0570476 0.132238 -0.251519 -0.038401 0.215078 -0.266852 -0.37567 -0.020363 0.445065 -0.760356 -0.196103 0.380075 0.221755 -0.0278876 -0.0488835 -0.362549 -0.00933194 0.223381 -0.162777 -0.472237 -0.402672 0.002221 -0.339473 0.562614 0.462495 0.101409 -0.0103228 -0.135826 0.222719 -0.529041 -0.235631 -0.544079 -0.280714 -0.547655 0.168855 0.0402315 0.160156 -0.264431 -0.787916 0.105749 0.267452 -0.243453 -0.250676 -0.197109 -0.0283763 -0.478232 0.273752 0.465072 0.0131632 0.479911 0.548363 -0.229234 0.415461 -0.0372146 -0.28434 -0.0152934 0.30437 0.432396 0.225058 -0.412201 -0.0350724 -0.105457 0.0976947
330 -0.80838 -0.170898 -0.333855 0.270172 0.226724 0.413465 0.0707797 0.0560448 0.160117 0.0734016 -0.0351455 0.241836 0.507744 0.424286 0.143803 0.109478 0.175379 0.0672021 -0.319473 0.100012 0.458093 0.173806 0.240416 0.266534 0.100427 -0.226772 0.177119 0.244321 -0.083735 0.0982455 -0.10315 -0.339983 0.117947 0.0471504 -0.077018 0.0589267 -0.481104 -0.105957 0.166381 -0.102751 0.018849 0.224318 -0.0339749 0.280657 0.325833 -0.0853639 -0.317529 -0.00275613 -0.0217323 0.10426 0.188761 0.0936681 0.0121427 0.0533021 -0.0208924 -0.429114 0.182499 -0.284583 0.136994 0.0292034 0.28102 0.334409 0.256627 0.0920672 0.142065 0.105835 0.184651 -0.231203 -0.277254 0.0956072 -0.210495 -0.113283 -0.0574512 0.372997 -0.65286 -0.298048 0.33752 0.450075 -0.0204514 -0.130472 -0.415511 -0.138712 0.12758 -0.134843 -0.443773 -0.458561 -0.0193679 -0.477036 0.326825 0.340608 -0.0613386 0.208775 -0.0726707 0.132722 -0.327972 -0.106415 -0.361411 -0.255654 -0.543646 0.110611 -0.0259073 0.215316 -0.186156 -0.664054 0.161789 0.249796 -0.26711 -0.13293 -0.242092 0.0192336 -0.562501 0.228766 0.357787 -0.0398788 0.477849 0.192678 -0.368413 0.307514 -0.0414594 -0.16091 0.102182 0.340897 0.386993 0.374198 -0.132684 -0.0605681 -0.0436181 0.301634
1941 -0.680216 -0.168989 -0.346212 0.284854 0.13359 0.314195 0.0965765 -0.0639753 0.168362 0.0320216 -0.0353886 0.315719 0.487963 0.329694 0.129801 0.162617 0.115678 0.0432826 -0.386282 -0.0150912 0.480737 0.092209 0.21168 0.355282 0.138331 -0.134473 0.181227 0.214146 0.00719016 0.0927533 -0.133032 -0.397047 0.119465 0.0725528 -0.0974024 0.0673277 -0.488493 -0.20767 0.255379 -0.110305 0.0185636 0.27935 -0.141259 0.332633 0.317833 -0.0436759 -0.260053 -0.0372287 -0.0172529 0.0660686 0.26387 0.174681 0.0440458 0.0294619 -0.0348789 -0.394239 0.176518 -0.350953 0.0791561 0.053228 0.304634 0.263066 0.34732 0.156583 0.314694 0.149541 0.185303 -0.324388 -0.237004 0.144402 -0.235816 -0.10381 -0.0832876 0.449512 -0.706533 -0.268453 0.343119 0.419449 -0.0445212 -0.183665 -0.470542 -0.175358 0.176977 -0.156735 -0.555739 -0.519245 0.0461898 -0.477364 0.417438 0.351777 -0.104865 0.223385 -0.214606 0.169567 -0.432673 -0.10901 -0.401681 -0.233608 -0.568238 0.0310794 -0.0314453 0.177667 -0.24818 -0.689094 0.254008 0.309237 -0.191662 -0.234073 -0.134685 0.0392162 -0.604115 0.161336 0.362488 0.0217518 0.466261 0.318465 -0.326176 0.485342 -0.0843337 -0.162227 0.135319 0.251103 0.353893 0.392044 -0.189636 -0.0559981 -0.0959337 0.321435
1821 -0.798163 -0.485961 -0.26234 0.049933 0.0534191 0.191389 0.0821025 0.0259358 0.273372 0.126646 0.229621 0.337072 0.364333 0.391041 0.253086 0.111873 0.354241 -0.131816 -0.477836 0.00156343 0.320711 0.0101753 0.2048 0.389153 0.00501608 -0.107972 0.166296 0.15073 0.0228012 0.408849 0.0375654 -0.307346 0.0542035 0.0788485 -0.325902 0.0290832 -0.533474 -0.226329 0.0898997 0.0324109 -0.0447303 0.242439 -0.126067 0.435346 0.535069 -0.0884818 -0.26969 -0.0847675 -0.161753 0.0538214 0.127969 0.239857 0.116802 -0.121759 0.0228264 -0.177777 -0.0532673 -0.22256 -0.0876227 0.102753 0.398512 0.107421 0.387914 0.172278 0.409334 0.186516 0.17097 -0.328839 -0.238832 0.137888 -0.330748 -0.113686 -0.153143 0.289217 -0.75476 -0.355263 0.465958 0.284666 -0.144166 -0.273609 -0.403229 -0.272142 0.238193 -0.200693 -0.248766 -0.325719 0.117454 -0.161714 0.212624 0.216624 0.144557 0.343664 -0.199118 0.172266 -0.270938 -0.271328 -0.428108 -0.2337 -0.516049 0.0184044 0.0348285 0.184563 -0.076111 -0.735492 0.161814 0.485224 -0.120984 -0.351746 -0.119077 -0.0199994 -0.497465 0.0286321 0.291062 0.0463163 0.463909 0.360086 -0.297162 0.464023 -0.153925 -0.15293 0.0924087 0.27601 0.435009 0.119583 -0.117856 -0.214881 0.0131264 0.0235232
2071 -0.754756 -0.12599 -0.419751 0.250965 0.2259 0.294012 0.0663765 -0.0184329 0.215586 0.0596478 -0.0559081 0.33381 0.483713 0.277849 0.0999355 0.126998 0.191572 -0.0238506 -0.449607 -0.0246802 0.47185 0.0540738 0.224811 0.329661 0.143859 -0.11074 0.228609 0.205036 0.0599456 0.126157 -0.126188 -0.387757 0.136618 0.125267 -0.127713 0.0658037 -0.438493 -0.157961 0.184646 -0.0401726 2.91106e-05 0.381099 -0.141208 0.277136 0.370711 -0.00481012 -0.308746 -0.0504355 -0.00896909 0.153489 0.256258 0.110936 -0.0210859 0.0489605 -0.0738221 -0.408943 0.0765762 -0.371093 0.155709 0.0820355 0.336332 0.285555 0.30493 0.148362 0.197688 0.131096 0.256452 -0.217402 -0.296139 0.199463 -0.183273 -0.161706 -0.106157 0.403629 -0.686211 -0.265049 0.413329 0.437097 -0.00349024 -0.10044 -0.446367 -0.169686 0.145926 -0.102084 -0.469946 -0.50102 0.0119814 -0.514584 0.329034 0.256782 -0.0409631 0.139009 -0.225876 0.157068 -0.358059 -0.0960462 -0.314827 -0.260598 -0.581459 0.069607 -0.075575 0.213675 -0.212016 -0.703665 0.265512 0.32291 -0.17669 -0.139789 -0.251469 0.0265249 -0.54973 0.189408 0.361468 -0.0577294 0.526123 0.295261 -0.313705 0.49891 -0.11987 -0.164313 0.121485 0.229316 0.294569 0.310553 -0.239953 0.0415072 -0.00224535 0.244624
7877 -0.83297 -0.263145 -0.315268 0.247462 0.120639 0.307271 0.0553613 0.0336568 0.185411 0.057525 -0.0310337 0.266623 0.46426 0.337932 0.117386 0.140181 0.135205 0.0636146 -0.411014 -0.0235537 0.449539 0.104827 0.173733 0.295298 0.117469 -0.149835 0.280307 0.276961 0.0335219 0.105461 -0.182308 -0.327855 0.100728 0.109697 -0.0415722 0.141281 -0.350429 -0.243747 0.15407 -0.0345252 -0.0475591 0.243141 -0.145479 0.243523 0.315368 -0.0670167 -0.223845 -0.0319186 -0.101148 0.109839 0.201661 0.131522 0.0222752 -0.0556099 -0.0808704 -0.420067 0.119845 -0.37962 0.0883333 0.0969749 0.321655 0.321537 0.335272 0.0852675 0.232666 0.168478 0.16916 -0.269058 -0.237243 0.157501 -0.169312 -0.129046 -0.080932 0.343297 -0.713264 -0.282552 0.307441 0.461683 -0.0355541 -0.146386 -0.431308 -0.15652 0.13222 -0.132171 -0.475958 -0.422937 -0.0311702 -0.384733 0.40196 0.325516 -0.0665342 0.189164 -0.162277 0.183885 -0.382273 -0.129295 -0.352825 -0.264246 -0.614507 0.0238727 -0.035167 0.210967 -0.243188 -0.738175 0.182341 0.253549 -0.244352 -0.166851 -0.183319 -0.0589072 -0.537106 0.147991 0.415611 -0.00535738 0.511577 0.302717 -0.348173 0.502292 -0.0626386 -0.189748 0.0894282 0.256475 0.361843 0.319837 -0.164056 -0.014208 -0.0682459 0.267065
1138 -0.625672 -0.325474 -0.284611 0.0943463 0.0166967 0.126297 0.194256 -0.0717748 0.293326 0.200788 0.127619 0.40753 0.459725 0.356375 0.0949364 0.0936896 0.220925 -0.16895 -0.441598 -0.196703 0.435457 0.188726 0.0527254 0.32714 0.132853 -0.0333948 0.270003 0.137025 0.217402 0.322783 -0.0601419 -0.412277 0.0526474 0.110864 -0.203059 -0.0168315 -0.380108 -0.07991 0.180319 -0.107643 0.144908 0.152294 -0.225244 0.407551 0.406542 -0.159629 -0.198782 -0.0824259 -0.0799547 0.019512 0.0999434 0.0940445 0.155295 -0.139287 0.0261468 -0.368557 0.211367 -0.248709 0.0584328 0.0129276 0.365961 0.288663 0.333972 0.0366635 0.407906 0.21358 0.075057 -0.22023 -0.393296 0.0349032 -0.194776 -0.217673 -0.167237 0.377651 -0.878491 -0.22165 0.357264 0.370664 -0.13619 -0.116892 -0.497109 -0.241792 0.162818 -0.214719 -0.344818 -0.430136 0.0310362 -0.220884 0.304278 0.173414 0.0277289 0.0878718 -0.322229 0.193149 -0.3018 -0.135603 -0.408218 -0.221738 -0.517754 -0.0368615 -0.0255666 0.196433 -0.164574 -0.763196 0.139117 0.323162 -0.282108 -0.39142 -0.14975 0.0841173 -0.353806 0.112045 0.279695 0.174018 0.48937 0.363632 -0.300652 0.541622 -0.173347 -0.129259 0.119124 0.439345 0.304767 0.211811 -0.0772899 -0.0554343 -0.160976 0.113317
919 -0.763696 -0.439732 -0.562218 0.186854 0.223555 0.297095 0.157149 0.196116 0.026476 -0.19083 0.10936 0.197738 0.457111 0.108109 0.253931 0.0399365 0.302398 0.164175 -0.0650932 0.0718239 0.25786 0.254034 -0.000432596 0.24515 -0.0516493 -0.120738 0.147614 0.198604 -0.0795478 0.136272 -0.159277 -0.233212 0.239535 0.128707 0.168311 0.0182236 -0.164536 -0.0540194 0.075593 -0.0729655 0.203226 0.059344 0.340749 0.101398 0.296815 0.0792482 -0.357572 0.112035 0.0188974 -0.0946093 -0.173931 0.0921024 -0.102342 -0.0891771 -0.0424443 -0.516011 0.223637 -0.358856 0.265442 0.24963 0.413903 0.176393 0.202014 0.0702969 0.597429 0.191972 -0.0809348 -0.188997 0.0920531 0.438338 -0.152408 -0.312316 -0.178693 0.19732 -0.531717 -0.286831 0.581745 0.41031 -0.1515 -0.136954 -0.0633786 -0.23123 0.174275 -0.262233 -0.192647 -0.368054 0.0731528 -0.400534 0.310223 0.208466 -0.021513 0.0187751 -0.0702563 0.0948815 -0.017572 -0.240669 -0.360723 -0.0343895 -0.292496 0.0201844 0.046602 0.0678945 -0.0232699 -0.538904 0.275133 0.199159 -0.118936 0.0186185 -0.191057 -0.143016 -0.490046 0.401187 0.140907 0.096671 0.584521 0.329434 -0.497898 0.144478 0.00769625 -0.227848 0.0211701 0.174542 0.227194 0.410548 0.0991502 0.303045 -0.0455698 0.225445
7955 -0.823364 -0.18711 -0.276451 0.252599 0.144076 0.34437 0.103221 0.0536689 0.223443 0.0725649 -0.0237569 0.302389 0.42188 0.347684 0.0632121 0.204851 0.159772 -0.0171758 -0.43801 -0.0165766 0.537957 0.0226001 0.183617 0.341839 0.0549374 -0.15527 0.252791 0.287584 0.0143445 0.0257975 -0.167594 -0.371769 0.0752748 0.0374408 -0.0678844 0.0984899 -0.420082 -0.124775 0.193326 -0.105311 0.0226209 0.249034 -0.112805 0.245837 0.251127 -0.0748679 -0.320293 -0.0233786 -0.0132013 0.118158 0.193074 0.116205 0.0822329 -0.000714779 0.0674798 -0.392042 0.135976 -0.353965 0.102106 0.0842506 0.172743 0.308296 0.288424 0.0727577 0.210569 0.105975 0.158587 -0.264375 -0.236714 0.0757146 -0.261931 -0.253332 -0.0605843 0.339465 -0.6685 -0.323844 0.351191 0.462116 -0.00462569 -0.127062 -0.468614 -0.181795 0.151079 -0.109137 -0.550656 -0.404467 0.0804828 -0.445639 0.431127 0.351485 -0.096401 0.200499 -0.232126 0.146162 -0.308593 -0.145724 -0.329251 -0.188538 -0.632993 0.150409 -0.0023201 0.291008 -0.306731 -0.650522 0.182115 0.272154 -0.226763 -0.178865 -0.171795 -0.00888314 -0.535884 0.141164 0.323962 0.00462153 0.444128 0.257115 -0.295036 0.48805 -0.0158936 -0.217054 0.1684 0.363345 0.422142 0.219015 -0.240147 -0.0807577 -0.0438435 0.246878
7940 -0.0145113 -0.128436 0.173144 -0.20555 -0.0937044 0.366051 0.156946 0.0261038 0.150742 0.165681 -0.0955324 0.0549447 0.0862544 0.225984 -0.25123 0.529393 -0.140383 -0.0455571 -0.0574192 0.025342 -0.01293 -0.0905025 -0.0852828 0.397176 0.328432 0.125317 -0.355581 0.12251 0.0633665 0.184535 0.275342 -0.457891 -0.257679 0.304756 -0.106171 -0.175885 -0.477872 0.647402 0.316878 -0.174011 -0.0861477 -0.174043 0.264901 0.225219 0.417583 -0.0910673 -0.132923 -0.529067 -0.0185098 -0.00352752 -0.00991396 -0.546897 0.217592 -0.50103 0.292857 -0.191347 0.345248 -0.0234956 0.25169 0.445496 -0.09161 -0.163589 0.0131853 -0.32088 0.711098 -0.0139397 -0.226942 0.34563 -0.407841 -0.420257 0.309865 0.087966 0.0779155 0.217256 -0.43781 -0.216106 0.362689 0.342806 0.42143 -0.112074 -0.0259911 0.407293 0.144394 -0.133806 -0.066137 -0.322025 -0.247449 -0.159132 0.144331 -0.00450077 0.563934 -0.169348 0.196316 -0.119343 -0.0218902 -0.101305 -0.430022 -0.0858603 -0.200495 0.062189 0.0502104 0.28634 -0.51122 -0.350329 0.310091 -0.0705171 0.354869 0.0270513 -0.0122498 -0.557563 -0.186903 0.61383 0.38241 0.211486 0.0248727 0.44793 -0.510469 0.0384023 -0.113288 -0.032452 0.0757511 0.56059 0.250667 0.168087 0.338038 -0.249064 -0.289969 -0.12691
626 -0.142456 -0.157608 0.0701745 -0.205708 -0.156398 0.454489 0.186962 -0.091543 0.0550812 -0.105166 -0.0167458 -0.123075 0.290932 0.128523 -0.250602 0.333827 -0.0169754 -0.0142282 -0.0181574 -0.0048213 -0.188637 0.0349847 0.00878043 0.34092 0.168896 -0.0892701 -0.344302 -0.01684 0.133755 0.074643 0.312572 -0.348893 -0.302549 0.288979 -0.0631748 -0.0656487 -0.413494 0.577404 0.254356 -0.111702 0.0146908 -0.190548 0.178498 0.403341 0.545626 0.018462 -0.0791675 -0.52132 -0.238912 0.0658328 -0.102105 -0.482033 0.26084 -0.428477 0.138173 -0.361425 0.347357 0.00537193 0.165943 0.676362 0.0729413 -0.120958 0.0423255 -0.112054 0.617266 -0.0707189 -0.137031 0.393599 -0.312883 -0.611207 -0.00101094 0.187535 0.296467 0.165881 -0.437797 -0.0986464 0.585762 0.179358 0.274881 -0.0114811 -0.0355547 0.259554 0.0586383 -0.130765 -0.120257 -0.228444 -0.320944 -0.120468 0.131287 0.0583934 0.625437 -0.11266 0.138208 -0.104093 -0.0575735 -0.0430273 -0.165907 -0.218809 -0.336607 0.0744864 0.130318 0.401967 -0.433457 -0.273534 0.239179 0.0322343 0.512268 -0.0109939 0.103483 -0.383464 -0.330054 0.580456 0.474237 0.20161 -0.0707928 0.310242 -0.341586 -0.028306 -0.256626 -0.0395082 0.0727658 0.475838 0.174437 0.238421 0.117328 -0.250578 -0.331056 -0.102408
241 -0.0507984 -0.0744815 0.148117 0.128916 0.494574 0.2102 0.212497 0.075792 -0.290556 -0.0471031 0.361128 0.102218 0.328738 0.124018 -0.195679 0.326453 0.135964 -0.0370732 0.276615 -0.233074 0.226413 0.0639722 -0.0670422 0.104961 0.602164 -0.045779 -0.268147 -0.0588284 0.199598 0.199701 -0.0472405 -0.0552278 -0.169557 0.276942 0.138089 0.0456171 -0.373715 0.383985 0.164834 -0.21624 -0.190464 -0.42681 -0.158918 0.197949 0.837547 0.398573 0.339328 -0.1181 0.208473 -0.25414 0.0386506 -0.316311 0.00848822 -0.322556 0.212067 -0.548229 0.35781 -0.361722 -0.0781482 0.236555 0.110279 0.261373 0.185513 -0.399617 0.948934 0.0320251 0.0405827 0.262487 -0.264103 0.000785032 0.477446 0.20073 -0.174877 0.107375 -0.380666 -0.178076 0.412461 0.450704 0.189546 -0.0788148 -0.160818 0.142617 0.0321481 0.29721 0.131515 -0.200679 0.529296 0.0662615 0.187001 0.22362 0.460713 0.00370878 -0.139601 0.0406866 0.325997 -0.380138 -0.00794399 -0.042442 -0.00305142 -0.427854 0.372172 -0.0396289 -0.360829 -0.459617 0.21206 -0.0707297 0.417273 -0.182191 0.167313 -0.544332 -0.160408 0.288944 0.363024 -0.0660792 -0.165177 0.0778753 0.015791 0.267302 -0.442006 -0.0788202 0.144294 0.317207 0.39832 0.342653 0.0829028 -0.263156 -0.0553807 -0.168513
772 -0.0800854 0.105199 -0.0226409 0.0638388 0.18151 0.243813 0.131132 -0.000662389 0.0699977 -0.275974 0.397712 -0.076882 0.422422 0.0566864 -0.291452 -0.115401 0.303579 -0.48087 -0.155963 0.121974 -0.308197 -0.24861 0.0513454 0.0167348 0.30137 -0.0656073 -0.117718 0.154536 0.145086 0.22942 -0.0563885 -0.0846145 -0.162493 0.127491 0.16209 0.0627906 0.0556868 0.322409 -0.0642012 0.194796 -0.320219 0.205341 -0.0753862 -0.0673676 0.193309 0.0854973 -0.0428672 -0.301973 -0.133265 -0.0647304 0.0837574 -0.120348 -0.188136 -0.357591 0.215973 -0.203147 0.105087 -0.189925 -0.0569451 0.320987 0.00940898 0.111822 -0.028523 -0.101069 0.102362 -0.0449133 0.0955079 0.148964 0.0540074 -0.0766708 -0.114662 0.291278 -0.092492 0.0386428 -0.222073 -0.235166 0.548881 0.350264 0.263766 -0.222246 -0.274499 0.0120705 0.0559609 0.0371153 -0.0739238 -0.0745812 -0.028506 -0.27699 0.196284 0.0641776 0.177411 -0.263097 -0.303633 0.0205273 0.0265989 -0.24885 0.167527 -0.0854323 -0.0790144 -0.0387129 -0.143894 0.477295 -0.232345 -0.247202 -0.0310076 0.33604 0.256965 0.0599795 0.171851 -0.380086 -0.247434 0.362747 0.138471 0.111338 -0.118003 0.425046 -0.148711 0.228515 -0.0250866 -0.144788 0.162187 0.391403 0.00752635 0.0124525 0.0403686 -0.0181548 -0.0249303 -0.00237691
7656 -0.0968959 -0.0836134 0.0685886 0.00645068 0.142835 0.289308 0.160274 0.0545696 0.0694925 -0.23188 0.443562 -0.208642 0.347051 0.0861345 -0.271093 0.00297814 0.295847 -0.414325 -0.145493 0.0253095 -0.190993 -0.193206 0.119324 0.00875436 0.313105 -0.202212 -0.219273 0.11741 0.0861926 0.285256 -0.0580453 -0.0401266 -0.222089 0.169206 0.233102 0.0797152 0.0670457 0.300676 -0.0856542 0.13164 -0.399386 0.109901 0.0110794 -0.0249752 0.248118 0.0861718 0.134073 -0.353683 -0.0500299 -0.0833808 0.165463 -0.129363 -0.121048 -0.336878 0.184771 -0.27197 0.148097 -0.145598 -0.0873712 0.300615 -0.0350283 0.0503813 0.00983454 -0.0767367 0.261891 -0.0113762 0.158677 0.171903 -0.0637039 -0.129083 -0.0302289 0.33471 -0.00761207 -0.0254905 -0.23815 -0.283264 0.537766 0.473208 0.288809 -0.196495 -0.323164 -0.0345601 0.0324592 -0.0644796 -0.064161 -0.0352443 -0.0270465 -0.213571 0.220699 0.154851 0.233739 -0.274648 -0.269899 0.0360531 -0.030672 -0.2709 0.183865 -0.206758 -0.177623 0.00994854 -0.108437 0.459496 -0.274095 -0.182883 -0.0580651 0.262846 0.307139 0.0266848 0.225745 -0.374694 -0.276146 0.309367 0.158861 0.151354 -0.166878 0.281015 -0.199586 0.100459 0.0326069 -0.141385 0.223614 0.4587 0.123869 -0.0704211 0.0492455 -0.0545076 -0.0794077 0.0309329
118 -0.800637 -0.0780196 -0.173409 0.308723 0.292193 0.414097 0.10292 0.0538033 0.243548 -0.219551 0.257398 0.074674 0.658327 0.371536 -0.0784078 -0.100037 0.351988 -0.314997 -0.13735 0.219007 0.149525 0.00190782 0.179171 0.201679 0.292952 -0.17898 -0.0182436 0.274256 0.0918618 0.239478 -0.218199 -0.127819 -0.103425 -0.0631882 -0.00391676 -0.0272161 -0.163741 -0.135735 0.0338402 0.0377759 -0.220395 0.358842 0.048368 0.263506 0.365081 -0.0886273 -0.167931 0.00375753 -0.0138024 0.0459846 0.192817 0.0491827 -0.140439 -0.147171 0.0695116 -0.395422 -0.00720011 -0.153549 0.00184236 0.12673 0.320859 0.520238 0.301951 0.157785 -0.0879613 0.0187503 0.18174 -0.0598651 -0.256748 -0.0740239 -0.445324 0.119169 -0.0591078 0.1425 -0.634563 -0.4136 0.448132 0.541362 0.160231 -0.253991 -0.434876 -0.066175 0.0358999 -0.12105 -0.19618 -0.282744 -0.265335 -0.407928 0.37821 0.32046 0.0427975 -0.0446274 -0.293279 0.107853 -0.154522 -0.153568 -0.316765 -0.252669 -0.360972 0.199003 -0.289581 0.352775 -0.100486 -0.523673 0.0017379 0.259194 -0.0781995 0.0908382 -0.0866925 -0.212033 -0.540731 0.239297 0.33934 0.037097 0.248113 0.337938 -0.352043 0.249198 -0.0644101 -0.239869 0.347866 0.687045 0.195604 0.219263 -0.15292 -0.0199103 0.0367684 0.0748577
7771 -0.0541449 0.0440201 0.0491586 -0.0700047 0.208379 0.343756 0.121611 0.000588931 0.100812 -0.172117 0.38545 -0.166557 0.30366 0.0998934 -0.31199 0.006922 0.37043 -0.539665 -0.128396 0.125639 -0.271474 -0.196462 0.111963 0.0226371 0.397111 -0.103653 -0.236535 0.0817906 0.169669 0.320155 -0.113846 -0.0189429 -0.189272 0.105866 0.208821 -0.0181176 0.00803308 0.370676 -0.0548514 0.0851782 -0.292198 0.160382 -0.00740853 0.0220289 0.254045 0.129081 -0.0438761 -0.364232 -0.0404037 -0.126471 0.179428 -0.197504 -0.119817 -0.340653 0.270905 -0.230952 0.0728242 -0.198248 -0.0224594 0.374747 -0.15021 0.125333 -0.135966 -0.00259657 0.0712653 0.0598945 0.0632459 0.195179 -0.125233 -0.1316 -0.160535 0.374903 -0.110285 -0.0657107 -0.288088 -0.363027 0.515631 0.399917 0.398905 -0.242729 -0.397216 0.0112582 0.124565 -0.0825591 0.121837 -0.015433 0.038386 -0.234042 0.240481 0.234368 0.281879 -0.366571 -0.313834 -0.0199965 -0.037547 -0.299034 0.132559 -0.110966 -0.0316492 -0.0829622 -0.0673907 0.439563 -0.348626 -0.146461 -0.0706215 0.367968 0.282938 0.0489367 0.202477 -0.477414 -0.217 0.361874 0.124339 0.126745 -0.0563023 0.32564 -0.2641 0.0642602 -0.0229246 -0.166503 0.218807 0.460755 0.0901368 -0.0235179 0.172666 -0.136868 -0.0841454 0.0365382
5823 -0.0828602 -0.0148321 -0.0370503 -0.0900155 0.166874 0.322059 0.186919 0.00290204 0.0636388 -0.254767 0.385507 -0.11736 0.388757 0.0130684 -0.260647 0.0310856 0.227819 -0.536072 -0.198853 0.101403 -0.273755 -0.242629 0.0649865 -0.0771725 0.294594 -0.195301 -0.20869 0.252727 0.180793 0.257258 -0.0823285 -0.0478338 -0.190018 0.150752 0.204369 0.0122356 0.132203 0.357404 -0.0347624 0.18492 -0.326674 0.163489 0.0318563 -0.0699408 0.160411 0.00311232 -0.0433142 -0.344605 -0.0377373 -0.03013 0.0674337 -0.175061 -0.278314 -0.261755 0.173901 -0.289854 0.0539735 -0.109527 0.0339091 0.364655 -0.0446422 0.0257006 -0.0992513 -0.0753833 0.266011 0.10261 -0.024172 0.171729 -0.009686 -0.141761 0.026022 0.34608 -0.0898425 -0.0708106 -0.177985 -0.258495 0.562233 0.536892 0.347955 -0.244054 -0.343071 -0.162317 0.113996 -0.167837 -0.0279051 -0.101183 0.00477045 -0.316782 0.28255 0.136442 0.190606 -0.35853 -0.2707 0.0305383 -0.0243861 -0.284285 0.11438 -0.155939 -0.119087 -0.0143553 -0.0853732 0.427304 -0.22479 -0.192231 -0.0874996 0.363758 0.316675 0.0748015 0.139761 -0.394321 -0.18329 0.422458 0.0886938 0.139765 -0.0789208 0.383599 -0.286905 0.0920316 0.0711836 -0.136142 0.187749 0.431329 0.101248 -0.000201597 0.0601303 0.0778482 -0.100315 -0.125627
3234 -0.0683253 0.0508512 -0.0112523 0.0410923 0.167467 0.264308 0.132942 -0.0325778 0.0197848 -0.268491 0.386112 -0.117706 0.348007 0.0413227 -0.331101 -0.0344528 0.311501 -0.402863 -0.182084 0.153025 -0.206657 -0.269727 0.110685 -0.0657569 0.374661 -0.123835 -0.239629 0.138295 0.137168 0.304694 -0.0679195 0.0237681 -0.245788 0.112075 0.269006 0.0709903 0.0868532 0.327224 -0.122307 0.125682 -0.308653 0.18043 -0.0220392 0.0793326 0.223607 0.165415 -0.0681588 -0.391641 -0.0605283 -0.0703151 0.123251 -0.157984 -0.135222 -0.343036 0.19885 -0.185635 0.132665 -0.209453 0.0258498 0.384412 0.000799525 0.0272427 -0.0640138 -0.109818 0.117406 0.0268611 0.0745359 0.0951086 0.0387747 -0.196499 -0.0581608 0.402139 -0.0679154 0.00597837 -0.198476 -0.285936 0.606463 0.408133 0.311617 -0.274882 -0.254424 -0.00463914 0.1474 0.000821707 0.0525931 -0.0886924 -0.0684021 -0.287755 0.182871 0.0645392 0.212985 -0.316071 -0.247031 0.0491306 -0.00884624 -0.332105 0.0991641 -0.159587 -0.191847 0.0178423 -0.0435991 0.463904 -0.293404 -0.156313 -0.0266818 0.243705 0.350109 0.159262 0.214024 -0.359636 -0.340332 0.397924 0.0892048 0.0705339 -0.239844 0.408107 -0.299413 0.0386111 -0.0242477 -0.157548 0.221232 0.400013 0.157871 -0.0077965 0.193897 0.0616077 -0.126791 0.0541407
6439 -0.115779 0.0732513 0.0779357 0.122377 0.167783 0.370682 0.124353 0.0888886 0.132368 -0.150652 0.406312 -0.115054 0.390662 0.0822076 -0.319532 -0.0729287 0.320378 -0.508439 -0.139079 0.0937274 -0.231817 -0.249732 0.0488802 -0.0406376 0.263033 -0.126147 -0.231187 0.198854 0.207895 0.243654 -0.0484436 0.0613191 -0.223583 0.170877 0.159854 -0.0518748 0.125192 0.400068 0.0350198 0.0700175 -0.352513 0.151529 -0.0823163 0.0184045 0.192572 0.0506449 -0.0154502 -0.362306 -0.014336 -0.00819554 0.201602 -0.143094 -0.189185 -0.293223 0.19462 -0.162876 0.0969372 -0.0350717 -0.0786141 0.446856 -0.173092 0.0613526 -0.0566618 -0.0709622 0.169333 -0.0414038 0.0445902 0.220263 -0.168491 -0.204353 -0.0753244 0.418128 -0.0857881 -0.0188515 -0.215057 -0.254866 0.486548 0.383221 0.299181 -0.218603 -0.299776 -0.0516279 0.01304 -0.0597496 0.0145192 -0.11364 -0.100388 -0.23625 0.270629 0.131331 0.245715 -0.341583 -0.316615 -0.0287626 0.0549746 -0.312648 0.0330408 -0.171881 -0.0627993 -0.0674863 -0.0600443 0.378589 -0.257222 -0.071283 -0.114082 0.354269 0.199139 -0.0526537 0.145594 -0.360154 -0.258797 0.352174 0.11171 0.134469 -0.0972047 0.418016 -0.268983 0.127096 0.0299962 -0.213066 0.102457 0.5154 0.0679291 -0.139362 0.193405 -0.0591899 -0.155106 0.00865863
5156 -0.141728 -0.0209066 0.0962622 0.0136998 0.174015 0.277699 0.138264 0.047218 -0.00569861 -0.243299 0.4387 -0.153035 0.481127 0.102047 -0.319271 -0.0352237 0.198344 -0.409005 -0.138272 0.247963 -0.288667 -0.206233 0.0574252 0.0279298 0.279176 -0.177885 -0.141784 0.24407 0.168823 0.203605 -0.189335 0.000293029 -0.196497 0.0304953 0.198695 0.0767874 0.0350821 0.234691 -0.0466933 0.110087 -0.390816 0.210795 -0.0115197 -0.00564185 0.165178 0.10306 0.00263151 -0.342185 -0.162507 -0.0908413 0.157798 -0.105601 -0.211372 -0.286608 0.198984 -0.223755 0.123868 -0.153386 -0.0981576 0.41327 -0.109597 0.109687 -0.0414302 0.0014469 0.15251 -0.0160293 0.0245775 0.166654 -0.00979805 -0.145763 -0.0886497 0.395069 -0.0734001 -0.045039 -0.279845 -0.268858 0.629749 0.466368 0.299377 -0.287934 -0.367799 -0.140062 0.0414087 -0.0562403 0.0383487 -0.0331779 0.00580276 -0.234867 0.225489 0.152617 0.210713 -0.257703 -0.328514 0.0223171 -0.0490223 -0.314961 0.0940717 -0.153764 -0.165053 -0.10624 -0.0197297 0.51766 -0.323721 -0.0999404 -0.130187 0.293646 0.1823 0.0573214 0.177838 -0.379291 -0.343044 0.374285 0.18271 0.203695 -0.0645284 0.373737 -0.26556 0.111023 0.00202497 -0.179136 0.205617 0.497058 0.0852326 -0.0991088 0.16187 -0.020799 -0.0821313 0.016907
885 -0.131612 -0.0768272 0.0705089 0.0387824 0.181088 0.280678 0.13811 -0.0113668 -0.0166156 -0.270353 0.479667 -0.172799 0.419605 0.169283 -0.386723 0.0580286 0.28773 -0.533902 -0.196583 0.0851621 -0.18791 -0.24253 0.0965277 0.0120886 0.407657 -0.159803 -0.294986 0.152162 0.236291 0.230636 -0.0245148 0.166347 -0.173309 0.139653 0.136297 0.0345429 0.0184902 0.319575 -0.034971 0.107583 -0.286058 0.117858 -0.0822522 -0.0573175 0.268337 0.0628501 -0.0282209 -0.285195 0.0156626 -0.0870432 0.0879912 -0.106839 -0.157178 -0.358453 0.130943 -0.273386 0.139481 -0.236376 0.00404624 0.327293 -0.100397 0.108416 -0.0436334 0.0615782 0.131634 0.0913613 0.0657563 0.140127 -0.0106793 -0.186361 0.0103735 0.283075 -0.0839991 0.0410508 -0.241972 -0.297923 0.62694 0.524503 0.346372 -0.287471 -0.316234 0.095001 0.0643674 -0.0245645 0.0354733 -0.0465295 0.03735 -0.235439 0.273217 0.14996 0.275151 -0.329476 -0.176675 -0.051881 -0.0662035 -0.358632 0.137221 -0.0690239 -0.175992 0.00797693 0.0403386 0.377329 -0.316994 -0.190089 -0.0549405 0.362921 0.32587 0.0596441 0.187382 -0.358527 -0.262147 0.287628 0.0685441 0.149749 -0.0926578 0.31815 -0.184701 0.127897 -0.01133 -0.11988 0.185803 0.422232 0.0392528 -0.140947 0.092707 -0.0936697 -0.132835 0.0232807
5765 -0.196606 -0.0273621 0.0106211 -0.0543747 0.234003 0.346256 0.129159 0.00427704 0.093815 -0.254961 0.424658 -0.0344399 0.474642 0.0707565 -0.305019 -0.0206659 0.41873 -0.463679 -0.151186 0.0712566 -0.182171 -0.416361 0.0646801 0.0042846 0.171721 -0.104287 -0.221707 0.259361 0.174183 0.150166 -0.0699425 0.0307129 -0.154711 0.0825182 0.0889682 0.0571685 0.0331695 0.339556 -0.0638929 0.210665 -0.290506 0.248402 -0.00439707 -0.126238 0.0964824 0.103645 -0.0273313 -0.270483 0.0496356 -0.0129544 0.0964117 -0.154083 -0.203651 -0.284024 0.238008 -0.165202 0.0567615 -0.189607 -0.00644755 0.384619 -0.1545 0.0448637 -0.0167026 -0.0939744 0.192872 -0.0394118 0.00359949 0.0572033 0.032731 -0.112249 -0.0168439 0.37789 -0.123468 -0.0309588 -0.163806 -0.202063 0.430654 0.450294 0.367532 -0.222624 -0.362576 -0.0492293 0.0682669 0.00189424 -0.0849189 -0.105246 0.00413061 -0.207308 0.263764 0.0696751 0.169866 -0.253415 -0.36249 -0.0372554 -0.134913 -0.240338 0.0835911 -0.1142 -0.00542949 -0.0953404 -0.159077 0.472633 -0.299575 -0.256689 -0.01143 0.381954 0.255762 -0.00433341 0.0719915 -0.55088 -0.169327 0.313922 0.0638571 0.200761 -0.070269 0.305096 -0.247943 0.223835 0.048 -0.0922951 0.130295 0.541346 0.124715 -0.0760984 0.076774 0.0244142 -0.0124693 -0.0231553
7773 -0.314768 -0.0956485 -0.0234567 -0.019085 0.241183 0.319602 0.175889 0.000621234 0.0962585 -0.21639 0.483602 -0.170991 0.457394 0.114423 -0.28805 -0.0478321 0.357773 -0.491728 -0.163699 0.0860824 -0.300336 -0.260222 0.153275 -0.0660883 0.307002 -0.14902 -0.210355 0.218474 0.131857 0.245269 -0.0130878 -0.00462081 -0.229326 0.122196 0.211313 0.0139121 0.0357621 0.322786 -0.146396 0.204905 -0.363603 0.161051 0.0110993 0.00727117 0.20936 0.146448 0.0489585 -0.258329 -0.0186251 -0.133184 0.194569 -0.172467 -0.202995 -0.350292 0.223709 -0.23454 0.0961476 -0.224538 -0.055392 0.343901 -0.0472035 0.139748 -0.0220195 -0.095747 0.138232 -0.00766827 0.0776071 0.134482 -0.0764653 -0.125244 -0.074334 0.353022 -0.0323355 -0.0671483 -0.224788 -0.292182 0.563341 0.445082 0.3485 -0.210493 -0.337066 -0.0763762 0.0450947 0.00462533 0.0385943 -0.035068 -0.0400808 -0.19353 0.333502 0.176472 0.251709 -0.266386 -0.266533 -0.0184138 -0.0478012 -0.262745 0.165915 -0.165778 -0.103985 -0.0426496 -0.0563643 0.474013 -0.337914 -0.216891 -0.103778 0.35077 0.243298 0.0504065 0.0983693 -0.467303 -0.294781 0.363725 0.139986 0.151956 -0.0712882 0.344984 -0.25406 0.0648157 0.0379272 -0.145129 0.239952 0.510407 0.150391 -0.0346511 0.0386669 0.0277759 0.0149122 0.0116154
5467 -0.196209 -0.114378 -0.195319 0.00727103 0.376333 0.32672 0.268582 -0.158868 -0.119469 -0.311602 0.50401 -0.22585 0.433866 0.293075 -0.190428 -0.146513 0.214607 -0.533513 -0.0313748 0.288274 -0.114808 0.113996 0.240431 -0.0528766 0.417135 -0.277114 -0.249404 0.207103 -0.0711802 0.377575 -0.0524965 0.0521884 0.00177211 0.0992536 0.325784 -0.000612177 -0.0475041 0.323875 0.0027429 0.127141 -0.155314 -0.156048 0.000524189 0.138045 0.35262 0.229458 -0.149037 -0.171455 -0.123653 -0.186831 0.110851 -0.266293 -0.0931799 -0.296736 0.139493 -0.32023 0.0784078 -0.298316 -0.00926012 0.394476 -0.0601746 0.168811 -0.115617 -0.0559633 0.167008 -0.103959 0.0641748 0.434494 -0.34796 0.00554231 -0.113395 0.50485 0.014526 -0.0437597 -0.3477 -0.270972 0.526114 0.13999 0.240198 -0.213763 -0.304462 -0.0793698 0.0917096 -0.0484866 0.0573403 0.0247796 -0.0316435 -0.330544 0.325013 0.208565 0.249901 -0.222752 -0.183375 -0.10436 -0.310882 -0.166703 0.185944 0.00349914 -0.17292 -0.0995118 0.114715 0.567762 -0.312218 -0.0607736 0.00344483 0.159825 -0.0560874 0.141481 -0.0761652 -0.137611 -0.231373 0.438866 0.140311 0.107754 0.0564843 0.0911802 -0.166456 -0.0731586 0.0804159 -0.223246 0.295606 0.403826 0.153765 -0.0202629 0.471052 0.176145 -0.0805664 0.504301
3197 -0.27087 0.0374038 0.0944766 -0.0966347 0.215261 0.387139 0.147566 0.0461563 -0.0518357 -0.209593 0.430121 -0.0980368 0.457166 0.112699 -0.224192 0.0204311 0.303972 -0.467825 -0.204957 0.0534453 -0.308449 -0.293173 0.160387 0.103469 0.266606 -0.181478 -0.154096 0.186721 0.183855 0.251462 -0.0671018 0.0177987 -0.184343 0.150087 0.131489 0.0271673 0.028372 0.258374 -0.076404 0.211268 -0.374108 0.241227 0.0211672 -0.0470799 0.291251 0.0659425 0.0279235 -0.314754 -0.0672417 -0.0322101 0.127044 -0.145899 -0.189721 -0.296586 0.195968 -0.224736 0.0392064 -0.272077 -0.0490458 0.343421 -0.0705534 0.0770898 -0.0635143 0.0154521 0.222654 0.0690155 0.0295775 0.191892 0.00398021 -0.132859 -0.0823085 0.288587 -0.0360025 -0.0417553 -0.258018 -0.278736 0.539166 0.486869 0.401357 -0.257934 -0.349208 0.0247033 -0.00349052 0.00316921 -0.00910195 0.0445873 0.00141857 -0.258214 0.284409 0.181123 0.249725 -0.328443 -0.281856 -0.031771 -0.0649956 -0.314268 0.245693 -0.201418 -0.189377 0.03328 -0.0828497 0.483415 -0.305336 -0.257609 -0.0569907 0.391077 0.277732 0.00106804 0.109116 -0.373974 -0.229296 0.277796 0.171602 0.148303 -0.168401 0.301773 -0.271426 0.106676 0.0210824 -0.122476 0.188328 0.49506 0.11219 -0.0621091 -0.0624137 -0.0650368 -0.0012647 0.0411514
3107 -0.160251 -0.0900822 0.0226042 -0.0908278 0.262102 0.279167 0.255644 0.0228488 0.127825 -0.282677 0.437752 -0.0948966 0.3864 0.0395308 -0.278896 0.0584353 0.35445 -0.4532 -0.19304 0.114294 -0.169509 -0.254946 0.0928916 -0.0388959 0.217356 -0.180333 -0.215424 0.145146 0.161675 0.310943 -0.0407203 -0.0178248 -0.160362 0.168012 0.239619 0.0597999 0.0442456 0.34059 -0.107686 0.190279 -0.263874 0.177334 0.0883421 0.0722769 0.154326 0.125892 0.0461906 -0.294816 -0.137398 -0.101878 0.0906242 -0.203403 -0.0902158 -0.284539 0.171037 -0.192438 0.127987 -0.146295 0.00949321 0.369986 -0.0466395 0.0234028 -0.0922692 -0.0341271 0.349436 0.000101874 0.0620829 0.130815 0.0488371 -0.192514 -0.0472806 0.358834 -0.0619218 -0.112748 -0.188049 -0.297943 0.59024 0.425458 0.334479 -0.177094 -0.321484 -0.108196 0.11853 -0.141559 0.0677892 0.021027 -0.0318315 -0.231088 0.242939 0.0597103 0.248317 -0.341593 -0.239938 -0.00107438 -0.0688961 -0.204884 0.187113 -0.163741 -0.0756669 -0.0429353 -0.0544534 0.530089 -0.259939 -0.118943 -0.071982 0.331509 0.289841 0.0409885 0.102383 -0.425484 -0.199557 0.288761 0.107107 0.248891 -0.0765907 0.347685 -0.304288 0.0887414 0.023411 -0.0727925 0.195078 0.440993 0.100557 -0.0934353 0.116818 0.0505086 -0.0999411 -0.072425
5817 -0.14351 0.0306557 -0.0361984 0.0212441 0.175281 0.344739 0.236337 -0.0731934 -0.00602176 -0.283878 0.445663 -0.0613025 0.394169 0.106965 -0.368364 -0.0688159 0.343962 -0.436735 -0.175509 0.134245 -0.301428 -0.235457 0.12614 0.0233317 0.340345 -0.173678 -0.215991 0.261518 0.0955975 0.162155 -0.0254309 -0.00506708 -0.234901 0.143439 0.192498 0.0351905 -0.0563757 0.35145 0.0255401 0.20117 -0.337111 0.251219 0.0454371 0.00560708 0.187273 0.148521 0.0407794 -0.312241 -0.00660165 -0.114336 0.123342 -0.224972 -0.233123 -0.366771 0.225195 -0.230716 0.0217428 -0.21662 -0.0439693 0.282403 0.0484834 0.0526533 -0.0175821 -0.152316 0.356582 -0.0509134 0.0204278 0.0982123 0.0276924 -0.123489 -0.0734091 0.305327 -0.0432171 -0.0390205 -0.223609 -0.206855 0.471713 0.390153 0.332181 -0.289251 -0.358376 -0.115207 0.0945305 -0.0190265 -0.0272182 -0.0864234 -0.137556 -0.375002 0.288007 0.0898746 0.148707 -0.319727 -0.227429 0.0619845 -0.0773314 -0.254789 0.158135 -0.154101 -0.0861761 0.0107039 -0.110803 0.520292 -0.260248 -0.229271 -0.0499545 0.312012 0.28503 0.0969918 0.0823851 -0.370372 -0.211973 0.351714 0.11528 0.162256 -0.0722023 0.370272 -0.279848 0.238965 -0.0343818 -0.0577362 0.160077 0.494771 -0.105561 -0.0163351 0.0754265 0.0562343 -0.0547585 -0.0215982
7787 -0.117638 0.0120837 0.0969287 0.0260372 0.137867 0.337777 0.222402 0.000872991 0.0208147 -0.201445 0.440043 0.00955382 0.485159 0.145347 -0.286124 -0.0256185 0.211982 -0.529355 -0.151055 0.0515027 -0.193689 -0.201451 0.0484154 0.0805045 0.337203 -0.180652 -0.164363 0.320735 0.135641 0.21769 -0.00929962 0.0690394 -0.224647 0.154243 0.17355 -0.00675302 -0.0442497 0.379609 0.0572737 0.204375 -0.311937 0.184223 -0.0340777 -0.0759813 0.148697 0.0263609 -0.0219238 -0.255864 0.0316723 -0.0507233 0.0740275 -0.281037 -0.155904 -0.457482 0.248667 -0.2135 0.141979 -0.133429 -0.0925352 0.274689 -0.046098 0.126173 -0.0135158 -0.0419842 0.160899 0.0115633 -0.00545491 0.0505639 0.0648681 -0.180459 0.068465 0.30176 -0.092198 -0.0549844 -0.3291 -0.22332 0.404846 0.41816 0.297717 -0.192209 -0.330012 0.0906335 0.0164802 -0.0317803 -0.031926 -0.0585252 -0.0741899 -0.184523 0.3281 0.132214 0.176593 -0.293348 -0.145019 -0.0746797 -0.012969 -0.236772 0.0705479 -0.147697 -0.105621 -0.0667321 -0.0211529 0.420671 -0.357308 -0.11705 -0.103554 0.290878 0.161462 -0.027464 0.0369348 -0.419631 -0.180965 0.313863 0.118067 0.194372 -0.0871373 0.326628 -0.207215 0.105571 0.0755527 -0.0575808 0.126207 0.548991 0.0884983 -0.00115998 0.0752724 0.0142602 0.0554404 -0.0631329
2648 -0.138535 0.0934878 -0.0366976 0.0636001 0.251846 0.331282 0.226258 -0.0233103 0.0544949 -0.227702 0.377728 -0.19805 0.391173 0.0501735 -0.275918 0.0195905 0.39549 -0.519763 -0.0961451 0.0691335 -0.194139 -0.279094 0.193319 0.0140328 0.309644 -0.16923 -0.202361 0.312155 0.178162 0.303533 -0.131683 -0.0455004 -0.141497 0.214372 0.0923653 -0.0727048 0.0410461 0.254041 0.0488803 0.145234 -0.282369 0.232919 0.0845617 0.0531504 0.194987 0.167672 0.0410715 -0.350731 0.0290343 0.0289339 0.0198443 -0.160035 -0.228334 -0.26206 0.063962 -0.221697 -0.00692871 -0.108944 -0.0350214 0.369599 -0.084648 -0.0237196 -0.0975684 -0.107074 0.333572 0.0350355 0.132203 0.252597 -0.0611921 -0.0186532 0.044818 0.387681 -0.122628 -0.0294945 -0.20607 -0.295995 0.457916 0.429446 0.41442 -0.25895 -0.351473 -0.0766003 0.0611126 -0.0825543 -0.0341475 -0.111667 -0.0472604 -0.357257 0.27781 0.141495 0.184231 -0.334336 -0.306637 0.0111044 -0.0642768 -0.24378 0.132121 -0.110201 -0.145845 -0.00167671 -0.169988 0.432982 -0.206456 -0.162568 -0.0323886 0.368649 0.222084 0.170306 0.0825875 -0.333929 -0.170405 0.240119 0.0670499 0.0389769 -0.0719332 0.303618 -0.176832 0.230108 0.0897803 -0.18511 0.108927 0.560603 0.112895 -0.0793094 -0.00257552 0.11501 -0.091124 0.0598579
7719 -0.112476 0.0437645 0.034403 0.00443845 0.113089 0.311464 0.194677 -0.0388147 0.0430152 -0.25172 0.41736 -0.0888498 0.3969 0.143701 -0.332216 -0.0741833 0.331306 -0.45947 -0.092433 0.0486252 -0.284706 -0.157813 0.0731017 0.00298461 0.359419 -0.0920898 -0.151068 0.24637 0.0888199 0.306571 -0.020334 -0.0654299 -0.224164 0.107238 0.116249 -0.0712139 0.0101602 0.374544 -0.0101117 0.123666 -0.281134 0.233136 0.0324621 -0.0423441 0.267439 0.0437643 0.0706485 -0.363273 -0.0709382 -0.043441 0.1285 -0.188756 -0.0831564 -0.319479 0.218056 -0.15611 0.0503602 -0.153909 0.00549297 0.340023 -0.0691772 0.0332831 -0.109241 -0.0864522 0.265228 -0.0323676 0.0471772 0.101102 -0.0184065 -0.128802 -0.0338701 0.398501 -0.0358017 -0.0498363 -0.206719 -0.240321 0.525054 0.356489 0.379579 -0.229772 -0.280075 0.0507705 0.0820945 -0.0130427 -0.0224443 -0.0698445 -0.0356197 -0.271362 0.264673 0.104193 0.217939 -0.337381 -0.325498 -0.0268719 0.0304236 -0.317864 0.0679141 -0.218627 -0.081227 -0.0633806 -0.163278 0.481821 -0.302413 -0.182538 -0.0316629 0.342786 0.258111 -0.00716268 0.229848 -0.475675 -0.200111 0.424108 0.155719 0.179306 -0.140805 0.365984 -0.191868 0.096008 0.0668165 -0.171025 0.0983769 0.573339 0.0801105 -0.0139183 0.119287 -0.0743041 -0.0623289 0.0669398
438 -0.201509 -0.00505874 0.0595332 0.0915065 0.197814 0.319273 0.232618 0.0364856 0.0268378 -0.285695 0.460201 -0.247518 0.388183 -0.0206369 -0.345836 -0.0069447 0.412022 -0.517833 -0.167517 0.1322 -0.259115 -0.253053 -0.046179 0.0847714 0.235401 -0.134795 -0.216439 0.263466 0.163533 0.181047 -0.193304 0.0172474 -0.226876 0.149521 0.155978 0.0307832 0.0150471 0.19334 -0.00370278 0.219487 -0.286101 0.264211 -0.00198741 -0.0352075 0.161058 0.0584798 -0.0445073 -0.356985 -0.0534035 -0.0533708 0.0963903 -0.117659 -0.124327 -0.292488 0.234582 -0.21244 0.0494699 -0.126686 -0.0827785 0.36604 -0.023966 0.0323101 -0.0783337 -0.0452302 0.1953 0.0740196 0.0284675 0.0772341 -0.0364889 -0.0917731 -0.0654596 0.328856 -0.175053 -0.0226513 -0.188714 -0.238699 0.539114 0.40231 0.258611 -0.293835 -0.330832 -0.00526593 0.151871 -0.0608895 0.000801632 -0.0623341 -0.0740226 -0.249008 0.248613 0.100894 0.161601 -0.2884 -0.240002 0.00298821 0.031736 -0.319869 0.163553 -0.152605 -0.0553329 -0.118219 -0.0522401 0.37021 -0.275305 -0.0682177 -0.00155378 0.369399 0.328391 0.158248 0.146638 -0.384381 -0.224728 0.318812 0.0583192 0.116672 -0.0848739 0.388825 -0.310247 0.116864 0.0894655 -0.132356 0.197381 0.528423 0.135181 -0.00492652 0.12286 0.0447769 -0.141186 -0.00869035
7700 -0.265954 -0.120776 -0.0348361 -0.396177 0.273142 0.253454 0.261211 -0.0476716 -0.0178001 -0.275997 0.448482 0.028952 0.549609 -0.0563611 -0.202975 -0.0544467 0.307168 -0.534427 -0.176287 -0.0252685 0.0226474 -0.0820836 0.0551405 -0.0208687 0.271855 -0.187848 -0.183579 0.330766 0.348114 0.339813 -0.196759 -0.0902449 -0.12845 0.0801887 0.0450007 0.000123511 0.0828688 0.276336 0.0903097 0.167258 -0.262297 0.0343684 0.0205921 -0.195569 0.229586 0.0646664 -0.0309139 -0.309911 -0.239666 -0.0202519 -0.0419946 -0.209549 -0.116366 -0.320336 0.303356 -0.247488 0.186972 -0.0867293 -0.0505173 0.298628 -0.177677 -0.107232 -0.231173 -0.250592 0.273616 0.0918469 -0.106461 0.0203391 -0.40457 -0.431551 0.0421826 0.158678 -0.0376503 -0.206802 -0.359387 -0.243565 0.61103 0.467889 0.380139 -0.291806 -0.523326 -0.0862744 0.0276245 -0.00856687 0.120592 -0.0195614 0.0150906 -0.111207 0.20345 0.207827 0.111611 -0.322288 -0.27521 -0.100675 -0.169333 -0.472896 0.163794 -0.0306226 -0.144602 -0.156414 0.112771 0.461137 -0.291005 -0.17821 -0.217322 0.212306 0.291242 0.0631238 0.131764 -0.338016 -0.212033 0.28957 0.133774 0.228587 -0.106956 0.212103 -0.14664 0.0392178 0.0794942 -0.103394 0.135611 0.495297 0.142763 -0.00941421 0.23078 -0.0473952 -0.0943387 -0.0680643
