2282 128
111 -0.112564 -0.2806 -0.0993578 0.0249939 0.407221 -0.402441 -0.146085 0.58441 -0.277541 -0.0802378 -0.468036 0.119751 -0.0638851 -0.645501 0.0329606 0.0646484 -0.121039 0.0855303 -0.151176 0.115705 0.436335 -0.091777 0.05326 0.343967 -0.211506 0.260431 0.458396 -0.254554 0.423179 0.433859 0.486062 -0.355508 -0.162316 0.257434 0.339466 0.143723 0.304763 -0.0394107 0.190089 0.0306558 -0.115325 -0.0318986 0.013765 0.202873 0.36655 0.492645 -0.293565 -0.147714 -0.416068 0.0158984 -0.177797 -0.115511 0.413844 -0.122283 0.21299 -0.318854 0.198442 0.305968 -0.338778 -0.155565 0.234813 0.196728 0.149833 0.246052 -0.55175 0.120461 0.0350884 -0.110428 0.228929 0.129128 -0.208808 -0.121931 -0.249182 -0.342555 -0.805737 -0.359216 0.205431 0.205443 -0.152577 0.0259881 -0.117204 -0.574654 -0.155699 0.565924 0.186956 -0.225268 -0.189553 -0.647502 -0.221717 0.0448092 0.240044 -0.113342 -0.108432 -0.454738 -0.157168 -0.210349 -0.475521 0.222258 0.466332 0.198676 -0.352815 0.0885241 0.121892 -0.169184 0.190513 -0.105591 0.151493 -0.357219 -0.427601 0.0976024 -0.126212 0.0142141 0.270822 -0.184531 -0.156061 -0.1497 -0.0539082 0.139787 -0.397543 0.0925413 0.160078 0.107934 -0.102122 0.072106 0.52299 0.237758 0.194941 0.120714
3138 -0.130049 -0.299343 -0.139273 0.0211547 0.490345 -0.254343 -0.095148 0.486447 -0.40232 -0.0802217 -0.493792 0.186229 -0.0846929 -0.713641 0.0201888 0.164365 -0.0750233 0.153589 -0.355524 0.118031 0.459662 0.0130125 0.210321 0.406879 -0.216279 0.329268 0.337855 -0.266379 0.305268 0.476358 0.628437 -0.306282 -0.0641936 0.246108 0.494891 0.333407 0.261268 0.0443167 0.0206264 -0.0314991 -0.137677 -0.0500519 0.25277 0.176851 0.328058 0.559773 -0.380995 -0.0746366 -0.416296 0.141707 -0.345576 -0.122605 0.347185 -0.0143658 0.147694 -0.26499 0.184593 0.458318 -0.192821 -0.254667 0.0288162 0.27744 0.34435 0.296918 -0.642669 -0.0496116 0.183277 -0.105506 0.276846 0.161089 -0.412569 -0.121266 -0.466138 -0.296236 -0.627993 -0.461601 0.220235 0.129716 -0.0813341 -0.0451555 -0.187556 -0.738862 -0.062683 0.572493 0.20361 -0.120823 -0.203473 -0.707474 -0.319974 -0.091242 0.374528 -0.121323 -0.0084323 -0.355216 -0.220357 -0.257749 -0.548199 0.170915 0.607201 0.303831 -0.408026 -0.0544114 0.0500348 -0.0328509 0.299498 -0.0771766 -0.0793895 -0.242299 -0.276867 0.0207954 -0.104546 0.165333 0.249974 -0.053602 -0.202095 -0.0690567 -0.148968 0.15672 -0.464554 0.0825041 0.287433 0.0582246 -0.0594614 -0.0192263 0.454976 0.244951 0.154925 0.113828
373 -0.12187 -0.270563 -0.143842 -0.0666148 0.497089 -0.18349 -0.0958819 0.454265 -0.436123 -0.082409 -0.499501 0.189648 -0.0955345 -0.723192 0.0379263 0.14328 -0.0733895 0.193408 -0.348272 0.165945 0.432557 0.0828021 0.208054 0.43145 -0.236755 0.387679 0.295891 -0.22546 0.348243 0.485169 0.576667 -0.209561 -0.15338 0.247332 0.539187 0.31766 0.193831 0.0419513 -0.0178306 -0.135191 -0.138544 -0.059262 0.287545 0.170722 0.305756 0.572605 -0.381586 0.0262422 -0.334296 0.167638 -0.412674 -0.110573 0.299066 -0.0464445 0.202223 -0.173805 0.179568 0.503551 -0.0535012 -0.293357 0.0465789 0.320386 0.387916 0.265529 -0.637753 -0.132343 0.190703 -0.0956785 0.244014 0.193556 -0.412028 -0.0421119 -0.437906 -0.257675 -0.651182 -0.390291 0.297225 0.109923 -0.0224124 -0.0337924 -0.344119 -0.789358 -0.0918101 0.518917 0.1132 -0.122541 -0.141201 -0.767538 -0.30842 -0.0842089 0.416089 -0.0716908 -0.0799471 -0.338712 -0.221104 -0.286216 -0.631966 0.144523 0.642532 0.313593 -0.43591 -0.158719 0.00774624 0.0333898 0.243974 -0.118763 -0.0663273 -0.225241 -0.349618 0.00413332 -0.162973 0.11647 0.265062 -0.0858522 -0.175902 -0.0684296 -0.115567 0.237237 -0.48182 0.0122677 0.291363 0.115423 -0.00595167 -0.145647 0.35483 0.247784 0.205004 0.0534775
672 0.259951 -0.218556 -0.195685 0.342512 0.33633 -0.332876 -0.17499 0.531436 -0.441694 -0.0924218 -0.421844 0.030046 0.256893 -0.609513 0.039471 -0.0237602 0.0845293 -0.200777 0.0315195 0.304078 0.413096 -0.0871371 -0.0143971 0.315589 0.0413663 0.240929 0.418815 -0.295492 0.218034 0.487298 0.414828 -0.321216 0.0619319 0.0924415 0.381405 0.252474 0.150855 -0.130788 0.0263742 -0.035588 -0.181778 0.13382 -0.0311752 0.0519155 0.328937 0.503748 -0.335702 0.0342541 -0.358774 0.164062 -0.387802 -0.0705523 0.349203 -0.253033 0.0346336 -0.388929 0.0676335 -0.080106 -0.532798 -0.13121 0.232674 0.00828199 0.137025 0.324231 -0.392026 0.230129 -0.339421 -0.31969 0.11107 0.293556 -0.125572 -0.112258 -0.200478 0.00388899 -0.363567 -0.474929 0.270064 0.284766 -0.146478 -0.217509 0.00613661 -0.336602 -0.205096 0.614926 0.19359 -0.273035 -0.240718 -0.46484 -0.245033 -0.175584 0.434861 -0.184364 -0.27657 -0.220796 -0.0667241 -0.187135 -0.576953 0.406103 0.262908 -0.0827913 -0.205178 0.237821 0.294778 -0.11708 0.100943 -0.356662 0.386321 -0.331294 -0.58318 -0.0675711 -0.121415 -0.250967 0.100149 -0.172892 -0.168434 -0.0503481 -0.106633 0.152951 -0.170429 -0.0306885 0.115753 0.134797 -0.102276 0.0185271 0.198344 0.102171 0.0138673 0.0372031
5824 0.162787 -0.319325 -0.25569 0.156005 0.444208 -0.245453 -0.0987767 0.602896 -0.571037 -0.045716 -0.453994 0.150759 0.0756142 -0.725849 -0.00528701 -0.0347003 -0.00180479 -0.0492538 -0.202842 0.206822 0.443546 0.036051 -0.0103758 0.345447 -0.234264 0.295268 0.390673 -0.331593 0.331082 0.442991 0.49825 -0.194883 -0.199818 0.120061 0.590524 0.279501 0.0548782 -0.0862015 -0.0166382 -0.123932 -0.220427 0.0451572 0.126336 0.0879584 0.330211 0.508066 -0.310386 -0.029067 -0.401589 0.239474 -0.28689 0.0212399 0.459359 -0.224097 0.098643 -0.342853 0.122126 0.214916 -0.293182 -0.214459 0.279201 0.0332678 0.212749 0.320756 -0.433504 -0.00715747 -0.205423 -0.270313 0.188683 0.375041 -0.210782 -0.169133 -0.219137 -0.140087 -0.383479 -0.382025 0.354531 0.191787 -0.130209 -0.0976047 -0.23019 -0.500657 -0.247416 0.542188 0.477025 -0.184961 -0.31328 -0.568435 -0.255925 -0.130716 0.597365 -0.182879 -0.156699 -0.0237042 -0.108239 -0.265775 -0.657595 0.410117 0.378892 0.158278 -0.240634 0.122634 0.321775 -0.100353 0.0478703 -0.280647 0.293829 -0.336644 -0.426084 -0.0359357 -0.103868 -0.101175 0.220721 -0.284606 -0.214958 -0.127452 0.0799731 0.153684 -0.241495 0.0283333 0.147534 0.184198 -0.0583879 -0.107407 0.218078 0.0819209 0.23308 0.0247202
190 -0.492201 0.00691898 -0.020534 -0.29615 0.143778 -0.266993 0.0391181 0.639356 -0.0136214 -0.0750301 -0.207978 -0.114335 -0.0363889 -0.337864 0.127156 0.028611 0.131388 0.217149 -0.218922 -0.143221 0.626585 0.0162572 0.0135153 0.176333 -0.443532 0.0836921 0.419564 -0.0461691 0.209387 0.369048 0.423672 -0.424539 0.140723 0.325541 0.24052 0.166702 0.339685 0.018843 0.343826 -0.015306 -0.0386708 0.0515022 0.0403774 0.216999 0.50351 0.235964 -0.0496425 -0.220031 -0.184887 0.137707 -0.0716282 -0.133864 0.15875 -0.0476946 0.160611 -0.175007 0.00459929 0.226783 -0.183609 0.0938109 0.145081 0.00492675 0.00127297 0.175066 -0.591375 0.251497 0.117028 0.265421 0.0849106 0.0838026 -0.285327 -0.163364 -0.122818 -0.586818 -0.518726 -0.337728 0.217539 -0.0396123 -0.0476197 -0.020137 -0.110777 -0.679705 -0.0791102 0.347176 0.15901 -0.0849701 -0.137356 -0.492328 -0.205699 0.0998598 0.262952 0.0699127 -0.329206 -0.501663 -0.0644473 -0.107553 -0.0452327 -0.118735 0.537165 0.191944 -0.328382 -0.155952 -0.0117528 -0.132129 0.286969 0.0421572 0.131395 -0.206106 -0.479243 -0.0868044 0.0190967 0.314723 -0.00715023 -0.279997 -0.118256 -0.0336497 -0.141789 -0.0341743 -0.495457 0.11784 0.137664 0.09282 0.00769609 0.262598 0.704237 0.427766 0.117142 0.00906463
4563 -0.491035 -0.0396785 -0.0224633 -0.0440576 0.310354 -0.318099 0.0625686 0.599125 -0.144352 -0.102887 -0.225148 -0.00437777 -0.230289 -0.201444 0.179025 -0.0998785 -0.154887 0.310535 -0.38237 -0.0084058 0.453606 0.0276432 0.137575 0.300264 -0.283964 0.000181789 0.481009 0.107567 0.266476 0.505239 0.278106 -0.377371 0.0311698 0.235817 0.411824 0.162216 0.273701 0.0989635 0.414088 0.188579 -0.0854242 -0.0830719 0.0582574 0.238978 0.416428 0.224817 -0.112581 -0.205533 -0.467541 0.0039652 -0.1153 -0.0868633 0.142993 -0.0924157 0.0900203 -0.0729786 0.124377 0.464186 -0.252127 0.111611 0.0265177 0.121276 -0.0663634 0.0624551 -0.626176 0.148416 0.146517 0.0480757 0.196885 0.0506765 -0.388091 -0.0798835 -0.261844 -0.198282 -0.53976 -0.291527 -0.200335 0.169257 -0.0693363 -0.0361784 -0.0959848 -0.73783 -0.148755 0.481248 0.110373 -0.0661112 -0.277629 -0.421243 -0.381055 0.20924 0.202984 -0.0224274 -0.330839 -0.609794 -0.131392 -0.180146 -0.0749054 -0.270987 0.618872 0.047271 -0.117852 -0.0681738 0.0404644 0.0326973 0.340343 0.106063 0.0227052 -0.292782 -0.56535 0.127411 -0.0124709 0.280437 0.199966 -0.0930623 -0.0559673 -0.0911311 -0.152924 0.00908577 -0.409341 0.225415 0.131491 0.277234 0.0448811 0.212308 0.543526 0.462647 0.17628 0.0649471
1 0.19086 -0.0682466 -0.14369 0.134248 -0.0698801 -0.197389 -0.0895279 0.335186 -0.130204 -0.0691687 -0.041605 -0.0601303 -0.0602659 -0.0627781 0.112963 0.120048 0.0204089 -0.0141256 -0.120525 -0.0536448 0.512859 0.147376 -0.0798966 0.00923842 -0.0931911 0.146131 0.343312 0.234665 -0.0896158 0.499719 0.0538615 -0.380631 0.0410465 0.168688 0.498745 0.172389 0.00853889 -0.216352 -0.0442802 0.133781 0.0731543 0.179898 -0.0407324 0.106962 0.294191 0.325258 0.09455 -0.151401 0.114242 0.128566 -0.313265 -0.00490255 0.263624 -0.295316 -0.0780196 -0.160044 0.119417 -0.122653 -0.368992 0.026439 0.221872 -0.269939 -0.147812 0.448945 -0.421618 0.324992 -0.110217 0.0773864 -0.108345 -0.0154359 -0.261003 -0.192602 -0.32862 -0.165688 -0.315952 -0.0880728 -0.344104 0.104115 0.29128 0.197404 -0.0115287 -0.44373 -0.291202 0.0611577 0.291117 -0.188596 0.0836446 -0.180984 -0.393406 0.102645 0.49606 -0.281369 -0.174897 -0.403937 0.270554 -0.204612 0.0961682 0.217497 0.307264 0.0120715 -0.174384 -0.0809802 0.144975 0.0700064 0.172084 -0.309928 0.257367 -0.181565 -0.189238 -0.131128 0.164119 0.0582936 -0.111251 -0.34886 -0.226694 -0.128585 0.157576 -0.213901 -0.172901 0.0602925 -0.0620173 0.268647 -0.150634 -0.0877225 0.106338 0.0634365 0.146209 0.269352
7771 0.343288 -0.0252399 -0.0031293 0.246579 -0.00634324 -0.0900232 -0.147927 0.592265 -0.269679 -0.107583 -0.198021 -0.0336297 0.0586765 0.00648003 -0.0144215 -0.194846 0.0356787 -0.202872 -0.184472 -0.106122 0.492057 0.201639 -0.0295023 -0.172382 -0.0459492 0.0496701 0.463977 -0.0796088 0.0577847 0.532643 0.000971555 -0.233824 0.0740822 0.139684 0.44864 0.0670564 0.070562 -0.0684622 0.21612 0.108912 0.0724199 0.145904 0.0403426 0.112053 0.270277 0.401676 0.0610305 -0.00699067 -0.108216 -0.0818585 -0.129936 0.101242 0.219721 -0.307633 -0.247012 -0.161527 0.0962571 -0.0572704 -0.298774 -0.0892065 -0.00516011 -0.254718 0.0205314 0.378665 -0.321787 0.153817 0.0151024 0.132118 0.165349 0.105948 -0.234611 -0.201049 -0.264685 -0.225525 -0.0605688 -0.466533 0.0788513 0.0368133 0.00506446 0.0910684 -0.0329869 -0.295962 -0.18482 -0.158933 0.47372 -0.129995 -0.0903904 -0.219943 -0.287448 0.0530044 0.514604 0.0188226 -0.216322 -0.0445977 0.259262 -0.159232 -0.153541 -0.0631721 0.18983 -0.163678 0.042779 0.00973761 0.152267 -0.0418208 0.19968 -0.287138 0.479248 -0.157668 -0.186152 0.022513 -0.0223339 -0.0245609 -0.168451 -0.402065 -0.130364 -0.225981 0.109396 -0.0678038 -0.301892 0.322248 -0.0358517 0.592275 -0.030732 -0.170134 0.40113 0.127964 0.029292 -0.0105193
0 -0.0120035 0.155035 0.00105432 0.153003 0.00349613 -0.0604192 0.0368444 0.445082 -0.404119 -0.145398 0.0236386 0.0354264 0.0866766 -0.103982 -0.0349252 -0.149975 -0.0875697 -0.11852 -0.249684 -0.0056699 0.522969 0.0840867 -0.220579 -0.0711818 -0.07046 0.296581 0.314595 -0.113478 0.0450557 0.545634 -0.0610041 -0.224946 0.206517 0.199356 0.433629 0.0642223 0.174525 -0.135209 0.122333 0.0519963 -0.0179173 0.371477 0.0268742 -0.0838742 0.244881 0.466947 -0.130151 -0.0807639 -0.235128 0.00894019 -0.303795 0.0241904 0.303147 -0.0634832 -0.255355 -0.342899 0.050221 0.0185786 -0.201569 -0.190783 0.112268 -0.0639795 -0.134331 0.478864 -0.391958 0.177255 -0.323783 0.273439 0.0680944 0.0263829 -0.316637 -0.28267 -0.276132 -0.155411 0.0463897 -0.314574 -0.00369274 -0.0724469 -0.00636909 0.0653888 -0.137022 -0.229716 -0.080132 0.0953129 0.319512 -0.135174 0.0885656 -0.112932 0.181064 0.0102657 0.490505 -0.00210778 -0.33078 -0.0818547 0.0983748 -0.260413 -0.123011 -0.288165 0.181633 -0.139592 0.0325843 0.0746262 0.310666 0.148685 -0.0893881 -0.332472 0.336612 -0.0085844 -0.271632 -0.143067 0.0979645 0.238818 -0.0798544 -0.22394 -0.112201 0.164161 0.110297 -0.0953522 -0.190668 0.1418 0.261483 0.369457 0.203417 0.0197029 0.293556 0.0585831 0.0703843 -0.0802477
197 0.260012 0.0646327 -0.233798 0.341507 -0.308546 -0.340151 0.0934461 0.533551 -0.0615292 -0.305167 -0.0833956 0.0320727 0.449312 -0.0584404 -0.187592 0.280626 0.0292635 0.00199505 -0.105315 -0.152675 0.479437 -0.0806182 0.448275 0.0760758 -0.0904312 0.347161 0.493761 0.27824 -0.0422228 0.379065 0.321315 -0.405561 0.180977 0.189812 0.573644 0.0992452 0.154925 -0.0493524 0.106327 0.107127 0.326181 -0.0526016 -0.0125925 -0.209526 0.221879 -0.0779495 -0.0552494 -0.04495 -0.148479 0.321295 -0.0828723 -0.0623613 0.419042 -0.109339 -0.153253 -0.126301 0.189102 0.0510277 -0.594704 -0.13965 0.0346754 -0.38187 0.153947 0.453974 -0.60447 0.103317 -0.146318 -0.0832208 0.129123 0.306871 -0.309618 -0.243862 -0.262522 6.67408e-05 0.072524 -0.679786 -0.101296 0.0936182 0.064352 -0.134627 -0.14511 -0.0772237 -0.193455 -0.210463 0.531716 -0.15031 -0.450949 -0.504628 -0.278358 0.139439 0.774645 -0.176001 -0.199162 -0.0367319 0.225859 -0.229933 -0.262194 -0.0815671 0.0792519 -0.269242 0.0482689 0.14262 0.249389 0.203999 0.285137 -0.414152 0.344629 0.224462 -0.512497 -0.374827 -0.198512 0.262092 -0.145151 -0.102949 0.320073 -0.220091 0.199784 -0.0893434 -0.559425 0.100819 -0.0179754 0.191793 0.153387 -0.0078669 0.186145 0.383802 0.0340529 0.197903
1737 0.0603617 0.192407 -0.329355 0.396355 -0.143858 -0.174434 -0.0165454 0.602805 -0.0697708 -0.344709 0.263146 0.0804875 0.366385 -0.142448 -0.213138 0.282163 0.0869882 -0.056114 -0.157937 -0.375049 0.36056 -0.0720863 0.52804 0.16483 0.05659 0.232972 0.513115 0.296729 -0.031562 0.555834 0.221308 -0.175678 0.211517 0.140658 0.409174 0.199414 0.123775 -0.0815392 0.230191 0.116294 0.0584939 -0.0343129 0.104372 -0.197709 0.184687 -0.0289199 -0.172991 -0.0292948 -0.06302 0.182356 0.0375097 0.0526686 0.486521 -0.0903414 -0.0319445 -0.0991919 0.468296 0.0853334 -0.435984 0.0935505 -0.177957 -0.284638 -0.0875714 0.400852 -0.353738 0.0756903 -0.240435 0.0663265 0.293982 0.260455 -0.250443 -0.352498 -0.25116 -0.0107062 -0.0346676 -0.62545 0.0125339 0.202634 0.0720437 -0.326997 -0.349054 -0.130644 -0.148902 -0.261135 0.455017 -0.0288421 -0.367629 -0.584389 -0.344032 0.0816924 0.866189 -0.26662 -0.160756 -0.0341523 0.192743 -0.36546 -0.255246 -0.100287 0.0847083 -0.294663 -0.268119 0.299622 0.104643 0.227875 -0.0605762 -0.447791 0.175587 0.295457 -0.571807 -0.595977 -0.186563 0.450483 -0.156911 -0.238626 0.238237 -0.23967 0.324759 -0.0316598 -0.624738 0.18872 0.00318934 0.239046 0.179226 0.00153993 0.185708 0.487949 -0.207244 0.333942
4213 0.181562 0.204266 -0.258408 0.318008 -0.0528265 -0.26146 -0.00778717 0.509082 -0.000704234 -0.261244 0.0746872 0.0711984 0.428687 -0.18793 -0.315045 0.344457 0.129227 0.00156276 -0.113572 -0.260371 0.357995 -0.00748137 0.487369 0.268773 0.168507 0.266447 0.426314 0.277121 -0.0249326 0.437788 0.28728 -0.235353 0.194525 0.115893 0.400073 0.186148 0.103271 -0.0835508 0.148178 0.127659 0.0968593 -0.0240089 -0.01327 -0.151548 0.115474 -0.000936358 -0.0269669 0.0958924 -0.0103851 0.292169 -0.0485654 0.0560394 0.420255 -0.113776 -0.0735746 -0.0768177 0.485907 0.162916 -0.489462 0.00782689 -0.0715161 -0.281108 -0.0336378 0.442395 -0.397381 0.111907 -0.11922 0.0911186 0.321472 0.172703 -0.396223 -0.352523 -0.351998 -0.00484011 -0.170038 -0.630623 0.0808284 0.241831 0.241746 -0.315459 -0.299757 -0.155335 -0.0302425 -0.30149 0.508313 -0.171446 -0.53011 -0.574909 -0.297087 0.0240474 0.873238 -0.37473 -0.192894 -0.151468 0.349688 -0.372835 -0.304924 -0.0495347 -0.00923179 -0.327368 -0.160616 0.257163 0.113067 0.169061 0.0173503 -0.522016 0.247016 0.333717 -0.367226 -0.457007 -0.192469 0.44035 -0.0415841 -0.24471 0.271264 -0.177144 0.21373 0.0564321 -0.613421 0.182191 0.123612 0.220923 0.184168 0.00299448 0.118382 0.475989 -0.045833 0.319922
8001 0.0632972 0.195661 -0.21838 0.332373 -0.194869 -0.142066 0.0419473 0.520833 -0.0494836 -0.370902 0.119552 0.103718 0.366363 -0.191822 -0.163725 0.298863 0.146477 0.0145634 -0.194741 -0.328357 0.340453 -0.00303125 0.472537 0.24437 0.133965 0.370981 0.419847 0.332913 0.0456074 0.575118 0.317839 -0.34458 0.265406 0.229997 0.450349 0.213425 0.190975 -0.0724147 0.239714 0.128935 0.0577711 0.0950822 0.0451301 -0.1062 0.18184 -0.0493003 -0.12224 0.0698255 -0.0521447 0.118771 -0.0280773 -0.0793962 0.475474 -0.2383 -0.0343652 -0.183206 0.451299 0.100634 -0.600578 0.0491856 -0.171504 -0.347025 -0.0813542 0.594481 -0.489058 0.17906 -0.23475 -0.0639293 0.227828 0.251258 -0.283664 -0.298162 -0.296393 -0.0195583 -0.0956891 -0.615204 -0.110028 0.227868 0.0992417 -0.294692 -0.345115 -0.2577 -0.0575521 -0.346067 0.470531 -0.0446359 -0.382572 -0.594535 -0.322791 0.0604021 0.928978 -0.185053 -0.196969 -0.125107 0.301845 -0.278203 -0.333468 -0.149423 0.182677 -0.330324 -0.226914 0.221377 0.17102 0.14238 0.0674587 -0.451904 0.218021 0.205714 -0.572739 -0.46372 -0.200849 0.391566 -0.0567349 -0.194102 0.216864 -0.255999 0.223306 -0.000767504 -0.592496 0.0918345 0.0381859 0.29294 0.226291 0.0615126 0.208514 0.601456 -0.164095 0.266724
7494 0.23389 0.183013 -0.303328 0.426029 -0.125447 -0.213067 0.0138797 0.542215 0.0512479 -0.425453 0.199527 0.102564 0.39856 -0.0821001 -0.178325 0.311145 0.0502232 -0.182397 -0.167675 -0.33532 0.280799 0.106765 0.480904 0.168898 0.126313 0.180545 0.577768 0.26425 0.0346416 0.46542 0.084101 -0.296138 0.276887 0.146836 0.497157 0.289203 0.191773 -0.170562 0.22597 0.145418 0.14053 -0.0889466 -0.01435 -0.225223 0.219075 -0.00760465 -0.168894 0.0453164 0.0149284 0.0311656 0.00461768 -0.0447423 0.502955 -0.142684 -0.102065 -0.121428 0.525499 0.0384698 -0.49298 0.0393228 -0.104246 -0.291892 -0.0341806 0.491658 -0.417292 0.123202 -0.248886 -0.08008 0.240906 0.15763 -0.254714 -0.345036 -0.241715 0.0131683 -0.09392 -0.677709 0.0637046 0.272542 0.224431 -0.210946 -0.391039 -0.232888 -0.0537402 -0.272346 0.487186 -0.110799 -0.381015 -0.544491 -0.325238 0.156858 0.874931 -0.236661 -0.150108 -0.00153066 0.231334 -0.367464 -0.276301 -0.160152 0.137627 -0.295026 -0.211035 0.336108 0.174227 0.0903624 -0.0405217 -0.536495 0.358027 0.270717 -0.51183 -0.550205 -0.187292 0.431916 0.104854 -0.251486 0.25353 -0.267828 0.269861 0.057281 -0.682075 0.0970664 0.176667 0.288334 0.186883 0.0219577 0.305587 0.584716 -0.16264 0.329859
7088 0.132688 0.124004 -0.295971 0.39213 -0.0974303 -0.196002 0.0621761 0.581977 -0.0563233 -0.406575 0.180117 0.11959 0.460706 -0.19072 -0.277679 0.313002 0.109292 -0.0779775 -0.190798 -0.353763 0.261095 0.0226722 0.409464 0.142229 0.165358 0.221762 0.530216 0.3108 0.0322532 0.449305 0.274233 -0.199732 0.223431 0.171264 0.444294 0.195488 0.067334 -0.174754 0.129364 0.173064 0.140563 0.0567507 0.0433797 -0.180395 0.115494 -0.0320534 -0.0931462 0.0704248 -0.00731458 0.172414 -0.100731 0.0292527 0.558897 -0.228727 -0.04308 -0.135398 0.427054 -0.025376 -0.592624 0.0258039 -0.0583403 -0.318636 -0.0878918 0.412896 -0.41359 0.175383 -0.196843 -0.0103335 0.297772 0.291782 -0.294542 -0.31493 -0.359213 -0.0787285 -0.0171548 -0.564435 0.054003 0.396608 0.165131 -0.302084 -0.293267 -0.187227 -0.128308 -0.202823 0.448378 -0.126114 -0.443949 -0.63608 -0.194857 0.0986041 0.976023 -0.301735 -0.162572 -0.0712913 0.329181 -0.439615 -0.329354 -0.116088 0.13303 -0.249779 -0.192831 0.256322 0.195342 0.149685 -0.0352995 -0.55224 0.334812 0.199279 -0.468516 -0.500319 -0.159315 0.392436 -0.0307898 -0.243708 0.17088 -0.137219 0.223936 0.0514724 -0.548144 0.15398 0.22392 0.267981 0.13308 0.0321101 0.146221 0.433334 -0.136844 0.424577
1251 0.0806518 0.176355 -0.0167402 0.116411 0.325333 -0.0428699 -0.303012 0.580533 -0.0712642 0.0695484 -0.220871 -0.0112887 -0.220406 -0.189744 -0.207206 -0.301798 0.228604 -0.302102 -0.318349 0.186155 0.636663 0.38302 -0.0739029 -0.102604 -0.468839 0.215628 0.325267 0.156136 0.100302 0.109311 -0.00174068 -0.343963 0.045457 -0.0210618 0.610264 0.103455 -0.0312071 -0.128271 0.0971884 -0.189217 0.150232 0.3999 0.345708 0.112137 0.274476 0.150043 0.215566 0.0526645 -0.077329 -0.210228 -0.220578 -0.133563 0.163519 -0.130347 -0.419523 -0.460443 -0.301392 -0.317056 -0.505989 -0.126221 -0.276674 -0.18455 -0.170605 0.151715 -0.586487 -0.0799977 -0.174558 -0.0319374 -0.302512 -0.0819963 -0.240107 -0.384399 -0.157762 -0.670983 0.396727 0.0379976 -0.133869 0.0245076 0.206324 0.0577499 0.0647853 -0.177932 -0.0191577 -0.405249 0.00591616 -0.482448 -0.129141 -0.343648 0.104458 0.620209 0.68285 -0.223891 -0.164594 -0.108986 -0.225643 -0.131512 -0.017351 0.10062 0.0971428 -0.0398674 -0.390382 0.000660608 0.199854 -0.245676 0.331507 -0.379822 0.142213 -0.18464 -0.290558 -0.0784111 -0.178604 0.00905281 -0.360649 -0.614519 0.0559547 -0.339701 -0.195704 -0.189576 -0.136858 0.0534981 0.148777 0.503452 0.286455 -0.425985 0.220246 0.117574 0.213807 0.322453
787 0.233485 0.103968 -0.0179106 0.110134 0.366477 -0.321994 -0.371655 0.873451 -0.366858 -0.085682 -0.127438 -0.175469 -0.136861 -0.227219 0.0339495 -0.331132 0.372761 -0.39973 -0.565447 0.256262 0.492088 0.269719 -0.0372477 -0.0806944 -0.233403 0.031848 0.576324 0.0678274 0.196836 0.225686 0.0484013 -0.298863 0.189371 0.231896 0.690201 0.158094 0.00707054 0.0564786 -0.253991 -0.149626 0.317534 0.334531 0.484813 0.0109032 0.310367 0.307243 0.112067 0.0913501 -0.193783 -0.168815 0.18122 -0.209949 0.122251 -0.0522803 -0.406139 -0.417936 -0.148909 -0.0180136 -0.696885 -0.233732 -0.208766 -0.503256 -0.100187 0.212731 -0.814722 -0.121981 -0.281544 0.168597 -0.175149 -0.250071 -0.0545451 -0.263994 -0.29485 -0.631402 0.318546 -0.0965839 0.0572245 -0.0431241 -0.0891558 0.301171 -0.332913 -0.367303 -0.265824 -0.361404 0.329055 -0.321479 -0.000360205 -0.292892 0.134737 0.30453 0.324255 -0.178079 -0.0631711 -0.170291 -0.16269 -0.265989 -0.0328314 0.0808681 -0.0275623 -0.286752 -0.276235 -0.0816132 0.383671 0.00972772 0.0778612 -0.543702 -0.0628485 -0.00819156 0.0798391 0.124119 -0.421264 0.156697 -0.412347 -0.39444 0.27021 -0.0971915 0.0187672 0.168496 0.0597443 -0.0644883 -0.0498631 0.552026 0.39452 -0.283066 0.280387 -0.146013 0.247778 -0.0150516
4264 0.146533 0.220345 -0.0733164 0.0954173 0.533745 -0.430089 -0.389267 0.782816 -0.453492 -0.091031 -0.164647 -0.169483 -0.207307 -0.29129 0.0816267 -0.15895 0.424077 -0.308323 -0.579154 0.47404 0.41834 0.195279 -0.0501479 -0.198421 -0.0921172 0.0812792 0.36075 0.0983702 0.0238465 0.364966 0.11322 -0.248401 0.21014 0.102616 0.604146 0.291418 -0.0480091 -0.0207523 -0.135419 -0.170811 0.313133 0.258721 0.476871 -0.0805001 0.366205 0.301677 -0.0244125 0.279518 -0.0811653 -0.170487 0.152353 0.0197271 0.10609 0.0213241 -0.431609 -0.303552 -0.211764 -0.0712134 -0.622039 -0.188143 -0.233337 -0.424214 0.104247 0.0498139 -0.831411 -0.134442 -0.284378 0.366842 -0.113579 -0.380748 -0.165792 -0.274825 -0.274596 -0.761467 0.593711 -0.101888 -0.137683 -0.054105 -0.127131 0.21343 -0.290267 -0.441022 -0.267273 -0.319285 0.292312 -0.327239 0.0453453 -0.426627 0.219054 0.235963 0.52866 -0.134209 -0.170356 -0.299228 -0.0628127 -0.287857 -0.0430123 -0.0433725 0.157164 -0.303872 -0.308871 -0.153832 0.219747 -0.0157295 -0.00632381 -0.469328 -0.143278 -0.0729964 0.135054 0.0461844 -0.390331 0.104504 -0.551901 -0.360005 0.0760742 0.00540533 -0.0536564 0.135803 0.0628116 -0.148192 0.184751 0.637821 0.346387 -0.298922 0.348188 0.0603255 0.169815 -0.0567779
2233 0.29525 0.183136 -0.137932 0.0836629 0.453957 -0.433385 -0.403931 0.743906 -0.489256 -0.0141762 -0.216216 -0.13141 -0.277653 -0.379131 0.152397 -0.0894569 0.446891 -0.369394 -0.519246 0.368198 0.513738 0.230224 -0.098631 -0.106271 -0.25164 0.235149 0.561524 0.0746387 0.0853723 0.244997 -0.00805829 -0.227166 0.172426 0.0956175 0.708265 0.205587 0.00801398 0.0309947 -0.144193 -0.307175 0.321562 0.342448 0.42658 0.119978 0.337554 0.382474 -0.014637 0.188124 -0.244033 -0.248801 0.0452792 -0.0707635 0.164851 0.0559681 -0.382135 -0.288311 -0.177486 -0.0589924 -0.475591 -0.320299 -0.315932 -0.404811 0.0640214 0.0951015 -0.90085 -0.22152 -0.310181 0.285515 -0.127185 -0.39346 -0.169077 -0.183434 -0.360995 -0.713492 0.510495 -0.125561 -0.0722612 -0.229693 -0.196446 0.191596 -0.323929 -0.492156 -0.307387 -0.385662 0.23498 -0.281595 0.0291651 -0.46016 0.224805 0.321802 0.460251 -0.0536382 -0.113493 -0.26557 -0.147823 -0.266338 -0.0168705 -0.00371822 0.093216 -0.364958 -0.337577 -0.135508 0.232208 0.00521061 -0.0176857 -0.566858 -0.174446 -0.018392 0.0435656 0.171305 -0.478984 0.0296478 -0.519635 -0.352845 0.166323 -0.0420397 -0.115691 0.159061 -0.0752882 -0.147684 0.180181 0.451383 0.358984 -0.295726 0.292438 0.0608799 0.225221 -0.0667414
4539 0.0776228 -0.0565621 -0.020888 0.0717209 0.372825 -0.248516 -0.201676 0.778133 -0.288438 -0.0520581 -0.110692 -0.0963042 -0.0219126 -0.139157 0.249541 -0.0810908 0.408865 -0.257447 -0.472628 0.140327 0.382263 0.110543 -0.0517915 -0.0306779 -0.208019 0.0166778 0.448372 -0.0290297 0.241674 0.500982 0.00223789 -0.265593 0.238112 0.198035 0.600013 0.207143 -0.034969 0.0589158 -0.12868 -0.122845 0.409602 0.25025 0.513836 0.0974502 0.506727 0.323168 -0.0425162 -0.0978469 -0.305953 -0.195022 0.233964 -0.273621 0.0956764 0.0224472 -0.130859 -0.3451 -0.140566 -0.0079695 -0.585862 -0.204569 -0.138301 -0.437324 -0.158473 0.349775 -0.862455 -0.0509637 -0.395466 0.122604 -0.13536 -0.0317585 -0.114193 -0.350634 -0.2001 -0.474282 0.383859 -0.140713 -0.198385 0.0308206 -0.139822 0.140099 -0.235412 -0.233172 -0.206229 -0.23481 0.282391 -0.191099 0.0786433 -0.204795 0.068662 0.147843 0.328918 -0.0687772 -0.237143 -0.112481 -0.103716 -0.323101 -0.0512819 -0.0874139 0.124891 -0.186742 -0.183648 -0.208375 0.381958 -0.0352492 0.0984666 -0.410777 -0.130112 -0.00930844 -0.085779 0.0411843 -0.210437 0.201385 -0.235706 -0.361119 0.00107374 0.0191891 -0.00181524 0.141542 0.0367156 -0.160556 -0.0153038 0.413982 0.456524 -0.0478582 0.514433 -0.0227286 0.0598788 -0.0523252
2424 0.191265 0.0933995 -0.00995518 0.188184 0.289729 -0.407883 -0.21708 0.813781 -0.41519 -0.0451642 -0.053064 -0.11156 0.107272 -0.280102 0.105429 -0.199258 0.234974 -0.286931 -0.606273 0.283087 0.478464 0.0856579 0.0597085 -0.145844 -0.148088 0.180196 0.521645 -0.0984596 0.0363437 0.326798 -0.0788211 -0.310725 0.266179 0.319731 0.619891 0.0954482 0.084391 -0.0492964 -0.158469 -0.0157919 0.220984 0.141665 0.454042 -0.213311 0.36329 0.45295 0.0685962 0.0925889 -0.10202 -0.135356 0.118169 -0.12744 0.24552 0.084223 -0.255568 -0.39663 -0.120635 0.0517497 -0.489627 -0.337227 -0.060615 -0.438127 0.0522923 0.29398 -0.870783 -0.0318111 -0.367865 0.149555 -0.0724481 -0.23273 -0.116584 -0.282196 -0.306041 -0.4535 0.273969 -0.200934 0.0812789 -0.0196377 -0.0899345 0.219153 -0.225109 -0.484947 -0.319348 -0.286961 0.403659 -0.257144 0.100005 -0.295486 0.250618 0.145586 0.374448 0.0684818 -0.162453 -0.186014 0.0771322 -0.476134 -0.0468718 -0.107096 -0.105887 -0.246505 -0.168287 -0.0832593 0.350557 0.0225919 -0.0779837 -0.446489 -0.0157662 0.000737877 -0.0728711 -0.00475727 -0.21192 0.138942 -0.281564 -0.281835 0.210077 -0.036617 0.0962439 0.153854 0.0112797 0.0397396 -0.0490166 0.379412 0.299236 -0.128363 0.277877 -0.0820691 0.0626685 -0.119689
59 0.0156162 0.126818 -0.145391 -0.261787 0.283877 -0.1087 -0.0392089 0.749002 -0.326683 0.144905 -0.0530336 -0.30559 0.0189031 -0.32654 -0.0501385 -0.0735442 0.0343557 -0.254555 -0.257594 0.0154585 0.489245 0.363663 -0.091574 0.325756 -0.353728 0.317379 0.577188 -0.0908533 0.238728 -0.0606508 -0.287522 0.179472 -0.0462126 0.176712 0.316987 -0.162324 -0.414312 -0.314725 -0.0204232 -0.512841 0.152559 0.168515 0.0356958 0.281655 0.45683 0.328584 0.151713 0.018857 -0.278055 0.0836171 -0.217221 -0.133092 0.392714 -0.0145443 -0.368941 -0.190867 -0.292838 0.189185 -0.781399 -0.347936 0.0455864 -0.170275 -0.0580338 0.58857 -0.149972 -0.132423 -0.283119 0.0666926 -0.299609 -0.246625 -0.297692 -0.0843729 -0.313794 -0.290653 -0.208142 0.0808596 -0.0962397 -0.00273607 0.123765 -0.0513318 -0.176354 -0.153913 -0.218504 -0.144115 0.00870399 -0.435049 -0.310299 -0.0634291 0.321504 0.657842 0.412459 -0.140341 -0.131071 -0.161375 0.0553468 -0.279265 -0.155757 0.0826144 -0.07169 0.0851406 -0.394526 -0.0773258 0.209123 -0.487262 0.580645 -0.643612 0.223203 -0.199811 -0.250859 0.0763263 -0.560338 -0.273223 -0.39744 -0.679832 -0.148989 -0.0949729 -0.340334 0.103325 -0.229969 0.157936 0.0577964 0.316354 0.274366 -0.515125 -0.0390753 0.0451011 0.292102 0.337875
5749 0.181411 0.0933997 -0.164342 -0.227426 0.343839 -0.280292 -0.373186 0.693689 -0.28532 0.206864 -0.138274 -0.19022 -0.320526 -0.261174 -0.0535263 0.240046 0.399278 -0.0661395 -0.102432 -0.0556927 0.402428 0.197298 0.270361 0.439935 -0.301163 0.479775 0.486892 0.0941716 0.247813 0.0550956 -0.242413 0.338292 -0.17913 -0.0489219 0.182082 -0.257482 -0.35754 -0.145782 -0.169705 -0.64985 0.35647 0.150621 0.113391 0.321478 0.459357 0.177527 0.244595 0.12529 0.0409824 0.117627 -0.340655 -0.190403 0.159008 -0.107367 -0.445304 -0.0832844 -0.311154 0.0105551 -0.829629 -0.35982 -0.149079 -0.0799048 -0.0495787 0.526438 -0.276094 -0.179629 -0.307875 -0.00788335 -0.0616223 -0.291523 -0.545387 -0.0307178 -0.369369 -0.534135 -0.110489 0.20444 -0.0794364 0.0484376 0.00692214 0.057907 -0.186866 -0.323099 -0.167991 -0.195612 0.113302 -0.472684 -0.305661 -0.268457 0.0317732 0.850301 0.354012 -0.414227 0.0161485 -0.579845 -0.123604 -0.151069 -0.22281 0.171342 0.125064 0.0726626 -0.250327 -0.151746 0.299983 -0.518714 0.424116 -0.610913 -0.0440272 -0.344273 -0.200545 0.173766 -0.815263 -0.310792 -0.423378 -0.663639 -0.0152753 -0.082527 -0.233822 0.112476 -0.222067 -0.0644695 0.154439 0.172193 0.258635 -0.637301 -0.198661 -0.0471573 0.298689 0.318315
8242 0.196433 0.0864913 -0.202459 -0.262298 0.351157 -0.247518 -0.439333 0.799116 -0.280159 0.210788 -0.171223 -0.241247 -0.296556 -0.29674 -0.0746097 0.209534 0.476947 0.00569023 -0.218601 -0.0499388 0.440427 0.0815571 0.246557 0.505223 -0.236492 0.516397 0.473009 0.184166 0.150769 0.143366 -0.251112 0.298827 -0.236172 -0.0865976 0.16636 -0.210996 -0.37803 -0.156753 -0.168708 -0.767472 0.418929 0.0675892 0.127995 0.262838 0.510291 0.222792 0.315451 0.162441 0.0691468 0.120303 -0.427368 -0.251339 0.0741172 -0.0370355 -0.391779 -0.0398401 -0.425598 0.167468 -0.704693 -0.444472 -0.191504 0.0582519 -0.0176895 0.474971 -0.348968 -0.211578 -0.189274 0.0483013 -0.0505431 -0.31358 -0.619234 0.0190691 -0.472047 -0.452176 -0.15506 0.344036 -0.0390753 0.101616 0.0864707 0.0526477 -0.25424 -0.465313 -0.184178 -0.22469 0.0807082 -0.509626 -0.239482 -0.249061 0.00586778 0.735293 0.268427 -0.374324 0.0455485 -0.685877 -0.0581248 -0.234165 -0.174275 0.146259 0.155615 0.147375 -0.138906 -0.279745 0.217388 -0.487671 0.436971 -0.574674 -0.264759 -0.225227 -0.16771 0.218993 -0.757323 -0.313848 -0.361508 -0.578028 0.0775028 -0.0433811 -0.191079 0.0288044 -0.146749 -0.0267171 0.187567 0.138493 0.322645 -0.724857 -0.296661 -0.109133 0.203578 0.282679
3878 0.0878999 0.137408 -0.169743 -0.169781 0.352968 -0.245519 -0.204085 0.712407 -0.265405 0.188248 -0.101101 -0.141225 -0.153877 -0.170993 -0.123509 0.0554818 0.249945 -0.0661244 -0.238346 0.150655 0.513203 0.210921 0.103647 0.279153 -0.325754 0.534076 0.491967 0.000729341 0.197294 -0.012062 -0.23693 0.322798 -0.251694 0.113007 0.302017 -0.250411 -0.387934 -0.259645 -0.128405 -0.657185 0.262523 0.152145 0.0788054 0.190384 0.529264 0.260026 0.303476 0.129902 -0.0152274 0.120459 -0.350419 -0.0878945 0.272129 -0.164785 -0.245071 -0.203348 -0.397351 0.0835202 -0.656123 -0.414368 0.031335 -0.120702 -0.145844 0.453412 -0.363594 -0.154569 -0.148194 -0.0705749 -0.151178 -0.19117 -0.521286 -0.0513699 -0.268794 -0.394467 -0.134336 0.229095 -0.000191666 0.0432501 0.0881547 -0.0754974 -0.157746 -0.320444 -0.168054 -0.181371 0.0769983 -0.535257 -0.334188 -0.235147 0.102347 0.717319 0.430228 -0.280606 -0.0981548 -0.383632 0.0044453 -0.308831 -0.201966 -0.00170036 0.127727 0.123474 -0.195424 -0.0878597 0.197955 -0.617176 0.411104 -0.542014 0.0384935 -0.364995 -0.152538 0.141379 -0.639318 -0.279046 -0.313052 -0.610264 -0.0922452 -0.0995447 -0.0901771 0.0128097 -0.34751 0.102586 0.152727 0.157797 0.274711 -0.587094 -0.0951621 -0.0657039 0.252831 0.294804
139 0.156158 0.207848 -0.209071 0.127826 0.281353 -0.290112 -0.258961 0.67824 -0.399796 0.0438211 -0.187795 -0.119073 -0.0547577 -0.068655 0.0243306 -0.0982392 -0.0364746 -0.501573 -0.295517 0.402161 0.498316 0.344075 -0.180165 -0.374709 -0.15504 0.0255643 0.474893 0.525365 -0.234223 0.0141083 0.11031 -0.390007 0.109534 -0.0656008 0.403938 0.046869 -0.250093 -0.158357 0.0707454 -0.297036 0.149731 0.162245 -0.078162 0.0328164 0.672488 0.45832 0.0581264 -0.0640345 -0.243623 -0.282545 -0.00040483 0.0621783 0.341878 -0.220509 -0.37971 -0.48705 -0.267907 -0.507555 -0.153496 -0.225557 -0.38956 -0.186923 -0.0923668 -0.113053 -0.713166 -0.325544 -0.140361 0.453557 -0.252132 -0.0640546 -0.312982 -0.255856 -0.374723 -0.634809 0.258544 -0.132569 -0.264553 0.130522 0.126859 0.0358794 -0.0645088 -0.346646 -0.0901384 -0.17512 -0.0336382 -0.497834 0.145478 -0.370487 -0.0570868 0.31294 0.736179 -0.133368 -0.0735171 -0.191853 -0.10104 -0.25935 -0.127323 0.109969 0.354146 -0.065473 -0.131017 -0.181377 0.105232 -0.158632 0.346559 -0.295372 0.0744277 -0.197753 -0.25933 -0.269715 -0.0534947 -0.00275756 -0.309531 -0.526469 0.0706561 -0.268649 -0.0401646 -0.177126 -0.303147 0.173708 0.0207042 0.365015 0.0406512 -0.423888 0.159198 0.160848 0.146848 0.311309
8 -0.0500954 -0.188922 -0.0296025 -0.105315 -0.0453245 -0.187418 -0.200948 0.633463 -0.525478 0.26902 -0.142617 -0.240897 0.258829 0.0360413 0.206856 -0.229631 -0.111739 -0.389794 -0.158167 0.188282 0.556312 0.0785835 -0.330961 -0.388201 -0.198517 0.135316 0.55182 0.565351 -0.0355855 0.501097 0.0908066 -0.0291455 0.219604 -0.0325915 0.195844 0.0797908 -0.00838558 -0.0715116 0.0280104 0.0735827 0.253438 -0.105846 -0.155143 -0.215976 0.580645 0.683179 -0.153245 -0.210891 -0.218225 -0.0898638 0.363806 0.144482 0.329628 -0.106905 -0.442983 -0.458988 0.39243 -0.418492 -0.215985 -0.0699785 0.2686 -0.0372741 -0.393645 -0.0322229 -0.245606 0.124813 -0.13168 0.295467 0.238065 -0.0227071 -0.276404 -0.201095 -0.26728 -0.374167 0.0306119 -0.522541 -0.312718 0.0447411 0.0891099 -0.00310915 -0.205106 -0.126045 -0.0674436 -0.0264486 -0.380885 -0.603675 0.116827 -0.301941 -0.256185 0.198692 0.544306 -0.272205 -0.290687 -0.178267 -0.0718538 -0.445236 0.0772817 -0.143654 0.503698 0.231085 -0.0300813 -0.0305958 0.0472632 -0.445301 0.0659543 -0.224086 -0.0188163 -0.169439 0.109435 -0.361962 0.145467 0.1488 -0.215077 -0.325587 0.100618 0.16454 -0.139093 -0.163834 -0.319772 0.105288 -0.00784708 -0.123055 -0.189363 -0.194621 0.329054 0.301955 0.253632 0.240768
363 -0.111006 -0.164703 -0.0686915 0.0463717 0.328661 -0.25739 -0.0913809 0.484724 -0.422063 0.0554871 -0.326988 -0.385949 0.281817 -0.0447169 0.0559133 -0.257255 -0.146619 -0.265586 -0.448939 0.12034 0.304982 0.0167437 -0.0631909 -0.332619 -0.252499 -0.266491 0.429486 0.371312 0.0170046 0.256382 0.311554 -0.254567 0.373875 -0.090921 0.362397 0.217483 -0.0850961 0.0461771 0.105984 -0.234984 0.124131 -0.317134 -0.289013 -0.230179 0.727779 0.339283 -0.283152 -0.149849 -0.210304 0.128989 -0.0132955 0.0787831 0.287753 -0.254039 -0.528389 -0.253918 0.215781 -0.127431 -0.332368 -0.299633 -0.0818278 0.0102078 -0.219274 -0.0469646 -0.236527 0.0680085 -0.218462 0.320466 -0.0767031 -0.0207064 -0.398135 -0.293511 0.161618 -0.316551 -0.23284 -0.71751 -0.392511 0.162809 0.188351 0.0537849 -0.358242 -0.551104 -0.0744306 0.2595 -0.105721 -0.581157 0.320852 -0.0157605 -0.298446 0.299278 0.676374 -0.344838 -0.230197 -0.275019 -0.188596 -0.273527 0.246229 -0.0334286 0.370864 0.334885 0.141679 -0.0577035 -0.292288 -0.349641 0.449396 -0.0854516 0.116329 -0.235215 -0.0544396 -0.54382 0.282224 0.278048 -0.189972 -0.431292 -0.00900543 -0.112433 -0.156519 -0.217662 -0.074513 -0.198404 0.0503164 0.129247 -0.110689 -0.357604 0.202723 0.60222 0.278572 0.372853
93 -0.0836428 0.154308 0.104075 -0.00900727 0.181723 -0.103175 0.104154 0.43873 -0.499301 -0.0567762 -0.355489 -0.327978 -0.137948 -0.150913 -0.299073 -0.161098 0.0101317 0.0334791 -0.312618 -0.0885171 0.401314 0.11967 0.120508 0.10464 -0.0703085 -0.255962 0.182278 0.0579836 0.0872078 0.289665 -0.00302647 -0.274848 0.177871 -0.0335343 0.454569 0.113841 0.0596629 0.0931813 -0.0441086 -0.321026 -0.152965 -0.213543 -0.491134 -0.326713 0.486269 0.108171 -0.080475 0.129339 -0.335968 0.400827 -0.258311 -0.0173135 0.0968087 -0.161571 -0.173439 -0.136309 0.0143756 0.301387 -0.472516 -0.00905673 -0.227002 -0.0509418 -0.214595 0.130421 -0.205845 0.0469082 -0.118743 0.0951318 0.0814413 0.0899047 -0.382798 -0.171223 0.23226 -0.23964 -0.585318 -0.774022 -0.182579 0.253212 0.141461 0.230395 -0.384823 -0.747718 0.012276 0.393467 0.267651 -0.391139 0.123169 0.0622776 -0.0369927 0.462655 0.587183 -0.259635 -0.28103 -0.307985 -0.241403 0.0276037 0.027186 0.21189 -0.0402287 0.125265 0.171515 0.0156586 -0.0513107 -0.163489 0.450504 -0.0856631 0.472094 -0.0808965 -0.555194 -0.587416 0.250887 0.340384 -0.276002 -0.459441 0.23787 0.0308395 -0.230363 -0.355451 -0.0770318 -0.261457 0.179992 0.237802 0.15562 -0.140104 -0.119861 0.31093 0.157555 0.248923
1151 0.0151263 -0.10943 0.07522 -0.0128525 0.363035 0.0775841 0.0491576 0.624747 -0.405949 0.0198643 -0.264635 -0.329954 -0.0186803 -0.236232 -0.185358 -0.10184 0.026837 -0.0340689 -0.383889 -0.166155 0.345908 0.0917293 0.112722 0.00769621 -0.10966 -0.373837 0.2911 0.0847868 0.0963375 0.340755 0.107286 -0.330451 0.244902 -0.0118562 0.274623 -0.00943341 -0.124468 -0.101499 0.0197049 -0.396307 -0.0519797 -0.340439 -0.337812 -0.294993 0.501485 0.23223 -0.204647 0.235652 -0.310443 0.400113 -0.330549 -0.0859517 0.0733609 -0.167269 -0.219949 -0.12728 0.0770673 0.371029 -0.545051 -0.147892 -0.142816 0.212673 -0.146719 0.10257 -0.179872 0.0374338 -0.179393 0.140057 0.0308827 0.109304 -0.378582 -0.211788 0.366008 -0.0321498 -0.678409 -0.596182 -0.129698 0.304995 0.188229 0.196897 -0.36415 -0.662623 0.0230327 0.461891 0.190281 -0.470947 0.137876 0.235835 -0.164487 0.415642 0.617009 -0.170103 -0.199305 -0.30152 -0.264371 -0.011919 0.016197 0.212104 0.0960788 0.126224 0.121549 -0.00853694 -0.145246 -0.287379 0.383257 -0.184223 0.245481 -0.086928 -0.391969 -0.506747 0.174879 0.287482 -0.298502 -0.526567 0.170293 -0.00769979 -0.15163 -0.380073 0.0331387 -0.286669 0.0995384 0.155743 0.0984127 -0.29795 -0.142267 0.37211 0.0341605 0.364195
7176 -0.0945993 0.0178389 0.124224 0.0182775 0.40494 -0.0183389 0.0377198 0.447182 -0.310351 0.0579815 -0.215606 -0.44455 -0.0903298 -0.206026 -0.198826 -0.114913 0.0389088 0.0333745 -0.325502 -0.182398 0.357281 0.0993747 0.124667 -0.0219101 -0.169715 -0.385196 0.336436 0.0467474 0.0645018 0.400884 0.215021 -0.400611 0.348245 -0.0558143 0.367518 -0.0188022 -0.0460229 -0.0436569 0.109745 -0.290213 -0.119639 -0.334627 -0.195702 -0.275653 0.496939 0.312375 -0.234781 0.303257 -0.227938 0.317601 -0.273452 -0.00906736 0.0837139 -0.182652 -0.142708 -0.0359152 0.261336 0.268836 -0.544153 -0.0578285 -0.256893 0.151722 -0.193101 0.140663 -0.275598 0.0167546 -0.148928 0.171617 0.0395099 0.082283 -0.334317 -0.225917 0.366207 0.084625 -0.678626 -0.621637 -0.154732 0.216986 0.115177 0.153327 -0.387768 -0.759386 -0.0330948 0.356615 0.131233 -0.387266 0.127119 0.277383 -0.165115 0.353882 0.572915 -0.0493264 -0.197713 -0.390251 -0.291348 -0.0791134 0.190517 0.155469 0.258592 0.0166271 -0.0419558 0.0187186 -0.281299 -0.160939 0.292342 -0.193847 0.268128 -0.0973757 -0.311101 -0.539995 0.202393 0.351226 -0.409217 -0.421798 0.234134 0.0585598 -0.161919 -0.319377 0.0617257 -0.345816 0.0599276 0.17035 0.17829 -0.181129 -0.0924664 0.368425 0.0623744 0.307164
7133 -0.151363 0.0371002 -0.0106086 -0.0477353 0.301426 -0.0800909 -0.0112132 0.451132 -0.397166 -0.0461031 -0.231341 -0.526925 -0.0399793 -0.104988 -0.248676 -0.129837 -0.0163961 0.0243699 -0.403853 -0.0262905 0.36955 0.1405 0.189416 -0.0970771 0.0274314 -0.321395 0.221873 0.183348 -0.0218478 0.321371 0.315631 -0.264592 0.35045 -0.0484768 0.247085 0.106594 -0.107335 -0.0570294 0.105444 -0.214776 -0.0473646 -0.451601 -0.4252 -0.241685 0.432853 0.220747 -0.161786 0.172483 -0.230079 0.276501 -0.249986 0.0136896 0.018112 -0.0975263 -0.242335 -0.123757 0.196529 0.246704 -0.49008 -0.0135441 -0.158339 -0.0483687 -0.191783 0.0400558 -0.143877 0.0836457 -0.195444 0.138346 0.0880248 0.129615 -0.293425 -0.193329 0.442256 0.0789806 -0.639223 -0.718559 -0.108411 0.145191 0.248675 0.110125 -0.388763 -0.701472 0.143019 0.356667 0.173926 -0.455466 0.162633 0.205681 -0.149108 0.365523 0.691114 -0.181677 -0.334794 -0.329926 -0.330767 -0.0758011 0.143337 0.0940065 0.285431 0.048066 0.065403 0.0387181 -0.211802 -0.201327 0.337979 -0.228134 0.248027 -0.0929929 -0.345873 -0.456915 0.259904 0.234133 -0.403461 -0.450501 0.250849 0.0181049 -0.0756501 -0.311154 0.0288155 -0.255586 0.134882 0.117183 0.0284012 -0.250836 -0.0481779 0.414582 0.130918 0.315523
3172 -0.114101 -0.0159354 0.127931 -0.0646416 0.40719 0.0235916 0.0983022 0.478762 -0.38395 -0.0679859 -0.243171 -0.462191 -0.0312313 -0.288407 -0.264334 -0.135216 -0.0646029 0.00985256 -0.406376 -0.135719 0.263648 0.117521 0.187174 0.00656402 -0.082474 -0.344503 0.291867 0.173629 -0.00064044 0.258711 0.327978 -0.369772 0.27964 -0.00694184 0.37933 0.0605821 -0.120065 -0.102596 0.178635 -0.4114 -0.0619102 -0.349659 -0.348632 -0.308381 0.599514 0.289974 -0.188704 0.30515 -0.312997 0.336763 -0.379654 0.00795094 0.115217 -0.0787504 -0.192983 -0.134221 0.281646 0.32042 -0.572313 -0.0523016 -0.263037 0.199398 -0.25894 0.0422114 -0.194206 -0.0823403 -0.0747023 0.0670924 0.106454 0.166331 -0.384106 -0.243142 0.339488 0.0471676 -0.569322 -0.675273 -0.0927654 0.199018 0.204207 0.127828 -0.526024 -0.629423 -0.0686625 0.264949 0.104297 -0.423236 0.155419 0.160049 -0.081613 0.415629 0.637359 -0.1267 -0.211472 -0.323374 -0.274862 -0.0946933 0.10892 0.220236 0.15244 0.00256189 0.0477474 0.10877 -0.216163 -0.189273 0.358759 -0.306917 0.136767 0.00319292 -0.479333 -0.539181 0.216809 0.391761 -0.356403 -0.426238 0.299404 0.0587627 -0.191592 -0.363363 -0.123698 -0.39163 0.0869424 0.0801618 0.192625 -0.268231 -0.110514 0.443713 0.0812399 0.37109
359 -0.0113967 -0.106146 0.108469 -0.0860649 0.411292 0.0661637 0.0173767 0.604979 -0.329771 -0.118398 -0.267314 -0.430659 0.0102523 -0.157052 -0.131641 -0.0810079 0.0332404 -0.0295974 -0.312911 -0.179117 0.390452 0.0452084 0.228752 0.0160054 0.0236309 -0.403142 0.27554 0.051734 0.0271605 0.383714 0.189071 -0.441118 0.387289 -0.0172321 0.368555 0.048849 -0.102015 -0.0791788 0.136183 -0.269734 -0.137124 -0.428745 -0.33036 -0.334999 0.407155 0.226581 -0.235385 0.270686 -0.185519 0.30928 -0.360877 -0.0182901 -0.0131383 -0.0783164 -0.158865 -0.0184934 0.0834422 0.418006 -0.481085 -0.097603 -0.156575 0.12767 -0.194467 0.060304 -0.303092 0.0521248 -0.187024 0.122907 0.0898049 0.0531089 -0.458994 -0.328668 0.404929 -0.0476976 -0.653388 -0.783858 -0.023833 0.143223 0.230244 0.263828 -0.45133 -0.59983 -0.0613314 0.398818 0.230443 -0.367152 0.130428 0.197712 -0.0873979 0.495675 0.549079 -0.114865 -0.277104 -0.320255 -0.293152 -0.070944 0.205071 0.0724671 0.0989432 -0.0880048 0.22485 0.114253 -0.217213 -0.216624 0.337375 -0.256962 0.234306 0.081435 -0.387099 -0.432409 0.098692 0.356613 -0.240424 -0.459213 0.109737 0.0429142 -0.177809 -0.365743 -0.0696296 -0.376382 0.146055 0.14374 0.155477 -0.178067 0.0412818 0.443134 0.0986166 0.262983
3688 -0.353563 -0.313237 0.0486475 0.0151181 0.353793 -0.293232 0.0531784 0.686647 -0.524134 -0.12324 -0.287154 -0.331456 -0.472731 -0.142067 0.118203 -0.210795 0.055532 0.0897402 -0.289966 -0.472112 0.487364 0.224036 -0.251137 0.250315 -0.123937 -0.616255 0.323313 0.212063 0.124443 0.288893 0.359834 -0.154563 0.177853 0.145969 0.560987 0.182352 -0.100913 0.141811 -0.0112854 -0.113557 -0.0111658 -0.14189 0.0205617 -0.122907 0.447876 0.225838 -0.113346 0.037793 -0.391806 0.394595 -0.120295 -0.115355 -0.129773 -0.0513949 -0.0901545 -0.213763 0.110883 0.334063 -0.631642 0.100071 -0.154007 -0.0123141 -0.379392 0.0140209 -0.406343 0.0104261 -0.213847 0.0386849 0.0245176 0.263345 -0.459568 -0.280534 0.164258 -0.0921005 -0.201405 -0.470317 -0.125368 0.151953 -0.0850431 0.152337 -0.212014 -0.531089 -0.145883 0.301592 0.312611 -0.151648 -0.0795834 0.280507 -0.221876 0.236734 0.403623 0.198927 -0.0960562 -0.261861 -0.414682 0.0345141 0.0741327 0.202663 0.322434 0.0598532 -0.175531 -0.0159503 -0.115042 -0.0745423 0.22344 -0.364383 0.35364 -0.107244 -0.100484 -0.438897 0.0810959 0.28838 -0.441845 -0.549674 0.0586234 0.0735991 -0.133296 -0.254374 -0.0333555 -0.152893 0.178191 0.2111 0.295411 -0.0357448 0.104178 0.276689 0.193622 0.25785
1616 -0.0521757 -0.0226378 0.0681519 -0.0514215 0.385355 -0.00622122 0.082724 0.494488 -0.4196 0.0290414 -0.261651 -0.457177 0.0047304 -0.193984 -0.228572 -0.181098 0.046834 -0.00113553 -0.459852 -0.0938556 0.303502 0.085936 0.170573 0.00671133 0.0196036 -0.218507 0.211896 0.0565826 0.0174545 0.396393 0.178495 -0.296441 0.345111 0.067659 0.350485 0.117314 -0.0499898 -0.0411277 0.0903581 -0.310926 -0.015201 -0.40154 -0.316004 -0.258234 0.451879 0.289547 -0.145353 0.307768 -0.284002 0.311953 -0.239388 -0.0667798 0.0388614 -0.145646 -0.214823 -0.136982 0.289289 0.307724 -0.481368 -0.120677 -0.173526 0.0834442 -0.265006 0.162767 -0.157095 0.0378685 -0.169235 0.173031 0.0903665 0.0978489 -0.378609 -0.248689 0.385285 0.0009495 -0.536447 -0.740678 -0.0546397 0.133972 0.263342 0.201321 -0.470234 -0.752269 0.0452237 0.23796 0.228732 -0.437978 0.169888 0.205792 -0.188395 0.314756 0.717609 -0.15572 -0.281289 -0.318843 -0.281682 -0.0294654 0.104147 0.216521 0.111582 -0.00282825 0.0504393 0.061989 -0.118031 -0.192004 0.352442 -0.199403 0.203159 -0.0280842 -0.319782 -0.530595 0.187591 0.420111 -0.340179 -0.495838 0.248026 0.0409411 -0.133297 -0.348057 -0.0344923 -0.398572 0.0495802 0.124671 0.188723 -0.341147 -0.096685 0.371519 0.0176025 0.32618
9588 -0.0143165 -0.46314 -0.278924 0.0616894 0.28404 -0.249906 0.198418 0.423627 -0.849681 0.217226 -0.0929033 -0.261288 0.435155 0.0830007 -0.21059 -0.124298 -0.0854277 -0.455837 -0.0188781 0.197315 0.259819 0.106933 0.0306497 -0.271968 0.0772179 0.355143 0.955334 -0.0415198 -0.145067 0.211983 -0.132777 -0.21161 -0.0916998 -0.106762 0.499448 0.672462 0.0256377 0.0525486 -0.0673035 0.123811 0.25832 -0.0144212 0.0236614 0.052717 0.306159 0.503458 -0.321717 -0.369025 -0.0912251 -0.097236 0.125743 -0.15831 0.701135 0.129547 -0.425666 -0.542522 0.100442 -0.145993 0.201398 -0.507424 -0.105509 -0.145531 -0.494637 0.290221 -0.184247 -0.0600738 -0.54171 0.286372 -0.128916 -0.208801 -0.537828 -0.510869 -0.452252 -0.0796206 0.383455 -0.690851 0.0372396 -0.242631 0.144422 0.497965 -0.298144 -0.17578 -0.530152 -0.0623834 0.407736 -0.0166922 0.293624 -0.258037 0.0185042 0.0546829 0.558421 -0.202248 -0.209485 -0.174013 -0.113312 -0.419404 0.136857 -0.356337 0.355562 -0.279305 0.0658773 0.302928 0.0207292 -0.0676715 0.00465777 -0.346235 0.130273 -0.0188444 -0.180659 -0.359862 0.161121 -0.0376388 -0.00440067 -0.523799 -0.299832 0.216928 0.240268 -0.113861 -0.286186 0.101903 0.268317 0.180716 0.101449 -0.322186 0.477877 0.214718 -0.0316306 -0.113147
1340 0.140059 -0.447137 -0.153065 0.0172823 0.164373 -0.226066 0.220015 0.239261 -0.709896 0.245965 -0.241309 -0.12962 0.25454 -0.0358283 -0.167544 -0.0412579 -0.0406273 -0.391342 -0.0161701 0.145719 0.306836 0.00432013 -0.0574175 -0.168084 -0.0300747 0.306375 0.812753 -0.126121 -0.0205452 0.213426 -0.224833 -0.203821 -0.0867493 -0.0988027 0.50141 0.673035 0.22961 0.109514 -0.0834011 0.168406 0.182212 0.00213229 0.000340895 0.0516797 0.268248 0.537309 -0.259671 -0.353098 -0.166578 -0.0275929 0.126301 -0.253642 0.548357 0.154789 -0.445047 -0.666972 0.255644 -0.144478 0.269289 -0.498828 -0.141266 -0.126033 -0.307318 0.24187 -0.316377 -0.0661439 -0.544359 0.218564 -0.0157858 -0.124844 -0.518147 -0.550503 -0.481078 -0.148682 0.324419 -0.626752 0.0413725 -0.0854646 0.0383402 0.368724 -0.261265 -0.158109 -0.370053 -0.191808 0.344636 0.0189369 0.201914 -0.343109 -0.116372 0.0072863 0.499357 -0.0894845 -0.141378 -0.272392 -0.0373069 -0.397719 0.115199 -0.322275 0.242028 -0.237774 0.00777462 0.207667 -0.0524702 -0.116095 -0.0350614 -0.306231 0.124542 -0.123332 -0.126831 -0.338287 0.277838 -0.129745 0.00287896 -0.428528 -0.268327 0.172537 0.186957 0.0285921 -0.267247 0.0901853 0.321921 0.0671334 0.101987 -0.23254 0.469506 0.279506 -0.0599388 -0.100055
7 -0.18789 -0.184994 -0.205596 0.0336348 -0.0991751 -0.31481 -0.052428 0.219699 -0.705324 0.0761151 -0.128654 0.0336287 0.100575 0.102865 -0.18812 -0.0459721 0.0786623 -0.533498 -0.0242493 0.0859196 0.456962 -0.179713 -0.0887646 -0.182883 0.0581667 0.106113 0.783033 -0.0325242 0.231521 0.0656611 0.229144 -0.228178 -0.417961 -0.138109 0.590845 0.517508 0.132429 -0.168572 -0.0674738 -0.0191216 0.252153 -0.204468 -0.186424 -0.0930095 0.514219 0.292295 0.113128 -0.430808 0.117895 0.181604 0.132993 -0.176338 0.567493 0.257026 -0.586322 -0.896284 0.224472 -0.0197792 0.348209 -0.295712 -0.0355798 -0.19313 -0.294158 0.0354829 -0.0323146 0.145634 -0.206489 0.214888 -0.0972472 -0.202738 -0.185676 -0.271976 -0.498167 -0.00744595 0.0379219 -0.563431 -0.000317401 -0.154908 0.281162 0.471083 -0.219797 -0.189557 -0.488597 -0.0944278 0.0978082 -0.252717 0.258367 -0.431648 -0.132433 0.301626 0.44645 -0.423453 -0.333521 -0.480221 -0.177896 -0.222928 0.117429 -0.198247 0.485139 -0.131352 0.103697 0.0201542 -0.210763 -0.00577841 0.142839 -0.248187 0.535927 -0.103278 -0.283803 -0.239171 0.283523 -0.186675 0.0060065 -0.32244 -0.113757 -0.232307 0.187696 0.0505451 -0.291863 0.0916029 0.170354 0.0918013 -0.341676 -0.278985 0.386568 0.226276 -0.00971227 -0.135559
272 0.0643933 -0.243109 -0.220421 -0.262229 0.0500454 -0.164397 0.0800045 0.386234 -0.887929 0.13531 -0.255843 -0.0189584 0.386775 -0.086909 -0.329373 0.129223 -0.00203267 -0.366256 -0.0482039 0.00237539 0.581107 0.229316 0.0568414 -0.0868518 0.321218 -0.117823 0.258416 0.148537 -0.295322 0.402355 -0.00674139 -0.397008 -0.605502 0.0540517 0.282982 0.499582 0.529974 -0.0771726 0.141061 0.260584 0.253428 -0.0884876 -0.107834 0.439103 0.24518 0.101833 -0.123948 -0.395412 -0.127773 -0.0546732 -0.0267003 -0.209989 0.680761 -0.129059 -0.437551 -0.401826 0.512014 0.0292395 0.00530356 -0.0553453 0.0821048 -0.151113 -0.19605 0.255277 -0.117393 0.337814 -0.0779465 0.327999 0.196489 -0.430467 -0.284339 -0.00564592 -0.428622 0.198816 -0.221979 -0.509255 -0.115222 -0.0398366 0.370678 0.379739 0.181256 -0.381498 -0.416599 0.153439 0.115289 -0.251941 -0.0917937 -0.307406 -0.187768 0.120337 0.524112 -0.404996 -0.0747526 -0.196616 -0.239443 0.0984279 -0.0280258 -0.267221 0.370125 -0.137831 -0.235726 0.0635486 0.0780159 -0.0644509 0.191851 -0.0913589 0.321165 -0.146706 -0.332745 -0.265019 0.229626 -0.0358782 -0.152243 -0.518487 0.0758447 -0.150409 0.203988 -0.0820529 -0.479601 0.142801 0.0695712 0.298469 0.17637 -0.158806 0.270002 0.24163 0.251504 0.0657287
488 0.134568 0.0360494 0.60526 -0.419124 0.255821 0.261792 -0.0796179 0.577312 -0.164983 -0.348208 0.0317443 -0.336483 -0.0452761 -0.0396947 0.426075 0.0910408 -0.211862 -0.158895 0.0585729 0.156673 0.489291 -0.0845376 0.170675 0.3983 -0.0915779 -0.230187 0.0215404 -0.149036 0.254163 0.583207 0.0162745 -0.270618 0.0748984 0.255473 0.42853 -0.0185838 -0.0439015 -0.186585 0.334795 0.0401852 0.231859 -0.000588729 -0.0627793 0.164489 0.491963 0.557469 0.124034 0.163825 -0.156419 0.292676 -0.191167 -0.279578 0.451008 -0.0134154 0.0400815 -0.173423 0.242887 -0.103054 -0.266637 -0.1079 0.101162 -0.17563 0.207387 0.403791 -0.0983462 0.209012 -0.119237 -0.27461 -0.0712845 -0.213555 -0.403458 -0.240907 -0.378414 -0.340382 -0.28085 -0.531561 -0.0617095 -0.00327802 -0.0685122 0.128638 -0.190037 -0.771069 -0.206634 0.56148 0.0518422 0.159437 -0.189967 -0.032874 -0.208502 0.269738 0.525001 -0.183474 -0.209483 -0.256125 -0.112009 -0.166692 0.0658483 -0.374615 0.248851 -0.0321524 0.229094 -0.0721874 0.322592 -0.208907 0.291075 0.0850763 0.335476 -0.141475 -0.555147 0.287967 -0.414037 0.19865 -0.237233 -0.330132 -0.202971 -0.29113 -0.230391 0.133821 -0.57851 0.188998 0.322387 0.399101 0.0927068 0.0627058 0.317611 0.309032 0.251129 0.156912
2379 -0.187866 0.0777891 0.515963 -0.476197 0.204198 0.145005 -0.110318 0.561754 -0.618137 -0.0570301 -0.320631 -0.637377 0.0208921 -0.172182 0.298784 -0.106479 -0.001267 -0.0179385 0.0357403 0.399659 0.627802 0.0274455 0.263962 0.147598 -0.0509933 0.102437 0.093034 -0.0819299 0.509341 0.603863 0.225134 -0.176543 0.208146 -0.105846 0.145498 -0.144384 -0.0897595 -0.314123 0.390476 0.03057 -0.0399857 -0.0805711 -0.139345 0.00579078 0.234196 0.587687 0.0758501 0.114759 -0.082266 0.216776 -0.175528 -0.120628 0.502856 0.116314 0.114563 -0.209586 0.335341 -0.0239149 -0.258395 0.0149571 0.0642126 -0.210876 -0.229478 0.432687 -0.37297 0.011357 -0.103564 -0.111054 0.0411485 -0.398537 -0.345902 -0.369008 -0.543244 -0.400639 -0.267237 -0.649821 -0.263767 -0.0891424 -0.2166 0.212956 -0.180889 -0.725652 -0.565078 0.489433 0.312664 -0.114252 -0.00134617 -0.111036 -0.194398 0.114535 0.384489 0.0808424 -0.187172 -0.463252 0.0615978 -0.257695 -0.133234 -0.320064 0.15796 -0.429823 0.280991 0.0354938 0.31008 0.0925015 -0.129205 0.0867975 0.173021 0.0923996 -0.692726 0.591838 -0.299241 0.0278781 -0.551004 -0.192999 -0.114871 -0.153954 -0.366611 0.0566271 -0.435484 0.20433 0.318318 0.543139 0.378986 0.148259 0.282695 0.203631 0.317239 -0.219322
4428 -0.277456 0.0465902 0.543043 -0.577018 0.418401 0.0979335 -0.122311 0.714676 -0.588309 -0.213806 -0.346856 -0.644246 -0.0747792 -0.149755 0.209449 -0.157987 0.00254081 0.0465795 -0.00232116 0.476026 0.670277 0.0276653 0.334569 0.218297 -0.155983 0.170409 0.248892 -0.105776 0.666039 0.695404 0.250641 -0.130891 0.216543 -0.0227752 0.283114 -0.146701 -0.12628 -0.317923 0.4042 -0.00646741 0.123234 -0.0338419 -0.0687512 0.111657 0.158294 0.539167 0.0431275 0.163599 -0.0600211 0.241601 -0.262343 -0.127075 0.539922 0.24102 0.069292 -0.150368 0.267278 0.134943 -0.316441 0.0171778 -0.0415411 -0.228008 -0.236135 0.5668 -0.488304 -0.0111913 -0.12072 -0.0313411 0.0790167 -0.326082 -0.324373 -0.390868 -0.593074 -0.552145 -0.252618 -0.567656 -0.207104 0.0199766 -0.373941 0.219157 -0.265504 -0.790526 -0.596674 0.447008 0.382017 -0.128568 -0.0729343 -0.211684 -0.0959993 0.231987 0.337743 0.182382 -0.164915 -0.650041 0.122402 -0.416117 -0.0676167 -0.436733 0.189068 -0.374451 0.270181 0.043424 0.35866 0.0804906 -0.131451 0.0318949 -0.000554675 0.0427553 -0.711218 0.678933 -0.331991 0.0431319 -0.677885 -0.227006 -0.229998 -0.00831144 -0.350257 0.027074 -0.427447 0.210672 0.462155 0.520399 0.408226 0.193663 0.351612 0.128283 0.32447 -0.230952
8804 -0.225644 0.0579362 0.541294 -0.625134 0.471627 0.135558 -0.104248 0.680228 -0.487943 -0.180304 -0.267087 -0.566586 -0.0749438 -0.133025 0.169262 -0.112561 -0.054744 0.0631925 -0.0022754 0.481904 0.542866 0.0120457 0.325951 0.209652 -0.118614 0.172163 0.237718 -0.109308 0.649081 0.71467 0.20423 -0.124476 0.162703 -0.0099857 0.268861 -0.124795 -0.130613 -0.346719 0.299632 -0.119204 0.145959 -0.0208773 -0.0562273 0.0710502 0.144628 0.688038 0.064597 0.220343 0.0871785 0.209172 -0.22954 -0.10881 0.538536 0.273857 0.00811904 -0.0976404 0.249121 0.119479 -0.269793 -0.0524011 -0.0734278 -0.154989 -0.126692 0.591033 -0.450484 -0.0680918 -0.125831 0.0287947 0.176581 -0.2422 -0.324454 -0.414143 -0.593965 -0.538762 -0.264116 -0.538195 -0.0325011 0.0664789 -0.364224 0.27621 -0.339865 -0.741743 -0.544495 0.372146 0.353378 -0.0919219 -0.0337835 -0.279193 -0.0538599 0.236016 0.22493 0.214555 -0.115502 -0.67381 0.192275 -0.462727 -0.0787609 -0.497617 0.201069 -0.278677 0.251148 0.0486831 0.302008 0.0953725 -0.190219 0.00888186 -0.0728639 0.079637 -0.571282 0.583834 -0.311255 0.025704 -0.607337 -0.224428 -0.209074 0.0851111 -0.266598 0.0684951 -0.411782 0.251592 0.425649 0.476247 0.34411 0.106572 0.315393 0.0668679 0.247978 -0.275525
5723 0.087569 -0.0864841 0.546446 -0.500226 0.35153 0.274076 0.0851721 0.62587 -0.245023 -0.268096 -0.0819912 -0.285885 -0.07978 -0.0925991 0.36945 0.117445 -0.232579 -0.0910681 -0.116145 0.0892699 0.479782 -0.0264552 0.257442 0.292559 -0.0216033 -0.123532 0.176449 -0.0620019 0.360085 0.516177 0.0422267 -0.29107 -0.0032913 0.191079 0.324316 -0.0257307 0.056392 -0.213973 0.259329 -0.110529 0.116811 -0.106181 -0.0997994 0.0498453 0.361238 0.510527 0.244632 0.0812766 0.0591 0.403392 -0.148813 -0.17555 0.381215 0.0799147 -0.130608 -0.244202 0.308606 0.00588837 -0.223259 -0.117907 0.0863387 -0.17975 0.0486724 0.654697 -0.457996 0.212732 -0.0440518 -0.128156 0.00754498 -0.0743298 -0.312069 -0.201884 -0.496421 -0.473939 -0.527048 -0.847762 -0.144846 0.117836 0.0327351 0.232694 -0.112464 -0.776262 -0.202493 0.373601 0.0523394 0.110975 -0.125998 -0.171904 -0.327875 0.293686 0.438641 -0.102582 -0.187182 -0.481204 -0.0857051 -0.158172 0.093608 -0.24489 0.139012 -0.0749459 0.227396 -0.141244 0.262075 -0.141673 0.121909 0.0919086 0.161347 -0.0954233 -0.338203 0.291003 -0.271254 0.0830249 -0.187993 -0.330217 -0.167722 -0.351171 -0.136705 0.0730578 -0.490566 0.111762 0.338574 0.397604 0.148985 0.0145161 0.256952 0.464251 0.284635 0.010092
7744 0.0440437 -0.0810071 0.386182 -0.406565 0.402475 0.307323 0.0347968 0.647556 -0.209118 -0.174603 -0.150158 -0.289277 -0.0596506 -0.176456 0.301037 0.125312 -0.191783 0.0360541 -0.111985 0.112625 0.407638 -0.0179872 0.297623 0.294651 -0.031435 -0.0736419 0.116468 -0.138422 0.285458 0.543131 0.0437225 -0.358628 -0.00655677 0.145627 0.301808 -0.161082 0.0639959 -0.298381 0.252195 -0.0892129 0.120343 -0.187196 -0.161665 -0.00176209 0.45669 0.380804 0.282607 0.0745751 0.0468205 0.302388 -0.184256 -0.196963 0.409862 0.0456848 -0.00573991 -0.215125 0.204389 0.0209713 -0.189667 -0.0535815 0.0861463 -0.0736656 0.0820861 0.509206 -0.405734 0.162758 -0.0253754 -0.233644 0.0446926 -0.0628963 -0.295483 -0.263669 -0.500848 -0.417259 -0.424218 -0.678946 -0.0646141 0.10458 0.040346 0.283151 -0.130754 -0.728301 -0.285315 0.360198 0.154469 -0.0432746 -0.154644 -0.253316 -0.273772 0.241972 0.263511 -0.0994643 -0.16464 -0.526608 -0.129354 -0.0844608 0.015841 -0.315661 0.216585 -0.118244 0.261736 0.00444648 0.206262 -0.1737 0.249009 0.00153976 0.149652 -0.0700946 -0.38033 0.2229 -0.309585 0.180477 -0.05666 -0.335861 -0.204204 -0.186523 -0.189911 0.0166201 -0.58782 0.00964357 0.406386 0.368189 0.208943 0.028588 0.310647 0.381121 0.280066 -0.0776815
7296 -0.0157785 -0.130514 0.188603 0.201227 0.0932164 -0.0539725 0.0242596 0.626879 -0.398107 -0.0140827 -0.208184 -0.00813823 0.289216 0.19211 0.154571 -0.0852072 -0.0947467 -0.0846153 -0.0894142 0.107589 0.393605 0.0684219 -0.138762 -0.105698 -0.0713085 0.233762 0.45538 -0.0757312 0.131403 0.4427 -0.0253549 -0.431143 0.322701 0.290183 0.486041 0.0949255 0.140995 -0.106974 0.136201 0.178046 0.133966 0.269554 0.00909518 0.0434494 0.451384 0.531163 -0.0451369 -0.0371961 -0.260077 -0.100895 -0.23016 -0.0870681 0.127884 -0.188039 0.00904349 -0.239598 0.228099 -0.0383012 -0.219118 -0.124679 0.0747903 -0.0804649 0.00136914 0.295853 -0.478532 0.019133 -0.203068 0.202246 0.220408 0.199141 -0.259561 -0.358934 -0.160776 -0.214507 0.0744566 -0.412836 -0.0401131 0.0516472 -0.153593 0.226923 -0.350349 -0.184953 -0.116181 0.118745 0.529277 -0.119015 0.118858 -0.385776 -0.0311302 -0.100114 0.320626 0.202398 -0.170431 -0.168917 0.197379 -0.274382 -0.108631 -0.289399 0.176199 -0.249326 0.106236 0.0066354 0.0984035 0.10938 -0.075529 -0.240691 0.203997 0.00516909 -0.294495 -0.23532 0.197202 0.155841 -0.119743 -0.258389 -0.0420792 -0.011602 0.104304 0.0301132 -0.26744 0.138412 0.163864 0.344632 0.0613943 0.178339 0.367213 0.00706953 0.147692 -0.225224
7736 0.134579 0.113758 -0.0305144 0.18406 0.0571094 -0.18675 -0.0948669 0.684278 -0.326553 -0.0499947 -0.114735 -0.100611 0.21364 0.0193463 0.0980239 -0.148125 0.0254768 -0.232614 -0.225567 0.263754 0.463135 0.1257 -0.101134 -0.0755918 -0.0267777 0.261831 0.350186 -0.15393 0.0595442 0.36362 -0.133367 -0.186036 0.235399 0.136735 0.409986 0.10409 0.2283 0.0611577 0.0594736 0.177994 -0.0163499 0.284375 0.0120715 0.0346697 0.2387 0.462472 -0.0112375 -0.0502798 -0.273358 -0.0607169 -0.134305 -0.137242 0.19182 -0.147809 -0.199719 -0.344677 0.0419267 0.0578807 -0.325722 -0.263947 0.0506 -0.191798 0.0415804 0.298129 -0.290451 0.0672789 -0.305932 0.317229 0.0379836 0.00774885 -0.335316 -0.386505 -0.211775 -0.269201 0.113131 -0.470077 0.127322 0.0503848 -0.0258142 0.229594 -0.24494 -0.229819 -0.152486 0.0613677 0.586655 -0.195925 0.050766 -0.301068 -0.0665164 -0.0609042 0.390946 -0.00920077 -0.301478 -0.11511 0.155867 -0.171363 -0.117774 -0.334734 0.0654463 -0.162888 0.140208 0.0309587 0.257555 0.102116 -0.0251375 -0.228592 0.248765 -0.0363511 -0.232457 -0.0377689 0.0755379 0.123457 -0.0972426 -0.241783 -0.093432 -0.0779594 0.137029 0.144999 -0.19772 0.0906728 0.0967207 0.359373 0.155875 0.0692921 0.293483 0.0365773 0.145889 -0.242136
4302 0.148563 -0.006563 0.135197 0.149637 0.150439 0.0239392 0.0269707 0.473724 -0.419557 -0.0420362 -0.0285397 -0.0872265 0.0932422 -0.0241648 0.183795 -0.148582 0.069835 -0.179283 -0.258227 0.316551 0.393464 0.106787 -0.137493 -0.194662 -0.00909373 0.270363 0.472618 -0.215638 0.037108 0.385816 -0.121174 -0.26771 0.378136 0.21469 0.651692 -0.0224222 0.143319 0.0412984 0.0718137 0.0352419 0.00761375 0.256006 0.0644007 -0.0363908 0.350877 0.621295 -0.131544 0.0661975 -0.247305 0.000638091 -0.0981126 -0.0866082 0.244719 -0.0879196 -0.194644 -0.382414 0.110171 0.162042 -0.269958 -0.264934 0.0683637 -0.0845361 -0.0781376 0.419569 -0.31999 0.0779702 -0.407364 0.2985 0.13202 0.0970883 -0.297683 -0.389237 -0.155951 -0.348315 0.0240112 -0.478555 0.0245806 -0.0132331 -0.0517747 0.225986 -0.236497 -0.294961 -0.235792 0.0496765 0.475611 0.0256784 0.105409 -0.288012 -0.029618 -0.0165164 0.545294 0.0619484 -0.314668 -0.0724711 0.144087 -0.226445 -0.20032 -0.289727 0.211859 -0.204407 0.101144 0.0405354 0.211341 0.080388 0.0335084 -0.196339 0.165359 -0.0878801 -0.244758 0.0373405 0.0178136 0.0955499 -0.0909664 -0.151732 -0.227235 -0.0260372 0.193046 -0.0246612 -0.188876 0.0476722 0.0692653 0.324869 0.0967488 -0.0534152 0.261302 0.175737 0.0990027 -0.216022
170 0.243428 -0.139123 0.0291646 0.556511 0.237194 -0.19084 -0.2623 0.53387 -0.36063 0.00186417 -0.0940974 0.0579213 0.0279987 0.0355554 -0.0225912 0.0372715 -0.088484 -0.0847327 -0.0435009 0.117719 0.756177 0.201489 -0.0820152 -0.107492 0.0092984 0.160764 0.35059 0.116848 -0.190855 0.362427 0.216129 -0.323831 0.279476 0.31021 0.34954 0.192558 0.156936 -0.206749 0.0535007 0.4385 -0.0390416 -0.23715 0.0662511 0.374335 0.480395 0.0930912 -0.052363 0.0464547 -0.365485 -0.187661 -0.0802364 -0.106251 0.200234 -0.168302 -0.272911 -0.159554 0.310728 0.0481688 -0.117199 -0.0597443 -0.0616157 -0.161802 0.00447624 0.412472 -0.439392 0.0778483 -0.28124 0.0735295 0.163605 -0.0866122 -0.282582 -0.265885 -0.461894 -0.141372 -0.073066 -0.685541 0.142408 -0.162152 0.417787 -0.0168202 0.0298161 -0.245766 -0.105722 0.00597624 0.317473 -0.424641 -0.183191 -0.153293 -0.091546 -0.152974 0.396963 -0.349427 -0.296889 -0.26304 -0.154392 -0.204906 -0.0760993 0.12184 0.179354 -0.191435 -0.00107941 0.112703 0.143003 0.0306304 0.357751 -0.353172 0.508175 0.128799 -0.0873707 0.017723 0.073424 0.06799 -0.276223 -0.451205 -0.153162 -0.304591 0.198491 0.0168078 -0.394519 0.13157 0.149095 0.388838 0.0866722 0.0594745 0.321764 0.306725 0.307246 -0.00770601
593 0.0769481 -0.122716 0.033307 0.314424 0.168376 0.0789119 -0.0898947 0.739305 -0.397745 0.139301 0.169938 0.111261 0.429238 0.0253591 0.0453282 -0.0561947 -0.0138682 -0.254492 -0.236553 -0.192488 0.59915 -0.236376 0.0377655 0.169749 -0.142493 -0.000174736 0.353606 -0.0665253 0.142909 0.565527 0.171152 -0.793177 0.336964 0.130571 0.528654 -0.169233 0.288503 -0.110445 0.17093 0.0145671 0.260855 0.425144 0.21187 -0.096233 0.53813 0.42185 -0.198897 -0.10662 -0.30134 -0.171268 -0.0270688 -0.11285 0.207054 0.391029 -0.104096 -0.0766891 0.193209 0.12757 -0.285152 -0.178804 -0.0166954 -0.068415 -0.31769 0.57347 -0.413342 -0.459412 -0.202409 0.25701 0.0766726 0.120173 -0.269051 -0.877565 -0.174171 -0.31486 0.134065 -0.533648 -0.109093 -0.207471 -0.0357526 0.250232 -0.134893 -0.0862332 -0.270564 0.250763 0.324228 -0.13079 -0.162132 -0.155337 -0.170897 -0.0291446 0.448152 0.0653256 0.0358206 -0.154523 -0.125079 0.0347135 -0.119186 -0.230637 0.0163067 -0.298634 0.050693 -0.131208 0.470427 0.232511 0.0427406 -0.196427 -0.0196229 0.387979 -0.342836 -0.126642 0.050169 0.309329 -0.345312 -0.0724245 -0.111075 -0.336822 -0.00124955 -0.0805166 0.00796501 0.231932 0.0871424 0.604521 0.425172 0.262332 0.351064 0.0479515 0.0705675 -0.349436
424 0.0565986 -0.185084 0.19071 0.129008 0.187057 0.220671 -0.323461 0.8494 -0.433418 0.147832 0.209134 0.0761313 0.433706 -0.00919197 -0.176955 -0.122717 -0.0895199 -0.345637 -0.0616342 -0.327576 0.49749 -0.400386 0.131951 0.450531 -0.179264 0.0206311 0.288648 0.00614136 0.156532 0.604719 0.381451 -0.780696 0.199478 0.183944 0.35369 -0.254168 0.37068 -0.0337293 0.101958 -0.18747 0.3201 0.35221 0.0977717 -0.15233 0.448396 0.423367 -0.407685 0.0749125 -0.313541 -0.283694 -0.056308 -0.284747 0.143802 0.300105 -0.226624 -0.24378 0.0239082 0.360385 -0.284598 -0.103541 -0.136586 -0.0620199 -0.398218 0.685224 -0.305301 -0.688745 -0.330515 0.00544051 0.241868 0.203588 -0.226163 -0.922863 -0.165173 -0.202046 -0.193874 -0.723295 -0.0791854 -0.343783 0.0343996 0.104421 -0.220734 -0.0366296 -0.321611 0.399318 0.187155 -0.0513631 -0.169764 -0.283969 -0.215227 0.0580041 0.378566 -0.0757083 0.104 -0.287251 0.106142 0.139533 -0.0744664 -0.219058 -0.0832692 -0.120596 0.153795 -0.0962865 0.525479 0.067109 0.243788 -0.0753496 -0.14348 0.581444 -0.406634 -0.061448 0.0305052 0.07758 -0.564268 -0.0329657 -0.134955 -0.233116 -0.0901927 -0.0661673 0.14648 0.243218 0.0337993 0.32944 0.537666 0.178198 0.40504 0.170617 0.0413468 -0.20561
132 -0.103144 -0.0539162 0.582748 -0.151056 0.169704 0.28173 -0.137989 0.526062 -0.463671 0.184187 0.244547 -0.0805111 0.383947 -0.146296 -0.316135 -0.348135 0.0262394 -0.0675928 -0.00910352 -0.153535 0.450873 -0.306642 -0.0181935 0.261078 0.0254659 0.412477 0.445504 0.0705581 0.212015 0.326698 0.36351 -0.570068 0.00889565 0.0427044 0.390977 -0.159881 0.271369 0.12559 -0.0853452 -0.352355 0.186141 0.130166 -0.0580665 0.0200218 0.525231 0.187055 -0.251911 0.0629349 -0.451165 -0.0210798 -0.0246117 0.00284728 0.107883 0.0317309 -0.237514 -0.360458 -0.0589678 0.396502 -0.152891 -0.213245 -0.0925085 -0.00433849 -0.430755 0.660545 -0.241715 -0.324046 -0.306706 -0.306601 0.31658 0.34331 -0.051576 -0.496004 -0.145674 -0.148131 -0.393222 -0.768425 -0.194692 -0.344887 0.0526777 0.0527805 0.0175499 -0.155645 -0.303949 0.374618 0.370927 -0.0841862 -0.142321 -0.291279 -0.149643 0.000133896 0.318811 -0.0401639 0.0860475 -0.275414 0.205731 -0.0410481 0.102389 0.111944 -0.0804278 0.124989 -0.0938037 -0.0353038 0.360775 -0.324385 0.281667 -0.0396871 -0.159722 0.389107 -0.434699 -0.0440636 0.393788 -0.0186436 -0.200221 -0.179338 -0.0846619 0.0148765 -0.261148 -0.163183 -0.0299567 0.00897661 0.0573335 0.152399 0.129993 0.0663928 0.184342 0.145348 0.0366396 0.137607
171 -0.09538 -0.180353 0.443392 -0.495635 0.206447 0.456945 -0.327306 0.628816 -0.567216 0.0959923 0.19738 -0.392348 0.500848 0.213944 -0.493399 -0.711189 0.0726308 -0.258419 -0.070942 -0.13057 0.643442 -0.163777 0.231675 0.453822 -0.0377762 0.387489 0.421213 0.103091 0.440251 -0.0232123 0.258431 -0.342829 -0.16678 0.0987993 0.266577 -0.142548 0.408366 0.273094 -0.341806 -0.372204 0.292747 0.178739 -0.255874 0.097563 0.426391 0.261991 -0.208858 0.0733348 -0.361606 -0.023591 -0.121086 -0.138477 0.0531678 0.0634139 -0.31031 -0.209898 0.138985 0.23566 0.0527474 -0.453638 -0.383186 -0.0611806 -0.551174 0.744888 0.0241734 -0.460667 -0.220853 -0.157967 -0.00548076 0.396939 -0.0476471 -0.232187 0.058315 -0.160975 -0.50837 -0.496164 0.0632071 -0.106594 -0.081219 -0.100469 -0.316688 -0.362128 -0.428931 0.141872 0.200055 -0.186058 -0.0366802 -0.0836717 -0.443892 0.266358 0.109282 -0.137742 0.0131393 -0.492781 -0.000311511 -0.0618358 0.0616092 0.0366145 0.106479 0.344027 0.123883 -0.110202 0.237895 -0.269784 0.104203 -0.0207374 0.107159 0.273484 -0.764032 0.227125 0.08141 -0.182267 0.0144282 -0.159337 0.0464911 0.0210353 -0.00516156 -0.111229 0.164282 0.0670819 -0.116518 0.148774 0.292121 0.0818792 0.0585803 0.22681 0.0655704 0.0860392
2126 0.153806 -0.218561 0.219369 -0.581853 0.19507 0.266251 -0.232824 0.508982 -0.587972 0.0331402 0.230391 -0.527503 0.473848 0.389411 -0.565973 -0.560375 0.0587637 -0.291433 0.150574 -0.295298 0.696398 -0.0950894 0.253981 0.490563 0.0316546 0.579373 0.860334 0.213348 0.396426 -0.176281 0.124787 -0.301391 -0.21293 0.0182583 0.258305 0.0344238 0.374798 0.40258 -0.395193 -0.478529 0.203883 0.244177 -0.284007 0.272798 0.363754 0.445829 -0.285751 -0.0897898 -0.311191 0.0567934 -0.297875 -0.223475 0.0845313 0.12581 -0.415238 -0.0201373 0.205514 0.00210974 0.0744518 -0.514912 -0.517509 -0.0215907 -0.601263 0.740476 0.102798 -0.480384 -0.232054 -0.114323 -0.178687 0.335236 -0.30325 0.0390293 -0.183007 0.00144481 -0.607889 -0.593908 0.157476 -0.0883023 0.134504 0.00940525 -0.542315 -0.296452 -0.398463 0.0554443 0.151205 -0.0781045 0.0461745 0.00609161 -0.463752 0.361559 -0.114283 -0.194001 0.0138819 -0.538169 -0.0633493 0.185622 0.182946 0.00131701 0.393746 0.198716 0.168676 -0.0550085 0.263437 -0.244745 0.0964647 -0.271278 0.219884 0.158764 -0.85889 0.219734 -0.16654 -0.147678 0.190752 -0.349639 0.109626 -0.013552 -0.00459521 -0.307047 -0.0411652 -0.0756456 -0.0992863 0.0396444 0.318621 0.0834084 0.0927742 0.0566525 -0.107771 0.0926387
1296 0.288547 -0.0921299 0.262399 -0.486456 0.00793642 0.285311 -0.365018 0.411362 -0.674458 0.0700157 0.352032 -0.54666 0.394811 0.460511 -0.660951 -0.523472 0.1009 -0.459324 0.321163 -0.316923 0.645635 -0.167741 0.195105 0.4668 0.0735819 0.518612 0.844105 0.382055 0.355336 -0.140435 0.0173195 -0.433468 -0.240575 -0.00525309 0.19034 0.0448023 0.418205 0.162984 -0.442139 -0.450075 0.272658 0.14704 -0.29324 0.224451 0.113582 0.395809 -0.286752 0.205398 -0.137212 -0.0466224 -0.386369 -0.336626 -0.0587766 0.146275 -0.595998 0.0079192 0.153512 0.132001 0.0536114 -0.507158 -0.537356 0.047517 -0.418101 0.780387 0.162214 -0.469004 -0.202771 -0.118461 -0.0216534 0.287728 -0.237844 -0.0708684 -0.245105 -0.0158237 -0.576596 -0.555339 0.127799 -0.0595084 0.0961691 0.0820646 -0.508673 -0.241185 -0.434175 -0.0128999 0.151401 -0.0607877 0.0118266 -0.0878482 -0.492947 0.440048 0.0450607 -0.112105 -0.00923819 -0.694067 0.0143765 0.236285 0.124705 -0.251243 0.268238 0.231118 0.151076 -0.059888 0.222541 -0.114556 0.14574 -0.248623 0.227634 0.379038 -0.916334 0.168521 -0.173932 -0.128469 -0.028987 -0.197265 0.132851 -0.0344336 0.125752 -0.195594 0.0304398 -0.0842132 -0.0957872 0.0704702 0.275411 0.00140941 -0.141272 0.0455819 -0.105792 -0.065408
7919 0.114376 -0.0988597 0.265173 -0.52182 0.0630488 0.272983 -0.337738 0.399003 -0.649011 0.164629 0.335207 -0.509275 0.455236 0.479387 -0.583503 -0.492337 0.197247 -0.414988 0.239549 -0.289969 0.700777 -0.129814 0.257356 0.553561 0.0818828 0.528439 0.778927 0.284278 0.375749 -0.13496 0.0677705 -0.373309 -0.130815 0.0298273 0.158895 0.00386286 0.382767 0.18668 -0.331516 -0.484819 0.234513 0.118842 -0.296281 0.150474 0.245845 0.37025 -0.298426 0.117045 -0.177761 -0.0617027 -0.365557 -0.434565 -0.0284432 0.268567 -0.491574 -0.0844428 0.0714896 0.229827 0.121912 -0.517776 -0.457016 0.074662 -0.52814 0.732997 0.157547 -0.500319 -0.220381 -0.161112 -0.0675412 0.278543 -0.251806 -0.16724 -0.152211 0.0194607 -0.61015 -0.526987 0.0729696 -0.063978 0.143428 -0.0517461 -0.552607 -0.22724 -0.444274 0.0813936 0.0976886 -0.0545824 0.0344123 -0.0472627 -0.49066 0.434932 0.0538925 -0.102072 -0.057606 -0.683179 -0.0498738 0.180878 0.104893 -0.25543 0.246856 0.260919 0.185331 0.0106168 0.201293 -0.159668 0.0654299 -0.227561 0.113156 0.377662 -0.850073 0.105117 -0.171115 -0.15772 -0.0275429 -0.158576 0.137411 -0.070365 0.0150335 -0.245847 0.0405736 -0.10794 -0.0292243 0.000200624 0.382327 0.043447 -0.0558477 0.0926933 -0.0374775 -0.150511
104 0.118805 -0.111021 0.25575 -0.602908 0.0133552 0.208412 -0.36048 0.211281 -0.674684 0.20602 0.366529 -0.58646 0.407845 0.410359 -0.577186 -0.511794 0.190759 -0.414959 0.326059 -0.226412 0.672635 -0.0875486 0.233523 0.489727 0.116384 0.508224 0.771292 0.293209 0.391678 -0.128685 -0.0111801 -0.334658 -0.203086 0.0150525 0.124935 -0.0152522 0.368091 0.0905618 -0.410105 -0.499364 0.271027 0.10932 -0.396913 0.180867 0.221937 0.380157 -0.259284 0.188879 -0.0460507 -0.0711666 -0.471019 -0.385771 -0.036655 0.21835 -0.500196 -0.067708 0.10063 0.261857 0.112507 -0.530916 -0.358019 0.0411494 -0.464729 0.747483 0.217167 -0.456475 -0.28513 -0.160802 -0.109654 0.193654 -0.273012 -0.0438504 -0.142679 -0.0508325 -0.68098 -0.509244 0.095471 -0.0980201 0.137472 0.0638862 -0.507794 -0.277946 -0.470682 0.0117762 0.134155 -0.139178 0.0507106 -0.141429 -0.454414 0.419632 0.0931122 -0.113609 -0.0915974 -0.739287 -0.0495073 0.229686 0.092959 -0.310807 0.240885 0.273454 0.152717 0.00630661 0.163722 -0.25558 0.176535 -0.228192 0.130812 0.364789 -0.858061 0.217546 -0.298686 -0.144268 0.0218753 -0.207266 0.103778 -0.126501 0.0265519 -0.192947 -0.00504297 -0.162215 -0.122602 0.0143701 0.298829 -0.0869513 -0.10197 0.0831031 -0.0369454 -0.163112
4572 0.188915 -0.08876 0.259166 -0.543802 0.0573751 0.277009 -0.314246 0.352849 -0.649595 0.158436 0.288426 -0.520893 0.31198 0.37362 -0.550522 -0.45729 0.218735 -0.394562 0.206613 -0.22911 0.681158 -0.0860178 0.212755 0.514207 0.0668409 0.47286 0.768227 0.240537 0.328841 -0.130089 0.0205715 -0.351866 -0.145543 -0.00360349 0.183033 -0.00604434 0.398442 0.156673 -0.373481 -0.503185 0.254026 0.121876 -0.307658 0.150636 0.191462 0.361471 -0.24042 0.151629 -0.172655 -0.0013551 -0.44965 -0.397767 -0.0694333 0.270163 -0.514433 -0.0214425 0.113903 0.28115 0.121553 -0.538721 -0.426574 0.0474651 -0.450627 0.721183 0.133849 -0.478704 -0.25941 -0.0902056 -0.085601 0.240212 -0.257553 -0.088705 -0.130228 -0.0353941 -0.613408 -0.521257 0.0814101 -0.0504165 0.118502 0.0849717 -0.501545 -0.300379 -0.386498 0.0717338 0.101046 -0.0273513 0.0726153 -0.0265825 -0.449499 0.418102 0.0582252 -0.0700185 -0.0655511 -0.666506 -0.0681554 0.217907 0.0905321 -0.22746 0.202364 0.232216 0.162993 -0.0913546 0.257177 -0.0797716 0.0732707 -0.22716 0.149916 0.357745 -0.890469 0.244534 -0.215643 -0.183127 0.0237621 -0.139394 0.15345 -0.0966173 0.0311513 -0.198522 0.092628 -0.133117 -0.0724535 0.054911 0.324708 -0.00875577 -0.10519 0.09112 -0.0507794 -0.11674
2091 0.189859 -0.122645 0.292385 -0.638247 0.015741 0.23204 -0.397327 0.38106 -0.667802 0.197183 0.264426 -0.586509 0.448313 0.454129 -0.602839 -0.497288 0.236557 -0.41832 0.310356 -0.254671 0.716473 -0.124872 0.24517 0.553898 0.0757691 0.516369 0.818739 0.25733 0.382953 -0.143358 0.0336553 -0.43605 -0.163694 -0.0187414 0.11556 -0.0208454 0.392252 0.0791306 -0.406395 -0.479577 0.300862 0.127746 -0.384954 0.168052 0.213673 0.374312 -0.215945 0.119885 -0.158381 0.00831175 -0.455927 -0.373481 -0.0858453 0.270178 -0.53531 -0.0376928 0.143246 0.228521 0.0839796 -0.571812 -0.330627 0.0199092 -0.430114 0.719374 0.236079 -0.517032 -0.263582 -0.151859 -0.0895215 0.241675 -0.288239 -0.0801292 -0.157702 -0.073518 -0.707242 -0.52806 0.122089 -0.0562738 0.0611837 0.0353434 -0.567464 -0.245389 -0.449514 0.0389202 0.131198 -0.118538 -0.0244259 -0.0639843 -0.479305 0.459259 0.0882736 -0.134794 -0.0678815 -0.734348 -0.0662017 0.237946 0.114481 -0.323126 0.196202 0.265887 0.227591 -0.0109289 0.273727 -0.138871 0.143839 -0.230295 0.174849 0.350723 -0.88124 0.172342 -0.263781 -0.162209 0.00631499 -0.140062 0.154338 -0.104995 0.0747399 -0.213468 0.0339644 -0.125856 -0.108867 -0.0055826 0.312744 -0.0241007 -0.139156 -0.0160816 -0.0146358 -0.179695
4507 0.0986406 -0.0806 0.268504 -0.567104 -0.00381719 0.290635 -0.391225 0.30551 -0.608586 0.168173 0.349025 -0.587525 0.475182 0.473803 -0.599168 -0.588371 0.182395 -0.385444 0.301862 -0.21225 0.746775 -0.0713188 0.218826 0.500567 0.0656029 0.529108 0.809464 0.220413 0.38572 -0.107466 -0.0192729 -0.392494 -0.145515 0.00113376 0.209831 -0.0140056 0.404439 0.179636 -0.409931 -0.521112 0.26478 0.108189 -0.33771 0.217526 0.259461 0.386222 -0.291672 0.122451 -0.116396 -0.0335748 -0.471697 -0.409435 -0.0731996 0.216851 -0.521582 -0.100214 0.0720491 0.204387 0.120217 -0.518935 -0.49263 0.00765002 -0.48902 0.752782 0.206118 -0.506159 -0.246469 -0.140408 -0.191384 0.287593 -0.202236 -0.137519 -0.113411 -0.0296239 -0.654631 -0.490385 0.176325 -0.0839688 0.118625 0.0458783 -0.523291 -0.236645 -0.432679 0.0295176 0.124389 -0.154852 0.0424801 -0.0690901 -0.474249 0.423022 0.0494407 -0.0642801 -0.067754 -0.659462 0.0366103 0.146328 0.091171 -0.252429 0.244996 0.309462 0.188252 -0.0335219 0.16835 -0.129075 0.152682 -0.247903 0.130653 0.287505 -0.881305 0.185925 -0.187427 -0.156378 -0.0484263 -0.252125 0.120689 -0.0541084 0.0346467 -0.261981 0.0761677 -0.0206046 -0.137438 0.0341762 0.326529 -0.0209842 -0.0825732 0.0165116 -0.0106883 -0.111761
43 0.203311 -0.261738 -0.115817 -0.0568096 0.0330523 -0.00507614 -0.0647805 0.39079 -0.255463 0.315762 0.0803387 -0.322175 0.222735 0.223151 -0.283776 -0.195147 0.146858 -0.546082 0.505675 -0.39772 0.628401 0.271205 0.12172 0.150938 -0.18032 0.287434 0.95647 0.0232542 -0.0256102 -0.00406108 -0.145459 -0.365473 -0.0514395 -0.0148883 0.230515 0.0895465 0.110093 -0.212764 -0.204198 -0.35596 0.171078 0.0505235 -0.24903 0.096323 0.412667 0.474954 -0.148265 0.0207577 -0.307584 0.148637 -0.187388 -0.29282 0.273815 -0.128078 -0.286633 -0.130386 -0.08829 -0.107332 -0.316256 -0.28917 -0.0285986 -0.157149 -0.16186 0.425627 0.0764672 -0.346372 -0.386789 0.0871792 -0.246354 0.00487959 -0.386167 -0.0753735 -0.0504161 0.0225318 -0.560886 -0.419668 0.0910859 -0.274856 0.370213 0.106418 -0.172557 -0.311157 -0.372148 0.017049 0.262444 -0.238772 -0.0745469 0.139154 -0.229159 0.26817 0.105748 -0.19411 -0.283124 -0.251641 -0.063669 0.293461 0.255716 0.030824 0.386667 0.101439 0.0576292 0.0657941 0.0953766 -0.220305 0.288744 -0.319302 0.37094 0.0496898 -0.401624 -0.0761127 0.0999206 0.0474716 0.0290878 -0.536778 0.0059958 -0.0200143 0.00747513 -0.29815 -0.314496 -0.143625 0.00654763 0.054875 0.178778 -0.0542261 -0.0846644 -0.0684026 -0.072153 -0.0345423
4318 0.246228 -0.209419 0.0537988 -0.0556779 -0.111088 0.0647533 -0.181175 0.334533 -0.232258 0.222826 -0.0158114 -0.470211 0.332935 0.33079 -0.32257 -0.147947 0.158454 -0.558189 0.352217 -0.330169 0.678797 0.0948328 0.00918269 0.179681 -0.163588 0.252322 0.820798 -0.0699856 0.235883 0.0308929 -0.348225 -0.446134 -0.0550775 -0.15657 0.321782 0.113002 0.0590312 -0.122645 0.03064 -0.290508 0.166403 -0.109217 -0.226301 0.0453662 0.287102 0.569354 -0.0998521 0.0296111 -0.263361 0.00553042 -0.133525 -0.371079 0.144379 -0.028558 -0.347036 -0.462369 -0.0987214 -0.0685224 -0.291015 -0.305392 -0.215297 0.0816027 -0.276243 0.287115 0.114231 -0.272727 -0.289096 -0.0829281 -0.279472 -0.0537693 -0.444065 -0.290397 -0.0166079 -0.006811 -0.613941 -0.434121 0.0511018 -0.156469 0.41394 0.163651 -0.254965 -0.145523 -0.269119 0.0683798 0.201223 -0.165944 0.182095 0.126251 -0.28749 0.487797 0.235629 -0.2186 -0.191849 -0.394205 -0.124673 0.0661904 0.107682 -0.0719876 0.168177 0.0597848 0.163985 0.0538562 0.0380758 -0.189887 0.265259 -0.436881 0.342231 0.109021 -0.517913 -0.122307 0.125479 -0.0675915 0.0947112 -0.583107 0.0837349 -0.0376232 0.187795 -0.314606 -0.178361 -0.167583 -0.00134261 0.0467822 0.294802 -0.0770043 -0.0517778 0.0981266 0.113358 0.0941015
6966 0.320027 -0.205786 0.0481948 -0.1094 -0.0936894 0.112546 -0.164324 0.342376 -0.204108 0.251475 -0.0973363 -0.493077 0.228609 0.265572 -0.286828 -0.0886031 0.216945 -0.45087 0.410461 -0.309759 0.601017 0.256339 0.045329 0.201515 -0.141939 0.386093 0.930173 -0.00818715 0.161927 -0.0948074 -0.301792 -0.453895 -0.143444 -0.00120238 0.283437 0.13178 0.124381 -0.0812505 -0.0804078 -0.199062 0.233176 0.0744412 -0.36593 0.13217 0.359833 0.554631 -0.00662868 -0.00779568 -0.345889 0.00181823 -0.272972 -0.424147 0.177328 0.00912914 -0.372409 -0.359322 -0.0154434 -0.127123 -0.215432 -0.417707 -0.215127 -0.100866 -0.279381 0.423206 0.070442 -0.17993 -0.286726 -0.0684978 -0.239106 -0.0202958 -0.361628 -0.125494 0.0260764 0.126065 -0.520446 -0.461889 0.106652 -0.136735 0.264116 0.257902 -0.254226 -0.302999 -0.253652 0.0180091 0.232398 -0.146014 0.161689 0.131096 -0.304686 0.353316 0.0495952 -0.162134 -0.125556 -0.455106 -0.0457739 0.0750541 0.185223 -0.0345616 0.316559 -0.027207 0.13461 0.217224 0.0959667 -0.270768 0.272346 -0.519178 0.364081 -0.0232646 -0.58747 -0.00713589 0.187234 -0.156766 0.108126 -0.508423 0.193983 0.0242232 0.0612897 -0.2557 -0.118126 -0.0765824 -0.0120647 -0.0296847 0.234786 0.0344385 0.0041139 0.118238 0.0754082 0.077551
829 0.28037 -0.186041 -0.0381002 -0.0733059 -0.0246711 0.019588 -0.138914 0.282293 -0.109865 0.237467 -0.167275 -0.465083 0.159249 0.291161 -0.324385 -0.0265484 0.153438 -0.379789 0.464797 -0.392034 0.611491 0.190939 0.0584418 0.238621 -0.031177 0.36047 0.888109 0.137091 0.146944 -0.0914531 -0.241944 -0.40738 -0.0972065 -0.0516486 0.298879 0.131984 0.00770121 -0.0513453 -0.00886319 -0.278507 0.343215 0.0365506 -0.190439 0.148191 0.326561 0.507497 -0.00874067 -0.00907825 -0.248771 0.0668702 -0.229784 -0.307338 0.10348 0.00371193 -0.329987 -0.302018 0.00279353 -0.119682 -0.308852 -0.236562 -0.140215 -0.020129 -0.238128 0.316782 0.14739 -0.171515 -0.123107 -0.0831223 -0.167894 -0.113864 -0.416477 -0.104978 -0.0697679 0.0751543 -0.581059 -0.473694 0.0411764 -0.260425 0.355852 0.244306 -0.227415 -0.295978 -0.239158 0.00736981 0.180944 -0.145345 0.232506 0.106308 -0.307002 0.34715 0.149187 -0.271984 -0.10195 -0.489442 -0.0226938 0.17036 0.194404 0.0311184 0.303755 -0.104281 0.111428 0.173276 0.029694 -0.285012 0.407395 -0.474216 0.276997 0.013024 -0.37545 -0.0776436 0.0721686 -0.0790288 0.0306815 -0.571231 0.174283 0.0392342 0.0878709 -0.354751 -0.162668 -0.113282 0.0840916 0.0362136 0.256436 0.0152494 -0.0970437 0.0890334 0.103659 0.127222
1611 0.271402 -0.235082 0.0145575 -0.0648695 -0.0369836 0.0498323 -0.162733 0.430956 -0.225456 0.18228 -0.204072 -0.479704 0.124044 0.348268 -0.358685 -0.0906751 0.134766 -0.379062 0.46814 -0.293262 0.717358 0.038629 0.0578526 0.279107 -0.0958363 0.301763 0.906362 0.0182313 0.167143 -0.0513417 -0.202073 -0.544421 -0.103313 0.00945492 0.300242 0.16866 0.198477 -0.0952947 -0.0125762 -0.26275 0.215334 -0.00587837 -0.217542 -0.0281222 0.442023 0.590417 0.0328163 0.0495608 -0.270603 0.0532391 -0.210654 -0.338075 0.179658 0.0882456 -0.46733 -0.551222 -0.0462871 -0.121818 -0.297717 -0.195031 -0.229563 0.0434489 -0.423958 0.287395 0.0909086 -0.195553 -0.192893 0.0885011 -0.261283 -0.128623 -0.528517 -0.21867 -0.00824142 -0.0170108 -0.601766 -0.491804 0.109786 -0.250479 0.337936 0.312302 -0.204501 -0.209118 -0.259859 0.0794165 0.148176 -0.122932 0.231021 0.119929 -0.321834 0.413841 0.0661398 -0.285532 -0.159064 -0.462311 0.0464094 0.092066 0.192006 0.0555593 0.209905 -0.0161419 0.261793 0.197553 0.0379061 -0.340039 0.264591 -0.406076 0.398089 0.0719376 -0.469527 -0.0942171 0.168963 -0.122963 0.0491419 -0.542061 0.208609 -0.00575387 0.062222 -0.416329 -0.117445 0.0502158 -0.0724516 -0.00803732 0.353224 0.0360236 0.0502795 0.0577265 0.0745864 0.121264
3632 0.287648 -0.22507 0.0281697 -0.0602479 -0.0702937 0.00671379 -0.0715883 0.299093 -0.320483 0.174015 -0.201336 -0.531615 0.205399 0.331989 -0.343534 -0.176169 0.011171 -0.466944 0.388218 -0.240442 0.668295 0.0632555 -0.0436001 0.122357 -0.151849 0.342368 0.923567 -0.0670722 0.138882 -0.0328561 -0.269525 -0.419118 -0.15172 0.0128372 0.411665 0.249024 0.131499 -0.00696114 -0.0621281 -0.214403 0.148352 0.0193294 -0.0934417 0.0980741 0.268015 0.712016 -0.0660729 -0.0876728 -0.369139 0.144735 -0.207842 -0.24567 0.108432 0.00455434 -0.355851 -0.512577 0.0636579 -0.147666 -0.274994 -0.298758 -0.15528 0.00205575 -0.286019 0.281544 0.0903874 -0.222429 -0.175005 0.06975 -0.210383 -0.010738 -0.367629 -0.0776633 -0.168284 0.0540096 -0.629457 -0.456356 0.169164 -0.180984 0.314041 0.11034 -0.258668 -0.190327 -0.257336 0.00178585 0.18062 -0.0588741 0.227608 0.0715282 -0.289871 0.254478 0.20093 -0.248797 -0.198238 -0.392526 0.0892393 0.0351785 0.174494 0.0227251 0.175193 -0.00314686 0.109759 0.106984 -0.0307649 -0.190715 0.357995 -0.431588 0.362107 0.020105 -0.445905 -0.069428 0.177988 -0.13854 0.0081541 -0.525259 0.030712 -0.0135936 0.177826 -0.303042 -0.140215 0.011936 -0.116151 -0.0765628 0.213373 -0.00269567 -0.117913 0.0112112 0.0575685 0.0570083
6 0.260696 0.195741 0.207774 -0.0689139 -0.0812531 0.0428936 0.0913591 0.2938 -0.445376 0.208952 0.0615685 -0.579361 0.00785908 -0.11917 0.061937 -0.23102 -0.291846 -0.270835 -0.222875 -0.198119 0.213768 -0.17251 -0.47477 0.102513 -0.142311 0.071733 0.538491 0.28779 0.288642 -0.0432364 -0.112566 -0.642156 0.329349 0.385287 0.347184 0.442183 0.0601973 -0.29306 0.225617 -0.25017 -0.109883 0.0276411 -0.486929 0.20388 0.162308 0.565542 0.101531 0.24763 -0.709474 0.213788 -0.209165 -0.446 0.301152 0.132191 -0.425463 -0.619041 0.398618 0.278147 -0.751043 0.0430989 -0.257266 0.33839 -0.241451 0.728377 0.101182 0.191563 -0.30403 -0.0211907 0.0964198 0.082994 -0.328486 -0.103486 0.0747931 0.101841 -0.793542 -0.635216 -0.379697 -0.0101909 0.154875 0.315507 -0.41594 -0.368016 -0.0716835 -0.144329 0.170641 0.249619 0.515573 0.156516 0.0192221 0.220726 0.670591 -0.0156211 -0.114334 -0.215395 0.0168588 -0.0615173 0.150475 0.246173 -0.00682689 -0.0411172 0.0069778 0.220527 0.068213 -0.316731 0.0431292 -0.218682 0.0255706 0.0913354 -0.264542 -0.21038 0.467659 0.19621 -0.202777 -0.0566516 0.458625 -0.258597 0.104653 0.0234264 0.0507126 -0.0248001 -0.353742 0.0167973 0.308631 -0.107696 0.0974529 0.397839 0.210543 0.534166
154 0.0731596 0.0342927 0.135738 -0.185445 0.241166 0.0361677 -0.0146389 0.356687 -0.104861 0.137383 -0.342693 -0.495126 -0.0293893 -0.391404 -0.277637 -0.0362436 0.214903 -0.517131 -0.169481 0.238214 0.242305 -0.00875171 -0.00674562 -0.388934 -0.18467 0.264557 0.246404 0.00982946 0.211716 0.480567 0.24056 -0.671834 0.403883 0.0887115 0.813536 -0.0628257 0.149022 -0.256525 0.357941 -0.370433 -0.0113327 -0.181944 -0.185026 0.131078 0.189881 0.698235 -0.171609 0.100506 -0.186409 -0.324064 -0.34567 -0.127162 0.240015 0.0775862 -0.37381 -0.0197165 0.282479 0.122045 -0.401341 -0.303873 0.151875 -0.166324 -0.376254 0.586278 -0.0537804 0.153155 -0.292883 0.133012 0.263311 -0.216342 -0.186412 -0.250404 0.397191 -0.19593 -0.00277435 -0.292718 0.0615637 -0.112923 0.167003 0.161372 -0.409316 -0.507521 0.132619 0.0644716 0.31165 -0.215676 -0.342763 0.050463 -0.132505 0.453841 0.757779 -0.237457 -0.166574 -0.203779 -0.126155 -0.251496 -0.090565 0.169924 0.286032 0.273634 0.0306674 0.489837 0.403057 -0.0952179 0.041372 -0.338318 -0.172775 0.230629 -0.34882 -0.109269 0.167511 -0.145123 0.0473401 0.164459 0.0804306 -0.0483766 -0.206587 0.0523048 0.0303846 -0.150658 0.159839 -0.174164 0.155154 -0.253686 -0.0515849 0.134346 0.296063 0.182803
233 0.145089 0.101083 -0.133407 0.116809 0.172258 0.118379 -0.184784 0.469626 -0.0620222 0.46588 -0.377894 -0.392399 0.0974656 -0.342549 -0.169302 0.04131 0.148103 -0.133744 -0.351331 0.183864 0.141392 0.150589 0.106844 0.0755578 -0.251105 0.186991 0.234514 -0.161147 0.199786 0.4088 0.195179 -0.448875 0.355261 0.045095 0.567998 -0.0312192 0.0432039 -0.366858 0.204807 -0.51707 -0.173197 -0.174357 -0.215754 0.311866 0.261408 0.378989 0.00258398 0.00853608 -0.492733 -0.0431931 -0.432005 -0.356307 0.653515 -0.13686 -0.146771 -0.10241 0.157034 0.198419 -0.605217 -0.0683448 0.0500546 0.0155046 -0.316375 0.948148 0.0506051 -0.0365982 -0.497136 -0.0920174 -0.0574492 -0.0368499 -0.416284 -0.457863 -0.035117 -0.194354 -0.116915 -0.0836457 0.0315324 0.101431 0.257586 0.0555225 -0.00831072 -0.658774 -0.0711125 -0.0526857 0.230283 -0.159106 -0.0504143 -0.122534 0.156361 0.289135 0.564579 -0.354324 -0.176313 -0.0595054 0.0545048 -0.340491 -0.20073 0.318889 0.209857 0.164704 0.0252024 0.28092 -0.0550669 -0.201829 0.0858311 -0.355089 0.102048 0.185653 -0.44603 -0.27671 0.308238 -0.281728 0.10639 -0.181367 0.0423422 0.0929278 -0.167651 0.103426 0.0111683 0.0250959 0.106585 0.176815 0.123986 -0.17454 -0.14806 0.237752 0.327704 0.214301
11 -0.157063 0.0264505 -0.242853 -0.129668 0.361356 -0.0699246 -0.211082 0.690397 -0.196327 0.292525 -0.348339 -0.347065 -0.0143584 -0.18004 -0.00781945 -0.176718 0.189355 0.0667648 -0.361166 0.0243757 0.321778 0.0246502 0.176465 0.278584 -0.236511 0.245882 0.0805082 -0.145459 0.396222 0.652941 0.421485 -0.299279 -0.169799 -0.15937 0.162126 0.0305959 -0.169838 -0.0608976 0.123012 -0.260425 -0.0342537 -0.120485 -0.19421 -0.0232934 0.300142 0.45566 0.0203043 -0.137727 -0.399772 0.349162 -0.081906 -0.314684 0.573608 0.0167575 -0.045784 -0.251399 -0.194817 0.211324 -0.477103 -0.344185 0.0377228 -0.122594 -0.3708 0.719794 -0.129875 0.131216 -0.185043 0.10204 0.16744 0.135325 -0.339634 -0.237158 -0.0954679 -0.120528 -0.318769 -0.222249 -0.0702515 -0.167967 0.131211 -0.121036 -0.0852009 -0.630291 -0.0482282 0.0245848 0.324602 0.0136524 -0.0827709 0.226629 -0.0959408 0.174833 0.521361 -0.422604 -0.231264 -0.0277152 0.0555732 -0.289303 -0.280965 0.131168 0.2631 0.205314 0.0586838 0.0190131 0.378518 -0.196697 0.117093 -0.431897 -0.00754903 0.145822 -0.212546 -0.0283484 0.0949393 0.0352897 0.158227 -0.137721 -0.000867148 -0.0754312 0.179947 -0.0903888 -0.0969599 0.0165933 -0.0737849 0.194401 0.442872 -0.155649 -0.0157256 -0.0720499 0.276813 0.157998
8621 -0.0914166 0.0572026 -0.101878 -0.0493752 0.319186 0.0383991 -0.199102 0.763376 -0.119028 0.179242 -0.32494 -0.331392 0.0319094 -0.308607 -0.00302306 0.051453 0.326969 0.0539883 -0.361634 0.0929157 0.238372 0.0153181 0.211466 0.333088 -0.254986 0.151965 0.136073 -0.272956 0.32777 0.45305 0.338283 -0.0692744 -0.140292 -0.106223 0.360301 0.0759575 -0.297925 0.0542083 0.125188 -0.352705 -0.0349968 -0.0947386 -0.175258 0.0937595 0.247563 0.360514 0.0314839 0.0124627 -0.418143 0.437764 -0.00333618 -0.275573 0.550158 0.00482387 0.106517 -0.256401 -0.0779899 0.311337 -0.6075 -0.331797 -0.0291011 -0.0118682 -0.364417 0.556863 -0.0719469 0.16629 -0.293465 0.119559 0.0305761 0.106762 -0.445672 -0.376724 -0.0562582 -0.140478 -0.205126 -0.165698 -0.0313726 0.0925828 0.0859332 -0.15562 -0.150804 -0.434023 -0.177885 0.18373 0.349439 -0.139775 -0.273531 0.024022 -0.0855114 0.192452 0.460878 -0.476705 -0.264258 -0.0247652 -0.0686453 -0.283068 -0.251374 0.257242 0.118646 0.191041 0.0919841 0.0560652 0.282051 -0.177121 0.0740041 -0.418842 0.0515345 0.12548 -0.359367 0.0196232 0.105888 -0.10164 0.0602782 -0.289974 -0.0243381 0.126335 -0.0913305 -0.159645 -0.164967 -0.0559208 0.118225 0.152129 0.400193 -0.203707 0.0718109 0.139787 0.170059 0.250675
87 0.123496 0.178708 -0.0717503 -0.20497 0.101919 0.49748 -0.231617 0.778893 0.276101 -0.0414029 -0.307128 -0.00739249 -0.00770481 -0.223757 -0.211373 0.133371 0.0379891 0.0770707 -0.139598 -0.119628 0.406361 0.354098 0.304009 0.0132418 -0.0881293 0.0852752 0.361603 -0.057621 0.337533 0.398833 0.0409327 -0.364189 0.170711 0.298348 0.346663 -0.111954 0.107773 -0.487419 0.278273 -0.0311953 -0.14493 0.0048589 -0.295835 0.142473 0.399061 0.107845 0.229769 -0.118753 -0.163233 0.0478854 0.0355446 -0.186987 0.574625 0.226053 -0.115023 -0.346946 -0.0225878 -0.0218054 -0.254649 0.0608686 0.480907 -0.552404 0.0813677 0.475499 -0.137664 0.214738 -0.307414 0.00313045 0.484165 0.0954941 -0.0188838 -0.393834 -0.0406064 -0.292341 -0.248363 -0.363614 0.0269276 0.246899 -0.0312154 0.221353 -0.358066 -0.558566 -0.0600201 0.594416 0.204632 -0.124968 0.0211493 -0.162939 -0.253556 0.40362 0.319105 -0.217414 -0.418943 -0.187147 0.046092 -0.139348 -0.147762 -0.285696 0.109349 -0.0121994 0.121328 0.430519 0.445979 -0.224984 0.0687473 -0.184316 0.293513 -0.0653781 -0.474702 -0.150976 0.139849 -0.339595 0.0526319 -0.47117 0.151445 -0.214267 -0.0661736 0.00451564 -0.0965646 0.123892 0.318411 0.262914 -0.182727 0.158134 0.258762 0.121373 0.258268 -0.0296708
4739 0.174546 0.124292 0.115491 -0.24077 0.109746 0.41618 -0.232776 0.72217 0.0508029 -0.185997 -0.19001 -0.225075 -0.0271434 -0.100623 0.09122 0.183421 0.116102 0.0567876 -0.0939459 0.0687683 0.509816 0.239446 0.537623 0.209918 0.0641137 0.0365106 0.225836 0.0328162 0.30623 0.476143 0.305873 -0.352451 0.0758586 0.303072 0.378605 -0.0386355 0.00372657 -0.327852 0.331704 0.0668571 -0.056452 0.00720927 -0.218936 0.144993 0.341109 0.278822 0.236062 -0.050837 -0.171338 -0.00333177 0.118269 -0.15251 0.657475 0.223034 -0.179053 -0.173197 0.129975 0.00483434 -0.246366 0.0686817 0.312062 -0.485024 0.124386 0.723785 -0.261806 0.351093 -0.352246 -0.102726 0.380044 0.0991111 -0.0020511 -0.262966 -0.032196 -0.109122 -0.38052 -0.520789 0.154831 0.261393 0.0880944 0.0890538 -0.188008 -0.493936 0.0678595 0.52458 0.182964 -0.120681 -0.0641604 -0.181312 -0.294974 0.235149 0.4392 -0.205586 -0.288496 -0.298434 -0.0260506 -0.144711 -0.0615165 -0.133345 0.234713 0.0753001 0.357328 0.326792 0.456065 -0.19252 -0.250945 0.0102214 0.527669 -0.100018 -0.485555 0.185377 0.0505204 -0.26408 -0.103241 -0.366242 0.230809 -0.174068 -0.0630311 0.149113 -0.23265 0.00989303 0.0331482 0.245378 -0.106922 0.0979086 0.33519 0.240434 0.298511 0.0118226
587 0.209215 0.1409 0.246866 -0.27342 0.0761801 0.372611 -0.163411 0.538609 -0.0336961 -0.0587782 -0.29341 0.0203665 -0.134552 -0.221968 -0.146048 0.048164 0.201737 0.0186095 -0.149214 -0.0505595 0.469758 0.0590367 0.329699 0.241174 -0.269275 0.0410456 0.274463 0.0821795 0.330655 0.474726 0.388801 -0.387849 -0.0223732 0.314261 0.258141 -0.0591064 0.103069 -0.415232 0.260478 -0.13366 0.0881968 0.121203 -0.385701 0.0858399 0.394033 0.396868 0.221952 0.111657 -0.274347 -0.065249 -0.0111576 0.0209824 0.504136 0.148425 -0.347434 -0.0882935 0.19753 0.266347 -0.171557 -0.146617 0.343038 -0.43441 0.058827 0.561697 -0.287395 0.09721 -0.30898 0.137297 0.511682 0.137469 0.0603781 -0.212388 0.265316 -0.0738387 -0.48145 -0.315804 -0.0948638 0.276272 0.0113738 -0.0681318 -0.306678 -0.490986 -0.00440648 0.49434 0.261807 -0.181648 0.0382328 -0.106123 -0.528646 0.306536 0.30121 -0.0504397 -0.302014 -0.545461 0.210599 -0.101556 -0.127246 -0.0626926 0.123135 0.207942 0.150393 0.149618 0.503257 -0.119839 -0.1651 -0.0138079 0.513349 0.0453709 -0.779216 0.21175 0.220813 -0.447552 0.0681711 -0.150522 0.166597 -0.131271 0.00809936 0.173676 -0.00878347 0.0920085 -0.118634 0.290743 -0.178546 0.149798 0.20665 0.364257 0.00409546 -0.162067
378 0.390689 -0.0562864 0.37995 -0.317857 0.118621 0.199622 -0.159429 0.4793 -0.0567703 0.221633 -0.253702 -0.123572 0.118132 -0.252514 -0.257205 -0.345182 0.355142 -0.348439 -0.363248 -0.222782 0.341212 -0.0818568 0.228806 0.434453 -0.275724 -0.0975939 0.291942 -0.100668 -0.0826563 0.382497 0.42072 -0.575766 -0.323465 0.121011 0.253998 0.00999068 0.109804 -0.293085 0.0192961 -0.294513 0.181598 0.238694 -0.142067 0.228652 0.178026 0.318598 -0.0567913 0.0668857 -0.289632 -0.0203269 -0.256861 0.0752932 0.371738 -0.142216 -0.580546 0.0193056 0.213232 0.461248 -0.273308 -0.391121 0.398496 -0.148386 -0.274154 0.640977 -0.426721 -0.36683 -0.284455 0.197451 -0.057388 0.176411 -0.168919 -0.0319948 -0.00164695 0.0397131 -0.396432 -0.283159 -0.159147 0.25692 -0.197284 -0.0199153 -0.15788 -0.384714 -0.131285 0.367979 0.237592 -0.0860238 -0.328937 -0.0953006 -0.47508 0.188919 0.582557 -0.303354 -0.197853 -0.517368 -0.285512 -0.0450374 -0.124238 0.0734701 0.396713 0.173028 -0.232306 -0.158662 0.312208 0.0977674 -0.110827 -0.121487 0.551142 0.0931655 -0.734 0.0330126 0.1878 -0.365937 -0.0489357 0.153534 0.107464 0.101567 -0.251018 0.130554 0.0649735 0.0786867 -0.358175 0.0788549 0.0709818 -0.00546498 0.219874 0.2349 -0.0624514 0.37964
489 0.238168 0.00992332 0.271867 -0.323274 0.216295 0.306666 -0.213401 0.494594 -0.204484 0.230804 -0.250702 0.0300597 -0.10162 -0.456296 -0.464744 -0.0457157 0.286662 -0.294647 -0.345192 -0.236853 0.252439 -0.0837008 0.149392 0.427403 -0.293919 0.078202 0.255801 -0.0545402 0.0275113 0.318336 0.469041 -0.428527 -0.293292 0.208795 0.358172 -0.0014516 0.250704 -0.161155 -0.030851 -0.369691 0.321445 0.20275 -0.266324 0.263244 0.336403 0.301349 0.0035717 0.274986 -0.447296 0.0475692 -0.237688 0.052567 0.248075 -0.00973472 -0.507102 0.0452526 0.34379 0.447002 -0.0265091 -0.474721 0.128255 -0.165464 -0.120576 0.569096 -0.293473 -0.456107 -0.278431 0.334584 0.189436 0.27678 -0.17545 -0.0753926 0.106351 -0.12117 -0.314068 -0.188919 -0.225408 0.176536 -0.0602843 -0.188697 -0.258428 -0.494381 -0.0332855 0.143384 0.227153 -0.121974 -0.288454 -0.149656 -0.522873 0.159465 0.504042 -0.28074 -0.104401 -0.628107 0.00136817 -0.0506023 -0.147831 0.285261 0.103683 0.325726 -0.242042 -0.167436 0.366997 0.0630561 0.067639 -0.102167 0.243113 0.220006 -0.816163 0.177682 0.191423 -0.396258 0.0614106 -0.0322961 0.0513564 0.0387233 -0.136548 0.142479 0.0786048 0.181649 -0.151636 0.044962 0.0185028 -0.0291393 -0.0263823 0.43757 -0.0970737 0.168917
1228 0.0332951 0.188081 0.213118 0.131381 -0.137181 0.0529728 -0.202632 0.259657 -0.300904 0.225893 -0.0889527 0.0862283 0.241841 0.0508039 -0.16138 0.266985 -0.122304 0.0578598 0.11754 -0.167589 0.546986 0.259823 -0.136725 0.0771784 0.0223386 -0.0385756 0.325198 -0.201019 -0.0661473 0.178983 0.20265 -0.276704 0.0747535 0.145858 0.428186 -0.134693 0.292743 -0.167186 -0.278975 0.10978 0.167517 -0.286696 0.123993 0.197788 0.478499 0.356306 0.0249616 -0.015462 -0.129708 0.384857 -0.435896 -0.137725 -0.120571 0.00352253 0.124044 -0.257152 0.652055 -0.143501 0.0441938 -0.241002 0.296968 -0.0670728 0.199485 0.473021 -0.371456 -0.199689 -0.0684459 -0.293269 0.225532 0.493632 -0.00131978 -0.28189 -0.141798 -0.0521007 -0.476138 -0.636008 -0.127489 0.0516892 0.245583 0.0631975 -0.181471 0.0429128 0.0602432 0.422191 0.0291966 -0.21932 -0.0710748 -0.14291 -0.120311 0.171842 0.869923 -0.163085 0.0519689 -0.233912 -0.122192 -0.27101 -0.104363 0.0426491 0.212405 0.0851035 -0.403402 -0.0997985 -0.172581 0.196205 -0.074583 -0.494039 0.5547 -0.0660691 -0.209401 -0.563023 0.367047 0.0835175 -0.462203 -0.142861 0.224967 0.0171888 0.011848 0.0170618 -0.300615 -0.169801 0.583687 0.0394817 -0.0675421 -0.0141549 0.0602125 0.119558 0.610338 0.0295405
48 0.125377 0.16614 0.141318 0.0956624 0.0793538 0.478142 -0.273628 0.345447 -0.366462 0.251891 0.0156681 0.0438254 0.213447 0.0700411 -0.173531 0.24464 -0.322092 0.00675463 0.111805 -0.26879 0.351069 0.330066 0.12678 0.184194 -0.0212454 0.00729156 0.484443 -0.138729 0.0403358 0.277671 0.283354 -0.373379 -0.0154126 0.0910122 0.431904 -0.099153 0.257015 -0.00589181 -0.411399 0.0947206 0.0912892 -0.319158 0.402119 0.0853099 0.483994 0.496288 -0.0864802 0.051554 0.0827073 0.541126 -0.333393 -0.139225 0.013267 0.0703136 0.142536 -0.334514 0.612243 -0.231953 -0.0169602 -0.259333 0.126949 -0.0159385 0.13079 0.654704 -0.375798 -0.311976 -0.133612 -0.319838 0.156464 0.597955 0.113015 -0.0845015 -0.174465 0.157124 -0.61263 -0.741649 -0.0604117 0.0842982 0.281308 0.188636 -0.26587 0.0301351 0.110477 0.556657 -0.00251081 -0.133156 -0.0883481 -0.0200963 -0.439763 0.187041 0.783031 -0.101538 0.0582235 -0.215521 -0.204964 -0.244813 -0.117798 0.112997 0.438583 0.252481 -0.42398 -0.272351 -0.0598022 -0.0176881 -0.22055 -0.534498 0.543844 -0.266583 -0.502278 -0.591923 0.533521 0.0493054 -0.423165 -0.237444 0.345738 -0.0803242 0.0966847 0.0414145 -0.176703 -0.203508 0.486932 0.0775157 -0.0457119 0.00389653 0.103096 -0.10253 0.445324 0.252403
