260 128
488 0.337652 0.48502 0.464557 0.025397 0.0358235 0.393698 0.0273314 -0.0299925 -0.143829 0.134156 -0.337781 0.452433 -0.210185 -0.179203 -0.472509 -0.442543 -0.306294 0.382422 0.127189 -0.287093 0.143908 -0.404015 -0.0515127 -0.149479 -0.0124867 -0.0667084 -0.224115 0.183728 0.00888318 -0.0149592 -0.214283 0.476244 0.36845 0.0430047 0.238874 0.262109 -0.278373 0.0814288 0.283615 0.0517973 -0.344226 -0.10154 0.08254 -0.0836072 0.449997 0.331459 -0.14467 -0.106403 -0.429197 0.241161 -0.215754 0.242918 0.109912 0.053325 0.0168343 0.282453 0.142814 0.147482 0.037151 0.174884 -0.0120787 0.119629 0.233074 0.144867 0.0708688 -0.359667 0.275271 0.14648 0.284763 -0.0953157 0.342583 -0.240999 -0.0400301 -0.204732 -0.123766 0.404267 -0.078652 -0.00460185 -0.107231 0.187963 0.199903 0.431028 0.278202 0.26745 -0.0820049 0.233454 -0.0178793 0.561716 -0.0563711 -0.22523 0.211114 0.17791 -0.0825822 -0.275041 0.260255 0.17133 -0.0295395 -0.317272 -0.241516 -0.0908534 -0.421485 -0.167787 0.0190738 0.119706 -0.016891 0.332416 0.152876 0.567869 -0.198397 -0.282848 0.0528084 -0.355918 -0.196123 -0.0851502 0.231952 -0.0665345 -0.238604 -0.0183892 0.428149 0.25912 0.0467728 0.147314 0.0778768 -0.22174 -0.0606895 -0.248174 0.217495 0.177175
190 0.383362 0.446268 0.472701 -0.0063664 0.0817238 0.285886 -0.0128584 -0.134181 -0.192812 0.0221541 -0.390198 0.456998 -0.213302 -0.160241 -0.481477 -0.536835 -0.40011 0.426514 -0.0288774 -0.261022 0.152333 -0.266499 -0.0538296 -0.197663 0.00980122 0.0362838 -0.387054 0.170433 -0.0858302 -0.0673194 -0.239826 0.353523 0.379159 0.0570881 0.330757 0.277823 -0.164486 0.108952 0.258403 0.039923 -0.362481 -0.164487 -0.004543 -0.165201 0.414386 0.249485 -0.162734 -0.203872 -0.434943 0.397561 -0.21924 0.300944 -0.0112689 0.0336227 -0.0183661 0.462018 0.202962 0.0737129 0.111284 0.232628 -0.0147078 0.0650525 0.144942 0.190953 0.068657 -0.38991 0.280726 0.0828699 0.294468 -0.138686 0.214708 -0.337122 -0.14662 -0.280937 -0.042877 0.452265 -0.0316334 0.121462 -0.135612 0.204069 0.112386 0.437768 0.224228 0.191802 -0.141298 0.24627 0.00700576 0.485661 -0.0702547 -0.126652 0.123425 0.164335 -0.162147 -0.257792 0.203298 0.147551 0.0106824 -0.197362 -0.164421 0.0875776 -0.363216 -0.189832 0.174725 0.106713 0.0380589 0.330223 0.193186 0.486828 -0.0950303 -0.287927 0.00477444 -0.349955 -0.347815 -0.0760935 0.16047 -0.107697 -0.260784 0.0431478 0.383779 0.206101 0.0599424 0.137522 0.0782143 -0.259395 -0.173986 -0.138552 0.343328 0.133085
2450 0.467224 0.512552 0.414104 0.0422947 0.0562783 0.308377 0.00727753 -0.0748046 -0.129122 0.0593727 -0.368257 0.466486 -0.177568 -0.156905 -0.467791 -0.464876 -0.297766 0.351096 0.137026 -0.265546 0.118605 -0.376855 -0.110679 -0.116645 -0.0244546 -0.0568216 -0.236364 0.174633 -0.0264127 0.0256309 -0.195775 0.390778 0.331842 -0.00927243 0.259055 0.303114 -0.258755 0.0625755 0.242764 0.0220846 -0.301767 -0.0794442 0.0909592 -0.109372 0.445587 0.322501 -0.195173 -0.139498 -0.414359 0.256119 -0.209084 0.238406 0.0880269 0.10307 0.0447259 0.379979 0.166408 0.133478 0.0372962 0.241489 -0.0166047 0.148588 0.202794 0.183213 0.0760526 -0.329584 0.318155 0.171361 0.320428 -0.115961 0.258501 -0.196037 -0.139889 -0.199042 -0.0502829 0.44138 -0.074233 0.0258102 -0.105906 0.17529 0.226775 0.405215 0.249135 0.137182 -0.103976 0.269053 0.0186852 0.533672 -0.115305 -0.203379 0.167652 0.145873 -0.0538724 -0.302141 0.263331 0.207813 0.0211035 -0.191854 -0.155876 -0.105574 -0.493529 -0.133424 0.0231466 0.105325 0.0639451 0.295963 0.132113 0.582792 -0.114332 -0.311296 0.110575 -0.359202 -0.205042 -0.0515118 0.230638 -0.14812 -0.263254 -0.0113098 0.36792 0.286876 0.0785607 0.164887 0.0459542 -0.217029 -0.0811474 -0.250181 0.231742 0.186141
8652 0.404922 0.419556 0.461042 0.0467163 -0.0266613 0.307992 0.0406114 0.0049495 -0.137843 0.0863861 -0.428774 0.496994 -0.279344 -0.252351 -0.5176 -0.469354 -0.292472 0.30572 0.160429 -0.323497 0.0904003 -0.401812 -0.0516353 -0.130416 -0.0453871 -0.0324993 -0.215233 0.178244 -0.00291915 0.0253814 -0.255699 0.483758 0.371245 -0.00671497 0.206092 0.333508 -0.298183 0.0327782 0.150966 0.0347744 -0.316845 -0.0512232 0.109406 -0.094344 0.404651 0.326846 -0.166809 -0.0887242 -0.435532 0.229842 -0.15872 0.222081 0.149043 0.147298 0.0736574 0.327755 0.172468 0.167517 0.0169118 0.212069 -0.0278518 0.151165 0.238292 0.198343 0.0739885 -0.408158 0.274434 0.177046 0.300392 -0.0954691 0.343749 -0.146001 -0.0744799 -0.207652 -0.120519 0.462862 -0.121493 0.0220573 -0.0842112 0.161279 0.255526 0.390016 0.264111 0.215056 -0.099175 0.275821 -0.00979497 0.580251 -0.0557836 -0.314682 0.237949 0.201235 -0.0375344 -0.374123 0.311611 0.221046 0.0376564 -0.300007 -0.207396 -0.0908064 -0.477059 -0.122536 -0.0275974 0.0903623 -0.00760778 0.272849 0.132774 0.519132 -0.182923 -0.370107 0.0511716 -0.362549 -0.257461 -0.116454 0.246172 -0.131032 -0.205341 0.00221039 0.419849 0.315942 0.0693782 0.189909 0.0981611 -0.302744 -0.0351299 -0.309186 0.250339 0.151326
111 0.394936 0.450837 0.409064 -0.0268475 -0.00668728 0.286961 0.0224102 -0.0332326 -0.113575 0.0193604 -0.377347 0.439 -0.22103 -0.205617 -0.448686 -0.458706 -0.32062 0.384167 0.112376 -0.274876 0.0871303 -0.315124 -0.0980342 -0.175446 -0.0324941 -0.0951974 -0.263293 0.199081 0.0134742 -0.0259077 -0.231461 0.416241 0.331694 0.028899 0.261214 0.302484 -0.254414 0.0455459 0.227822 0.0589006 -0.322915 -0.111093 0.0995978 -0.0959295 0.401906 0.348162 -0.1386 -0.156704 -0.414447 0.231499 -0.192796 0.30374 0.0972408 0.0550608 -0.0445724 0.313626 0.104795 0.108742 0.0536518 0.184032 -0.0488089 0.0781605 0.239286 0.151883 0.0495868 -0.374591 0.29228 0.144137 0.326848 -0.135116 0.344671 -0.289677 -0.031309 -0.215953 -0.0738192 0.440061 -0.053568 -0.00431471 -0.134386 0.187767 0.203277 0.39555 0.253334 0.248393 -0.101919 0.228234 0.0112522 0.543087 -0.0582062 -0.242588 0.100112 0.235925 -0.058973 -0.241009 0.260713 0.151094 0.0472098 -0.223745 -0.200426 -0.0848399 -0.466219 -0.187257 0.0375439 0.061296 -0.0378873 0.328364 0.193796 0.511218 -0.105472 -0.279605 0.04837 -0.352539 -0.228488 -0.105119 0.210257 -0.058166 -0.290474 0.0210116 0.37155 0.238489 0.0931873 0.19308 0.0197431 -0.248478 -0.0869337 -0.207441 0.282541 0.164798
12 0.276192 0.424058 0.401247 -0.153313 0.212288 0.269698 0.0331639 0.232389 -0.28429 -0.0168851 -0.234209 0.436143 -0.0212212 -0.096107 -0.637396 -0.595072 -0.403897 0.43926 0.148231 -0.20305 0.00485474 -0.456684 -0.0780211 -0.132925 0.0741028 -0.0494767 -0.616577 0.350008 -0.058908 -0.00821172 -0.492481 0.373048 0.231738 0.036499 0.0612958 0.262077 -0.236756 -0.0153128 0.314955 0.13538 -0.359256 -0.203668 -0.151253 -0.181983 0.512201 0.352432 -0.205549 -0.17842 -0.38979 0.269522 -0.301366 0.19128 0.196898 -0.0199588 -0.14617 0.389235 0.204281 0.116946 0.00862195 -0.0656015 -0.119133 -0.0593005 0.132175 0.0847431 -0.00832201 -0.486354 0.298647 0.305193 0.458434 -0.212203 0.251385 -0.412228 0.000404842 -0.251284 -0.196443 0.58708 0.16441 -0.0458977 -0.203849 0.249735 0.221252 0.435702 0.0966894 0.25903 -0.0880463 0.20298 0.0599053 0.456535 0.0842003 -0.214096 -0.00651393 0.109639 -0.169565 -0.138011 0.328646 0.173179 0.0957084 -0.133462 -0.39099 -0.0263108 -0.49497 -0.13462 -0.0612141 0.180335 -0.0785371 0.422318 0.194343 0.497311 0.0247352 -0.275785 -0.154851 -0.373821 -0.338249 -0.0921179 0.235086 0.00454767 -0.3816 0.0442463 0.378637 0.0908965 -0.102712 0.230977 -0.161284 -0.0800759 -0.241175 -0.128529 0.296146 0.225346
9475 0.237113 0.415577 0.31403 -0.167502 0.210572 0.0908154 0.0490538 0.26681 -0.338202 -0.0669571 -0.223205 0.322649 0.0736708 -0.0917088 -0.632381 -0.582647 -0.495357 0.384314 0.22418 -0.173545 -0.0411988 -0.478767 -0.0574174 -0.180998 0.102521 0.0818936 -0.63084 0.472377 -0.068359 0.0373345 -0.459008 0.339417 0.196068 -0.0170863 -0.0277635 0.339807 -0.239141 0.0257231 0.246673 0.215774 -0.386619 -0.145892 -0.160439 -0.217003 0.473414 0.329711 -0.278365 -0.150526 -0.40185 0.273496 -0.317479 0.135737 0.30341 0.00218921 -0.141395 0.474944 0.231298 0.148412 0.028771 -0.0311684 -0.188813 -0.0786005 0.205351 0.164062 0.0484949 -0.477452 0.300349 0.353344 0.552325 -0.17476 0.232344 -0.485837 0.00410746 -0.274885 -0.23302 0.612553 0.151304 -0.0236175 -0.200909 0.321271 0.209258 0.423785 0.128 0.198068 -0.111962 0.177076 -0.0500143 0.331235 0.0877643 -0.180564 0.0403141 0.0926464 -0.148462 -0.117793 0.362448 0.184497 0.17977 -0.0961507 -0.478706 -0.0271581 -0.498939 -0.152761 0.0337736 0.255212 0.00464385 0.431293 0.128299 0.45622 0.0269744 -0.311485 -0.170234 -0.406943 -0.367575 -0.097588 0.247534 -0.00566817 -0.43074 -0.0301481 0.373771 0.0717729 -0.0599979 0.247229 -0.203608 -0.121849 -0.284472 -0.13295 0.362963 0.254857
6070 0.330789 0.464122 0.411867 0.0684341 -0.0232 0.333537 0.0456952 0.00525547 -0.102189 0.0513985 -0.388181 0.443163 -0.237497 -0.249986 -0.483328 -0.433417 -0.316572 0.412469 0.171092 -0.266177 0.0931229 -0.352983 -0.0772594 -0.152077 0.00368099 -0.0790402 -0.270392 0.185103 0.036648 -0.0136203 -0.26533 0.45753 0.378302 0.0037435 0.181358 0.298692 -0.314258 0.0803422 0.252278 0.025721 -0.308221 -0.0947452 0.0709059 -0.136003 0.382884 0.367262 -0.171841 -0.135952 -0.367582 0.177092 -0.169997 0.288678 0.144367 0.0326858 0.00306546 0.259349 0.111843 0.167832 0.0580254 0.21431 -0.0600368 0.0771837 0.304209 0.155392 0.0692878 -0.395349 0.273516 0.183172 0.31405 -0.119534 0.307012 -0.274266 -0.020487 -0.266209 -0.130207 0.439809 -0.117081 -0.0338611 -0.121904 0.165963 0.204661 0.447808 0.250832 0.267794 -0.133943 0.260521 0.0176883 0.554481 -0.00776409 -0.298534 0.207348 0.180682 -0.0902597 -0.293013 0.252863 0.16773 -0.0122386 -0.291397 -0.264099 -0.129723 -0.444051 -0.169475 0.0505146 0.107385 -0.0324107 0.33258 0.169114 0.540357 -0.146324 -0.310803 0.0552945 -0.354919 -0.216331 -0.139571 0.158586 -0.0543154 -0.293383 0.0182994 0.460351 0.252418 0.0320756 0.169427 -0.0447567 -0.255385 -0.0891721 -0.191812 0.219444 0.146526
9531 0.3755 0.397664 0.423745 0.0120502 0.00761897 0.328372 0.0354473 -0.0256121 -0.105545 0.0604249 -0.32804 0.505064 -0.249222 -0.287382 -0.461613 -0.48022 -0.307297 0.35692 0.036141 -0.280354 0.094156 -0.326608 -0.102652 -0.148751 -0.0407453 -0.0737369 -0.289289 0.15444 -0.0413788 -0.0506233 -0.244094 0.475712 0.338348 0.0252099 0.273905 0.247832 -0.229295 0.0482421 0.18411 0.0657602 -0.296731 -0.133395 0.120528 -0.12762 0.394376 0.320173 -0.138627 -0.134908 -0.374609 0.229058 -0.176422 0.303239 0.0158553 0.0877893 -0.00105869 0.281486 0.117042 0.157434 0.0751541 0.179038 -0.0104215 0.102284 0.184006 0.131174 0.0530386 -0.423681 0.299165 0.089001 0.258173 -0.144659 0.323916 -0.210457 -0.109472 -0.231858 -0.115803 0.455454 -0.0989308 0.0161177 -0.0968363 0.165943 0.201796 0.362172 0.229746 0.237181 -0.113698 0.247477 0.0379018 0.571234 -0.0244397 -0.30299 0.115542 0.22117 -0.101148 -0.317037 0.28375 0.150898 -0.0320121 -0.326949 -0.183123 -0.0858705 -0.461677 -0.132004 0.00951933 0.0922177 -0.0133497 0.295214 0.163247 0.476329 -0.1883 -0.314842 0.11047 -0.336257 -0.243616 -0.122505 0.203965 -0.122661 -0.244129 0.0246732 0.408613 0.274369 0.0588784 0.163745 0.0720792 -0.30323 -0.0486733 -0.231865 0.231533 0.145188
4563 0.355095 0.477595 0.418659 0.0528084 -0.0183502 0.346559 0.00480349 0.00886809 -0.0838295 0.0932084 -0.416074 0.47816 -0.259286 -0.21534 -0.488557 -0.446997 -0.319516 0.346765 0.179312 -0.294886 0.0932534 -0.404136 -0.0832573 -0.156123 -0.0315452 -0.0904217 -0.278428 0.174275 0.0525437 -0.00983339 -0.279554 0.451421 0.396283 0.00878482 0.216583 0.319219 -0.361591 0.0786647 0.247999 -0.0078602 -0.367492 -0.0874281 0.0349746 -0.108182 0.391821 0.324058 -0.18382 -0.111655 -0.424213 0.203287 -0.224484 0.263031 0.161042 0.0543674 0.0382228 0.315988 0.172608 0.133551 0.0237475 0.166449 -0.0306022 0.122837 0.262153 0.195855 0.050655 -0.370561 0.223024 0.202507 0.317104 -0.100331 0.368578 -0.206061 0.00909941 -0.196741 -0.113013 0.464678 -0.0942022 -0.0223686 -0.134545 0.195104 0.252673 0.425008 0.290166 0.292885 -0.0873033 0.307383 -0.00153613 0.569021 -0.0599166 -0.249368 0.202412 0.210907 -0.0174102 -0.289974 0.254828 0.202929 0.0337738 -0.276944 -0.267167 -0.0887159 -0.460459 -0.191626 0.00286778 0.135051 -0.0191337 0.35204 0.142769 0.553786 -0.121591 -0.30865 -0.00931969 -0.397414 -0.215883 -0.142559 0.231414 -0.0402151 -0.263733 0.0311339 0.451719 0.264707 0.0499116 0.171032 0.0156869 -0.252138 -0.0769946 -0.259054 0.249282 0.15995
17 0.369415 0.338305 0.504319 -0.0819945 0.281985 0.46811 -0.00713901 0.0973081 -0.319836 -0.054584 -0.202126 0.433142 -0.0708199 -0.101215 -0.591539 -0.6505 -0.359634 0.291841 0.0971525 -0.13688 0.0216051 -0.533975 -0.0236893 0.0195775 -0.0287831 -0.0576881 -0.511536 0.239066 -0.0704381 -0.105801 -0.439759 0.199065 0.196515 0.113318 0.284173 0.268578 -0.124664 0.0374168 0.230065 0.033826 -0.278687 -0.055567 -0.0631201 -0.105442 0.450735 0.249355 -0.159011 -0.160504 -0.447964 0.384678 -0.177389 0.20498 0.0408106 0.0941971 -0.075986 0.389256 0.098493 -0.0162918 0.0596349 -0.0830051 -0.00488973 0.0059109 0.0395703 0.0142552 -0.0117203 -0.58665 0.230837 0.224593 0.319993 -0.233246 0.216831 -0.266609 -0.12778 -0.0859628 -0.221447 0.447766 0.0569727 0.143112 -0.16853 0.192894 0.136355 0.441346 -0.00896538 0.067173 -0.0535801 0.100436 0.150602 0.572708 0.0802486 -0.141459 -0.0273074 0.116823 -0.305268 -0.203248 0.222839 0.334008 0.124544 -0.198353 -0.203004 0.119796 -0.544931 -0.0492196 -0.224376 0.106498 0.00978354 0.447955 0.262369 0.394112 0.059303 -0.258452 -0.172272 -0.228846 -0.532507 -0.0285872 0.313083 -0.125404 -0.160064 0.124425 0.315241 0.211132 -0.289475 0.170787 0.0355522 -0.000121096 -0.0798305 -0.150248 0.374933 0.222382
836 0.531739 0.433376 0.599253 -0.0967986 0.21592 0.398556 -0.1045 -0.113872 -0.168039 -0.0375567 -0.0794479 0.571743 -0.192537 0.0207926 -0.410945 -0.461993 -0.223257 0.40421 -0.122164 -0.138429 0.212767 -0.314141 -0.0594239 -0.0574441 -0.105339 -0.0903129 -0.404154 0.0438467 -0.072507 -0.222963 -0.240129 0.154755 0.380276 0.0980361 0.54515 0.106772 -0.121824 0.028371 0.31475 -0.0419809 -0.241842 -0.0730983 0.0763174 -0.0869022 0.261741 0.262896 -0.0670472 -0.230933 -0.379532 0.395164 -0.231368 0.222809 0.0354823 -0.0322009 -0.123606 0.30995 0.112969 -0.112226 0.103366 0.0443437 0.203325 0.0858023 -0.039559 -0.0717882 -0.0145359 -0.36669 0.225449 0.145719 0.292883 -0.181381 0.19431 -0.164874 -0.144391 0.030443 -0.352307 0.187601 0.129802 0.151601 -0.145389 0.18411 0.0408964 0.41405 0.125388 0.0606466 -0.0522235 0.122246 0.115146 0.359234 -0.068549 -0.000412615 -0.15415 0.0947458 -0.343219 -0.403032 0.0916996 0.415442 0.0421223 -0.187131 -0.080708 -0.0484481 -0.404119 -0.142711 -0.0197138 0.044769 0.0606357 0.268016 0.158446 0.204574 0.0652978 -0.209271 -0.176417 -0.184604 -0.528118 0.113528 0.298691 -0.227457 -0.17955 0.314825 0.250432 0.155657 -0.0525636 0.119522 0.0618683 -0.0400322 0.0197875 -0.027796 0.324978 0.264688
0 0.233779 0.294957 0.246315 0.218001 0.335956 0.576908 0.023342 -0.191814 0.0176502 0.0345926 -0.159975 0.462214 -0.0585629 0.0184963 -0.574951 -0.445677 -0.208298 0.477829 -0.170645 -0.154826 0.0515288 -0.0380079 -0.341632 -0.0757918 0.32133 0.0462504 -0.140083 -0.159945 -0.353273 -0.0817188 -0.122872 0.0525188 0.228439 0.135581 0.575015 0.117675 -0.227804 0.363072 0.29534 -0.00112346 -0.146422 -0.0815785 0.238989 0.0981882 0.197595 -0.0987496 0.0955502 -0.31394 -0.357195 0.342152 -0.17188 0.351271 -0.259358 -0.0974707 0.0490025 0.129255 0.283606 0.0999601 0.218171 0.0786996 0.212771 0.27441 -0.109416 -0.141182 -0.0513343 -0.432342 0.247712 -0.069917 0.115743 -0.152087 0.168673 -0.0745875 -0.0627503 -0.0756868 -0.113424 0.189559 -0.20108 0.223189 -0.161731 0.342804 0.00259545 0.399761 0.180406 0.110831 0.0492074 -0.165736 -0.0368564 0.281111 -0.124505 0.120946 0.122839 -0.0825607 -0.235775 -0.0915764 0.117966 0.041017 -0.0747686 -0.36125 0.171957 -0.195046 -0.227175 -0.163794 0.0923485 0.170076 0.187808 0.221768 0.221749 0.273029 0.0662933 -0.111988 0.16253 -0.273666 -0.343477 0.0875647 0.230892 -0.168925 -0.276584 0.101627 0.191531 0.159918 0.174681 -0.148875 0.24658 0.0704884 -0.0197 0.0992492 0.330956 0.270521
654 0.307096 0.278388 0.483743 0.111715 0.202926 0.712512 0.258879 0.0687289 -0.0446836 -0.0531319 -0.263466 0.416166 -0.296458 -0.0434854 -0.564945 -0.293983 -0.152427 0.679427 -0.262448 -0.104231 0.145505 0.101876 -0.216797 0.00199471 0.328683 -0.054206 -0.282422 -0.216146 -0.0885674 0.037318 -0.243571 0.119808 0.498671 0.239764 0.493842 0.13959 -0.373755 0.108956 0.4612 -0.025715 -0.0325423 -0.325797 0.0432768 0.0346536 0.186443 0.161966 -0.0193776 -0.300453 -0.178055 0.126143 -0.030468 0.167006 -0.0372097 -0.122175 -0.198562 -0.162618 0.187966 0.177812 0.0851693 0.0555709 0.135028 0.0453093 0.110185 -0.134301 0.0406878 -0.371906 0.225768 0.00320319 0.158975 -0.213666 0.0550394 -0.187231 0.164386 -0.162369 -0.0305486 0.204423 0.0441287 -0.00216753 -0.119405 0.170403 -0.062175 0.527538 0.0739453 0.130962 0.0310553 -0.105009 0.136287 0.345747 0.115934 0.0760559 0.0445724 0.141662 -0.381865 -0.0907664 0.127056 -0.0259656 -0.108114 -0.249996 0.0657312 -0.116657 -0.258166 -0.338567 -0.0667142 0.0670499 -0.240394 0.142293 0.334399 0.224062 0.147296 0.00297922 0.113934 -0.0790951 -0.447963 0.108349 -0.0324647 -0.0314792 -0.356466 0.325616 0.145844 0.033792 0.0286577 0.0113203 -0.100421 0.2134 -0.133963 0.318173 0.193521 0.0961873
1718 0.189351 0.251957 0.549799 0.0864383 0.319202 0.856214 0.330493 0.0117688 -0.149355 0.0795716 -0.247711 0.326446 -0.280609 0.0467563 -0.596212 -0.253222 -0.0832088 0.806858 -0.222651 -0.112578 0.278709 0.0083947 -0.12738 0.0202977 0.444204 -0.0299698 -0.160378 -0.160124 -0.0605456 0.114184 -0.259157 0.138865 0.504787 0.347499 0.563263 0.134913 -0.394825 0.136947 0.617038 -0.0522671 -0.0768334 -0.273007 -0.0166182 0.169772 0.344487 0.135764 -0.0744698 -0.258265 -0.207188 0.144373 -0.0167375 0.12643 0.0133446 -0.124295 -0.174135 -0.216755 0.169365 0.17348 0.0621465 -0.0178601 0.167023 0.0678645 0.0954283 -0.136515 0.156503 -0.31067 0.2467 -0.000260821 0.0314769 -0.14221 0.084109 -0.230363 0.257861 -0.158173 0.048797 0.123643 0.0284508 0.0338981 -0.142154 0.153438 -0.0714325 0.589709 0.155564 0.181533 0.0992529 -0.21285 0.185823 0.557666 0.0816562 0.17793 0.164962 0.0844833 -0.485349 -0.0211736 0.124664 -0.0409185 -0.194264 -0.32444 0.0387302 0.0540523 -0.170375 -0.318297 -0.0647555 0.0915872 -0.303755 0.188135 0.414837 0.38964 0.130326 0.0366178 0.0603447 -0.0848929 -0.40363 0.226878 -0.0188246 0.010374 -0.345946 0.247665 0.120009 0.0191573 -0.0710449 -0.0825463 -0.0393777 0.387644 -0.175281 0.327777 0.180173 0.111326
973 0.181321 0.226916 0.456822 0.0692943 0.331858 0.813273 0.327698 0.00607611 -0.1217 0.0203108 -0.229869 0.318309 -0.255787 0.103019 -0.63324 -0.189572 -0.0393879 0.832424 -0.179256 -0.0997545 0.30279 0.0510091 -0.144744 0.00106475 0.497669 -0.0552347 -0.146352 -0.176794 -0.0740183 0.187322 -0.284911 0.102277 0.498904 0.326705 0.559033 0.134442 -0.404697 0.133912 0.587642 -0.0557637 -0.0456403 -0.211538 -0.0392967 0.254005 0.328743 0.145442 -0.0879647 -0.267887 -0.158535 0.0782071 -0.00727167 0.147189 0.0433226 -0.16012 -0.17745 -0.268198 0.140867 0.213166 0.0603639 0.0110784 0.184996 0.0832506 0.05544 -0.130492 0.194122 -0.286277 0.28435 -0.0248059 0.038041 -0.111171 0.0642161 -0.245555 0.312447 -0.159649 0.059718 0.128635 0.0368473 -0.0329624 -0.146703 0.157877 -0.029477 0.621057 0.159434 0.17342 0.12923 -0.212125 0.186884 0.490663 0.08706 0.154979 0.151488 0.0733097 -0.502749 -0.0361406 0.148561 -0.0592896 -0.189045 -0.331539 0.032377 0.0462067 -0.151855 -0.320932 -0.0790165 0.0988292 -0.33537 0.181851 0.453356 0.354192 0.203719 0.0586614 0.0457434 -0.119784 -0.394238 0.247516 -0.0332179 0.00684806 -0.375655 0.274929 0.0928028 0.0137791 -0.000349495 -0.0768597 -0.104554 0.410327 -0.159244 0.373006 0.155868 0.131452
1 0.431246 0.289136 0.540815 0.0113621 0.213727 0.754729 0.175085 -0.0797944 -0.269396 -0.121496 -0.310129 0.483279 -0.281032 -0.160736 -0.625645 -0.252766 -0.312785 0.363867 -0.227731 -0.169999 0.0810404 -0.00986319 -0.0553197 -0.0308196 0.0746235 -0.120539 -0.204379 -0.415963 0.0024513 0.0255673 -0.183533 0.223194 0.503164 0.179476 0.591465 0.0474273 -0.245925 0.32032 0.270825 0.0389059 0.0373464 -0.161319 0.0152131 0.0692313 0.2535 -0.0109008 -0.168685 -0.0848532 -0.248037 0.358834 -0.0353153 0.309568 0.0727374 0.117192 -0.114034 0.100477 0.235046 0.123148 -0.0809368 0.0949093 0.217982 0.0224204 -0.0434981 -0.0863017 0.173211 -0.2949 0.340462 -0.0903888 0.141995 0.0391031 0.209055 -0.135167 -0.0703016 0.110751 0.0776437 0.0920287 -0.0858117 0.360127 0.0663081 0.215535 -0.115357 0.504699 0.189865 0.239801 0.19972 0.011728 0.196851 0.237407 -0.0620943 0.000336917 -0.169764 0.184139 -0.319624 0.0108206 0.0987924 0.148522 0.0122717 -0.210336 0.0564963 0.161494 -0.262766 -0.278932 -0.148763 0.133976 -0.0915665 0.400474 0.29066 0.309706 0.0441508 -0.121041 -0.0574582 -0.0624494 -0.453556 -0.0500575 -0.0200241 -0.2052 -0.173099 0.25827 0.119519 0.287482 0.0590011 -0.0419843 0.313024 0.115085 -0.126761 0.1866 0.219207 0.0155401
327 0.378179 0.419573 0.483766 0.175631 0.0541017 0.662512 0.0209705 -0.0378861 -0.0203876 -0.207432 -0.217651 0.490429 -0.187943 -0.15201 -0.608167 -0.303707 -0.289515 0.454658 -0.10249 -0.155784 -0.100906 0.0336146 -0.32362 -0.0549595 0.176956 -0.181671 -0.277571 -0.208753 -0.034176 -0.0656452 -0.240545 0.22277 0.371908 0.0334495 0.488548 0.12454 -0.235378 0.221068 0.378611 0.0927119 0.0750102 -0.32449 0.203823 -0.133082 0.0739148 0.0482878 0.0618381 -0.342952 -0.206385 0.198854 -0.0676697 0.390754 -0.165254 -0.211565 -0.104865 -0.0995898 0.301634 0.136881 0.0659557 0.0594786 0.160726 0.0949591 0.0620921 -0.295636 -0.168309 -0.455681 0.186364 0.11263 0.238407 -0.158705 0.208242 -0.0987195 -0.0459431 -0.0680037 -0.173651 0.211803 -0.126626 0.167449 -0.102206 0.320985 -0.0968364 0.449634 0.132101 0.279386 0.0484236 -0.118038 0.143586 0.171758 0.0533706 -0.00978696 -0.0713172 0.0944329 -0.244403 -0.0272022 0.0636527 -0.0563632 0.00829368 -0.251745 0.200379 -0.187979 -0.299125 -0.328212 -0.0189841 0.0684617 0.03177 0.323505 0.218315 0.215766 0.0362358 -0.0848776 0.0384068 -0.191691 -0.41694 -0.107446 0.141889 -0.0640949 -0.275258 0.286847 0.204705 0.0578608 0.19214 -0.0119291 0.0411771 0.063465 -0.129489 0.261085 0.290931 0.293335
8226 0.356021 0.381898 0.481013 0.276953 0.207606 0.530486 0.0215169 -0.233748 0.120523 0.039904 -0.0751778 0.435412 -0.123551 0.0113971 -0.361697 -0.377859 -0.161904 0.466967 -0.105068 -0.174222 0.100798 0.107392 -0.24018 0.0274439 0.373836 0.0878495 -0.0648463 0.0103606 -0.243251 -0.111685 -0.16501 0.10497 0.303847 0.197316 0.579869 0.175361 -0.229429 0.216405 0.351844 -0.0121987 -0.198088 -0.00448737 0.232768 0.0122584 0.201868 0.00418571 0.193992 -0.359708 -0.359037 0.252156 -0.121273 0.28171 -0.219406 -0.18528 0.0727081 0.0410255 0.19505 0.0411076 0.202325 0.00366316 0.203051 0.236381 -0.0444981 -0.229451 -0.0683504 -0.409078 0.0990717 0.0581031 0.119133 -0.194246 0.325723 -0.0271019 0.0194908 -0.179523 -0.237411 0.134593 -0.0730784 0.209433 -0.237743 0.346538 0.0180012 0.249152 0.190708 0.126326 -0.045141 -0.285363 0.0542155 0.349229 -0.202134 0.195807 0.13341 -0.0476836 -0.238434 -0.0888643 0.0228548 -0.0473307 0.0171704 -0.224606 0.242715 -0.225607 -0.211413 -0.258237 0.0888787 0.0509499 0.115904 0.133374 0.234825 0.301619 0.0627685 -0.110719 0.0536902 -0.285429 -0.411877 0.12124 0.326655 -0.0726496 -0.433392 0.192555 0.24814 0.0975069 0.189962 -0.0330014 0.203487 0.0735649 -0.0932294 0.130583 0.49503 0.351161
6416 0.357142 0.430301 0.487903 0.254602 0.198982 0.579486 0.0375538 -0.200562 0.106902 0.0814225 -0.119088 0.392815 -0.118103 -0.0133826 -0.346401 -0.42242 -0.201808 0.510127 -0.112406 -0.202754 0.104159 0.0853139 -0.204464 0.0161962 0.350493 0.136339 -0.120368 0.0110065 -0.241137 -0.133288 -0.165348 0.127766 0.334885 0.185209 0.56182 0.203379 -0.25928 0.18995 0.371442 -0.0396836 -0.214683 -0.0710464 0.194859 -0.00686224 0.196025 0.027458 0.228523 -0.355678 -0.389034 0.257802 -0.171025 0.248221 -0.221784 -0.16626 0.0642059 0.0881236 0.204556 -0.00271268 0.130419 -0.0327408 0.149454 0.264298 -0.0296054 -0.169289 -0.11806 -0.409674 0.103199 0.120787 0.111229 -0.200428 0.325587 -0.00984898 0.00338421 -0.17587 -0.237905 0.15207 -0.0774469 0.238694 -0.247541 0.373533 -0.00461641 0.29306 0.177378 0.112059 -0.0130638 -0.225985 0.0570671 0.338612 -0.229533 0.238498 0.13527 -0.0297762 -0.183608 -0.0975951 0.0471057 -0.0429082 0.00626399 -0.211099 0.223798 -0.274858 -0.240226 -0.246592 0.10042 0.0340365 0.0855552 0.146634 0.193675 0.361986 0.0296037 -0.149627 0.00620884 -0.259213 -0.370562 0.118356 0.297083 -0.064563 -0.415853 0.10753 0.268595 0.0756601 0.147766 -0.0462292 0.162213 0.105548 -0.0951557 0.11659 0.471368 0.332982
3882 0.285023 0.307593 0.465155 0.260371 0.187763 0.540829 0.056495 -0.16573 0.106373 0.0417536 -0.0998324 0.366773 -0.12286 -0.0463624 -0.32683 -0.378992 -0.136103 0.446221 -0.096697 -0.211276 0.115735 0.12768 -0.184648 0.0352782 0.379452 0.136613 -0.067365 0.0181039 -0.212261 -0.108456 -0.223897 0.108345 0.334688 0.20551 0.572599 0.187776 -0.275379 0.155453 0.347284 -0.0429648 -0.236726 -0.00614899 0.137224 -0.0169675 0.198656 -0.0269946 0.207086 -0.35548 -0.339204 0.196749 -0.127611 0.256125 -0.189874 -0.167486 0.0964653 0.0383436 0.16069 -0.00384724 0.157462 -0.0542623 0.158986 0.2742 -0.0249701 -0.199295 -0.0836773 -0.383622 0.0712181 0.145724 0.0725141 -0.234395 0.365388 0.0387092 0.00972689 -0.194235 -0.237417 0.140016 -0.0867783 0.296172 -0.238247 0.326212 0.0333575 0.267775 0.167083 0.113567 -0.0543203 -0.262578 0.139416 0.351648 -0.231808 0.216271 0.124301 -0.0411021 -0.225094 -0.0485111 0.0303275 -0.0686811 -0.0189514 -0.158082 0.258627 -0.201076 -0.206929 -0.222959 0.032768 0.0501779 0.0545306 0.115169 0.244755 0.292433 0.0539811 -0.144115 -0.048058 -0.258145 -0.407488 0.134947 0.296315 -0.0562711 -0.429175 0.175809 0.252918 0.0961507 0.114099 -0.0517864 0.172789 0.124136 -0.0942607 0.123174 0.524744 0.3155
5043 0.356262 0.377441 0.488007 0.232968 0.199541 0.580802 0.0477756 -0.208446 0.107219 -0.00222318 -0.0738254 0.410706 -0.123136 -0.0347586 -0.390828 -0.400026 -0.212319 0.499435 -0.0975068 -0.194034 0.118214 0.100921 -0.253655 0.076442 0.387946 0.120536 -0.120436 0.0163707 -0.206716 -0.0786017 -0.18841 0.116127 0.336806 0.213273 0.624751 0.231252 -0.249346 0.203096 0.356304 0.0167331 -0.199343 -0.0397008 0.214199 -0.0289054 0.238505 -0.0147467 0.181348 -0.358573 -0.363201 0.238585 -0.140227 0.279121 -0.209513 -0.130895 0.0885559 0.0571752 0.206137 0.0233716 0.123365 -0.032341 0.199902 0.294505 -0.0615242 -0.222529 -0.0655427 -0.440279 0.123913 0.148484 0.132607 -0.199405 0.344447 0.0216111 -0.0227475 -0.123421 -0.228054 0.137274 -0.0714471 0.29343 -0.241632 0.402582 0.0076201 0.266739 0.18947 0.0908327 0.00466006 -0.29082 0.0985902 0.353907 -0.244837 0.23498 0.0652349 -0.00326546 -0.225373 -0.0197827 0.0770319 -0.0367606 0.0404701 -0.161678 0.28882 -0.216624 -0.295596 -0.254711 0.0383344 0.048211 0.0964823 0.167598 0.242862 0.301707 0.0580098 -0.124693 0.0158521 -0.279677 -0.470774 0.155339 0.346215 -0.129957 -0.464486 0.139891 0.217803 0.141112 0.16094 -0.061505 0.188703 0.128334 -0.123375 0.11863 0.564493 0.388549
8025 0.334955 0.376665 0.459874 0.197888 0.236445 0.610165 0.0456207 -0.207398 0.126232 0.0403952 -0.114743 0.422224 -0.12765 0.0121268 -0.412063 -0.374855 -0.170809 0.516225 -0.113563 -0.234876 0.116492 0.103115 -0.239981 0.0338612 0.38855 0.0617807 -0.133195 -0.040254 -0.208832 -0.10456 -0.242906 0.136658 0.317632 0.194188 0.606539 0.183753 -0.278326 0.205399 0.343087 -0.032349 -0.191188 -0.044461 0.166559 0.0228597 0.203096 -0.0150349 0.223364 -0.372638 -0.337913 0.262062 -0.147355 0.328291 -0.208628 -0.160874 0.0201752 0.0810764 0.203411 -0.00359232 0.112385 -0.0793722 0.165036 0.268764 -0.0908699 -0.218918 -0.0973918 -0.397235 0.0962572 0.122189 0.0905131 -0.173485 0.380076 -0.0149101 0.0218097 -0.144157 -0.191972 0.110531 -0.0473915 0.272205 -0.253576 0.348843 0.0488567 0.279477 0.165884 0.173535 0.0105911 -0.257515 0.111478 0.394345 -0.278744 0.199771 0.0330323 -0.0515029 -0.195447 -0.0233872 0.0555598 -0.0483849 -0.00874299 -0.158796 0.282105 -0.212311 -0.220933 -0.242948 0.0729234 0.0761004 0.0625842 0.176074 0.252386 0.376598 0.0762354 -0.171212 -0.0605455 -0.311432 -0.421672 0.132292 0.316449 -0.0725151 -0.48513 0.170526 0.232612 0.113 0.203071 -0.0548643 0.192546 0.143062 -0.122455 0.131367 0.561512 0.370854
1193 0.354502 0.39231 0.48505 0.207529 0.190666 0.549391 0.0538906 -0.236064 0.138312 0.0247264 -0.0967407 0.381922 -0.0966323 0.00263013 -0.357367 -0.409816 -0.202335 0.532959 -0.0570543 -0.256854 0.146461 0.110229 -0.222154 0.0583306 0.390174 0.0929249 -0.12756 0.0462742 -0.167009 -0.0778236 -0.22872 0.140958 0.356178 0.214443 0.646592 0.199719 -0.266465 0.155012 0.394081 -0.0198707 -0.195762 -0.0370225 0.153671 -0.0196739 0.250431 0.0348963 0.225882 -0.376037 -0.36233 0.222761 -0.1745 0.287891 -0.163387 -0.168085 0.0379061 0.0872839 0.173689 -0.00229418 0.0638676 -0.0688321 0.169517 0.288253 -0.0505951 -0.226044 -0.0920811 -0.395679 0.0885108 0.172645 0.136821 -0.171372 0.384088 0.0282629 0.0237699 -0.125825 -0.207369 0.137618 -0.0454425 0.309253 -0.249669 0.380679 0.0362397 0.275803 0.190339 0.159409 0.0079578 -0.293525 0.133352 0.391388 -0.304359 0.247289 0.0482141 -0.0131429 -0.214826 -0.0371928 0.0635095 -0.0663515 0.029813 -0.111575 0.326967 -0.235184 -0.258552 -0.301357 0.0577077 0.0366499 0.0699464 0.154636 0.261547 0.396172 0.0764916 -0.153459 -0.0694632 -0.313558 -0.469233 0.165844 0.357713 -0.130597 -0.528758 0.166584 0.228755 0.0979093 0.199476 -0.0333452 0.172376 0.155921 -0.162587 0.0967489 0.610561 0.399373
5714 0.33663 0.315342 0.452996 0.24887 0.193748 0.502942 0.0771596 -0.228217 0.0995377 0.0531659 -0.0461756 0.355041 -0.0981477 -0.0364169 -0.302229 -0.401531 -0.206335 0.480855 -0.135193 -0.217023 0.113087 0.182723 -0.258375 0.0438781 0.381812 0.150164 -0.103574 0.0172516 -0.259036 -0.101092 -0.129186 0.161021 0.350926 0.220421 0.641668 0.186184 -0.169896 0.182067 0.355382 0.0635789 -0.186209 -0.0615773 0.216586 -0.0332625 0.254993 0.00245304 0.261823 -0.363468 -0.335725 0.268418 -0.156308 0.294895 -0.255225 -0.144985 0.0655561 0.0840845 0.183879 0.0590157 0.185391 -0.00185516 0.185089 0.26371 -0.0587642 -0.205061 -0.0564761 -0.415595 0.144301 0.078248 0.131242 -0.224082 0.324404 0.00976212 -0.0207785 -0.183156 -0.177286 0.167862 -0.0542644 0.258635 -0.22967 0.338587 0.0070707 0.207856 0.225212 0.0999404 -0.0428562 -0.263665 0.0475157 0.295733 -0.213267 0.245996 0.0895264 0.0161295 -0.229606 -0.0484928 0.0810821 -0.128756 0.0275613 -0.175639 0.307011 -0.254852 -0.244145 -0.30166 0.0784557 0.0623557 0.0786521 0.0976951 0.259072 0.284831 -0.00420653 -0.0994055 0.132025 -0.233144 -0.435861 0.147334 0.340322 -0.10325 -0.458254 0.151602 0.218358 0.0832568 0.232272 -0.0201541 0.234406 0.0522397 -0.111431 0.134024 0.538709 0.346452
4302 0.371895 0.387165 0.491454 0.268697 0.183622 0.50245 -0.00798186 -0.25641 0.0756488 0.0373236 -0.0983144 0.410395 -0.125433 -0.0124565 -0.343482 -0.446603 -0.206662 0.433512 -0.117393 -0.199235 0.101002 0.108528 -0.22145 0.0162362 0.308704 0.15782 -0.0761147 0.017257 -0.265367 -0.12892 -0.108764 0.11365 0.339782 0.186542 0.598002 0.199213 -0.191585 0.225998 0.35646 -0.00720848 -0.230886 0.00077143 0.221393 -0.0123934 0.231068 -0.0108811 0.191599 -0.367167 -0.418509 0.320471 -0.168637 0.274701 -0.255332 -0.141694 0.102743 0.132625 0.215921 0.0253297 0.187606 0.0339225 0.182164 0.277754 -0.0540049 -0.174023 -0.0755111 -0.422334 0.137063 0.0642472 0.120311 -0.196884 0.306834 0.00772943 -0.0597115 -0.155949 -0.233284 0.149501 -0.100291 0.275222 -0.210702 0.369868 -0.00806877 0.270693 0.237206 0.0828002 -0.0497294 -0.221121 0.0447973 0.309888 -0.217845 0.220234 0.150469 -0.0265521 -0.199317 -0.12693 0.0273936 -0.00383003 0.0498398 -0.192898 0.247807 -0.230779 -0.250438 -0.258915 0.110377 0.0412383 0.160363 0.14533 0.215704 0.329925 0.0195933 -0.136455 0.0550431 -0.261898 -0.395896 0.123563 0.320054 -0.0928222 -0.373035 0.137558 0.26274 0.125073 0.186863 -0.0120039 0.270775 0.0311108 -0.0961852 0.100212 0.509378 0.363877
1034 0.321492 0.449441 0.352225 -0.011266 -0.0336107 0.314785 0.00333551 -0.0240194 -0.124112 0.138207 -0.380679 0.41828 -0.201284 -0.232292 -0.452796 -0.465256 -0.346666 0.357902 0.0914541 -0.31852 0.0800079 -0.342193 -0.102812 -0.174596 -0.0503379 -0.0633246 -0.329221 0.149213 0.00828646 -0.0562884 -0.230379 0.500885 0.330069 0.0169429 0.202425 0.269691 -0.289393 0.0548293 0.238302 0.0463184 -0.304935 -0.162539 0.0703851 -0.129052 0.406557 0.331046 -0.104848 -0.134487 -0.401524 0.27642 -0.226723 0.271292 0.0744666 0.10011 -0.00500263 0.368287 0.153575 0.129991 -0.000128815 0.184445 -0.0589243 0.116769 0.226025 0.161228 -0.0026883 -0.352756 0.281295 0.163998 0.298246 -0.129081 0.327307 -0.22968 -0.110664 -0.195018 -0.0855325 0.445201 -0.0702808 0.022158 -0.124933 0.180548 0.223716 0.396775 0.266234 0.276295 -0.0892957 0.319256 -0.00916183 0.513991 -0.0701327 -0.253522 0.112997 0.21815 0.00217524 -0.260453 0.314409 0.1662 -0.00438721 -0.270527 -0.191621 -0.138459 -0.445396 -0.135703 0.0330672 0.115842 -0.0369634 0.315001 0.117313 0.572934 -0.208115 -0.333564 0.0721024 -0.342811 -0.177029 -0.134704 0.204242 -0.0772178 -0.211873 -0.0646279 0.423576 0.241094 0.0923237 0.163729 0.0725404 -0.279218 -0.125037 -0.25235 0.240366 0.1554
42 0.390984 0.496848 0.465782 0.0637223 -0.0183602 0.346257 0.00319511 -0.0305946 -0.128864 0.097399 -0.349815 0.461259 -0.221697 -0.214361 -0.433296 -0.416441 -0.299713 0.338831 0.137865 -0.273464 0.125757 -0.378514 -0.0805013 -0.101723 -0.013925 -0.0779162 -0.293845 0.189871 0.0511638 -0.0198476 -0.272955 0.437921 0.370431 0.0223467 0.211192 0.310992 -0.325139 0.0522994 0.266925 0.0144117 -0.337583 -0.0869477 0.0544782 -0.148146 0.41717 0.338639 -0.162885 -0.13784 -0.38453 0.222924 -0.168637 0.237746 0.12831 0.0743687 0.0480332 0.320313 0.145406 0.124352 0.0473758 0.208897 -0.0191841 0.103496 0.263904 0.149151 0.0477531 -0.345101 0.228423 0.22852 0.320646 -0.140942 0.313723 -0.236045 -0.094418 -0.23692 -0.117825 0.426297 -0.0320991 0.00683404 -0.14125 0.144678 0.233194 0.412736 0.240803 0.198675 -0.165154 0.288109 0.0614023 0.588764 -0.0801853 -0.246008 0.179341 0.182145 -0.0635813 -0.238907 0.25141 0.209417 -0.0100659 -0.223956 -0.22615 -0.0642946 -0.450488 -0.135987 -0.00133089 0.121167 -0.0138707 0.322209 0.133979 0.545089 -0.145441 -0.313552 0.0259822 -0.361826 -0.249739 -0.0967461 0.242591 -0.0787194 -0.275296 0.0205084 0.442977 0.286461 -0.000128243 0.16824 0.0169355 -0.230082 -0.0918105 -0.236373 0.256525 0.167475
1660 0.412339 0.455587 0.447868 -0.013411 0.00769388 0.312286 0.0441708 -0.0164744 -0.0983819 0.0859041 -0.338245 0.493668 -0.211843 -0.251767 -0.450952 -0.508194 -0.362925 0.352969 0.104193 -0.307287 0.094345 -0.396707 -0.0769523 -0.132027 -0.0677949 -0.0649834 -0.267454 0.226215 -0.00825565 -0.0274172 -0.236672 0.464878 0.340458 0.0414787 0.272057 0.299903 -0.235777 0.0445457 0.181412 0.0725026 -0.337074 -0.145947 0.128324 -0.167562 0.453804 0.355009 -0.144248 -0.0989732 -0.447482 0.240966 -0.220775 0.229524 0.0949819 0.115041 -0.00991898 0.34245 0.139005 0.135711 -0.019912 0.1626 -0.0310861 0.10757 0.232201 0.176033 0.0539319 -0.404616 0.289619 0.146911 0.312126 -0.13069 0.350184 -0.192628 -0.0936924 -0.184663 -0.103453 0.473213 -0.078223 0.039628 -0.0956344 0.221396 0.192126 0.352655 0.227528 0.235942 -0.0812967 0.227514 -0.027542 0.575031 -0.0834897 -0.240347 0.136378 0.238308 -0.0563795 -0.3009 0.292795 0.161865 0.0390664 -0.251066 -0.172538 -0.130846 -0.508385 -0.185845 -0.00416836 0.0811172 0.00823162 0.303369 0.140778 0.525243 -0.185052 -0.326328 0.0882837 -0.340777 -0.263482 -0.112156 0.249275 -0.168105 -0.272146 -0.0142567 0.390527 0.265675 0.064261 0.186722 0.0808981 -0.289478 -0.0611939 -0.314936 0.278839 0.145922
3509 0.45193 0.202918 0.499214 -0.040654 0.16136 0.5483 0.37094 0.0830393 -0.32856 -0.236991 -0.430813 0.338089 -0.311337 -0.134492 -0.74289 -0.295846 -0.384314 0.549542 -0.0864934 -0.214536 -0.175756 0.00848734 -0.161927 0.0310185 0.167871 -0.0806125 -0.393201 -0.252736 -0.0036672 0.096308 -0.173011 0.333657 0.508522 0.0647112 0.447937 0.148046 -0.167156 0.142242 0.234952 0.208872 0.353102 -0.363551 0.103147 -0.00111001 0.0685097 0.184205 0.0653646 -0.16148 -0.142359 0.391338 0.0482161 0.246728 0.168401 0.0585876 -0.358418 0.0712964 0.354542 0.241036 -0.0392089 0.00399488 2.736e-05 -0.137555 0.0639758 -0.121573 0.0821986 -0.493483 0.252306 0.0750046 0.347485 0.0522427 -0.00603483 -0.187385 0.151085 0.0685036 0.0947921 0.173888 -0.0209736 0.113099 0.0328977 0.095356 -0.184006 0.428373 0.164085 0.263948 0.206211 -0.148557 -0.0319806 0.223337 0.198226 -0.0351537 -0.115125 0.228718 -0.393891 -0.20907 0.224945 0.00711444 0.178463 -0.255506 0.0699284 -0.0429804 -0.224145 -0.475457 -0.0562319 0.0954165 -0.165841 0.221145 0.257341 0.234657 -0.00906123 -0.193844 0.0890791 0.0504887 -0.642534 -0.0936484 0.0679224 -0.165382 -0.249142 0.291155 0.0317054 -0.0170416 0.279104 0.0868169 0.0109868 0.0247618 -0.149313 0.275695 0.226446 0.106358
5086 0.486189 0.22865 0.440716 -0.0357357 0.125078 0.68435 0.0353082 0.119802 -0.21318 0.056158 -0.272564 0.45895 -0.453366 -0.0203153 -0.673338 -0.236875 -0.138155 0.231114 -0.433024 -0.189651 -0.0249241 0.166497 -0.278494 -0.118458 -0.0340892 -0.0608764 -0.504306 -0.643152 -0.0554947 -0.0723375 -0.252092 0.328061 0.570727 0.12502 0.684829 0.0847948 -0.412004 0.0773092 0.360193 -0.00520752 0.0162707 -0.357376 0.0891579 0.118604 0.0513566 0.00992859 0.0779323 -0.149869 -0.218197 0.406732 -0.122992 0.164433 -0.00936887 0.149291 -0.253666 0.133192 0.378619 0.0894972 -0.0772497 0.0737382 0.387764 0.22457 -0.23735 -0.0566689 -0.119492 -0.15966 0.329267 -0.0164694 0.25767 -0.118952 0.0813428 0.0991553 -0.169142 0.317365 -0.0741241 0.131057 0.224092 0.145819 0.00720624 0.242379 0.0743904 0.424549 0.310775 0.0975533 0.292056 0.299209 0.0193212 0.170935 0.162357 0.0629145 -0.360872 0.347802 -0.196736 -0.231484 0.340819 0.249523 0.089293 -0.282561 0.120357 -0.00130529 -0.30657 -0.237635 -0.324545 0.310355 -0.332247 0.162905 0.203179 -0.115938 0.0292094 -0.0233728 -0.101161 -0.0185295 -0.510481 -0.00687526 0.142267 -0.0714729 0.228413 0.381539 -0.0534166 0.0993926 0.142298 0.00558334 0.338676 -0.0619839 -0.170625 0.332517 0.196025 0.0944387
438 0.556667 0.239373 0.454399 -0.0480113 0.109634 0.751354 0.0535722 0.0924658 -0.268515 0.0719512 -0.39354 0.40464 -0.507145 -0.116238 -0.66242 -0.328338 -0.23462 0.222906 -0.44837 -0.226119 -0.0593424 0.197135 -0.280522 -0.00941534 -0.0951177 -0.0122601 -0.645652 -0.687727 -0.0317716 -0.1205 -0.333291 0.336002 0.672304 0.149106 0.737517 0.128789 -0.473605 0.0465952 0.400794 -0.0758568 0.0448337 -0.369238 -0.0315716 0.0757957 0.0695417 -0.0082746 0.132615 -0.187498 -0.224917 0.521922 -0.118487 0.207851 -0.0113626 0.239269 -0.243626 0.30912 0.424738 0.0201863 -0.123848 0.0729057 0.322042 0.201015 -0.244459 0.00729715 -0.147606 -0.196734 0.275231 0.0754925 0.240959 -0.164064 0.0432294 0.117971 -0.246976 0.353872 0.0191618 0.174853 0.209654 0.230262 -0.0487911 0.147827 0.0743834 0.468417 0.304186 0.0613362 0.270736 0.394669 0.159955 0.259944 0.121732 0.12018 -0.424059 0.415664 -0.188678 -0.170456 0.327512 0.333987 0.136049 -0.176514 0.125561 0.127592 -0.341799 -0.230548 -0.405778 0.310229 -0.367194 0.228767 0.230312 0.0529512 0.0572898 -0.0864659 -0.176476 0.0300997 -0.548528 -0.0446537 0.12853 -0.0960669 0.271452 0.344446 0.00823964 0.13895 0.0448239 0.0119704 0.358579 -0.0513619 -0.213615 0.302787 0.241529 -0.000771918
92 0.535144 0.133827 0.424043 0.0996081 0.104005 0.642322 0.11799 0.182891 -0.17501 0.036055 -0.390068 0.419774 -0.465394 -0.257414 -0.591475 -0.362363 -0.224069 0.186069 -0.386953 -0.231406 -0.21548 0.388698 -0.188314 -0.121673 0.0560653 0.17853 -0.505298 -0.568335 -0.21118 -0.158825 -0.311243 0.292295 0.627349 0.10818 0.650889 0.191817 -0.427996 0.119663 0.198489 -0.0127384 -0.0409373 -0.201956 0.0277401 0.132209 -0.0422242 -0.0907898 0.208377 -0.182334 -0.275213 0.433952 -0.0983374 0.2763 -0.0377075 0.153977 -0.122562 0.244034 0.359699 0.0456351 0.0227173 -0.0268631 0.235668 0.14691 -0.223248 0.0915599 -0.134216 -0.313062 0.266681 0.0282423 0.14908 -0.211716 0.238242 0.113682 -0.093149 0.113245 -0.113965 0.306121 0.0411062 0.229405 -0.0600023 0.261433 0.0829718 0.346087 0.348045 0.129285 0.215816 0.271427 0.0736039 0.181128 0.116109 0.112274 -0.244868 0.340191 -0.131791 -0.184286 0.248625 0.177582 0.210764 -0.295469 -0.0108073 0.0217851 -0.297408 -0.221319 -0.288687 0.289801 -0.313816 0.226601 0.193687 -0.0289694 0.0679882 -0.162037 -0.185973 0.0403828 -0.472485 -0.185407 0.122792 0.0411593 0.111273 0.264568 0.0728188 0.0757051 0.090298 0.0134724 0.324099 -0.145528 -0.0906436 0.335527 0.236458 -0.037659
285 0.318343 0.182208 0.386041 0.206697 0.0592591 0.612732 0.0890574 0.0502294 -0.144983 -0.00462989 -0.441633 0.414529 -0.380466 -0.257135 -0.604409 -0.391076 -0.343729 0.385649 -0.235144 -0.240332 -0.0976125 0.317307 -0.173288 -0.140352 0.189944 0.127294 -0.428853 -0.41198 -0.194484 -0.194657 -0.249307 0.224584 0.615504 0.124069 0.543841 0.154619 -0.337028 0.233285 0.301583 0.00974615 -0.102524 -0.157999 -0.0633169 -0.00757833 0.0105977 -0.0368498 0.210723 -0.272571 -0.295732 0.420723 -0.103925 0.393804 -0.0397425 -0.0483314 0.0155798 0.219986 0.30228 0.0925273 0.210237 0.137218 0.143006 0.0857446 -0.0349107 0.000739859 -0.0959875 -0.385 0.200525 0.0574873 0.157475 -0.240795 0.211063 -0.098329 -0.0111453 -0.150227 -0.152466 0.331368 -0.108963 0.229748 -0.120357 0.226088 -0.0401473 0.460221 0.361395 0.250249 0.0119456 0.154248 0.0216238 0.141799 0.0797363 0.0817562 0.021215 0.200307 -0.226538 -0.173307 0.0940146 0.0390962 0.0943101 -0.344309 -0.0120737 -0.0199554 -0.15847 -0.316399 -0.0734055 0.198745 -0.208513 0.255461 0.220596 0.114551 -0.00338619 -0.152641 -0.0547226 -0.0419772 -0.429581 -0.226153 0.0641465 0.0582114 -0.0834622 0.254113 0.301549 0.0480081 0.137889 0.00496731 0.192688 -0.138547 -0.109769 0.363862 0.21622 -0.0641899
4515 0.441862 0.298573 0.456732 -0.07399 0.148475 0.626298 0.0610061 -0.0739875 -0.122926 -0.0957461 -0.263654 0.543624 -0.439454 0.0843068 -0.658914 -0.17725 -0.044277 0.517032 -0.260209 -0.144688 0.162055 0.0160322 -0.324653 -0.024637 0.046226 -0.325887 -0.313356 -0.435409 -0.0101811 0.033524 -0.216492 0.242699 0.562184 0.0961506 0.652526 0.10169 -0.308664 0.130302 0.368353 -0.0292415 0.0422391 -0.242439 0.163083 0.153905 0.125838 0.192397 0.00362718 -0.275269 -0.147605 0.332895 -0.0427804 0.37023 -0.016999 -0.0799852 -0.271113 -0.012022 0.293174 0.146797 0.0773394 0.180953 0.304467 0.110551 -0.118365 -0.112954 0.0739803 -0.276398 0.304882 -0.0770308 0.259896 -0.0524063 0.0269129 -0.142484 0.055475 0.0932554 0.00257708 0.0745672 0.173716 -0.0797031 -0.0803823 0.0628759 0.0684995 0.527586 0.236533 0.168593 0.132605 0.123596 0.0641696 0.310217 0.0665499 -0.0826465 -0.205561 0.198088 -0.33193 -0.24893 0.148267 0.225049 -0.0324807 -0.241504 0.0802209 0.00960395 -0.234511 -0.320733 -0.0761928 0.143742 -0.163257 0.198908 0.345661 0.0946006 0.142932 -0.0412859 0.0207095 -0.16777 -0.482707 0.121112 0.0997784 -0.0899091 -0.126957 0.480258 0.0329502 0.163776 0.256309 0.0819317 0.096933 0.0203245 -0.0349236 0.308263 0.196609 0.187618
5280 0.373851 0.343991 0.563782 0.101757 -0.0104371 0.562716 0.0085662 -0.148767 0.00936404 -0.0596776 -0.139096 0.523324 -0.368164 -0.0053455 -0.394257 -0.216863 -0.0813734 0.481669 -0.188812 -0.184814 0.162155 0.0637218 -0.26262 0.0678553 0.101633 -0.211073 -0.188933 -0.251898 -0.0148374 -0.0653931 -0.110239 0.213744 0.62222 0.109375 0.626565 0.122306 -0.263757 0.156298 0.37821 -0.0177304 -0.0136235 -0.142359 0.242856 0.053332 0.0848259 0.177501 0.19797 -0.343925 -0.213733 0.257282 -0.0491199 0.351813 -0.0893558 -0.224335 -0.0648181 -0.0876754 0.294495 0.117299 0.111321 0.121072 0.289867 0.142899 -0.022747 -0.212704 -0.000429275 -0.373809 0.109593 0.00507191 0.191555 -0.0758609 0.183993 -0.00961686 0.131091 -0.0136497 -0.225537 0.0338739 0.0664574 -0.0248871 -0.140001 0.128597 -0.042521 0.430809 0.262111 0.195536 0.0215031 -0.0443708 0.0897569 0.235798 -0.0559128 0.0212969 0.0062316 0.138338 -0.271891 -0.225966 -0.0431275 0.142344 -0.00687822 -0.256207 0.109472 -0.139119 -0.184625 -0.399988 0.00599085 0.0133685 -0.00767144 0.165167 0.254762 0.156973 0.0610425 -0.0577001 -0.00217352 -0.178139 -0.45509 0.117119 0.210242 -0.0582046 -0.259669 0.400335 0.204069 0.124895 0.229312 0.101514 0.139757 0.0169411 0.0557733 0.253753 0.257572 0.284664
538 0.531137 0.401076 0.583154 0.130802 0.223444 0.611157 0.0575254 -0.230337 -0.00859152 -0.0763297 -0.32439 0.561821 -0.36088 0.136209 -0.646161 -0.235093 -0.0651618 0.380838 -0.209635 -0.207411 0.0919096 0.1326 -0.284315 -0.0467516 0.177061 -0.121232 -0.0278552 -0.301054 -0.123028 -0.0252762 -0.167518 0.216072 0.334011 0.175403 0.579229 0.0738762 -0.237825 0.137037 0.306085 0.0191256 -0.02121 -0.14771 0.272315 0.0332569 0.121167 0.00376127 0.117075 -0.288818 -0.282274 0.34048 0.0184013 0.242676 -0.151982 -0.0532284 -0.189751 0.024887 0.254095 0.112944 0.158876 0.206579 0.231766 0.215855 -0.0505701 -0.242895 -0.0691115 -0.274788 0.171776 -0.0935158 0.227417 -0.0865122 0.149748 -0.0856016 -0.0352578 0.00824043 0.0261154 -0.0174515 0.039427 0.149344 -0.0500866 0.144473 0.0199831 0.318896 0.145467 0.164624 0.00223695 -0.1739 -0.0310757 0.351743 0.0137267 -0.0250317 -0.0442952 0.0683637 -0.277 -0.204236 0.111329 -0.0124636 -0.0202893 -0.151866 0.346766 -0.0623711 -0.0978622 -0.301017 0.00682085 0.0784169 -0.0797738 0.0351304 0.346909 0.0932308 0.0110087 -0.0395191 0.0854322 -0.275692 -0.534323 0.105395 0.251217 -0.0625411 -0.159604 0.467993 0.0735438 0.174896 0.375939 0.0391865 0.328434 -0.0538654 -0.14445 0.185013 0.470711 0.260143
9461 0.63118 0.456025 0.575199 0.250743 0.35418 0.770635 0.0812029 -0.394839 0.0828969 -0.0992282 -0.437927 0.641335 -0.44028 0.201696 -0.862907 -0.219959 -0.0274217 0.372472 -0.251212 -0.194502 0.100887 0.187015 -0.275856 -0.0446283 0.261129 -0.131843 0.0018748 -0.474035 -0.151478 -0.00689465 -0.283015 0.203675 0.240381 0.247438 0.644616 -0.00687743 -0.344966 0.226255 0.28411 -0.138304 0.0676214 -0.0884552 0.25644 0.103338 0.0692068 -0.105057 0.0619084 -0.272193 -0.261655 0.379752 0.10095 0.256257 -0.211269 0.0551571 -0.250261 0.00977015 0.226946 0.123398 0.139635 0.251438 0.285677 0.293074 -0.163751 -0.328893 -0.0763845 -0.262098 0.165426 -0.225253 0.156722 8.68995e-05 0.0735336 -0.0257768 -0.111596 0.139714 0.163508 -0.128465 -0.0384626 0.277423 0.0273846 0.171316 0.0615749 0.32875 0.0527832 0.201779 0.0757668 -0.253371 -0.00487537 0.516404 0.0456174 -0.0800774 -0.0954587 0.00135518 -0.379177 -0.304884 0.175918 -0.0175709 -0.0495247 -0.216177 0.569279 0.0341461 -0.0172614 -0.253742 -0.0496312 0.148625 -0.116759 -0.00577012 0.43367 0.0990495 0.0725953 -0.0659482 0.049453 -0.358734 -0.701332 0.0995123 0.224676 -0.189511 -0.112693 0.619922 0.0677316 0.271787 0.43124 -0.062762 0.44704 -0.028366 -0.261787 0.187042 0.616639 0.220846
1990 0.370506 0.698237 0.527597 0.641351 0.390675 0.617292 0.093569 -0.267086 -0.0259005 0.428728 0.211713 0.144727 0.146326 0.152609 -0.321927 -0.280088 -0.185949 0.38718 0.0640318 -0.168088 0.184881 0.0272865 -0.227767 0.328323 0.65351 0.450931 -0.497243 -0.0014336 -0.264351 0.0311117 -0.225234 0.472937 0.4731 0.167016 0.379055 0.0403606 -0.399267 0.210271 0.707916 -0.0218268 -0.0497043 -0.0161901 -0.10012 -0.0888293 0.337976 0.0430403 0.3089 -0.305782 -0.130339 0.414932 -0.28634 -0.0420043 -0.16441 -0.104396 0.284334 0.200117 0.414753 0.243021 0.119033 0.0354929 0.293281 0.391685 -0.258092 -0.281971 -0.0228225 -0.208835 0.0320791 0.461486 0.270793 -0.0763926 -0.0466831 0.290849 -0.337749 -0.0537867 -0.282803 0.0625876 0.113603 0.212228 -0.214916 0.251059 0.148623 0.225932 0.257421 -0.106951 -0.0386499 -0.0231183 0.117341 0.248532 -0.145125 0.39777 0.275692 -0.353719 -0.35229 -0.292223 0.262833 -0.00292256 -0.0770477 -0.227658 0.268541 -0.341241 -0.0936289 -0.170405 -0.00695492 0.528976 0.149979 -0.000209768 -0.0477125 0.549585 -0.204591 -0.169561 0.126626 -0.210104 -0.563521 0.290997 0.559606 -0.19749 -0.377001 0.0689272 0.435539 0.0109845 0.058713 -0.170628 0.0891226 0.11847 -0.432783 0.164785 0.413198 0.532742
3211 0.425954 0.698284 0.490176 0.598874 0.355137 0.69499 0.0582829 -0.284314 0.0128314 0.264651 0.150416 0.258528 0.140456 0.158965 -0.352052 -0.155806 -0.217511 0.39663 0.102391 -0.162841 0.170847 0.0416138 -0.2218 0.234944 0.624517 0.384634 -0.338602 -0.141092 -0.203172 0.0743646 -0.124131 0.37472 0.4498 0.136719 0.409152 0.0755594 -0.404939 0.318501 0.573128 0.0431976 0.039051 0.0213323 0.0523068 0.0055475 0.260141 -0.0329274 0.226854 -0.310968 -0.182929 0.380446 -0.241361 0.0348194 -0.171773 -0.09906 0.283939 0.102472 0.358436 0.222445 0.0968001 0.0996453 0.316659 0.382113 -0.15407 -0.310941 -0.0138311 -0.248731 0.0997196 0.397822 0.243067 -0.0131915 0.137371 0.229859 -0.271786 0.025836 -0.279525 -0.0299348 -0.0589262 0.282182 -0.140324 0.294564 0.084947 0.347324 0.239123 -0.0919258 0.0428574 -0.0649973 0.126221 0.155404 -0.196248 0.364727 0.18546 -0.328495 -0.267171 -0.206229 0.18857 0.0174239 -0.0610036 -0.237175 0.305714 -0.439592 -0.14927 -0.186055 0.025573 0.426606 0.191156 0.106008 -0.0264326 0.494245 -0.139992 -0.197269 0.100827 -0.191209 -0.518706 0.245921 0.523615 -0.184813 -0.41501 0.0659222 0.430888 0.110478 0.198737 -0.18868 0.13881 0.191127 -0.334989 0.144345 0.458561 0.627139
4427 0.414214 0.277477 0.491816 -0.0582996 0.151558 0.578998 0.0993006 -0.0340214 -0.190927 -0.180808 -0.286217 0.49309 -0.394091 0.0171672 -0.671456 -0.189501 -0.0953812 0.481487 -0.158202 -0.143245 0.122333 -0.0338317 -0.248734 0.000431911 0.0710856 -0.284144 -0.305121 -0.355257 0.0215706 0.0861179 -0.234115 0.273042 0.550095 0.0707976 0.570762 0.126571 -0.231139 0.142074 0.297815 0.0333373 0.0583481 -0.19229 0.0881656 0.103699 0.161865 0.168106 -0.0458133 -0.239892 -0.133518 0.333076 -0.00231439 0.405548 0.0187952 -0.0757218 -0.232905 0.0239595 0.299685 0.165088 0.0868451 0.158868 0.223349 0.0583233 -0.0844517 -0.0954048 0.133961 -0.319762 0.292719 -0.0386089 0.268411 -0.00847943 0.0381745 -0.167537 0.0585638 0.0304164 0.0316176 0.108372 0.120163 -0.0222901 -0.0500586 0.0485671 0.0472733 0.504655 0.211855 0.187913 0.112449 0.0875002 0.0901982 0.3118 0.0697524 -0.122735 -0.142842 0.1634 -0.357145 -0.212297 0.124597 0.186565 -0.00959156 -0.191496 0.0511997 0.100057 -0.213648 -0.31476 -0.0536597 0.150389 -0.119946 0.247317 0.345768 0.129275 0.120354 -0.0949373 -0.0107033 -0.163572 -0.516131 0.0715725 0.0796782 -0.0763003 -0.2008 0.448317 0.0511484 0.178165 0.234206 0.103469 0.0576853 0.0199638 -0.0573187 0.283563 0.224407 0.17009
2 0.294057 0.311343 0.240785 -0.113868 0.290595 0.532188 0.260813 0.155064 -0.172021 -0.0827651 -0.18305 0.255771 0.0156675 -0.10654 -0.592474 -0.412456 -0.40312 0.622204 -0.0403435 -0.160688 -0.113952 0.0510429 -0.075641 -0.189534 0.23658 -0.00689363 -0.342783 -0.0905349 -0.178339 -0.0320482 -0.213235 0.262974 0.369464 0.0898538 0.426718 0.171297 -0.186272 0.255639 0.273749 0.176899 -0.00601864 -0.241968 0.0692139 0.126418 0.200694 0.221161 0.081881 -0.148343 -0.291169 0.330235 -0.23076 0.321876 0.107019 -0.148768 -0.34185 0.0986394 0.0952639 0.146457 -0.0710287 -0.134969 -0.00964065 -0.098889 0.00703137 -0.0198277 0.0360468 -0.474685 0.44822 7.0264e-06 0.314155 -0.0666522 0.287455 -0.37352 0.21824 -0.084446 -0.159043 0.38565 -0.060475 0.0742055 -0.0826165 0.439632 -0.0689555 0.452816 0.171196 0.399952 0.289054 -0.105905 -0.0748379 0.170419 0.0539255 0.108601 -0.15719 0.129288 -0.301719 -0.0859676 0.22479 -0.0763992 0.180066 -0.317689 -0.156356 -0.274344 -0.327577 -0.338442 -0.0208651 0.162568 -0.178768 0.437594 0.249958 0.357949 0.0794617 -0.15698 -0.0435467 -0.0439687 -0.343462 -0.12237 0.0374682 -0.00459593 -0.405208 0.036418 0.123515 -0.103512 0.198213 0.0464201 -0.0810932 0.104707 -0.117859 0.291642 0.188947 0.143053
737 0.251751 0.354203 0.512831 0.178841 0.122139 0.555492 0.00306649 -0.180908 0.0394911 0.0730385 -0.0823345 0.356095 -0.127552 -0.00618599 -0.310415 -0.350148 -0.159557 0.429974 -0.162927 -0.219961 0.174275 0.0993223 -0.207847 0.00681561 0.24675 0.0753353 -0.0784653 -0.0381309 -0.134112 -0.121118 -0.160009 0.189379 0.391853 0.213443 0.592537 0.17507 -0.231314 0.13361 0.435602 0.0179883 -0.245491 -0.124213 0.184163 -0.0687393 0.24971 0.0137059 0.198959 -0.355202 -0.356122 0.254557 -0.149115 0.232462 -0.211625 -0.185496 0.0332477 0.0538503 0.190275 0.00540223 0.105185 0.0286261 0.2145 0.27806 0.0120765 -0.227902 -0.108868 -0.320089 0.119828 0.108275 0.118213 -0.22702 0.336995 -0.016146 -0.0727218 -0.147967 -0.228024 0.107466 -0.0122189 0.288915 -0.205068 0.322031 0.00387895 0.311822 0.199997 0.128943 -0.0549098 -0.184631 0.123821 0.334338 -0.21612 0.210666 0.0780259 0.0219484 -0.205729 -0.0014444 0.0407147 -0.0400547 -0.0439329 -0.116149 0.269529 -0.181267 -0.203444 -0.247042 0.0516942 0.0465005 0.032353 0.139344 0.235049 0.293298 -0.0208853 -0.0799576 0.00415265 -0.237837 -0.371035 0.155516 0.280024 -0.0343105 -0.33255 0.175237 0.208888 0.0948276 0.125987 -0.00544994 0.266628 0.0897731 -0.137369 0.147126 0.512943 0.332882
8851 0.308284 0.336511 0.448739 0.285439 0.209635 0.57375 0.0504749 -0.228441 0.0879716 0.0620638 -0.106241 0.353209 -0.129355 -0.0613283 -0.339197 -0.44304 -0.183815 0.485262 -0.131358 -0.198038 0.0895719 0.142872 -0.224911 0.0408079 0.372266 0.165351 -0.09079 -0.00479437 -0.277014 -0.140241 -0.157816 0.118596 0.323013 0.212245 0.605276 0.187605 -0.213161 0.222105 0.380554 -0.0315776 -0.197395 -0.0319515 0.185132 -0.00774899 0.217889 -0.0237168 0.214552 -0.375855 -0.364335 0.289075 -0.150316 0.29621 -0.286167 -0.136607 0.0964231 0.0888788 0.185821 0.0132648 0.184521 -0.0154007 0.158557 0.269091 -0.0642769 -0.192157 -0.083317 -0.429648 0.12358 0.0964915 0.0584862 -0.225943 0.290599 0.0235864 -0.0556687 -0.178043 -0.193217 0.143993 -0.138266 0.30039 -0.23929 0.341351 -0.0203242 0.267358 0.205312 0.0857275 -0.0334264 -0.249303 0.0983337 0.353193 -0.214128 0.234888 0.127302 -0.0392311 -0.227935 -0.0826339 0.0417564 -0.0574764 0.000553682 -0.213421 0.281815 -0.232544 -0.229378 -0.221836 0.0946142 0.0360513 0.108235 0.136496 0.236149 0.364799 0.0152122 -0.14089 0.0654178 -0.213664 -0.379163 0.12525 0.274997 -0.0839807 -0.377577 0.105751 0.250337 0.0937281 0.123747 -0.0671113 0.213854 0.0947368 -0.116729 0.131352 0.494725 0.325235
662 0.354975 0.314896 0.513407 0.213363 0.182301 0.574633 0.089633 -0.153003 0.0771509 0.0503234 -0.113766 0.431598 -0.150295 -0.0355327 -0.37542 -0.391819 -0.150856 0.529392 -0.14054 -0.243282 0.104126 0.141934 -0.221955 0.0115074 0.377844 0.103805 -0.0578314 -0.0244268 -0.246312 -0.0909454 -0.181959 0.13012 0.369392 0.209922 0.648378 0.218273 -0.239665 0.181552 0.329761 0.0234833 -0.185126 -0.0556203 0.248852 0.0468648 0.207021 -0.00317749 0.250103 -0.368798 -0.377985 0.251366 -0.108582 0.286685 -0.212759 -0.162552 0.0498332 0.0316637 0.216665 0.0315557 0.146252 -0.0586575 0.185823 0.259225 -0.0441899 -0.194799 -0.0852888 -0.42963 0.135055 0.0859511 0.0840109 -0.211693 0.380008 0.0166503 0.0396279 -0.181376 -0.230212 0.157534 -0.0673409 0.266717 -0.230564 0.347423 0.00634362 0.288338 0.214102 0.126922 -0.00253944 -0.295626 0.0850097 0.374993 -0.235063 0.211269 0.110905 -0.00138709 -0.220571 -0.0443544 0.0478603 -0.0588558 0.00758048 -0.208673 0.257725 -0.236799 -0.23223 -0.262734 0.0678973 0.0189463 0.0594866 0.142495 0.253532 0.295335 0.0552874 -0.16092 0.0030391 -0.229033 -0.412899 0.131246 0.320075 -0.0599926 -0.433884 0.14627 0.190008 0.0855936 0.186222 -0.033257 0.227004 0.116196 -0.0614603 0.144645 0.505891 0.345481
457 0.496032 0.144428 0.325347 0.261656 0.340106 0.416018 0.439911 0.151079 0.0170827 -0.152551 -0.0634882 0.42143 0.00854185 -0.328805 -0.443375 -0.491892 -0.39091 0.500133 -0.192211 -0.101518 -0.201764 0.152047 -0.281143 0.0264573 0.481055 0.239388 -0.194915 -0.0344407 -0.393213 0.119778 -0.0529218 0.135796 0.416938 0.103862 0.597227 0.258705 -0.176953 0.264943 0.0839177 0.290333 0.0263357 -0.270691 0.256599 -0.106876 0.256283 0.0127483 -0.0217719 -0.210782 -0.231906 0.141652 -0.155122 0.231868 -0.071897 -0.0592839 -0.0994549 0.00733759 0.265934 0.342647 0.0818345 -0.0548696 0.0574428 0.0474838 0.0354359 0.0332637 0.206889 -0.565774 0.400554 -0.0243104 0.312764 -0.255575 0.220896 0.0413064 0.0769742 -0.238383 -0.0831456 0.504903 -0.189618 0.177579 -0.0276956 0.482069 -0.112568 0.184833 0.114913 0.0467469 0.190556 -0.343255 -0.0491948 0.036511 -0.0694892 0.254898 0.0205126 0.115936 -0.336171 -0.00796778 0.202178 -0.291184 0.171429 -0.138993 0.119464 -0.398391 -0.471508 -0.465734 -0.0520965 0.246122 0.160203 0.127892 0.197653 0.121087 0.0882744 -0.108227 0.390536 -0.0139927 -0.511052 -0.0136504 0.111632 -0.278573 -0.696563 0.13356 0.0219229 0.0496462 0.22991 -0.0305776 -0.0328714 0.0384291 -0.0105052 0.141343 0.274911 0.113493
1405 0.405191 0.300873 0.125769 0.00823816 0.167698 0.516761 0.300257 0.312509 -0.141596 -0.229501 -0.391507 0.217928 0.107232 -0.0918043 -0.779444 -0.209749 -0.517892 0.586752 0.126517 -0.157682 -0.361328 0.163811 -0.14517 -0.207062 0.46104 0.199491 -0.462975 -0.0563012 -0.100365 0.118686 -0.400491 0.134119 0.178168 0.0612193 0.164506 0.397822 -0.463102 0.135348 0.201419 0.224488 0.162781 -0.337409 0.113172 0.104799 -0.00278892 0.0845687 0.114461 -0.167053 -0.277209 0.126275 -0.0428143 0.115177 0.265076 -0.033493 -0.262519 0.00920752 0.145054 0.161897 -0.0835616 -0.0816153 -0.115409 -0.096375 0.222099 -0.0835713 -0.225965 -0.489609 0.330636 0.327614 0.433365 -0.205559 0.300539 -0.431714 0.245716 -0.0775171 -0.149894 0.442299 -0.0778226 0.0889534 -0.182579 0.519409 0.0103022 0.571144 0.0524615 0.288191 0.258743 -0.188008 -0.0918464 0.210023 0.198586 0.135517 -0.151931 0.204413 -0.196689 0.143937 0.487178 -0.157676 0.306763 -0.32111 -0.084758 -0.363947 -0.39294 -0.234386 -0.232584 0.165772 -0.388174 0.348718 0.156611 0.165287 0.183953 -0.186286 -0.0932235 -0.0540999 -0.543573 -0.231046 0.171307 -0.0129169 -0.43767 -0.0438777 0.134418 -0.112841 0.305873 -0.0583475 -0.270415 0.217492 -0.248769 0.261862 0.329643 0.181315
1404 0.134757 0.158241 0.163593 -0.145597 0.241015 0.526357 0.400121 0.206465 -0.199668 0.153483 -0.133174 0.184796 0.0474177 -0.188946 -0.500706 -0.397208 -0.556328 0.673486 -0.31795 -0.265341 -0.212884 0.0657662 -0.311487 -0.0903448 0.387269 0.0131923 -0.673167 -0.0197148 -0.160461 -0.0330048 -0.258875 0.460571 0.323446 0.202849 0.355858 0.0845843 -0.246667 0.113021 0.384812 0.359133 0.0679054 -0.712315 -0.0435124 -0.111296 0.351516 0.186322 0.253204 -0.220025 -0.133973 0.320102 -0.256109 0.243882 -0.0114066 -0.0900457 -0.447276 0.137446 0.298535 0.268364 -0.041219 -0.257607 -0.116606 -0.207552 0.0368097 -0.0975987 -0.0429469 -0.416349 0.327265 0.0682701 0.323702 -0.244051 0.238445 -0.44747 0.22484 -0.165073 0.176523 0.477768 0.166915 -0.033398 -0.209814 0.257432 -0.0265403 0.304156 0.11127 0.554189 0.184018 -0.0964695 -0.0619153 0.271876 0.0798032 0.179366 -0.250974 0.305126 -0.208748 0.299694 0.438239 -0.418958 0.0250507 -0.262034 -0.0512035 -0.208095 -0.201451 -0.492249 -0.0883428 0.350144 -0.341024 0.269806 0.194582 0.459736 -0.113275 -0.0636259 0.283552 -0.0550605 -0.326208 -0.124066 0.109253 -0.00778319 -0.595232 -0.0184215 0.148942 -0.210191 0.259874 0.00944922 -0.0309562 0.0798251 -0.271422 0.195286 0.183582 0.0470642
2410 0.0315135 0.133112 0.0122242 -0.123121 0.201276 0.442654 0.394962 0.241698 -0.144392 0.215953 -0.10912 0.0289263 0.0557537 -0.153856 -0.426239 -0.333678 -0.588769 0.640341 -0.270705 -0.244601 -0.239229 0.106379 -0.35097 -0.0981518 0.399453 0.0667292 -0.780105 -0.0430476 -0.0998906 -0.0145011 -0.196024 0.509163 0.362473 0.183774 0.319623 0.0586005 -0.275602 0.107563 0.444744 0.369274 0.107569 -0.776411 -0.130502 -0.116826 0.292941 0.196216 0.286758 -0.174565 -0.0622088 0.288104 -0.353896 0.202553 0.0224798 -0.100778 -0.463633 0.153686 0.33598 0.301225 -0.0685968 -0.275393 -0.119008 -0.193971 0.0228531 -0.0392581 -0.0572772 -0.327551 0.274468 0.127624 0.375436 -0.190101 0.1573 -0.374382 0.289765 -0.0615926 0.230587 0.466411 0.185524 -0.120619 -0.202633 0.257836 -0.0259203 0.240606 0.19628 0.558638 0.250655 -0.00235785 -0.175625 0.177564 0.152803 0.278624 -0.267184 0.35814 -0.143907 0.26531 0.485112 -0.477595 0.0723542 -0.272215 -0.0663363 -0.272281 -0.167182 -0.583791 -0.0662376 0.436506 -0.38156 0.228075 0.138332 0.411204 -0.147599 0.0112558 0.316386 -0.0256204 -0.287957 -0.136598 0.112358 0.0418305 -0.536629 -0.045504 0.137971 -0.321248 0.312482 -0.0186036 -0.105931 0.0397196 -0.332184 0.214703 0.128369 0.0467973
253 0.0116331 0.130437 0.00434429 -0.133724 0.19916 0.503099 0.361109 0.210991 -0.102891 0.259702 -0.152244 0.101111 0.0255935 -0.172345 -0.436297 -0.356198 -0.565018 0.627677 -0.32774 -0.270601 -0.237321 0.0800644 -0.370234 -0.126245 0.382018 -0.000232933 -0.727506 -0.0775196 -0.118676 -0.0536755 -0.211154 0.481249 0.301219 0.182972 0.319264 0.059207 -0.288146 0.128323 0.395112 0.325091 0.0624849 -0.812413 -0.0839538 -0.128806 0.287442 0.165052 0.282844 -0.193853 -0.0887046 0.295914 -0.331181 0.241411 -0.0538463 -0.0901327 -0.451159 0.147295 0.32555 0.254634 -0.0419436 -0.26328 -0.121749 -0.169614 0.0275963 -0.0424895 -0.104133 -0.339838 0.266175 0.0817959 0.329642 -0.233881 0.205864 -0.398363 0.262684 -0.102959 0.253321 0.467026 0.163494 -0.0961556 -0.220611 0.255064 -0.00682478 0.243183 0.144467 0.60439 0.227742 -0.00586913 -0.172964 0.219812 0.10094 0.234108 -0.26479 0.342087 -0.094137 0.316172 0.479327 -0.487435 0.0168073 -0.295697 -0.0254677 -0.270392 -0.154722 -0.525274 -0.0617226 0.411548 -0.375241 0.232501 0.134924 0.407351 -0.173321 -0.00793997 0.336132 -0.0546023 -0.234927 -0.156333 0.101044 0.0467818 -0.520332 -0.0509213 0.152409 -0.26424 0.321514 -0.04575 -0.0475381 0.0385672 -0.284364 0.164944 0.12413 0.0214563
745 0.0202314 0.105077 0.019273 -0.130992 0.225768 0.480815 0.406764 0.212188 -0.141293 0.178292 -0.148 0.0302889 0.0425686 -0.161807 -0.457866 -0.359421 -0.559395 0.700065 -0.260236 -0.254092 -0.233593 0.136635 -0.346517 -0.0891722 0.441616 0.0518826 -0.731722 -0.0335632 -0.121121 -0.0220812 -0.220487 0.467992 0.335538 0.205958 0.349586 0.0605919 -0.260021 0.111687 0.454629 0.340743 0.1222 -0.735488 -0.141604 -0.0804101 0.289591 0.180228 0.30171 -0.219967 -0.0699911 0.291715 -0.319512 0.250307 -0.014896 -0.115166 -0.455742 0.127915 0.299919 0.274655 -0.0448773 -0.297112 -0.14469 -0.192702 0.0157159 -0.0769987 -0.0637025 -0.362276 0.267579 0.125208 0.31861 -0.20228 0.178799 -0.389108 0.313327 -0.0993554 0.245428 0.455288 0.139703 -0.0777935 -0.229959 0.246348 -0.0312643 0.261497 0.185173 0.576738 0.241519 -0.0653161 -0.121311 0.234241 0.13438 0.266203 -0.257891 0.321337 -0.170053 0.269394 0.446311 -0.487616 0.0595396 -0.277154 -0.0201062 -0.258423 -0.161427 -0.561845 -0.0452721 0.366285 -0.384761 0.236182 0.194607 0.468909 -0.110482 -0.0108504 0.29833 -0.0196679 -0.284843 -0.125954 0.0871845 0.0653551 -0.555991 -0.0427107 0.134047 -0.328842 0.303591 -0.0223905 -0.121385 0.101231 -0.339058 0.247502 0.162756 0.0620781
3014 0.41171 0.276378 0.250299 0.0586385 0.17253 0.461943 0.318232 0.170904 -0.154307 -0.206893 -0.307162 0.284822 -0.0563141 -0.244436 -0.701515 -0.441427 -0.479763 0.58975 -0.0182596 -0.122507 -0.327899 0.0870692 -0.208826 -0.129529 0.309509 0.0493022 -0.466389 0.0272742 -0.185776 0.0295959 -0.340002 0.21059 0.29023 0.0563437 0.317551 0.217668 -0.273512 0.17723 0.284801 0.166962 0.129801 -0.360868 0.0629593 -0.0493342 0.135293 0.172238 0.000637205 -0.232274 -0.207247 0.186144 -0.117101 0.252027 0.0857804 -0.0757887 -0.299344 0.0639145 0.204508 0.221265 -0.0133322 -0.115032 -0.109251 -0.148463 0.103758 -0.0602168 -0.0589497 -0.557419 0.342303 0.108034 0.316649 -0.181882 0.10134 -0.314861 0.143701 -0.137793 -0.0141384 0.506536 -0.106863 0.0668603 -0.104591 0.381572 -0.081316 0.414042 0.115953 0.326167 0.136836 -0.172738 0.0148526 0.239136 0.226434 0.0292072 -0.08707 0.184544 -0.314876 -0.0605452 0.290992 -0.160272 0.210552 -0.29789 -0.0742019 -0.180426 -0.360016 -0.367774 -0.0823505 0.148551 -0.160532 0.340124 0.237427 0.354895 0.133969 -0.127291 0.100848 -0.0632383 -0.426373 -0.218666 0.0402628 -0.0988302 -0.394374 0.0838584 0.127911 -0.123161 0.121085 0.0451107 -0.172187 0.037309 -0.219868 0.263529 0.204019 0.0748166
1292 0.365425 0.234284 0.411443 0.11882 0.29726 0.537456 0.227291 -0.0473396 -0.146695 0.0327201 -0.311454 0.384751 -0.0482992 0.0376182 -0.637842 -0.549393 -0.337818 0.620128 -0.110328 -0.28806 -0.223034 0.158179 -0.199737 -0.0453146 0.399403 0.14394 -0.245199 0.038906 -0.314958 -0.163984 -0.277512 0.0488683 0.17081 0.174118 0.441256 0.12051 -0.220592 0.133059 0.424832 0.0878277 0.0818785 -0.278797 0.183965 -0.0960498 0.134653 0.0315492 0.253976 -0.388825 -0.355888 0.404384 -0.073907 0.0773249 -0.0259842 -0.0805124 -0.194038 0.168911 0.324631 0.0551882 0.0564066 -0.188796 -0.0311461 -0.0377216 0.0739541 -0.298698 -0.264482 -0.538172 0.131148 0.17298 0.175401 -0.248946 0.167314 -0.141066 0.0438462 -0.167513 -0.142452 0.255205 -0.018113 0.311889 -0.169678 0.318655 -0.150431 0.278731 0.136915 0.232845 -0.0245808 -0.475235 -0.0210619 0.241017 -0.0129316 0.218015 0.0803659 -0.070286 -0.297923 -0.0838765 0.130574 -0.127276 0.149891 -0.239775 0.254438 -0.293561 -0.198459 -0.3391 0.0167697 -0.00601674 -0.0298204 0.123496 0.181742 0.461083 0.0647503 -0.197179 0.0802951 -0.05387 -0.446184 -0.0581049 0.311798 -0.115337 -0.343055 0.13538 0.126089 -0.194429 0.184276 0.019283 0.183456 0.180333 -0.235104 0.234222 0.391061 0.276161
1091 0.396535 0.225636 0.233011 -0.00173241 0.171502 0.445376 0.272996 0.168484 -0.189784 -0.213645 -0.362379 0.355478 -0.083538 -0.205038 -0.780687 -0.457427 -0.472587 0.582859 -0.0839428 -0.160043 -0.346821 0.106144 -0.26084 -0.195273 0.305495 0.0413626 -0.480928 0.00698894 -0.21175 0.00139106 -0.345891 0.189656 0.230166 0.0614529 0.31139 0.206365 -0.274887 0.152106 0.28163 0.210106 0.108284 -0.403748 0.092597 -0.0518635 0.129267 0.127806 0.0161755 -0.276323 -0.238335 0.234487 -0.106812 0.260898 0.0458 -0.0622788 -0.316284 0.0872112 0.242045 0.220828 0.0507591 -0.0883456 -0.110599 -0.144059 0.111593 -0.094694 -0.115438 -0.569251 0.352195 0.0772725 0.327345 -0.235894 0.126593 -0.373686 0.140603 -0.151936 0.00634514 0.522539 -0.0845938 0.0597918 -0.124904 0.361528 -0.0574287 0.427085 0.124517 0.351977 0.0963673 -0.173183 -0.015829 0.244051 0.256494 -0.00088994 -0.109654 0.208099 -0.287454 -0.0277708 0.324623 -0.179482 0.208751 -0.310486 -0.0457747 -0.156904 -0.34154 -0.355774 -0.0872118 0.132898 -0.188568 0.315064 0.256791 0.305889 0.129756 -0.105474 0.126216 -0.112686 -0.423925 -0.230028 0.0746636 -0.0619311 -0.350243 0.1107 0.131009 -0.127646 0.192446 0.0592983 -0.0923031 0.0168127 -0.23017 0.266631 0.232846 0.102204
9810 0.435388 0.312923 0.283534 0.0312427 0.23126 0.531602 0.353214 0.171213 -0.111755 -0.143919 -0.326527 0.332562 -0.0581273 -0.261307 -0.72114 -0.482371 -0.480932 0.628326 -0.0675343 -0.170949 -0.343805 0.0419549 -0.228035 -0.127786 0.33974 0.0590927 -0.458215 0.0102096 -0.226155 -0.014679 -0.331846 0.259529 0.227776 0.060723 0.335772 0.209884 -0.290912 0.151619 0.235029 0.160232 0.128427 -0.402375 0.116486 -0.0483799 0.112699 0.16456 0.0777309 -0.223068 -0.248178 0.200043 -0.135182 0.241104 0.0600226 -0.0305435 -0.308069 0.0888177 0.225413 0.177695 -0.0508231 -0.193724 -0.134882 -0.0968377 0.0658277 -0.065481 -0.119657 -0.565589 0.316294 0.122957 0.289486 -0.178216 0.186996 -0.271888 0.143606 -0.127816 -0.0336209 0.478271 -0.12994 0.10102 -0.134925 0.418072 -0.0752238 0.353039 0.0767915 0.344645 0.193295 -0.218254 -0.0203931 0.30342 0.141963 0.0493637 -0.119933 0.177704 -0.254865 -0.0609655 0.319599 -0.186074 0.17838 -0.323486 -0.0357388 -0.247516 -0.363605 -0.32248 -0.0662613 0.133133 -0.153239 0.30705 0.192759 0.385991 0.0649354 -0.180804 0.0925468 -0.102186 -0.395018 -0.215123 0.0772695 -0.0989043 -0.424358 0.0144521 0.12594 -0.122114 0.144375 -0.00971724 -0.14402 0.0546957 -0.17719 0.208073 0.231836 0.0757235
4113 0.417532 0.234796 0.289475 0.029839 0.197125 0.504334 0.306408 0.177242 -0.17689 -0.238149 -0.29697 0.352918 -0.0764591 -0.23647 -0.802803 -0.497244 -0.459069 0.596642 -0.0539863 -0.150138 -0.365158 0.120741 -0.221289 -0.114301 0.310659 0.0221617 -0.489831 0.00845783 -0.207532 0.00632339 -0.433465 0.181364 0.266799 0.0726837 0.367405 0.15613 -0.278715 0.143332 0.323494 0.152701 0.174429 -0.383103 0.0701198 -0.0778161 0.118378 0.140025 0.0158927 -0.278117 -0.201525 0.187819 -0.100203 0.22539 0.0751957 -0.0766764 -0.323131 0.0249677 0.241911 0.216107 -0.0600756 -0.191097 -0.0847922 -0.143224 0.0535693 -0.170337 -0.12637 -0.607523 0.330772 0.112528 0.27421 -0.197382 0.087328 -0.246399 0.111695 -0.0902683 -0.068059 0.501886 -0.0827589 0.139213 -0.0882635 0.404619 -0.109353 0.409999 0.0999366 0.355318 0.14833 -0.258278 0.0833565 0.216439 0.251057 0.0141285 -0.127362 0.162244 -0.371121 -0.0810191 0.284915 -0.155106 0.217829 -0.313774 0.0102999 -0.150936 -0.355073 -0.365899 -0.162715 0.1123 -0.167032 0.33286 0.260742 0.356364 0.172187 -0.127794 0.0367911 -0.066358 -0.47433 -0.225588 0.0617142 -0.148321 -0.346278 0.152993 0.102332 -0.155418 0.0889405 0.0545031 -0.102359 0.0938531 -0.24956 0.311957 0.228797 0.100948
4133 0.30447 0.118958 0.354417 -0.131185 -0.0217031 0.491937 0.0627899 -0.156033 -0.312223 -0.267112 -0.235436 0.476316 -0.394743 -0.175155 -0.575574 -0.109568 -0.0550468 0.526717 -0.0857587 -0.242897 0.209319 0.138175 -0.244231 -0.00765083 0.00958069 -0.406991 -0.366209 -0.430495 0.100391 0.0285852 -0.246155 0.42591 0.680197 0.045752 0.640794 0.0187637 -0.163326 0.174024 0.360814 0.140098 0.191024 -0.0576686 0.0580842 0.159475 0.233814 0.260738 -0.00889686 -0.334958 0.0368672 0.396427 0.0343034 0.703007 -0.00692917 -0.0849839 -0.157159 0.0137286 0.127292 0.214182 0.139916 0.284869 0.241865 -0.0343653 -0.0733901 -0.236556 0.228782 -0.352395 0.453063 -0.0178791 0.171107 0.00988585 0.148489 -0.227152 -0.0666706 -0.0274082 0.0307848 0.073138 0.0149139 0.0830863 -0.0451506 -0.179494 0.112472 0.607256 0.377297 0.27395 0.0252341 0.256601 0.390362 0.270204 0.0394182 -0.372973 -0.372965 0.176765 -0.417328 -0.177075 0.122235 0.246502 -0.0983168 -0.213771 0.0298789 0.0915752 -0.242336 -0.246591 -0.0580705 0.0295779 -0.173438 0.363253 0.479639 0.319415 0.0323794 -0.213972 0.0355692 -0.0726496 -0.443016 0.0283101 0.0618735 -0.0878738 -0.211876 0.430128 0.195762 0.265652 0.263993 0.157809 0.0870114 -0.0268694 -0.112357 0.346495 0.199107 0.269292
120 0.319786 0.00458436 0.310926 -0.183488 -0.0831914 0.41208 0.0804646 -0.256278 -0.406195 -0.357906 -0.264327 0.46011 -0.393563 -0.247601 -0.554215 -0.0958476 -0.00523605 0.534236 -0.0457123 -0.316406 0.241606 0.30836 -0.216305 0.00743686 0.0146938 -0.386178 -0.32844 -0.463233 0.113655 0.0708247 -0.232702 0.491525 0.713076 0.0644946 0.700588 -0.0411729 -0.13513 0.150636 0.42074 0.205429 0.284385 0.0878512 -0.00591211 0.221943 0.321195 0.240191 -0.0056198 -0.380558 0.114281 0.455741 0.0697021 0.829914 -0.00270871 -0.00697218 -0.120197 0.0313705 0.0440459 0.26231 0.132666 0.342975 0.230484 -0.0568791 -0.105814 -0.324385 0.32657 -0.33372 0.551987 -0.0495261 0.0730828 0.0776856 0.242798 -0.198839 -0.129621 -0.0123151 0.105695 0.02063 -0.0668132 0.192278 0.0119435 -0.2862 0.152251 0.60555 0.499239 0.297269 0.0221904 0.285716 0.592825 0.268918 -0.00872552 -0.461384 -0.494959 0.187656 -0.458361 -0.167516 0.124266 0.238259 -0.0885895 -0.154101 0.109527 0.167655 -0.238739 -0.233372 -0.0883638 -0.0483152 -0.208138 0.378151 0.57415 0.472281 0.0303287 -0.276058 0.0383668 -0.0606305 -0.409201 0.0274062 0.0363016 -0.0974522 -0.240456 0.421985 0.221461 0.319829 0.328855 0.215406 0.183468 -0.0280701 -0.222501 0.383679 0.255094 0.335878
6244 0.338376 -0.0130944 0.376088 -0.166703 -0.0742077 0.439547 0.105274 -0.297707 -0.411051 -0.316043 -0.249221 0.513619 -0.42373 -0.258091 -0.561889 -0.116146 0.063371 0.557342 -0.0837443 -0.376734 0.332695 0.344894 -0.194879 0.0552122 0.053051 -0.365546 -0.304701 -0.47342 0.0953548 0.100481 -0.247565 0.541819 0.76022 0.101055 0.758369 -0.0683852 -0.150631 0.119831 0.44965 0.204213 0.2789 0.12536 0.0143974 0.237393 0.387155 0.240539 0.00630879 -0.39851 0.126806 0.469702 0.101864 0.808851 -0.0207782 0.0407827 -0.0663684 0.0129674 0.0428583 0.283085 0.102899 0.36644 0.28349 -0.0017139 -0.156207 -0.361087 0.353532 -0.326251 0.579257 -0.0478905 0.017801 0.0909075 0.260092 -0.105493 -0.190855 -0.0209799 0.0953721 -0.00836357 -0.0470092 0.25809 0.0489358 -0.317084 0.179882 0.595879 0.515506 0.249764 0.0194691 0.276864 0.672064 0.333994 -0.0597204 -0.478397 -0.476944 0.165014 -0.48793 -0.207246 0.151611 0.2524 -0.154487 -0.159089 0.185423 0.190506 -0.247835 -0.196508 -0.133893 -0.0690287 -0.223792 0.337039 0.597161 0.514456 -0.0210111 -0.316098 0.0500985 -0.0566579 -0.449814 0.0910997 0.0831227 -0.158213 -0.242775 0.421576 0.226328 0.372908 0.319435 0.206511 0.253764 -0.000720165 -0.240221 0.347781 0.274297 0.377114
4176 0.481362 0.317772 0.378423 0.0150232 0.19747 0.625865 0.187673 0.0457182 -0.104005 -0.162212 -0.299286 0.490145 -0.227539 -0.0732362 -0.754552 -0.282185 -0.287852 0.523547 -0.125851 -0.144309 -0.133338 0.0414951 -0.228841 -0.0699041 0.160448 -0.235825 -0.476203 -0.240705 -0.0668763 -0.0403528 -0.410836 0.216271 0.34062 0.0847862 0.413767 0.0799623 -0.281296 0.135468 0.277655 0.0495763 0.161072 -0.357722 0.104709 -0.0306734 0.0694058 0.20829 0.0330182 -0.228127 -0.122449 0.261839 -0.00843618 0.287969 0.0495581 -0.0859487 -0.350943 -0.0018907 0.194721 0.164816 0.0251576 0.00209981 0.0826413 -0.111565 0.00702007 -0.178863 -0.0967917 -0.455608 0.250957 0.0363039 0.306304 -0.139281 0.0273136 -0.274422 0.0534431 -0.0254106 -0.0344385 0.29135 0.0807982 0.00995546 -0.0511469 0.174109 -0.0157722 0.45003 0.0350185 0.343304 0.0751848 -0.0684837 0.0392303 0.323491 0.2258 -0.129895 -0.21543 0.151936 -0.380394 -0.167047 0.22871 0.0208762 0.0660101 -0.298481 0.0402177 -0.0836612 -0.264463 -0.319903 -0.156995 0.157915 -0.227355 0.278315 0.276277 0.181035 0.132025 -0.111882 0.021532 -0.0891957 -0.585749 -0.14893 0.119725 -0.154038 -0.255045 0.393994 0.119334 0.00630692 0.164606 0.0513769 -0.079738 0.010423 -0.13008 0.272813 0.199878 0.0747025
7408 0.244872 0.12318 0.329623 -0.0814096 -0.0268657 0.65602 0.0421118 0.0954989 -0.196927 0.39357 -0.17115 0.288367 -0.434822 -0.108094 -0.431393 -0.191033 -0.134486 0.140781 -0.578126 -0.340857 0.180456 0.233733 -0.353928 0.037356 -0.078146 0.0491904 -0.778183 -0.764418 0.0729607 -0.0824593 -0.240544 0.615322 0.74871 0.170598 0.703662 -0.0301597 -0.504245 -0.0859915 0.515975 0.00525348 0.0293779 -0.534503 -0.125932 -0.000326553 0.135948 0.00599537 0.255111 -0.122669 -0.0485408 0.47071 -0.269153 0.0756442 -0.0560358 0.336768 -0.126585 0.248922 0.454001 0.0819227 -0.254419 0.0702599 0.473586 0.421731 -0.347108 -0.0932237 -0.185755 0.0431684 0.259278 0.179129 0.223166 -0.145908 0.0711472 0.40601 -0.387691 0.498773 -0.0147856 0.0529628 0.353225 0.275143 -0.0127208 0.114899 0.207741 0.336841 0.389015 0.0717079 0.336329 0.617565 0.15809 0.106313 0.0106444 0.172607 -0.512664 0.461627 -0.0393673 -0.142262 0.540694 0.268127 -0.0519997 -0.188302 0.313047 -0.0400233 -0.305351 -0.166501 -0.442033 0.398412 -0.494271 0.00655743 0.0386732 -0.0596506 -0.247098 -0.0437289 -0.00232868 0.0593482 -0.494195 0.122532 0.21552 -0.172199 0.330426 0.245949 -0.00558014 0.113091 0.111333 -0.0780331 0.481154 -0.0577829 -0.335815 0.234783 0.195003 0.113231
4914 0.184655 0.117694 0.307554 -0.0974973 0.00196166 0.713489 -0.0147386 0.146859 -0.191272 0.39167 -0.194542 0.345198 -0.430277 -0.0609853 -0.509034 -0.223969 -0.123709 0.157664 -0.585303 -0.324945 0.15086 0.123426 -0.353354 -0.0375294 -0.0830987 -0.0268568 -0.745006 -0.758718 0.0817189 -0.130625 -0.274466 0.505799 0.659862 0.181232 0.704191 -0.019576 -0.541202 -0.0448773 0.539555 -0.0583195 -0.0350716 -0.553458 -0.136376 -0.00281026 0.116421 -0.0136945 0.190734 -0.123609 -0.131931 0.44128 -0.276045 0.0616462 -0.0483946 0.27917 -0.140167 0.22454 0.455509 0.0498282 -0.240832 0.0198526 0.467023 0.401338 -0.298156 -0.133077 -0.241497 0.0294852 0.22818 0.141775 0.184652 -0.186703 0.126567 0.343942 -0.337088 0.47582 -0.0546452 0.0635886 0.339152 0.280595 -0.0565444 0.177439 0.193257 0.399993 0.356384 0.124519 0.332636 0.566829 0.13381 0.131291 0.0152252 0.173469 -0.47213 0.43106 -0.0359427 -0.124868 0.494909 0.27288 -0.0782105 -0.241064 0.298696 -0.0346993 -0.309804 -0.152415 -0.460664 0.399886 -0.483677 0.0583318 0.0601597 -0.0568 -0.181892 -0.0172384 -0.0638736 0.0105244 -0.429527 0.0974637 0.173982 -0.115023 0.359467 0.270509 0.0169721 0.0842161 0.0506899 -0.0819788 0.478812 0.0169026 -0.322246 0.247697 0.183182 0.0964701
45 0.442211 0.208223 0.460176 -0.0654982 0.0515209 0.72995 0.0616163 0.100329 -0.208112 0.194055 -0.255173 0.393968 -0.438262 -0.11823 -0.558958 -0.289329 -0.204134 0.184837 -0.536413 -0.248787 0.0461752 0.180302 -0.33187 0.0283231 -0.0992784 -0.0160425 -0.655148 -0.68528 0.00706794 -0.103064 -0.292965 0.411094 0.669924 0.160087 0.714322 0.0643554 -0.438422 -0.00478692 0.407682 -0.0296919 0.0339758 -0.476093 -0.0170489 -0.00429458 0.077754 -0.0120041 0.155017 -0.14631 -0.155676 0.477095 -0.149109 0.130118 -0.0489003 0.271693 -0.20053 0.233538 0.429324 0.0421193 -0.181112 0.042679 0.408721 0.293783 -0.271754 -0.0677538 -0.166031 -0.125652 0.263524 0.0977833 0.241212 -0.196826 0.0475646 0.237468 -0.315654 0.403299 -0.0347347 0.131561 0.27147 0.282656 -0.0178768 0.188941 0.0891835 0.391422 0.273586 0.045531 0.275625 0.397517 0.146934 0.159552 0.051922 0.156669 -0.442478 0.420107 -0.139987 -0.113739 0.394214 0.298207 0.051514 -0.163576 0.249265 0.0403202 -0.359642 -0.200033 -0.414183 0.30679 -0.375737 0.133839 0.124363 -0.0617148 -0.063348 -0.0492044 -0.0578116 0.0565939 -0.566675 0.0391722 0.161608 -0.189276 0.252021 0.314971 -0.0402154 0.131836 0.0574821 -0.0483772 0.421597 -0.0193042 -0.219188 0.269206 0.228122 0.0364243
256 0.209667 0.110018 0.308644 -0.0915599 -0.0497565 0.657805 0.00233445 0.100167 -0.190594 0.416675 -0.154935 0.282486 -0.435932 -0.0881191 -0.420933 -0.182817 -0.126196 0.120999 -0.569179 -0.354997 0.205752 0.215762 -0.349712 0.0354814 -0.0911614 0.0548625 -0.774802 -0.75767 0.0905436 -0.0827472 -0.246938 0.599098 0.744398 0.180545 0.700123 -0.0249145 -0.533425 -0.107321 0.537509 -0.00268458 -0.012758 -0.538287 -0.124699 -0.00705011 0.149723 -0.00411191 0.250585 -0.111797 -0.0798568 0.447015 -0.277931 0.0423338 -0.0493846 0.343884 -0.0933821 0.251138 0.453211 0.0760377 -0.271215 0.0817777 0.499616 0.456215 -0.35086 -0.0948769 -0.212992 0.0685399 0.244191 0.196078 0.211771 -0.150398 0.0817911 0.425799 -0.403181 0.521407 -0.037211 0.0479728 0.367859 0.288193 -0.0159364 0.127011 0.215873 0.351726 0.406437 0.0636881 0.326026 0.62503 0.15881 0.117204 0.00997132 0.179119 -0.500946 0.469294 -0.0186667 -0.136437 0.554366 0.275796 -0.0690438 -0.193048 0.320807 -0.0386188 -0.306902 -0.150076 -0.483243 0.394487 -0.513556 -0.00691379 0.0404669 -0.072407 -0.254645 -0.0185475 -0.036555 0.0412843 -0.478404 0.135288 0.233535 -0.178147 0.37951 0.238316 0.00892162 0.122455 0.0874569 -0.0816716 0.503804 -0.0521808 -0.344185 0.205367 0.195812 0.120766
908 0.375067 0.357188 0.315642 -0.196893 0.227671 0.171433 0.0130069 0.124528 -0.250457 -0.193628 -0.187541 0.380975 0.0580844 -0.055798 -0.648825 -0.609245 -0.477414 0.458007 -0.0582982 -0.0870353 -0.057169 -0.26677 -0.0293172 -0.249285 0.0772274 0.079535 -0.619686 0.357342 -0.166107 -0.081167 -0.561183 0.0487879 0.0829956 0.126195 0.207167 0.211238 -0.21379 0.00808346 0.274244 0.0600246 -0.274639 -0.253713 -0.119321 -0.187483 0.325627 0.225546 -0.273927 -0.212328 -0.394713 0.241186 -0.259227 0.0867006 0.161076 0.00349633 -0.310806 0.346827 0.101089 0.00420563 -0.0302129 -0.072429 -0.111711 -0.0977178 0.0855099 0.0170049 -0.105634 -0.456993 0.328883 0.169647 0.381616 -0.289986 0.0754898 -0.457123 -0.108788 -0.100326 -0.190415 0.520606 0.141387 0.182655 -0.148995 0.410372 0.0184688 0.489966 -0.0554829 0.145389 -0.056823 0.00487346 0.108193 0.366637 0.15028 -0.0432262 -0.167541 0.139072 -0.305832 -0.14564 0.327055 0.165037 0.149798 -0.130929 -0.193254 0.0445372 -0.446766 -0.124639 -0.055511 0.137969 -0.0704807 0.348362 0.208095 0.268508 0.224214 -0.209472 -0.240968 -0.278513 -0.499356 -0.0643883 0.10282 -0.240884 -0.296929 0.108365 0.226377 -0.0130964 -0.110747 0.151188 -0.120519 0.01906 -0.303652 -0.0228137 0.398916 0.112748
3034 0.375333 0.428825 0.460592 0.0507907 -0.00386348 0.321658 -0.00182946 0.00209301 -0.17967 0.100951 -0.367076 0.437404 -0.257291 -0.203075 -0.441205 -0.421669 -0.317104 0.289308 0.115859 -0.278421 0.105566 -0.338842 -0.0482186 -0.122189 -0.0498779 -0.0173651 -0.300343 0.117803 0.0172212 -0.0189487 -0.219841 0.452374 0.445646 0.0221838 0.247539 0.306052 -0.270027 0.0958393 0.221411 0.0489731 -0.355451 -0.035761 0.021046 -0.0866237 0.408246 0.296357 -0.143272 -0.0975123 -0.415568 0.304863 -0.194738 0.260263 0.142569 0.0868965 0.0632876 0.371953 0.197225 0.147626 0.0742536 0.214481 0.0160776 0.0963303 0.196991 0.210296 0.109508 -0.345787 0.257247 0.168374 0.311565 -0.0921414 0.32675 -0.20677 -0.060332 -0.194561 -0.108602 0.442559 -0.0458174 0.0042296 -0.104668 0.14993 0.229492 0.39829 0.320929 0.203188 -0.107717 0.345837 -0.00435908 0.500129 -0.0487427 -0.215193 0.199776 0.202572 -0.0542677 -0.296287 0.224627 0.244091 0.0626405 -0.257541 -0.276374 -0.0220498 -0.427244 -0.182646 0.0108776 0.172083 -0.00643525 0.352241 0.133619 0.485135 -0.135845 -0.310893 0.00882411 -0.325474 -0.259019 -0.121226 0.226633 -0.0318983 -0.214257 0.0303032 0.423517 0.269415 0.0522078 0.187648 0.0927396 -0.290581 -0.0718416 -0.194755 0.239182 0.134174
109 0.534983 0.4037 0.578145 -0.0298969 0.137194 0.448783 -0.0252483 -0.135298 -0.246247 -0.0252827 -0.313156 0.467225 -0.288581 -0.118881 -0.511618 -0.559951 -0.237772 0.347741 0.0355708 -0.208016 0.149628 -0.484507 -0.0923257 0.0477362 -0.0804078 -0.11807 -0.38167 0.158006 -0.0272001 -0.0698384 -0.296974 0.233043 0.356041 0.0494213 0.491938 0.290942 -0.141762 0.00433423 0.251874 -0.082337 -0.204692 -0.0418302 0.0364729 -0.060249 0.361683 0.295831 -0.116636 -0.229204 -0.407027 0.412478 -0.107182 0.279979 -0.0131084 0.145791 -0.00430148 0.408589 0.16767 -0.0104475 0.11678 0.102223 0.0577203 0.140991 0.0312878 0.100286 0.0537429 -0.455484 0.2204 0.201536 0.243232 -0.161406 0.0917437 -0.128454 -0.203689 -0.0572568 -0.0794379 0.341786 0.0177442 0.120568 -0.155366 0.0482395 0.143243 0.451837 0.158483 -0.0144251 -0.11752 0.163665 0.161659 0.629224 -0.0544795 -0.135854 0.0609081 0.158532 -0.284134 -0.394898 0.163166 0.393396 0.0474892 -0.202859 -0.032244 0.175897 -0.473206 -0.099292 -0.0909041 0.0497892 0.104536 0.309192 0.225269 0.466563 0.00727986 -0.321764 -0.0600143 -0.243401 -0.50458 0.0593043 0.308641 -0.256212 -0.0965154 0.162746 0.259516 0.26513 -0.143799 0.145858 0.0787393 -0.107018 0.0191839 -0.163627 0.313238 0.201811
22 0.450701 0.47296 0.444699 0.10387 0.0455161 0.377225 0.0484362 -0.000929478 -0.094955 0.139004 -0.338334 0.462182 -0.233753 -0.284746 -0.41881 -0.493652 -0.331406 0.311175 0.0365015 -0.269337 0.0406072 -0.293454 -0.0941585 -0.124328 -0.0233487 0.0130656 -0.338222 0.110157 -0.0647084 -0.0860829 -0.239987 0.443211 0.380642 0.0251144 0.268713 0.249874 -0.296385 0.0785061 0.219032 0.0156584 -0.321986 -0.111823 0.0433724 -0.130385 0.374158 0.290657 -0.125274 -0.113969 -0.386822 0.265083 -0.232193 0.233496 0.0714489 0.124114 0.0291291 0.357451 0.160915 0.126668 0.0474562 0.144358 -0.0164704 0.119892 0.169883 0.192868 0.048464 -0.359793 0.277368 0.163507 0.274311 -0.155003 0.308136 -0.144429 -0.131295 -0.193439 -0.100891 0.468916 -0.0840733 0.0493978 -0.113076 0.187021 0.209277 0.325277 0.253096 0.201111 -0.0939042 0.308334 0.0291894 0.52774 -0.0489056 -0.195534 0.122674 0.196546 -0.0422768 -0.302024 0.26583 0.183307 0.036557 -0.250899 -0.217998 -0.126223 -0.476308 -0.15137 -0.0202921 0.164969 0.000543775 0.301878 0.104541 0.520375 -0.15628 -0.309876 0.0773012 -0.291589 -0.224078 -0.140674 0.199853 -0.101607 -0.22491 0.000699277 0.417034 0.243253 -0.00192554 0.126567 0.068795 -0.28728 -0.0660664 -0.211632 0.19621 0.0908936
2819 0.369514 0.468213 0.429643 0.0745242 0.0459982 0.395012 0.0565588 -0.0206738 -0.110481 0.111776 -0.327127 0.445347 -0.209155 -0.263902 -0.450324 -0.475138 -0.33247 0.374955 0.138229 -0.269613 0.0801042 -0.410711 -0.0854393 -0.089265 0.0192839 -0.0788937 -0.308519 0.194519 0.000491712 -0.0350635 -0.282095 0.463287 0.336624 0.0266047 0.228969 0.279298 -0.279657 0.0916675 0.233229 0.021968 -0.306432 -0.116277 0.0544413 -0.140518 0.423279 0.342414 -0.157614 -0.112481 -0.376867 0.245506 -0.197267 0.28079 0.0790814 0.0811561 0.0150749 0.314516 0.131738 0.137698 0.0418423 0.134719 -0.0468467 0.0885559 0.21278 0.157829 0.0695317 -0.41112 0.266766 0.198734 0.286826 -0.13508 0.301885 -0.213918 -0.0857031 -0.220563 -0.0815106 0.45346 -0.097563 0.0247644 -0.12693 0.162548 0.215035 0.387901 0.212581 0.25035 -0.10433 0.248414 0.0452854 0.605195 -0.0529411 -0.249164 0.161639 0.161329 -0.0921913 -0.265451 0.278489 0.162593 -0.00384354 -0.283469 -0.209969 -0.101343 -0.466552 -0.141642 -0.00177229 0.147976 0.00323084 0.347264 0.146998 0.583646 -0.167482 -0.334062 0.0752655 -0.326989 -0.246953 -0.121823 0.220523 -0.113576 -0.292169 -0.0112931 0.442 0.269935 -0.0102148 0.132972 0.00276929 -0.230201 -0.0734837 -0.253562 0.228972 0.141535
497 0.450373 0.482844 0.481882 0.0316379 0.0388666 0.357326 0.0270508 -0.00273498 -0.123725 0.0641002 -0.384931 0.506393 -0.215768 -0.205714 -0.514582 -0.472302 -0.308837 0.335936 0.124035 -0.283947 0.0647952 -0.371872 -0.0736081 -0.128208 -0.00686531 -0.0411486 -0.264612 0.201643 -0.0219686 -0.0238268 -0.278521 0.423641 0.301675 0.0215972 0.213837 0.314398 -0.302071 0.0322834 0.201534 0.0280778 -0.320462 -0.0784154 0.0908947 -0.112717 0.388305 0.300581 -0.14735 -0.129616 -0.435347 0.239343 -0.167906 0.219034 0.118725 0.105903 0.0230796 0.330981 0.158183 0.113182 0.0396918 0.148391 -0.0412679 0.119356 0.217791 0.141863 0.0247084 -0.387015 0.255215 0.191376 0.303091 -0.137617 0.351766 -0.205644 -0.079912 -0.216702 -0.13724 0.43685 -0.0626044 0.031149 -0.128927 0.204257 0.234567 0.380925 0.213206 0.202565 -0.119044 0.211347 0.0171198 0.555089 -0.0754271 -0.251014 0.161418 0.168508 -0.0655558 -0.289742 0.280258 0.203143 0.0304775 -0.255061 -0.190218 -0.0892723 -0.47383 -0.118998 -0.0115557 0.104883 0.00438179 0.29836 0.129942 0.520513 -0.133912 -0.347932 0.0195035 -0.372534 -0.268812 -0.109387 0.266899 -0.098434 -0.27121 0.0105581 0.396949 0.270515 0.0551755 0.167506 0.052141 -0.227097 -0.0832546 -0.252401 0.288782 0.179894
1872 0.410579 0.407869 0.437544 0.0644367 0.0246731 0.340084 0.0515557 0.0210487 -0.125019 0.121359 -0.302839 0.493692 -0.245708 -0.28072 -0.454838 -0.436022 -0.255982 0.296764 0.0608647 -0.270753 0.0684893 -0.274563 -0.089354 -0.137917 -0.00992507 -0.0345484 -0.288962 0.123803 -0.0598944 -0.0324778 -0.268931 0.487328 0.35518 0.0268235 0.223709 0.226053 -0.276979 0.0505613 0.202417 0.0648844 -0.298234 -0.0762902 0.079373 -0.0957474 0.401601 0.29717 -0.143734 -0.105831 -0.347832 0.224904 -0.169608 0.247682 0.0722715 0.106233 0.0438124 0.273837 0.135821 0.185457 0.0593994 0.166245 0.00955921 0.104341 0.147848 0.149579 0.0718331 -0.359721 0.302953 0.112074 0.24006 -0.135434 0.317261 -0.148501 -0.125742 -0.220586 -0.123241 0.462821 -0.0632259 -0.00656561 -0.0709161 0.151953 0.241161 0.318205 0.27401 0.215221 -0.109095 0.288023 0.0421289 0.509952 -0.000887285 -0.299687 0.124925 0.186981 -0.0764996 -0.319814 0.292635 0.173791 -0.010141 -0.307089 -0.236233 -0.0776869 -0.454536 -0.120051 -0.0393329 0.148859 -0.0491057 0.28886 0.134316 0.472509 -0.178629 -0.303276 0.0895038 -0.311149 -0.213235 -0.137408 0.230907 -0.0818727 -0.2024 0.0263304 0.395724 0.260682 0.0276603 0.154124 0.0806892 -0.307114 -0.0716304 -0.216884 0.180205 0.122119
483 0.389322 0.432429 0.415108 0.0658067 -0.0364069 0.30229 -0.00255155 -0.0288955 -0.141805 0.0669528 -0.379394 0.481563 -0.265556 -0.228054 -0.489071 -0.41883 -0.28004 0.29277 0.139816 -0.276584 0.103659 -0.322338 -0.0875085 -0.12955 -0.033482 -0.0833862 -0.294565 0.144744 0.0362047 0.0144384 -0.266421 0.462978 0.385998 0.0149913 0.200031 0.268649 -0.304582 0.0489588 0.249763 0.0370505 -0.290419 -0.072818 0.0436651 -0.124132 0.419789 0.323573 -0.200862 -0.124299 -0.361056 0.219424 -0.169286 0.260415 0.121112 0.0912174 0.0432089 0.304768 0.150146 0.191946 0.0518082 0.251003 -0.0002916 0.0957824 0.22369 0.153088 0.081685 -0.346544 0.274735 0.163457 0.30668 -0.10767 0.279683 -0.195077 -0.0933627 -0.209538 -0.0661455 0.452502 -0.0634083 -0.0183652 -0.0782282 0.120868 0.249551 0.406527 0.28698 0.228378 -0.132553 0.322624 0.0600457 0.522463 -0.0112895 -0.305446 0.163675 0.204282 -0.0690721 -0.304759 0.273127 0.18863 0.00782198 -0.259492 -0.209339 -0.0312268 -0.436505 -0.163051 -0.0296395 0.129011 -0.0356802 0.311168 0.172122 0.52671 -0.139956 -0.286001 0.0631014 -0.356365 -0.230347 -0.130001 0.217405 -0.0879349 -0.206074 0.0610341 0.430437 0.28428 0.0500742 0.196383 0.0572485 -0.289874 -0.116574 -0.226191 0.211824 0.146363
416 0.366665 0.461363 0.396936 0.0423891 -0.0283329 0.324049 0.0245651 0.0213473 -0.103267 0.0885284 -0.386037 0.446186 -0.222805 -0.223935 -0.481118 -0.471859 -0.316682 0.347778 0.148769 -0.295333 0.0364614 -0.310904 -0.104412 -0.164284 -0.0133102 -0.0530486 -0.241081 0.19164 -0.0119568 -0.00245331 -0.24146 0.45075 0.346575 0.000494868 0.193973 0.310771 -0.302131 0.0608351 0.23163 0.0547612 -0.343645 -0.100215 0.0853553 -0.109346 0.409851 0.322238 -0.131121 -0.132189 -0.428642 0.204894 -0.2092 0.253599 0.119975 0.0682538 0.0357028 0.311752 0.171187 0.152751 0.0363682 0.170427 -0.050918 0.124657 0.236666 0.176606 0.0220914 -0.377035 0.278964 0.186237 0.317806 -0.1423 0.347272 -0.215141 -0.034618 -0.236324 -0.113597 0.489774 -0.074167 -0.0271654 -0.126176 0.220505 0.237081 0.371476 0.298609 0.258978 -0.102155 0.262146 -0.0276932 0.513007 -0.050397 -0.243117 0.196675 0.210741 0.00677183 -0.252268 0.280055 0.140125 0.0577751 -0.257926 -0.23365 -0.136594 -0.466819 -0.171455 -0.00519101 0.104065 -0.0283864 0.323554 0.134391 0.543649 -0.147779 -0.2914 0.0627948 -0.366857 -0.157025 -0.148135 0.220101 -0.0331984 -0.255273 -0.0276573 0.414805 0.239904 0.0904903 0.187029 0.0482983 -0.261179 -0.0746244 -0.224719 0.218109 0.14649
5743 0.292883 0.230575 0.157053 0.0920607 0.169121 0.530434 0.25217 0.176983 -0.0223927 -0.16519 -0.312417 0.319509 -0.0738985 -0.209356 -0.759683 -0.439793 -0.451836 0.577096 -0.0607366 -0.107503 -0.350947 0.0604199 -0.269817 -0.140729 0.332984 -0.0271686 -0.483104 -0.0254742 -0.16831 -0.0175492 -0.423787 0.130209 0.189829 0.0759556 0.300578 0.188217 -0.353031 0.193657 0.286168 0.074606 0.108945 -0.435705 0.0660604 -0.0834708 0.062973 0.108314 -0.00313826 -0.243611 -0.192382 0.105594 -0.122141 0.235179 0.0123417 -0.107254 -0.307574 -0.0234663 0.213671 0.188812 -0.0300798 -0.181405 -0.0832192 -0.10164 0.0951775 -0.125188 -0.175329 -0.572762 0.254972 0.100197 0.26022 -0.235145 0.0860248 -0.261293 0.164872 -0.0962958 -0.0309553 0.487206 -0.123774 0.0606925 -0.138279 0.420104 -0.0574411 0.413097 0.0385287 0.403967 0.158009 -0.213 0.00295943 0.276742 0.249849 0.0251323 -0.0922772 0.169475 -0.27299 -0.0134514 0.304897 -0.189717 0.162 -0.354707 0.0215721 -0.214789 -0.34408 -0.337453 -0.137366 0.166731 -0.178163 0.317743 0.242622 0.291124 0.181542 -0.0681199 0.0720357 -0.119866 -0.410998 -0.24482 0.0330134 -0.107943 -0.341276 0.135928 0.141876 -0.133473 0.0865101 -0.0275332 -0.164066 0.0972533 -0.226076 0.254796 0.211687 0.0656404
2248 0.244306 0.256023 0.0276682 0.253235 0.144688 0.382471 0.30427 0.0780486 0.087757 -0.223755 -0.217873 0.0981895 -0.0483437 -0.278882 -0.588126 -0.451631 -0.54961 0.534968 0.224619 -0.0271069 -0.278285 0.101425 -0.0695126 -0.130428 0.315124 0.0899566 -0.546327 0.0591185 -0.0694531 -0.0150278 -0.409522 0.226995 0.388327 0.166157 0.36841 0.149111 -0.339382 0.317297 0.372241 -0.00242056 0.0575086 -0.145416 -0.140129 0.00733611 0.133433 0.278826 -0.0775393 -0.0874401 -0.145055 0.0411941 -0.292079 0.286876 0.150055 -0.116215 -0.303587 -0.0510091 -0.0616152 0.270261 -0.039575 -0.12727 -0.060271 -0.19759 0.146183 -0.0163485 0.0652807 -0.615894 0.272666 0.0313144 0.276605 -0.0536731 0.118881 -0.222324 0.342187 0.0340339 -0.0633059 0.531261 -0.307713 0.00825377 -0.0459283 0.456731 -0.0522584 0.396377 0.206827 0.479567 0.263792 -0.0675764 -0.000692448 0.338229 0.423965 0.0511365 -0.0204341 0.278784 -0.434692 -0.356702 0.263188 -0.175265 0.34881 -0.546971 -0.151406 -0.274847 -0.414056 -0.536464 -0.165597 0.26317 -0.22365 0.456571 0.348226 0.381826 0.228958 -0.0357167 0.0393387 -0.0600184 -0.530546 -0.32094 -0.0244443 -0.10234 -0.39451 0.213401 0.350075 -0.192258 0.035837 0.0518108 -0.313041 -0.0295907 -0.287375 0.248179 0.2382 0.0317707
572 0.25185 0.292408 0.0134174 0.371426 0.182096 0.393994 0.309232 0.0404468 0.202272 -0.171864 -0.191503 0.117425 -0.092389 -0.292667 -0.573965 -0.520478 -0.570325 0.549073 0.267626 -0.0242228 -0.305875 0.112844 -0.0974771 -0.125511 0.354987 0.074241 -0.656058 0.111306 -0.0618934 -0.0851849 -0.480075 0.250937 0.445973 0.200193 0.431663 0.0773434 -0.405183 0.348949 0.472009 -0.0826871 0.0256078 -0.126486 -0.238777 -0.0521013 0.131398 0.316488 -0.0800692 -0.0928304 -0.104056 0.00625197 -0.385939 0.303347 0.160797 -0.167242 -0.3271 -0.0540443 -0.0660428 0.292596 -0.013113 -0.204554 -0.0392822 -0.235959 0.140315 -0.029988 0.06162 -0.653655 0.176305 0.055827 0.280789 -0.0457993 0.123519 -0.152957 0.437344 0.0695673 -0.0525206 0.586471 -0.323822 -0.0478214 -0.0590561 0.461588 -0.0277186 0.318444 0.264856 0.588165 0.254796 -0.0559325 -0.00985126 0.411295 0.496851 0.0782021 -0.00153336 0.28579 -0.489619 -0.483968 0.230605 -0.221026 0.38978 -0.612453 -0.161496 -0.304583 -0.417043 -0.681475 -0.164603 0.343422 -0.219984 0.469428 0.381401 0.444142 0.27237 0.00867453 0.0418953 -0.106767 -0.595065 -0.368153 0.0254096 -0.0895536 -0.456069 0.342638 0.444853 -0.273188 -0.00472512 0.0601321 -0.375984 -0.0796967 -0.333638 0.246649 0.254322 0.0352119
812 0.66637 0.361433 0.570146 -0.160122 0.139396 0.539645 0.458654 0.0304519 -0.423138 -0.253003 -0.497265 0.236753 -0.279159 -0.0794237 -0.741372 -0.285836 -0.405133 0.599649 -0.0226386 -0.288362 -0.240517 0.0512476 -0.105359 -0.0444158 0.117411 0.0171496 -0.359357 -0.209833 0.0371713 0.165629 -0.0334886 0.450363 0.583037 0.0340421 0.558896 0.148047 -0.225377 0.0609579 0.379128 0.255807 0.466219 -0.348632 0.121647 0.132803 0.0809228 0.258505 0.16452 -0.15349 -0.25455 0.446834 -0.0573541 0.145607 0.302774 0.157215 -0.439517 0.137865 0.369803 0.227171 -0.215339 -0.0552667 -0.0579876 -0.0979966 0.0456106 -0.0823268 0.0650374 -0.376204 0.3226 0.125509 0.370322 0.199156 0.0854297 -0.124261 0.230014 0.290918 0.181227 0.127524 -0.0481405 0.131434 0.06158 0.168264 -0.226304 0.436279 0.341808 0.258904 0.40956 -0.159583 -0.0709001 0.259536 0.178944 0.119196 -0.230234 0.361178 -0.331168 -0.309328 0.266927 -0.00743463 0.320196 -0.208502 0.0735227 -0.0591515 -0.226866 -0.59213 -0.0866375 0.0293044 -0.227017 0.222242 0.237777 0.43666 -0.0676856 -0.179654 -0.00830687 0.06383 -0.557313 -0.0462495 0.13056 -0.116417 -0.150799 0.143689 -0.064066 -0.135297 0.374704 0.122161 0.0727693 0.066388 -0.21313 0.265772 0.24819 0.194949
4691 0.610917 0.290227 0.55485 -0.15838 0.173157 0.534287 0.485085 0.0637611 -0.463055 -0.25159 -0.466749 0.229639 -0.278472 -0.0553258 -0.773202 -0.249158 -0.365505 0.593497 -0.0042141 -0.277533 -0.197776 0.0485146 -0.0811819 -0.00873958 0.160866 0.0156985 -0.362909 -0.24241 0.0338566 0.221158 -0.0636202 0.466076 0.609099 0.0608189 0.553368 0.145379 -0.228699 0.0812572 0.373688 0.26896 0.473327 -0.292996 0.081189 0.188198 0.119341 0.244464 0.133883 -0.118934 -0.213201 0.446867 -0.0415794 0.137562 0.337366 0.165791 -0.41182 0.0940802 0.372792 0.267224 -0.207626 -0.0557797 -0.0122557 -0.107427 0.00504356 -0.0913062 0.129937 -0.385963 0.343496 0.116801 0.363554 0.228565 0.0738255 -0.105643 0.258919 0.30627 0.17238 0.115096 -0.0264466 0.116458 0.0823739 0.141956 -0.196544 0.447451 0.362921 0.255819 0.441847 -0.145728 -0.0568735 0.242137 0.209439 0.095028 -0.216831 0.347504 -0.386587 -0.314244 0.291771 0.0192378 0.32023 -0.243499 0.0429906 -0.0168564 -0.212185 -0.569693 -0.140044 0.0708251 -0.2638 0.223476 0.269097 0.390699 -0.0493914 -0.180263 -0.0103117 0.0855974 -0.602107 -0.0176353 0.138402 -0.115456 -0.151871 0.17187 -0.0612311 -0.112428 0.362702 0.116738 0.0762471 0.0962728 -0.221617 0.284749 0.231224 0.204944
621 0.589939 0.146459 0.562704 -0.111668 0.252076 0.424378 0.491055 0.107809 -0.421724 -0.294314 -0.294743 0.325016 -0.26914 -0.0971605 -0.652603 -0.250796 -0.308459 0.499435 -0.0761839 -0.185165 -0.123254 0.0145523 -0.143844 0.10546 0.160176 -0.00272929 -0.283296 -0.228309 -0.076907 0.286717 -0.0230236 0.351025 0.614743 0.0271923 0.577564 0.198198 -0.0505035 0.145264 0.118919 0.339497 0.395462 -0.265031 0.204727 0.103367 0.172448 0.20222 -0.0124992 -0.077791 -0.130754 0.422124 0.0309095 0.185546 0.236138 0.148066 -0.338422 0.0832226 0.403044 0.322394 -0.108429 0.0083013 0.0753549 -0.116423 -0.0583934 -0.00708337 0.304088 -0.458661 0.397683 0.0169202 0.400694 0.170053 -0.0207121 -0.0601041 0.152043 0.166235 0.150339 0.170036 0.0301323 0.107247 0.12293 0.115526 -0.189127 0.339275 0.244145 0.0664983 0.354774 -0.174435 -0.0830623 0.0959232 0.128684 0.0579224 -0.150948 0.254019 -0.43207 -0.261266 0.238685 0.0594351 0.287538 -0.144394 0.0342943 -0.0258837 -0.296531 -0.514334 -0.0620412 0.111544 -0.0699024 0.177828 0.257575 0.146307 0.0155854 -0.176648 0.161377 0.133442 -0.682854 0.0630539 0.102912 -0.24952 -0.300966 0.252371 -0.16463 0.0332793 0.32955 0.124848 0.0547745 0.0303787 -0.0753971 0.252035 0.203863 0.158035
574 0.461238 0.0759231 0.461809 -0.112587 0.33321 0.391789 0.394913 0.0799065 -0.291322 -0.20908 -0.133762 0.464833 -0.28336 -0.0514746 -0.687977 -0.241776 -0.253659 0.472313 -0.177799 -0.141036 0.0379699 -0.086651 -0.251777 0.061318 0.171293 -0.0472169 -0.256903 -0.269451 -0.196516 0.284314 -0.0306122 0.352336 0.58245 0.0489782 0.634831 0.181638 -0.0318252 0.21952 -0.00277025 0.328086 0.242876 -0.229175 0.31263 0.137389 0.200284 0.137246 -0.0787711 -0.0432997 -0.147847 0.383117 -0.0303195 0.225329 0.115889 0.103269 -0.27196 0.0663592 0.429264 0.363921 -0.0209309 0.0963874 0.237084 0.0461115 -0.15874 0.0320776 0.374303 -0.480131 0.447887 -0.131202 0.430366 0.152426 -0.0463447 -0.00591208 0.109943 0.147666 0.0467139 0.165258 0.0613319 0.0301912 0.100132 0.167514 -0.0944326 0.325963 0.213509 0.0139438 0.347143 -0.140595 -0.21793 0.0477872 0.0945488 -0.0367572 -0.14797 0.194162 -0.449135 -0.310771 0.317422 0.107666 0.16514 -0.25131 0.0241631 -0.0849248 -0.306715 -0.436574 -0.0025726 0.220293 0.0457275 0.103457 0.275896 -0.101829 0.00586929 -0.134127 0.246209 0.0048273 -0.736942 0.16585 0.15662 -0.365448 -0.311736 0.328513 -0.161784 0.174512 0.387123 0.0649361 0.118156 -0.0762911 0.0582273 0.164444 0.243468 0.180654
