2068 128
243 0.277994 0.18103 -0.142778 -0.366491 -0.0358005 -0.802342 -0.390289 -0.38793 -0.133495 0.217037 -0.16507 0.175197 -0.0095903 0.0868257 -0.307504 0.250129 0.0435374 -0.0482723 -0.326692 -0.294691 0.286738 -0.131654 -0.195152 0.49854 -0.663411 0.274343 -0.0759339 -0.0976434 -0.0890465 0.302766 -0.270985 0.0174412 0.0574431 0.399235 -0.0350332 -0.289668 0.10074 0.0102692 -0.00358792 -0.511212 0.0830424 -0.269838 0.080385 -0.05276 -0.0489779 0.125667 -0.0216618 -0.280721 -0.207842 0.00735853 -0.36124 -0.519925 -0.396542 -0.307337 0.215838 0.132898 0.0548976 0.455669 -0.213012 -0.0688326 -0.334058 0.130345 -0.0149083 -0.0314137 -0.483573 -0.144161 0.0821993 -0.312559 0.32252 0.120293 -0.148948 -0.474153 0.0413215 -0.372262 0.0619759 -0.0104558 0.461736 0.0765728 -0.174081 0.136166 0.74303 -0.00685334 -0.350542 0.272243 -0.00699655 0.143029 -0.00043706 -0.00186357 0.27393 0.206523 -0.106688 0.324425 0.461145 -0.117725 0.307446 -0.154145 -0.00542242 -0.12014 0.483498 -0.290836 0.0202113 0.00296815 0.33214 -0.277587 0.388475 -0.829645 0.00661769 0.600608 0.0823727 0.409263 0.00491116 0.340108 0.60379 0.436297 -0.589538 0.138579 0.175349 -0.29203 0.0994956 0.0408646 0.175727 -0.175716 -0.241351 -0.289458 -0.403984 -0.0557371 0.158442 -0.559128
644 0.311979 -0.0446235 0.106307 -0.177257 -0.0794994 -0.57236 -0.240017 -0.568094 -0.0371727 0.0992769 -0.120921 0.00437733 -0.110801 0.0374214 0.0520461 0.129887 0.0824069 -0.130572 -0.122499 -0.155434 0.0814716 -0.243275 0.30049 0.171979 -0.5652 0.240129 -0.0984875 0.217691 0.0914102 0.0956371 -0.176429 0.456559 0.0542048 0.607243 -0.196724 -0.0872637 -0.0459341 0.139765 -0.102073 -0.452215 0.174478 -0.18967 -0.145329 -0.162868 -0.476608 0.317839 -0.42878 -0.310966 -0.365923 0.00629574 -0.52226 -0.263365 -0.390558 -0.478347 0.398587 0.048643 -0.161583 0.138649 0.0307334 0.0659293 -0.431294 0.13117 -0.0759115 -0.0489979 -0.347639 -0.081871 -0.0572276 -0.225212 0.2587 0.110847 0.0788154 -0.259836 0.396941 -0.0451108 0.0972715 -0.0922582 0.357237 -0.141626 0.0090633 0.165761 0.802812 -0.00489604 -0.325285 0.187849 -0.171851 0.20097 -0.229055 -0.134452 0.27217 -0.0788657 0.0374441 0.20548 0.515254 -0.125085 -0.0671547 0.108315 -0.425909 -0.00851594 0.175059 -0.067811 -0.0106291 0.0781187 0.375375 -0.19593 0.0109361 -0.743013 -0.335255 0.36467 0.0589327 0.355676 0.301257 -0.0105285 0.550467 0.24495 -0.185956 0.120857 -0.28505 -0.0946266 0.198298 -0.202087 0.0473648 -0.404561 -0.016184 0.131334 -0.273067 0.234079 0.405305 -0.648018
25 -0.321178 -0.20552 0.207005 -0.00880572 0.0625133 -0.282933 -0.120891 -0.0670995 0.100691 0.189421 -0.421677 0.351229 -0.0389949 0.0174612 0.00967677 0.132274 -0.156084 0.213023 -0.172863 -0.148821 -0.116172 -0.303802 0.176464 0.277642 -0.148203 -0.0423435 -0.209501 -0.0958389 0.135141 0.00189113 -0.162729 0.269131 -0.209208 0.174335 -0.245353 0.208781 -0.365403 0.228728 0.170712 -0.178643 0.30831 -0.250158 0.12245 0.0472159 -0.0874726 -0.19309 -0.497886 -0.396541 -0.450195 0.305756 -0.196177 -0.15985 -0.19079 -0.183625 0.353179 -0.112833 -0.120627 0.0361636 0.127722 0.226779 -0.11439 0.14441 0.142931 -0.261337 0.0605311 -0.010693 -0.077347 -0.273648 0.032369 0.0689804 0.307346 -0.308302 0.243123 0.168466 -0.374035 0.117447 0.299578 -0.205161 0.236607 0.121608 0.447271 -0.00613612 -0.249371 -0.0984105 -0.00725008 -0.0878987 -0.38372 -0.262018 0.0536371 -0.206904 -0.151516 0.356658 0.226526 -0.014056 -0.132475 0.313148 -0.413213 0.130558 0.276169 0.133381 0.228539 -0.177227 0.083707 -0.0314889 -0.0195253 -0.404812 -0.106227 0.122088 0.235339 0.172661 0.539112 0.0393136 0.204115 0.194206 -0.504815 0.210804 -0.115409 -0.148577 -0.0768545 -0.0362718 -0.229918 -0.326359 -0.0419293 0.451771 -0.27769 0.0896637 -0.131277 -0.167863
1162 -0.262282 0.261418 -0.146205 -0.313937 0.505074 -0.346241 0.108291 -0.205389 0.170297 -0.0823999 -0.470391 0.260408 0.155233 0.137414 0.171193 0.145228 -0.0293806 0.0699927 -0.191413 -0.344741 0.113531 -0.413402 -0.337028 0.296439 -0.373082 -0.133533 -0.075529 -0.485771 -0.168559 0.187007 -0.253121 -0.00434919 0.0839672 0.312488 -0.0751889 -0.132247 0.227428 -0.0365291 0.225916 -0.584199 0.442115 0.106963 -0.531816 0.0355671 -0.067887 0.149522 -0.109749 -0.236367 0.118216 0.264671 -0.293063 -0.214192 -0.183391 -0.445833 0.503551 -0.380756 0.211391 0.0678483 0.1384 -0.150744 -0.221507 0.0774324 -0.137612 -0.227006 -0.100647 0.366289 -0.0646458 -0.0222412 0.354106 -0.145512 0.0886215 -0.216236 0.0928843 -0.0861589 -0.356202 0.123986 0.367579 -0.552943 -0.0871839 -0.234187 0.344673 0.132469 -0.393163 0.362113 0.140473 0.273069 -0.385257 -0.209166 0.402062 0.0503595 0.182556 0.429383 0.435765 0.182771 0.251201 0.0943758 -0.145737 0.336638 0.546732 0.0699767 0.0673695 -0.449455 0.343326 -0.0696578 0.0917709 -0.658696 0.0654356 0.139978 -0.0595092 0.310888 0.343465 0.107918 0.356749 0.246879 -0.174511 0.0423153 -0.172083 -0.573167 0.21017 -0.0567095 -0.167841 -0.173776 -0.168002 -0.0784551 0.0849232 0.381399 -0.379629 -0.438449
1286 -0.194425 0.434364 -0.308729 -0.0109657 0.273 -0.549369 0.267854 -0.192031 0.318071 -0.15984 -0.53209 0.241886 0.0540019 -0.0253684 -0.108138 0.27421 -0.542123 0.0960854 -0.202971 -0.617524 0.124129 -0.192025 -0.132685 0.24936 -0.246391 -0.0730075 -0.138223 -0.238504 -0.0864665 0.169516 -0.209159 0.0238678 0.023267 0.23827 0.0806447 -0.177148 0.225653 -0.133367 -0.191151 -0.559261 0.0583364 -0.0638883 -0.227927 -0.332479 0.0586039 0.11426 0.0620273 -0.173709 0.0562662 0.225021 -0.397013 -0.256244 -0.543707 -0.512873 0.371364 -0.0273331 0.199652 0.400423 0.0888626 -0.0798601 -0.0153484 0.210615 -0.452142 -0.18843 -0.0640231 0.396384 -0.00281531 0.00853131 0.265651 0.118537 0.342511 -0.496785 0.14847 -0.269306 -0.0885154 0.142248 0.379576 -0.315166 -0.0812678 -0.424651 0.168199 0.131042 -0.314345 0.337108 -0.0589187 -0.113366 -0.067062 -0.243379 0.274436 0.246293 0.280778 -0.151657 0.352525 0.289869 0.350262 -0.00923361 -0.37913 0.508638 0.131212 0.108539 0.0867238 -0.193571 0.33728 0.248753 0.0912823 -0.465844 -0.245075 0.409828 -0.150279 0.572105 0.147498 0.26545 0.471 0.380214 -0.154286 -0.112144 -0.214116 -0.559078 0.381828 0.0887015 -0.11655 -0.0737037 -0.0897025 0.117714 0.0563196 0.150783 -0.24896 -0.420098
1217 -0.0493069 0.129734 -0.339054 -0.314475 0.109158 -0.600982 0.142426 -0.323317 0.247438 0.183364 -0.535727 0.485003 0.276232 0.0672894 -0.168046 0.332951 -0.273578 -0.0768486 -0.267182 -0.828447 -0.0807997 -0.0924269 -0.0367309 0.203613 -0.32703 -0.0180959 -0.321239 -0.297778 -0.0682347 0.201468 -0.32443 0.154076 -0.116028 0.504867 0.244931 -0.0582476 0.196903 0.0417016 0.136071 -0.304746 0.04077 -0.365472 0.0572063 -0.215038 0.144569 0.10998 0.2268 -0.164849 -0.126488 0.0475423 -0.530951 -0.38462 -0.579582 -0.449853 0.15213 -0.188346 0.0852944 0.612123 -0.144721 -0.130816 -0.0764408 0.263206 -0.470971 -0.279243 -0.173096 0.00835301 0.0129014 -0.237538 0.0193488 0.104095 0.209508 -0.648215 -0.00261092 -0.311523 -0.0969306 0.141627 0.379775 -0.0991929 -0.229164 0.00771021 0.446323 0.126952 -0.0295727 0.236876 -0.167797 -0.142568 -0.0441629 -0.0918649 0.199236 0.283899 0.168919 -0.156585 0.353953 0.0659425 0.253238 0.131311 -0.264259 -0.0931179 0.159762 0.116202 0.0405638 0.0126744 0.243846 0.128011 0.149708 -0.606345 -0.224336 0.666316 -0.0702538 0.288939 0.168529 0.483274 0.503414 0.213354 -0.315956 0.0505059 -0.109262 -0.424278 -0.103934 0.213553 -0.00247417 -0.0765169 0.0629618 -0.164946 -0.0454177 0.384702 -0.087611 -0.25884
1998 0.233534 -0.202612 -0.422066 -0.14642 0.490242 -0.222082 -0.0773568 -0.2003 0.0363217 0.384592 -0.554443 0.340244 -0.0113812 -0.129498 0.00644628 0.312136 -0.318095 -0.338899 -0.0711719 -0.661601 -0.0367098 -0.306496 -0.110381 0.159246 -0.408346 -0.0789494 -0.177164 -0.284163 0.0896134 0.181434 -0.479011 0.418514 -0.0832607 0.911197 -0.137489 -0.0404841 -0.125058 0.144893 0.471247 0.0747821 0.0491088 -0.400788 -0.00172231 -0.230436 0.130158 -0.0917605 -0.242861 -0.175851 -0.619662 -0.161529 -0.541929 -0.319145 -0.538119 -0.0463189 -0.280066 -0.0421248 0.0985543 0.285531 -0.100887 0.116712 -0.206647 0.172847 -0.465383 -0.0127727 -0.129244 0.0652706 -0.0227964 -0.0576885 -0.0553865 0.413867 0.0293906 -0.360519 0.200726 0.218975 -0.0229251 -0.0996857 0.185912 0.180544 -0.147299 -0.229009 0.36802 -0.053333 0.205825 -0.226615 -0.173092 -0.428993 -0.0472072 0.0738078 -0.0666102 0.221297 0.465667 -0.351481 0.312051 -0.162887 0.109542 0.209987 -0.158912 0.0780686 0.3368 0.156441 0.127893 0.217629 0.160731 0.122615 0.100942 0.101023 -0.101428 0.259826 -0.138388 0.0674061 0.0427168 0.113455 0.0224243 0.155864 -0.532702 0.0511002 -0.101756 -0.262669 -0.095467 0.16329 -0.200195 -0.113168 0.113519 0.165283 0.0956145 0.268809 0.204065 -0.0910932
3828 0.265966 -0.602827 -0.113154 -0.308886 0.446593 -0.452144 0.110387 -0.245955 0.229337 -0.141927 -0.474405 -0.345001 -0.0197452 -0.138224 -0.154389 0.228677 -0.108958 -0.229953 -0.19879 -0.114476 0.276085 -0.0301358 0.102392 0.0250536 -0.213222 0.161009 0.0471518 -0.115447 -0.183759 -0.295071 -0.326402 0.302458 0.490224 0.416753 0.0864989 0.0488555 -0.354358 0.415775 0.344805 -0.258296 0.013975 -0.119344 -0.220223 -0.274592 0.0452416 -0.183188 -0.357419 -0.322768 -0.632574 0.300385 -0.256684 -0.329543 -0.293453 -0.15819 -0.0821824 -0.169361 0.246846 -0.0486925 0.0732484 0.156506 0.0534069 0.00954977 -0.138738 -0.16975 -0.100159 -0.0371383 -0.0319641 -0.356232 -0.105637 0.21717 0.376586 -0.276353 0.535567 0.00618917 -0.0455037 -0.247822 -0.00747192 -0.116339 0.189597 -0.420673 0.5128 0.0645769 -0.289094 -0.0616959 -0.0674047 -0.149995 -0.0516347 0.414922 0.007281 -0.0652954 0.638611 0.100661 0.438865 -0.185844 0.130103 -0.127027 -0.209869 0.0122115 0.211684 -0.0601969 0.176657 0.352459 0.373125 0.0845138 0.12327 -0.366838 -0.203829 0.0607603 -0.208431 -0.310802 0.341964 0.567216 -0.187923 0.0407558 -0.46473 0.0763675 0.179676 -0.322933 0.10471 -0.147047 -0.0996944 0.0107165 0.180894 0.496138 0.229717 0.0229866 -0.113284 -0.178775
5781 0.0891075 -0.513973 -0.235167 -0.175126 0.157415 -0.297264 0.320536 -0.496427 0.124357 -0.00427625 -0.262949 -0.312173 0.0481308 -0.165419 0.0227525 0.239583 -0.295407 -0.218757 -0.286801 -0.305765 0.224278 0.161773 0.106344 -0.151977 -0.318826 0.322021 -0.130968 -0.289894 -0.181172 -0.288444 -0.305368 0.228614 0.298896 0.550646 0.0324064 0.0282484 -0.262315 0.361298 0.417774 -0.13957 0.0732677 -0.0461737 -0.00283905 -0.27632 0.0147689 -0.271152 -0.52312 -0.278464 -0.79746 0.209935 -0.406155 -0.178789 -0.440748 -0.231928 -0.0258697 -0.307578 0.219767 0.0181218 0.0512711 0.124331 0.0799316 0.0391881 -0.289104 -0.276598 -0.180363 0.0340193 -0.0800273 -0.322111 -0.216754 0.261894 0.529774 -0.193135 0.610613 0.00890166 -0.100365 -0.494556 0.143061 -0.257716 0.193338 -0.412995 0.502115 0.189197 -0.22167 -0.0633961 -0.366009 -0.518114 -0.250022 0.397324 -0.101046 0.0342712 0.654517 0.119337 0.690219 -0.221692 0.0669299 -0.0370421 -0.169532 -0.0763827 0.140972 0.0245052 0.188468 0.407002 0.201491 -0.082949 0.31044 -0.359412 0.105443 -0.128097 -0.189429 -0.289467 0.472089 0.334536 -0.135181 -0.185861 -0.40455 0.189125 -0.00388793 -0.404011 0.0903559 -0.140624 -0.168501 0.0805196 0.19804 0.257403 0.368828 0.13649 -0.0915246 -0.0982101
2396 0.456709 -0.212791 -0.130225 -0.440113 0.416601 -0.690137 0.128598 0.0576908 0.0687308 -0.135211 -0.154545 -0.0512952 -0.0372269 -0.0556664 0.00528449 0.0728599 0.103541 0.147068 -0.329103 -0.214104 0.297324 -0.0256695 0.286469 -0.0755282 -0.410577 0.0500547 -0.47347 -0.224487 -0.0643531 -0.380067 -0.178231 0.0893414 0.723216 0.615648 0.116131 0.297753 -0.42276 0.172021 0.402331 -0.203922 0.24787 -0.270907 0.0470177 -0.301905 -0.0077935 -0.0913625 -0.29724 -0.294892 -0.397564 0.210152 -0.149044 0.0833888 -0.684203 -0.248259 -0.150482 -0.269569 0.282481 0.0468808 0.0142573 -0.081797 0.144258 0.160525 -0.168575 -0.505398 0.347802 0.139913 -0.227808 -0.499375 -0.410056 0.155617 0.739978 -0.121864 0.238222 0.401338 -0.32238 0.0915636 0.223939 -0.276445 0.209602 -0.329504 0.399731 0.0113064 -0.389769 -0.213814 -0.332922 -0.283155 -0.100294 0.542749 -0.308039 0.265866 0.440342 0.113216 0.593885 0.12791 -0.0977558 0.0775908 -0.232447 0.205611 0.211564 -0.090285 0.24107 0.0710193 0.0590409 -0.0456789 0.452199 -0.0747375 0.110452 0.522287 -0.0198297 -0.148858 0.318232 0.434957 -0.456197 -0.222694 -0.545481 0.0543551 0.120085 -0.498369 0.300608 -0.0877523 0.135936 -0.279971 0.122115 0.159802 0.15259 -0.247656 -0.244018 -0.159171
3735 0.24074 -0.0856851 -0.123254 -0.260023 0.291526 -0.399873 0.127255 0.062825 0.0984829 0.127432 -0.217301 0.51777 -0.0206861 -0.0600569 -0.308844 0.255106 -0.269084 0.0282603 -0.209213 0.0633115 0.079956 -0.33721 0.159113 -0.078176 -0.190622 -0.0951192 0.057474 -0.160562 0.0689012 -0.102864 -0.202949 0.227469 -0.1981 0.00130121 -0.447414 -0.0145227 -0.322581 0.215472 0.250502 -0.298347 0.0188367 0.143812 -0.0827682 -0.240571 -0.297964 0.0399475 -0.369044 -0.0156266 -0.471833 0.334323 -0.61489 -0.62843 -0.375526 -0.140281 0.0848173 -0.215417 -0.0646314 -0.319359 -0.00778972 0.246544 -0.0293162 0.017007 -0.300244 0.161551 -0.108061 0.270067 0.04052 0.144076 -0.231578 0.0164689 0.397931 -0.118087 0.0734244 -0.315735 -0.295191 -0.179838 0.0831012 0.154623 -0.131569 -0.151733 0.347019 0.0107483 0.125354 -0.0245882 -0.086987 -0.124909 0.0220862 0.215974 -0.0798689 0.076914 0.222934 0.26943 0.348273 -0.196124 0.14652 0.155418 -0.207228 -0.0725582 0.211797 0.123898 -0.0177511 0.160499 0.0662765 0.0156943 -0.0757324 -0.224681 0.077918 0.130873 -0.0631323 -0.0738612 0.158622 0.286769 0.05244 0.225811 -0.424844 0.422488 -0.00613458 -0.653315 0.224523 0.0743772 -0.294674 -0.240228 -0.222378 0.192467 0.11283 -0.0341138 -0.237204 0.35681
4059 0.303496 -0.202201 -0.175806 -0.311766 0.306503 -0.422371 0.147797 0.012341 0.154893 0.0588022 -0.333532 0.336943 -0.199776 -0.148151 -0.293568 0.212853 -0.0170865 0.0533463 -0.124686 -0.0615087 0.234124 -0.386418 0.076025 -0.00846326 -0.140921 -0.0477509 0.108786 0.0294237 0.01305 -0.0489485 -0.189033 0.345472 -0.0859774 0.117204 -0.384416 0.0510482 -0.482137 0.161342 0.191622 -0.389408 -0.0345263 -0.035127 -0.143175 -0.315554 -0.243898 -0.0364175 -0.287411 -0.0933973 -0.628184 0.279537 -0.598701 -0.583582 -0.465864 0.113787 0.183732 -0.222713 0.0301767 -0.206816 0.146301 0.316887 0.0761877 0.0270681 -0.495111 0.0810916 -0.107701 0.48846 0.10831 0.103701 -0.232932 -0.130229 0.505642 -0.0727991 0.242036 -0.172423 -0.222761 -0.246677 0.22738 0.0786768 -0.395961 -0.300793 0.360102 -0.0438777 -0.0513901 -0.0720608 0.0314176 -0.247838 0.0644268 0.270935 0.0134947 0.0806976 0.117987 0.0878653 0.276434 -0.0707272 0.180242 0.184622 -0.139257 0.00709223 0.294775 0.0858303 0.0454712 0.107576 0.122016 -0.0574142 0.031498 -0.122788 0.0222042 -0.000673707 -0.102633 0.0676488 0.282774 0.148269 -0.116718 0.338411 -0.357791 0.288184 -0.0201741 -0.599667 0.0868605 0.0144854 -0.15585 -0.234335 -0.282349 0.200336 0.143698 0.00657412 -0.207581 0.359555
2110 -0.00260567 -0.497624 -0.0763086 -0.176729 0.0791837 -0.553439 0.0910608 -0.473111 0.206717 -0.176052 -0.201674 0.600966 -0.185114 0.164374 -0.221977 0.577013 -0.275801 -0.0585106 -0.217734 -0.115445 0.0460695 0.0666723 -0.357357 -0.0163015 -0.110526 -0.341356 0.46234 -0.467089 0.258029 0.0121575 -0.357136 0.480846 0.0299768 0.381921 -0.202245 -0.0557352 -0.4597 0.148116 0.345676 -0.534883 -0.0821564 0.0134191 -0.0614819 0.0153168 -0.332942 -0.0176544 -0.215131 0.0491411 -0.484346 0.204451 -0.660127 -0.633236 -0.14595 0.000308022 -0.000127308 -0.432062 -0.38246 -0.441512 -0.142288 0.376284 0.0436612 0.20198 -0.613535 0.0439187 0.343164 0.174639 -0.102785 0.0810963 -0.410552 0.111554 0.28717 0.103819 0.182306 -0.192235 -0.384941 -0.0810088 0.176093 -0.0022188 0.0212176 -0.258974 0.370609 0.213774 -0.0783302 -0.128556 0.341452 0.0369748 0.417464 0.143551 -0.033097 0.0597078 0.0520947 0.309792 0.218495 -0.0759349 0.0674838 0.109316 -0.0418363 0.180913 0.385306 0.122825 -0.127349 0.202883 -0.313494 -0.150018 -0.116566 -0.201772 -0.222734 0.267204 -0.0318233 0.177102 0.0218997 -0.139393 0.0378992 0.040332 -0.464154 -0.0354068 -0.0295529 -0.212994 0.384186 -0.218575 -0.126454 0.0781238 -0.0632141 0.339675 -0.0379492 0.30754 -0.3538 0.254214
4210 0.209853 -0.296244 -0.127126 -0.216896 0.353839 -0.0923843 0.0276714 -0.267933 0.263409 0.220677 -0.280333 0.646655 -0.326371 0.180921 -0.0379557 0.552793 -0.305325 -0.119472 -0.305674 -0.228741 0.0450434 0.0918303 -0.228757 0.226491 -0.222315 0.0500887 0.270198 -0.451968 0.436332 -0.0482962 -0.320531 0.30738 -0.0921918 0.404081 -0.379028 -0.0793949 -0.464077 0.177775 0.375403 -0.545919 -0.0923596 -0.172712 -0.0388293 -0.0283386 -0.252717 -0.0464116 -0.608277 -0.112747 -0.320118 0.13635 -0.670217 -0.795144 -0.299746 0.0177592 0.0107001 -0.410281 -0.115512 -0.423809 -0.0157515 0.346238 0.1903 0.0871315 -0.405435 0.204948 0.186899 0.138114 -0.0346428 0.109171 -0.0722224 0.0734879 0.271335 -0.09963 0.220559 -0.122895 -0.229569 -0.122777 0.304123 -0.0148645 -0.0319264 -0.538023 0.412574 0.15782 -0.234031 -0.142717 0.376992 0.0693784 0.317005 0.216778 -0.100743 -0.0176213 0.121674 0.141891 0.157612 0.0194866 -0.0318508 0.206121 -0.093045 0.0548933 0.453556 -0.0242062 -0.0187794 0.140549 -0.251593 -0.154624 -0.0547262 -0.231731 0.105064 0.199597 0.0286351 0.192569 0.160212 -0.140117 0.00866647 0.104356 -0.484836 -0.0137821 0.0344569 -0.145076 0.146979 -0.324496 -0.0494012 -0.122325 -0.176739 0.231322 0.0645124 0.324862 -0.300328 0.351386
35 -0.0623154 -0.164062 -0.054116 0.166096 0.142288 -0.175774 -0.311848 0.139512 0.0233929 0.00268604 -0.289871 0.178432 -0.347397 0.167963 0.0394202 0.41262 -0.508133 -0.0121919 -0.258654 -0.327956 0.342926 -0.388214 -0.0735746 0.502027 -0.356901 0.124282 0.132584 0.0790695 0.410402 0.207091 -0.0929561 0.270492 -0.168197 0.418024 -0.223476 0.0219368 0.0510864 0.0516705 0.230659 -0.0891651 0.0143776 -0.408563 0.25413 -0.0489887 -0.107814 0.280695 -0.629351 -0.298333 -0.489586 0.0764293 -0.156627 -0.69776 -0.134837 0.0100316 -0.213932 -0.0804872 0.136761 0.00659796 -0.254259 0.154661 0.0578747 0.157335 -0.216237 -0.116991 0.181816 0.0489756 0.0987779 0.215773 0.0226756 -0.0356425 0.332142 -0.155765 0.191725 -0.201358 0.0654988 0.185402 0.041514 -0.246931 -0.0326227 -0.298233 0.0962903 -0.341836 -0.136277 -0.139999 0.288717 0.132106 0.344998 0.0606186 -0.0823155 -0.000725904 0.396114 0.176039 0.331087 0.0885537 0.320527 0.150401 0.0884052 0.073669 0.464384 0.0444588 0.0721482 0.0176587 -0.0771094 0.0397273 0.31402 -0.600297 0.225386 0.162881 -0.000824804 0.0100955 0.239152 -0.0872921 0.0753607 0.58983 -0.577816 0.315639 -0.0254059 -0.225456 0.11043 -0.347814 -0.214664 -0.256446 -0.253078 0.179368 0.294094 0.0275679 0.0584078 -0.130551
2767 0.280081 -0.0231154 0.307904 -0.0585807 0.346101 -0.312993 -0.119818 0.131906 0.591725 -0.0710847 -0.0817661 0.512722 -0.53476 -0.0783162 -0.230308 0.281766 -0.493822 -0.0539312 0.116995 -0.32301 0.0163708 -0.234542 0.36199 0.327554 -0.12337 0.212577 -0.320401 -0.0580539 0.150286 0.356912 -0.154782 0.062301 0.134161 0.309811 -0.289807 0.277384 -0.121503 -0.137828 0.17839 0.0834233 -0.136725 0.0207778 0.0203136 -0.273751 -0.185752 0.232534 -0.445953 -0.270361 -0.58422 0.63441 -0.211173 -0.341454 -0.570394 0.0845696 -0.0865652 0.266737 0.0295144 0.0142682 0.152484 -0.139007 -0.146978 -0.092012 -0.030124 0.0450116 -0.0169642 0.247857 -0.0637395 -0.127113 -0.0517476 0.0266865 0.0825177 -0.479601 -0.00716781 -0.148453 0.0595219 0.106498 -0.204885 0.0722187 -0.242724 -0.497305 0.286375 -0.323203 0.30922 -0.219014 0.396382 -0.0775242 0.0768918 0.0762201 -0.394629 0.0135613 0.459238 0.175896 0.147963 0.00156117 0.0500118 -0.00491856 0.118872 0.0364095 0.140297 0.179047 0.159148 -0.265093 -0.0488322 -0.224532 -0.114288 -0.269594 0.528756 0.24648 0.110462 0.19321 0.324753 -0.0171183 -0.0334221 0.347971 -0.787372 0.096286 0.111509 -0.642111 0.27671 -0.0697326 -0.0229602 0.202223 0.260313 0.559058 0.208746 -0.0351466 0.198065 -0.150428
2296 0.24327 0.383617 0.19466 0.390901 0.143746 -0.381325 -0.246615 0.0023829 0.0847632 0.0849656 -0.233876 -0.0700737 -0.506954 -0.339895 -0.234587 0.230673 -0.0227752 0.162127 -0.0777858 -0.585972 0.370437 -0.307785 -0.0551645 0.300739 0.143802 -0.363224 0.0178407 0.349852 0.0783157 0.0784265 -0.0350841 -0.127927 0.220447 0.574595 -0.43737 0.173433 -0.150753 0.0895359 0.177841 -0.505481 -0.0102035 0.042833 0.0412434 0.199849 -0.147737 -0.503185 -0.105436 0.0214722 -0.367807 0.532903 0.203321 -0.388609 -0.548894 -0.138387 0.0457217 0.070846 -0.0436955 0.150214 0.134743 -0.140711 -0.307589 -0.237603 0.067745 -0.0911535 0.251019 0.147599 0.166943 -0.142164 -0.136147 0.115954 0.503117 -0.338302 0.116545 -0.183199 -0.35739 -0.195997 -0.0164285 0.193536 -0.605229 -0.572382 0.131291 0.0433149 0.454167 -0.141415 0.0405725 -0.0321762 -0.0593465 -0.179776 -0.0590679 -0.25158 0.285219 0.27732 0.37182 0.0248177 0.0458667 -0.210698 -0.279184 0.0734182 0.00951566 0.266551 0.43196 -0.133935 -0.496403 -0.425901 0.104166 -0.275189 0.107073 0.441715 -0.0361445 0.240104 0.223976 0.0506339 0.0288606 0.00889682 -0.761058 0.0799191 -0.0266494 -0.195123 0.0612937 -0.0765908 0.222748 -0.325497 0.101295 0.594246 -0.0696852 0.170622 0.224305 -0.160039
3414 0.115617 0.0912544 0.0857793 0.321748 0.215073 0.0304333 -0.162266 -0.197262 0.26013 0.034708 -0.298029 0.275483 -0.571941 -0.286449 0.175541 0.496099 -0.432859 -0.0486196 0.256099 -0.242239 0.487656 -0.387459 -0.0432075 0.383508 -0.18723 -0.133622 0.0611696 0.125463 0.0790508 0.119487 -0.206332 -0.333573 0.317184 0.450133 -0.272338 0.0368735 -0.427704 -0.123816 0.199762 -0.424539 -0.104782 -0.0154826 0.0289186 -0.0385055 -0.270463 -0.0191768 -0.461276 -0.200888 -0.554871 0.370072 -0.148833 -0.544454 -0.504698 0.304437 -0.413316 -0.0903816 -0.0318054 -0.181825 0.157787 0.128039 0.0685141 -0.120559 0.0246804 -0.0578642 0.212238 0.378948 0.372129 0.0422728 0.165231 0.175702 0.35656 -0.332374 0.26628 -0.185805 -0.105843 -0.0912972 0.00313224 -0.0535099 -0.547426 -0.442125 0.38947 -0.174973 -0.0277287 -0.00904227 0.0946079 -0.334642 0.231467 0.123371 -0.317893 -0.067404 0.488042 0.145554 0.282868 -0.278184 0.56629 0.0490608 -0.334239 -0.0279884 0.48235 -0.0833133 0.250821 -0.04542 -0.270233 0.0066906 0.367947 -0.317318 0.0270943 -0.0494642 0.0770781 0.286116 0.344787 -0.0798905 -0.109288 0.0717838 -0.612949 -0.0763736 0.120292 -0.2878 0.125305 -0.543836 0.0677437 -0.229398 0.229793 0.328064 0.302714 -0.0869652 0.081254 0.176348
3738 0.123423 0.110936 -0.16882 0.483551 -0.0115707 0.0229097 -0.0230219 -0.17844 0.270876 0.266064 -0.366009 0.295843 -0.203289 -0.118037 0.0943137 0.4058 -0.338705 -0.00101467 -0.0173892 -0.104254 0.35617 -0.313793 0.0462135 0.28916 -0.371837 -0.177846 0.0903731 -0.148278 0.0871701 -0.134037 -0.293632 -0.202778 -0.00676973 0.118811 -0.441662 0.0469811 -0.506038 0.256537 0.259665 -0.510828 -0.0481272 -0.0233903 -0.00754365 -0.337999 -0.11397 0.15577 -0.37768 -0.200873 -0.510303 0.301163 -0.225606 -0.651942 -0.560764 0.325855 -0.158773 -0.267319 -0.0251115 -0.288895 0.241472 0.152147 0.297015 -0.0949013 -0.0429048 0.13673 0.21761 0.52484 0.467769 0.00692005 -0.0664277 0.226422 0.383929 -0.277197 0.428299 -0.144449 -0.236356 -0.286336 0.332494 0.0827378 -0.326259 -0.434234 0.302919 0.068814 -0.100795 0.0632564 -0.0533663 -0.24595 0.199459 0.0332623 -0.186791 -0.0994751 0.396182 0.0652186 0.250451 -0.413777 0.60172 0.157924 -0.353516 -0.232341 0.276193 0.00525544 0.140641 0.0341973 -0.2035 -0.00441291 0.297017 -0.322657 -0.0592409 0.10438 0.209884 0.174146 0.274142 0.224191 0.0932405 0.00888372 -0.325351 -0.0411368 0.163064 -0.520132 0.0600299 -0.183328 -0.0546251 -0.376989 -0.0878344 0.256718 0.229586 -0.0829019 -0.0796923 0.488746
4197 0.488732 -0.2195 -0.0585996 -0.176689 0.0527836 -0.276364 -0.026975 -0.364713 0.281291 -0.0181944 -0.369302 0.3082 0.0776636 -0.0247322 0.0853086 0.47064 0.0214331 -0.101167 -0.204233 0.25625 0.282758 0.0140196 0.224886 0.15817 0.321585 0.193824 -0.346585 -0.0390148 0.419241 0.18222 -0.258224 -0.058892 0.298048 0.177345 -0.768982 0.261113 0.072014 0.463072 0.193753 -0.291452 -0.505915 0.140204 -0.00727019 -0.230193 -0.195858 0.183534 -0.423102 -0.165754 -0.633623 0.632873 0.0916586 -0.22417 -0.458216 -0.402024 0.0488185 0.173858 0.123035 -0.108472 0.0217611 -0.118943 -0.230171 -0.114029 0.0493338 0.0511565 0.0398202 0.119352 0.075014 -0.188483 -0.15978 -0.0443489 0.342561 -0.203634 0.154905 0.0171976 -0.664499 -0.0665008 -0.325237 -0.00189758 -0.289903 -0.43184 0.392938 0.00965327 -0.0771137 -0.154511 0.0324364 -0.29803 0.128256 0.238826 -0.579738 0.255094 0.583271 0.0319624 0.0940471 0.0885067 0.0792078 0.035388 -0.402939 0.302301 -0.143982 0.228292 -0.111447 -0.087122 0.0384899 -0.00975078 0.161784 -0.504682 -0.00551788 0.290137 0.323957 0.0532904 0.312691 0.0348009 0.130792 -0.0132977 -0.479509 -0.167497 0.316847 -0.560802 0.111821 -0.0545403 -0.135181 0.0807213 0.0412491 0.569133 0.13835 -0.204373 0.188289 0.0210978
2325 -0.0515798 -0.470532 0.114859 0.0282927 0.572227 -0.379624 -0.177069 -0.149126 0.30046 0.164615 -0.669836 0.362608 -0.302274 -0.158428 -0.198988 0.293908 -0.00297037 0.462981 -0.297629 -0.137318 0.542524 -0.247447 0.068168 -0.0701105 -0.238568 -0.151989 -0.181813 0.162879 0.0690987 0.0746708 -0.409916 0.192381 0.443035 -0.0330094 -0.329199 -0.141023 -0.112591 -0.158752 0.45879 -0.393164 0.0232802 0.243605 0.242379 -0.101295 -0.197398 -0.135309 -0.556356 -0.365037 -0.570347 0.382931 -0.0697961 -0.281942 -0.251626 -0.3142 0.350502 -0.00405242 0.232882 0.209134 0.0684275 0.0399565 -0.134985 -0.0191246 -0.371133 0.287664 -0.0265213 0.266707 0.0616557 -0.213407 -0.384024 -0.208334 0.31212 -0.0832658 -0.038397 0.104617 -0.230829 0.00178392 0.284062 -0.00208701 -0.279697 -0.126192 0.459398 0.139114 -0.0564857 -0.0105282 -0.111714 0.0660386 -0.256066 0.36088 -0.216035 0.139816 0.221962 0.0936879 -0.295956 -0.214413 -0.265985 0.0103777 -0.153258 0.182161 0.170074 0.535908 0.0175788 -0.223168 0.407157 -0.182798 0.16909 -0.0778798 0.468044 0.131228 0.626802 0.245201 -0.063053 -0.0271054 0.0564895 0.16944 -0.571953 -0.00143879 0.163848 -0.291619 0.363692 -0.307448 0.28291 -0.186944 -0.132241 0.376205 0.217781 -0.211349 0.0962828 -0.334444
5827 0.362137 0.0430639 0.132313 -0.0146725 -0.106199 -0.370924 -0.256993 -0.370146 0.433819 0.0254615 -0.159339 0.442209 0.175643 -0.135432 0.0621102 0.367043 0.0935211 0.199852 -0.0266068 -0.103716 0.157686 -0.255705 0.558027 -0.375565 0.182015 0.230479 0.201215 -0.184492 0.32611 0.263591 0.0836593 0.00740594 0.102779 0.507784 -0.649573 0.286453 0.0535394 -0.34551 0.279373 -0.00818754 -0.421233 0.0892128 0.0464375 -0.197163 -0.267572 -0.130338 -0.117826 -0.383183 -0.9411 0.233209 0.0534803 -0.142101 -0.424852 -0.709496 0.0583267 -0.127852 0.0473593 -0.0325283 0.071415 -0.0675213 0.0695913 0.0729435 0.138566 -0.0446156 0.266977 0.230596 0.0153594 -0.0798242 0.119857 0.12906 0.294467 -0.182138 0.0520706 0.229024 -0.506404 -0.410695 0.368183 0.0831019 0.0584153 -0.532544 0.295707 -0.143532 -0.0250759 0.156644 -0.229354 -0.318379 -0.0634794 -0.0156258 -0.0986075 0.0517429 0.232794 0.430857 0.0795324 -0.036073 -0.0550391 0.0729722 0.12713 0.124738 -0.126817 -0.0151746 -0.110712 0.109454 -0.0625621 -0.282325 -0.0210906 -0.221184 0.0398117 0.432505 0.0255624 0.055709 0.150786 0.206101 0.20652 0.274557 -0.443873 0.0829392 -0.0538047 -0.181794 0.270185 -0.478026 -0.0223508 0.137577 -0.0455256 0.50187 0.431437 0.123802 0.351056 -0.408992
4320 0.153056 0.0335307 -0.209354 0.0506909 -0.0761385 -0.471929 -0.258502 -0.394339 0.263738 0.347368 -0.195285 0.268379 0.180568 -0.159111 -0.0651387 0.216186 -0.0417953 0.375175 0.0552674 0.0141562 -0.229881 0.108374 0.125063 -0.330471 0.225713 -0.0404081 0.428237 0.0187355 0.0116585 0.150586 -0.0783389 0.161248 0.114133 0.554729 -0.331712 -0.154555 -0.18112 0.121412 0.0239591 -0.113461 -0.309165 0.393371 -0.0433645 -0.217022 -0.284989 0.167598 -0.110885 -0.257116 -0.856989 0.135908 -0.308485 0.0135254 -0.305965 -0.669815 0.171289 -0.056382 0.0272925 0.0645731 -0.122483 -0.122898 -0.123271 0.0523465 0.0179638 0.0138552 0.221341 0.400899 0.0668633 0.223635 0.0477532 0.434818 0.506949 -0.532807 0.10916 -0.143762 -0.434669 -0.373185 0.2147 -0.0929617 0.154703 -0.40095 0.420132 -0.345093 -0.0319937 0.375181 -0.122588 -0.135556 0.24757 -0.107732 0.0505899 0.131936 0.439834 0.595212 0.20624 0.200917 -0.119873 -0.0177293 -0.357848 0.421234 -0.246445 -0.09114 0.107843 0.16454 -0.114011 0.2742 0.243309 -0.0921756 -0.113052 0.62649 -0.236191 0.122495 0.160535 0.221955 -0.139936 0.13306 -0.489625 0.0911416 -0.320392 -0.349985 0.43526 -0.2437 -0.0913981 -0.00609062 -0.192715 0.125214 0.340035 0.298848 0.0286953 -0.321315
469 -0.180896 0.0631915 0.0790324 0.0464295 -0.0651273 -0.276158 -0.257471 -0.172503 -0.208036 0.415851 -0.193104 0.249015 0.553369 -0.339537 -0.599181 0.0225841 0.152826 0.270738 0.0282901 -0.0449742 -0.254729 0.0902244 -0.0612977 -0.302616 0.269597 -0.112634 0.32487 0.340878 -0.0220438 0.0400717 0.154652 0.0615518 0.240555 0.308944 -0.160964 -0.217985 -0.388206 0.221916 0.0753212 -0.159729 -0.115032 0.271964 0.149179 -0.00121407 -0.225032 0.309089 -0.0213193 -0.109414 -0.750583 -0.0077525 -0.487876 -0.0536178 -0.144219 -0.306832 0.225708 -0.137358 0.0827874 -0.0525569 0.141095 -0.135987 -0.462617 -0.251387 -0.111245 0.144044 -0.151892 0.547616 0.0307575 0.599515 -0.0219184 0.462499 0.208192 -0.599476 0.0665452 0.065478 -0.612816 -0.0428218 0.604898 -0.0494754 -0.0976677 -0.0712455 0.47948 -0.0088218 -0.137662 0.154401 -0.102534 0.181965 -0.0181131 0.208003 0.294729 0.231452 0.443305 0.670578 0.201568 0.236743 0.119849 0.209456 -0.0696657 0.531139 0.0332398 0.075608 0.147545 -0.198199 -0.0380569 0.51506 0.323472 -0.31189 0.203524 0.601849 -0.0461154 0.179223 0.169504 0.297512 0.0683876 0.061128 -0.451492 -0.0156755 -0.0666212 -0.320995 0.246182 -0.279194 -0.221249 -0.258988 -0.398351 0.286684 0.327021 0.172063 -0.411083 -0.247942
1386 -0.235985 -0.00139311 0.295041 -0.109311 0.346672 -0.0974016 -0.0956169 -0.156262 -0.180601 0.370095 0.0725788 0.497236 0.365974 -0.573791 -0.190905 0.00475868 -0.134499 0.518742 0.00133436 -0.223881 -0.215797 -0.0466149 0.0199023 0.426463 -0.589611 0.0685505 0.15007 0.25723 0.0391871 0.356419 0.108813 -0.188232 -0.0263831 0.174243 -0.0728844 -0.146055 -0.296983 0.0250844 0.462297 0.244804 0.236157 -0.0798489 0.196571 0.167231 0.237211 0.0959415 -0.398335 -0.471135 -0.210012 -0.3005 -0.384844 -0.156707 -0.384487 -0.665987 0.233758 0.173984 0.141574 0.213957 0.18716 0.293794 -0.0738454 0.0298956 -0.172563 0.109503 0.0864238 0.168798 0.273171 -0.0625516 0.495953 0.0280827 0.260137 -0.612384 -0.297443 0.107285 -0.519734 -0.108792 0.360382 0.150899 0.0956674 -0.252807 0.10231 0.146937 0.198415 0.00941366 0.193282 -0.0345016 -0.0856439 0.357077 0.193181 0.104349 -0.121447 0.46582 0.253762 0.0938436 -0.19488 -0.292765 -0.462404 0.403979 0.00247149 -0.0713893 0.280164 -0.248799 0.204154 0.0123869 -0.0501073 -0.062722 -0.177458 0.192621 0.266836 0.314228 0.287522 0.500334 0.346526 0.113343 -0.309266 0.305101 0.105041 -0.386779 0.453798 -0.395961 0.109926 -0.317855 -0.485491 0.348903 -0.0661412 -0.107888 -0.600226 -0.136232
1860 0.0630629 -0.0500521 -0.00670167 -0.570841 0.453224 -0.159103 -0.0371161 0.0450848 0.0941104 0.199893 -0.0914002 0.262827 -0.305922 0.033729 -0.240411 0.0781228 0.0289871 0.17599 -0.200017 -0.125827 -0.117559 -0.368933 0.0766411 0.198736 -0.012988 -0.156909 0.0928511 0.107197 0.122896 0.156072 0.139546 0.0355536 0.0333484 0.366566 -0.137509 0.131838 0.0241334 -0.221941 0.313554 -0.404404 -0.0839041 -0.363107 0.29111 -0.326507 0.0785881 0.0517194 -0.239318 -0.387421 -0.365128 -0.0490676 -0.428062 -0.176146 0.0602923 0.0622884 -0.0614526 -0.0419537 0.0217693 0.0924523 -0.142762 -0.171079 -0.195624 0.0248695 -0.258973 0.0347836 0.0146268 0.26966 -0.0132636 -0.287603 0.0729253 -0.34887 0.438213 -0.40016 0.303398 0.137947 -0.640396 0.236333 0.323029 0.181323 0.151359 0.0343979 0.247222 -0.255803 -0.155789 0.231368 0.197924 0.0562128 -0.246645 0.27984 0.126962 -0.160445 -0.247798 0.153651 0.100643 -0.116955 -0.246533 -0.2067 -0.611186 0.289812 0.0369509 0.322679 0.509377 -0.108532 -0.327749 -0.0728526 0.388044 -0.375436 0.203466 0.205088 0.0941883 0.135472 -0.0431175 0.179217 0.0165039 0.244332 -0.424484 0.173631 -0.212725 -0.233324 -0.0873046 -0.0566464 0.323373 -0.180699 -0.580027 0.445494 -0.140588 0.105307 -0.317867 -0.0857942
1677 -0.099517 0.239332 -0.0892149 -0.204477 0.35875 0.145346 -0.405981 -0.0741465 0.108854 0.307315 0.288401 0.478598 0.165574 -0.299674 -0.314952 0.125408 0.187277 0.2565 -0.233383 -0.0422161 -0.170829 -0.259952 -0.0199465 0.331633 -0.471995 0.217429 0.083028 0.430389 0.331487 0.103752 0.145296 0.123057 -0.063659 0.390285 -0.180173 -0.0299939 -0.156166 -0.100535 0.509086 -0.167154 0.460323 -0.425466 0.385267 -0.168817 -0.175477 0.125989 -0.202159 0.0128353 -0.113119 -0.0843066 -0.386278 -0.124521 0.122585 -0.319983 0.0482782 0.0649585 0.232212 -0.27024 0.0896977 -0.011052 -0.0295061 0.211188 0.0209702 -0.113063 -0.223555 0.437643 0.277798 -0.332067 0.2167 -0.236623 0.340598 -0.570234 0.29165 0.274208 -0.428432 0.0042664 0.376555 -0.045694 -0.0206876 -0.0236737 0.485038 -0.251909 -0.0490037 0.264991 -0.120114 0.268708 -0.200068 0.00722635 -0.00731986 0.134262 -0.2943 0.408394 0.325329 -0.227848 -0.429014 0.0566806 -0.546385 0.299296 0.213134 -0.164705 0.3735 -0.0784241 0.115273 -0.390451 0.235301 -0.397032 -0.0257167 0.336311 0.0979886 0.269647 0.220306 0.281186 0.220258 -0.0900628 -0.254096 0.181069 0.0758214 -0.238518 -0.0451494 -0.0442125 0.222904 -0.414668 -0.358793 0.544045 -0.421876 -0.180859 -0.448072 -0.145055
1693 0.141075 0.352356 0.0569233 -0.249414 0.0765802 -0.235457 -0.317501 0.00291644 -0.0256474 0.195471 -0.194325 0.321441 0.115591 -0.400318 -0.0810762 0.307285 0.266957 0.299365 -0.176623 -0.385121 -0.0123397 0.136906 -0.14138 0.0110312 -0.211305 0.0667645 0.0031923 0.390714 -0.194464 0.0874843 0.284032 0.0627465 0.0627315 0.0137757 -0.228717 0.108897 -0.155876 0.282901 0.223147 -0.281999 0.0834808 -0.385743 0.305578 -0.181747 0.208205 0.0884791 -0.259433 -0.269517 -0.264009 -0.0546194 -0.330651 -0.259973 0.00134535 -0.284029 0.0455208 -0.359398 0.155557 -0.0497437 -0.152226 0.169328 -0.379968 -0.0582993 -0.235433 -0.0277645 -0.0901413 -0.244064 0.186477 -0.315908 0.0250384 -0.125956 0.369186 -0.452895 -0.0866112 -0.162312 -0.170506 -0.0393685 0.40475 0.0948554 0.0802956 -0.105109 0.427178 0.0481193 -0.083206 0.267585 0.367901 0.135626 -0.0461887 0.133753 0.202454 -0.298879 -0.0676938 0.195365 0.520267 0.0867011 0.0216683 0.050605 -0.305929 0.283999 -0.101743 -0.0644519 0.173805 -0.0439208 -0.0374236 0.0667475 0.368546 -0.182461 0.159014 0.18236 0.25818 0.328561 0.131763 0.120545 0.463562 0.128192 -0.695069 -0.13177 0.00551939 -0.239317 0.314034 -0.220584 -0.0630869 -0.51798 -0.0466418 0.326044 -0.151739 -0.0724242 -0.45433 -0.0713466
2732 0.0463582 0.253511 0.0310114 -0.171031 0.35309 -0.138531 -0.0902009 0.0461498 -0.0338207 0.123186 -0.135856 0.152808 0.236903 -0.431273 -0.246407 0.287614 0.198433 0.312359 -0.237804 -0.377165 0.00841222 0.0923511 -0.0903282 0.144082 -0.110301 0.0848092 0.206064 0.334977 -0.103088 -0.0467452 0.00376053 -0.0745206 0.156916 -0.00124449 -0.0117236 0.0804909 -0.229141 0.440425 0.210548 -0.16583 0.295088 -0.271616 0.286145 -0.216899 0.125079 0.122634 -0.279134 -0.234062 -0.391372 -0.141901 -0.393278 -0.329364 0.0638688 -0.234951 0.0538601 -0.206015 -0.0945111 -0.071809 -0.0262691 -0.0690909 -0.351573 0.110068 -0.0539767 -0.0499732 -0.19518 -0.16632 0.0944776 -0.306974 -0.0226336 0.104019 0.472496 -0.465327 -0.0281338 -0.132932 -0.127144 -0.285364 0.542205 -0.091767 -0.00330149 -0.218139 0.417059 -0.116056 -0.152598 0.221014 0.132279 -0.0138286 -0.109176 0.275553 -0.214339 -0.273294 -0.271523 0.298112 0.362977 -0.0466706 -0.0683282 0.0247768 -0.347713 0.53439 -0.0768933 0.043975 0.290894 -0.169226 0.0410287 -0.0802051 0.424253 -0.212464 0.393511 0.365144 0.389469 0.497406 0.273512 0.0677307 0.32227 0.19042 -0.575963 0.0579896 0.15064 -0.221317 0.171765 -0.0537505 -0.112726 -0.550152 -0.322191 0.387472 -0.364587 -0.166938 -0.379129 -0.083691
882 -0.0370228 -0.0652797 0.0607881 -0.116966 0.36262 -0.414272 0.083563 -0.0785343 0.272043 -0.0786422 -0.148465 0.57106 0.113262 0.321474 -0.249751 0.15375 0.16412 0.0729562 -0.0568507 -0.541976 -0.0661441 -0.0650879 0.0351038 0.0380087 -0.25262 0.0861403 -0.0521432 0.136365 0.539676 -0.0723674 -0.00898452 0.0903153 -0.0432747 0.0135099 0.00947335 -0.0848224 -0.187269 0.111066 0.492308 -0.419592 0.485556 -0.0325258 0.26465 0.182206 0.20078 0.171699 -0.221953 -0.176083 0.0838663 0.169969 -0.425961 -0.215404 0.0129945 -0.252739 0.00626813 -0.213402 0.502563 -0.0310276 -0.0936653 -0.0264951 -0.163516 0.341741 0.0534831 -0.381502 -0.230032 -0.0853125 0.0899517 0.0582069 0.611318 -0.0658468 0.340924 -0.580015 0.136597 0.184764 -0.329997 -0.0724091 0.625246 -0.0982169 -0.198256 -0.0606881 0.466153 -0.0743441 -0.314629 -0.114953 0.0472325 0.060296 -0.266979 0.283121 0.36814 -0.0435848 -0.0858545 0.679436 0.623883 0.0119864 0.0249723 0.24849 -0.270726 0.260079 0.141624 -0.148886 0.499381 -0.183597 0.418251 -0.0281538 0.0382009 -0.233421 0.191061 0.432371 0.0245641 0.373635 0.0788759 0.0506187 0.269989 0.0128854 -0.639442 -0.150108 -0.105299 -0.371886 -0.135697 0.203115 0.0997925 -0.232761 -0.190288 0.123325 -0.556031 0.628932 -0.212956 -0.281948
468 -0.149909 0.108729 -0.0549874 -0.367177 0.391851 -0.458881 0.0788433 -0.199519 0.0892404 0.145992 -0.139002 0.224338 0.0953117 -0.000436922 0.0889879 0.129648 0.000770117 0.417664 0.154008 -0.171372 0.350603 -0.185073 0.0368284 0.0772293 0.246094 0.0848046 0.208021 0.355013 0.113193 -0.105581 0.267937 0.0429637 -0.0445762 -0.0137838 -0.0131284 0.06466 -0.287436 0.201155 0.648965 -0.442839 0.193318 -0.319238 0.144576 0.31541 -0.195459 0.0429448 -0.0594421 -0.343676 -0.0859328 0.282844 -0.0998522 -0.358207 -0.209722 -0.167816 -0.20609 0.0289061 0.103933 -0.0208766 -0.0465446 0.231011 -0.147727 0.276611 0.112687 -0.323824 -0.384891 0.0944898 -0.302584 -0.0772601 -0.0099793 0.0486099 -0.0930415 -0.602856 0.119787 0.0369183 -0.317777 0.162917 0.47907 0.2179 0.186835 -0.531664 0.397069 0.019921 -0.29111 0.0214188 0.0443837 -0.328505 0.0366484 0.374576 0.266126 0.190292 0.07883 0.499332 0.52528 0.148823 -0.112003 0.0649051 -0.0460251 0.302679 0.356179 -0.0753814 0.227114 -0.364451 -0.0867995 0.048652 0.291989 -0.489806 0.0821714 0.600333 0.0134571 0.221602 -0.0227278 -0.0594242 0.446612 0.369642 -0.189369 0.354425 0.146145 -0.400874 0.0996851 0.239933 0.194229 -0.135273 -0.26719 -0.0358808 -0.263026 0.207035 -0.179855 -0.396839
729 0.303691 0.238108 0.0768115 -0.344572 0.330994 -0.204463 -0.034732 0.00215458 0.585288 0.155735 -0.169222 0.255288 -0.0574352 -0.0374116 -0.408129 0.16367 0.0910561 0.393349 0.010979 -0.223858 -0.0309602 -0.0428931 -0.101526 0.240813 -0.183625 0.131345 0.152851 0.274854 0.262711 0.0762224 0.257711 0.0150617 0.0157558 0.469272 -0.228511 -0.114804 -0.361465 0.253467 0.364897 -0.183018 0.104889 -0.153245 0.162628 -0.150216 -0.0221216 0.1402 -0.340569 -0.196405 -0.148671 0.373564 -0.504271 -0.415911 0.018006 0.162029 -0.102305 -0.233688 -0.124471 0.0583341 0.169045 0.352551 -0.217777 0.169143 -0.169173 -0.325421 0.249973 0.175077 0.0525419 -0.0151296 0.136934 -0.467496 0.465348 -0.468378 0.0213437 0.19162 -0.689133 0.204069 0.448221 0.0764867 -0.268324 -0.233445 0.156479 -0.0128176 -0.227866 -0.126011 0.090019 0.0489908 0.063727 0.214288 0.221268 0.257086 -0.209599 0.210239 0.200721 -0.061792 -0.204196 -0.00938132 -0.279062 0.247932 -0.226592 0.103667 -0.0375114 -0.270736 0.0157583 -0.0958216 0.365845 -0.15269 -0.00373263 0.524957 -0.11897 0.199541 -0.381815 0.0549039 0.189113 0.195395 -0.608406 0.220852 0.172035 -0.047356 0.128387 -0.471073 0.396656 0.153961 -0.474499 0.144022 -0.449109 0.198288 0.380552 -0.311486
2142 0.437004 0.241503 0.115325 -0.12971 0.45996 0.0144693 0.00523932 -0.383247 0.290723 -0.0811209 -0.190539 0.425599 0.0807948 0.0355981 -0.227224 0.377301 0.0902153 0.091744 0.0322331 -0.466267 0.00754691 -0.0184996 -0.110055 0.100976 -0.290146 0.0537752 0.422828 0.0135472 0.290583 -0.0615735 -0.144597 0.163471 0.0498697 0.574445 -0.216702 -0.101625 -0.243071 0.359515 0.638942 -0.0528652 -0.0613111 -0.362261 0.283209 0.0340506 -0.0217267 0.00220223 -0.489866 -0.249506 0.280371 0.0513905 -0.281243 -0.236839 0.05993 0.222172 0.123394 -0.240013 -0.552622 -0.124981 0.128558 0.305217 0.0556282 0.146085 -0.17582 -0.316265 0.243314 -0.0143721 -0.31164 -0.179594 -0.17683 -0.0364241 0.403375 -0.489942 0.505328 0.245053 -0.779758 0.208674 0.551449 0.405269 -0.077533 -0.0953345 0.329279 0.0479731 0.0752691 0.251107 -0.0766333 0.194157 -0.0151151 0.184802 -0.0250209 -0.0993259 -0.379858 -0.0165273 0.150186 0.00575282 -0.503852 0.0593959 -0.499417 0.610633 0.110373 -0.139898 -0.190036 0.0319511 0.0578439 -0.0921375 0.449299 -0.397676 0.265758 0.383156 0.254217 0.224598 -0.198929 0.0671728 0.219511 0.0546054 -0.684062 -0.169247 0.0304687 -0.413876 0.0744575 -0.485721 -0.0606463 -0.0709367 -0.334483 0.311483 -0.0274153 0.102493 0.148145 -0.0395099
2141 0.343361 0.0843755 0.327599 -0.147687 0.354238 -0.228315 -0.109306 -0.535979 0.272378 -0.100524 -0.350672 0.406586 0.00937422 0.0165868 -0.202818 0.230243 0.020342 0.0437699 -0.0836838 -0.377189 -0.0744262 0.217779 -0.141297 0.328131 -0.303869 0.1888 0.386567 -0.0565776 0.318958 0.0939415 -0.0728628 -0.107742 -0.0335233 0.712203 -0.233088 -0.165215 -0.281519 0.329471 0.434411 0.137489 -0.14454 -0.151028 0.164604 0.150182 0.0169357 0.196634 -0.289171 -0.471951 -0.0570088 -0.022614 -0.555607 -0.5532 -0.122811 -0.105288 0.0057423 0.0206033 -0.420398 -0.0906023 0.111275 0.388072 -0.105349 0.10258 -0.364422 -0.309886 0.296047 0.00371702 -0.275359 -0.24551 -0.209335 -0.18107 0.276728 -0.678509 0.371466 0.0487258 -0.738542 0.0121189 0.406999 0.201878 -0.0979526 -0.0780002 -0.0161901 0.00567016 -0.0467248 0.0904485 0.0266404 -0.0757691 -0.00694092 -0.0649382 0.17251 -0.24966 -0.579013 0.0848003 -0.0154283 0.195263 -0.497534 0.0176645 -0.377865 0.112723 -0.103964 -0.186328 -0.154134 0.0216611 -0.101662 -0.00512318 0.422472 -0.482966 0.145468 0.636513 0.260477 0.249532 -0.252981 0.139604 0.454403 0.124969 -0.689116 0.0215684 0.0478107 -0.0713024 0.346285 -0.671048 0.0474077 -0.10803 -0.322681 0.181449 -0.275824 -0.0018993 0.275936 0.0929054
2254 0.231379 0.386628 0.0883101 -0.102483 0.376098 -0.0390847 0.0488004 -0.462409 0.250422 0.0709366 -0.421509 0.524775 0.100948 -0.0153324 -0.00457622 0.282824 0.0633266 -0.00403508 -0.21748 -0.419968 0.0815703 0.0184161 -0.0403537 0.0617394 -0.269277 0.0215258 0.493548 -0.152036 0.322862 -0.187481 -0.129398 0.11574 -0.0254696 0.3642 -0.21229 -0.134841 -0.33439 0.149687 0.630266 0.0645258 -0.122169 -0.287086 0.184859 -0.0893918 -0.010867 0.0932879 -0.452626 -0.40197 -0.0468623 0.0608147 -0.551847 -0.368143 -0.233346 -0.107099 0.176338 -0.0649259 -0.384252 -0.0596478 0.209172 0.302056 0.0159944 0.157382 -0.47229 -0.312789 0.177829 0.105092 -0.209221 -0.146694 -0.183906 0.0492084 0.343757 -0.707813 0.535479 0.189146 -0.794027 -0.0447663 0.465259 0.261432 -0.112235 -0.080078 0.0768687 -0.0186243 -0.0665285 0.0970608 0.017252 0.0843323 -0.121179 0.0226566 0.00335354 -0.390171 -0.643594 -0.0860939 0.0685268 -0.0377266 -0.519345 0.11874 -0.403018 0.433886 -0.243964 -0.190014 0.0577158 -0.0227239 -0.0123153 -0.0821577 0.506364 -0.324186 0.231027 0.283726 0.161528 0.230076 -0.229899 0.0776603 0.297523 0.168682 -0.508732 -0.151496 0.064231 -0.218982 -0.0409086 -0.72076 0.0277572 -0.156196 -0.482946 0.350044 -0.200253 0.137031 0.241021 -0.0680869
2255 0.366317 0.400782 0.0797812 -0.115131 0.416282 -0.0630919 0.0964883 -0.501015 0.34203 -0.0495079 -0.243696 0.504703 0.0578615 0.00399432 -0.0414981 0.33255 0.0342528 -0.0695951 -0.192847 -0.414531 0.0880307 0.0106912 -0.289169 0.163198 -0.333784 0.132837 0.247709 -0.0772591 0.284517 -0.209594 -0.0442184 -0.0404163 0.0934015 0.610388 -0.230051 -0.0876194 -0.341591 0.230389 0.668093 0.0204084 0.0457227 -0.367708 0.180978 -0.00395724 0.00974039 0.0234395 -0.462067 -0.352158 0.0642627 0.0135856 -0.534836 -0.460137 -0.0769261 0.0146525 0.190422 -0.0496067 -0.372033 -0.0965956 0.0221492 0.271359 -0.0194992 0.0306888 -0.556288 -0.29141 0.203304 0.190022 -0.183318 -0.230691 -0.212453 -0.0220305 0.412614 -0.717472 0.385256 0.268351 -0.668268 0.0743875 0.383276 0.240321 -0.172704 -0.125333 -0.0398351 -0.0907099 -0.0358365 -0.0293488 0.149523 0.107361 -0.139976 0.0132522 -0.0405694 -0.369737 -0.536376 -0.157618 0.0151783 -0.0900332 -0.476964 0.118148 -0.483261 0.307561 -0.113034 -0.095335 -0.0556383 -0.0242653 0.0731404 -0.116449 0.441251 -0.506663 0.26529 0.363701 0.176103 0.261524 -0.180066 0.215489 0.302141 0.132339 -0.48406 -0.144037 0.119179 -0.21752 -0.0371186 -0.684714 -0.00760274 -0.16727 -0.34632 0.305378 -0.286461 0.194445 0.253672 0.115265
2146 0.302118 0.302979 0.0879941 -0.331673 0.516768 -0.113611 0.0448839 -0.407075 0.263843 -0.000378505 -0.384211 0.452865 0.0433191 -0.00679368 -0.190958 0.358558 0.0644307 0.00767777 -0.0905479 -0.372613 0.143046 0.140332 -0.213114 0.050192 -0.286155 0.107877 0.296491 -0.0593449 0.21968 -0.225157 -0.046262 -0.0596277 0.118515 0.373943 -0.280827 -0.0814943 -0.39051 0.349236 0.718717 -0.000176335 -0.0887703 -0.303128 0.225462 -0.147171 0.0117454 -0.0320265 -0.465523 -0.39743 0.0186886 0.0923223 -0.590705 -0.4303 -0.139417 -0.0443178 0.216004 -0.0123232 -0.355493 -0.126853 0.193259 0.247234 -0.00909012 0.144206 -0.435911 -0.30442 0.119235 0.13081 -0.380926 -0.275271 -0.198358 -0.0600147 0.39394 -0.735424 0.490665 0.220291 -0.679893 -0.067221 0.405991 0.256477 -0.0790961 -0.190732 0.163428 -0.0710878 -0.0725742 -0.0334738 0.153008 0.132227 -0.0876849 0.122639 -0.064237 -0.390716 -0.507151 -0.0517721 0.00174684 0.0709419 -0.491241 0.0971252 -0.466342 0.470655 -0.305982 -0.0444641 -0.160165 -0.0897637 -0.00507303 -0.0126214 0.456731 -0.529145 0.245322 0.3387 0.201827 0.271178 -0.169344 0.10087 0.266882 0.140808 -0.524841 -0.126059 0.0427944 -0.265664 0.00510077 -0.668739 0.0952282 -0.257363 -0.436498 0.339591 -0.260418 0.203122 0.379308 0.0337596
15 0.115372 -0.183128 0.354074 -0.0959473 0.113765 -0.291784 -0.0833698 -0.457544 -0.0950527 -0.186459 -0.158316 0.147406 -0.0186189 0.121246 -0.0904384 0.247673 -0.0903012 0.162682 -0.317796 -0.0792902 -0.0447358 0.106865 -0.149648 0.4375 -0.427583 0.042632 0.21241 0.260854 0.288827 0.187899 -0.201157 -0.367729 -0.163837 0.65531 -0.186404 -0.283861 -0.362163 0.140249 -0.0744012 0.138628 -0.24523 0.145631 0.0927913 0.196832 0.0143761 0.164919 0.0282883 -0.383913 -0.173533 0.13325 -0.659712 -0.67166 -0.0672251 -0.298954 -0.167263 -0.0332533 -0.0826588 0.0486925 -0.0970359 0.0582811 -0.10281 0.268425 -0.336338 -0.116316 0.455089 0.141277 -0.223071 0.00882074 -0.0290812 0.0384011 0.444229 -0.633678 0.269619 -0.018173 -0.824097 -0.319074 0.345364 0.10158 0.0255762 -0.116149 -0.270822 0.166054 -0.0261555 -0.0779974 0.0668856 -0.257555 -0.0225253 0.125734 0.067338 0.0445688 -0.309252 0.252622 0.126502 0.13801 -0.280586 -0.139447 -0.306336 -0.222882 0.243751 -0.091417 -0.206804 -0.246621 -0.269539 0.0587549 0.384181 -0.476955 -0.172972 0.567913 0.307352 0.229682 -0.128452 0.19189 0.493002 0.188766 -0.780979 0.116764 -0.100174 -0.00364933 0.449799 -0.313495 0.335553 -0.0172182 -0.198543 0.23066 -0.324018 0.0746181 0.187838 -0.340494
36 0.111522 -0.0222177 0.337852 0.00759169 0.118081 -0.372731 0.0166997 -0.519948 0.0569314 -0.283941 -0.184761 0.101595 0.0618552 -0.0150557 -0.277668 0.182624 0.0237641 0.0485412 -0.132879 -0.0600498 0.031493 0.108391 -0.0582383 0.399151 -0.450146 0.0699237 0.463574 0.231571 0.0895171 0.0710575 -0.212936 -0.39479 -0.0453333 0.66895 -0.050842 -0.0911511 -0.0649035 0.123662 0.174919 0.0878919 -0.10246 0.0254031 0.109978 0.104344 0.0394104 0.135571 0.0465207 -0.499634 -0.332658 -0.118806 -0.46505 -0.557759 -0.138721 -0.20003 -0.169982 -0.0826081 -0.374059 -0.168996 -0.0255127 0.133775 -0.198262 0.188021 -0.205498 -0.205669 0.371446 0.176083 -0.0839617 -0.140428 -0.0643343 -0.0708238 0.363656 -0.655206 0.298796 -0.0204942 -0.783003 -0.0968867 0.558507 0.154017 0.10232 -0.165727 -0.192684 0.0769911 0.0705065 0.0871784 0.105514 -0.273423 0.0785438 -0.121893 0.285202 -0.0323102 -0.334345 0.263976 0.235128 0.107604 -0.0473489 0.0222201 -0.288259 -0.185296 0.206177 -0.00748304 -0.135852 -0.0621714 -0.191659 -0.0900803 0.251286 -0.609486 -0.132517 0.702093 0.192748 0.415561 -0.190039 0.200627 0.403698 0.0888041 -0.625806 0.204833 -0.100651 0.148239 0.507006 -0.515876 0.362128 0.0101352 -0.137204 -0.00789037 -0.381522 0.0724799 0.329842 -0.240005
1453 0.0132778 -0.13379 0.276361 0.0893731 -0.0878068 -0.457004 -0.166476 -0.473957 0.0363404 -0.42735 -0.348109 0.114375 -0.220586 0.172456 -0.208892 0.347929 -0.306152 0.194622 -0.0101994 -0.17877 0.0239668 -0.0136625 0.0109401 0.523467 -0.396746 0.0196122 0.178531 0.200798 -0.144915 0.173244 -0.237705 -0.204684 0.00712421 0.50739 -0.0251624 -0.320766 -0.229871 0.1182 0.303549 0.0200654 -0.127656 -0.0454276 0.0864436 -0.0831377 -0.0306796 -0.126506 -0.167846 -0.52223 -0.553372 0.023727 -0.161913 -0.504273 -0.135464 -0.413459 -0.380366 0.0548797 -0.216284 0.0670952 0.0650859 0.190747 -0.276096 0.0642437 -0.242715 -0.157594 0.376583 0.112372 0.0834869 -0.195449 -0.00240009 -0.258033 0.312067 -0.719804 0.3616 -0.0964205 -0.779843 -0.130838 0.564513 0.0126395 0.0189772 -0.250145 -0.16696 0.0708738 0.0726529 0.0152939 -0.0448848 -0.123285 0.0383488 -0.221512 0.0708911 0.0448133 -0.327387 0.110289 0.322019 0.364291 -0.184961 -0.0256104 -0.463208 -0.0802956 -0.0495032 -0.0442782 -0.147213 -0.191254 -0.26421 0.0280398 0.117952 -0.488427 -0.0369471 0.728317 0.140503 0.183884 -0.0467702 0.264882 0.417836 -0.222979 -0.576939 0.0894356 -0.230687 -0.0863526 0.144366 -0.456045 0.350768 -0.220654 0.0211308 -0.0540591 -0.260071 -0.00579415 0.323771 -0.243868
455 0.271101 -0.0814535 0.396398 0.045059 0.112536 -0.401332 0.0368374 -0.580122 0.212718 -0.178219 -0.11852 0.114688 0.1368 -0.111871 -0.274949 0.232708 -0.0389197 0.165419 -0.125622 -0.152725 0.0980433 0.111067 -0.0831997 0.465884 -0.425232 0.17841 0.305999 0.218381 0.189166 0.0474011 -0.12062 -0.271263 -0.10547 0.734542 -0.153079 -0.149935 -0.101462 0.0363012 0.0742303 0.0431499 -0.297667 -0.029969 0.189399 0.111818 0.0774022 0.185497 -0.119169 -0.606962 -0.283466 0.0850662 -0.376877 -0.62134 -0.193249 -0.323783 -0.118954 -0.127705 -0.210032 -0.0763285 -0.0229867 0.222832 -0.138518 0.140419 -0.251742 -0.153532 0.341933 0.0901971 -0.0124931 -0.064285 -0.108097 0.0803224 0.201506 -0.62263 0.300709 0.0964899 -0.833458 -0.0310703 0.447584 0.0765012 0.131545 -0.245402 -0.295421 0.0282359 0.0603018 0.0790384 -0.0284084 -0.191374 -0.0474281 -0.0895257 0.255209 0.0766726 -0.369035 0.302107 0.1767 0.174403 -0.111718 -0.0758999 -0.244013 -0.166474 0.152 0.0500509 -0.112953 -0.123235 -0.112375 -0.0836161 0.335762 -0.622079 -0.12649 0.656347 0.229636 0.322526 -0.19281 0.391221 0.56365 0.0748433 -0.720525 0.162262 -0.1371 0.0322738 0.43073 -0.517449 0.304829 0.0652348 -0.155647 0.201985 -0.439663 -0.0381289 0.247039 -0.269152
1 0.0145794 -0.174708 0.0852719 0.061792 0.403815 -0.301204 0.215893 0.0514338 0.0842336 -0.301188 -0.21661 0.489595 -0.0654805 -0.165062 -0.11211 0.0746635 0.0418301 -0.322986 -0.0435855 -0.134152 -0.143666 -0.259592 0.0274888 -0.0653729 -0.171088 -0.312222 0.111781 -0.0759114 0.157598 -0.247121 -0.310817 0.190824 0.162156 0.174781 -0.331444 0.403341 -0.155455 0.293669 0.311123 -0.285634 0.0692605 -0.227505 -0.249679 -0.0334802 -0.0382868 0.0297926 -0.289741 -0.0391309 0.207021 -0.0586405 -0.73716 -0.298307 0.14071 -0.493548 0.245364 0.0679018 -0.218902 0.115495 -0.0158335 0.0640093 -0.306822 0.397152 -0.0824238 0.233032 0.0437578 0.414891 -0.222143 -0.145414 -0.1447 -0.0707675 0.274338 -0.642372 0.270401 -0.039312 -0.537146 0.133124 0.154041 0.356169 -0.04275 -0.0822653 -0.0855522 0.0280672 0.3312 -0.0306564 0.432725 -0.0844538 -0.137565 -0.224417 0.245467 -0.253122 -0.127319 0.0253941 0.210335 0.0823456 -0.00954736 -0.101894 -0.505412 0.114631 -0.0173318 -0.418529 -0.00651267 -0.180356 -0.191877 -0.351941 0.230082 -0.422604 -0.119929 0.542877 0.189117 0.117299 0.28267 0.35559 0.440834 0.00700316 -0.76323 0.0751425 0.300681 -0.189477 0.328703 -0.467458 0.362802 -0.403233 -0.270987 -0.106648 -0.202193 -0.0082343 0.0122948 0.00843877
1815 -0.254568 0.00585792 0.3535 -0.0589673 -0.0987085 -0.340851 -0.068682 -0.545036 0.116602 0.0534551 0.00388518 0.0569075 -0.0850949 -0.0818078 -0.167524 0.296647 -0.174463 0.0863162 -0.178929 -0.0668215 0.144946 -0.0656868 0.057652 0.041219 -0.0206844 -0.121974 0.0627368 -0.111866 0.0744623 -0.363981 -0.359895 0.351714 0.364847 0.369041 -0.0412224 -0.0738119 -0.325961 0.169528 0.520972 -0.231462 0.0334265 -0.232788 -0.0886605 -0.0709124 0.121453 -0.0328167 -0.481141 0.247885 -0.421589 -0.0949899 -0.313531 -0.0823166 -0.146192 0.00325015 -0.0129365 -0.0051897 0.032512 -0.0118823 0.0383709 0.0634174 0.0651711 -0.0423543 -0.00963921 -0.350671 0.142186 0.231655 0.185128 -0.253937 -0.363881 0.0904439 0.493082 -0.336534 0.406624 -0.180519 -0.714931 -0.0265428 0.130582 0.0608353 -0.24559 -0.0993194 0.103236 0.00742846 -0.231277 -0.396998 -0.0943559 0.0267692 0.0366659 0.311396 -0.188711 -0.221185 0.0456798 0.0210396 0.640963 0.471485 0.167628 -0.0605789 -0.528027 -0.138748 -0.160727 -0.315959 0.124179 0.15207 -0.278145 0.00312741 0.227729 0.00454183 -0.21967 0.135215 -0.278434 0.135431 -0.252089 0.0582162 0.050238 0.190907 -0.639368 0.12132 0.196156 -0.704029 0.219978 -0.247339 0.146415 -0.0961751 -0.251569 0.39986 0.200686 -0.308887 0.0397785 -0.419819
4747 -0.20122 -0.0381843 0.333841 0.00224486 0.065193 -0.288 -0.000870763 -0.455957 -0.00501658 0.0119975 -0.176108 -0.00646094 -0.101081 -0.0537219 -0.132245 0.351175 -0.160303 0.034915 -0.01307 -0.381508 0.240147 -0.0491098 0.0942842 0.0883809 0.0336769 0.0309349 -0.00757741 -0.138281 0.0621091 -0.474474 -0.293667 0.373663 0.306972 0.283074 0.00143262 0.295455 -0.508037 0.2904 0.532583 -0.097089 -0.0724087 -0.0146912 0.0130532 0.187977 0.0238108 -0.140604 -0.402016 0.216995 -0.498977 0.0687452 -0.171427 0.0276384 -0.325232 -0.051236 0.0134558 0.206266 0.0242323 0.0650303 0.30115 0.146191 -0.194831 -0.136011 -0.288667 -0.385508 0.0134432 0.26814 -0.104718 -0.340103 -0.36741 -0.00980221 0.422493 -0.313183 0.773677 -0.321146 -0.677373 -0.275797 0.224446 0.235055 -0.318426 -0.0659627 0.10091 0.0233547 0.0241909 -0.29496 -0.0746512 -0.0340048 0.143621 0.29344 -0.297889 -0.163381 0.0789477 0.0616915 0.728997 0.228211 -0.0973295 0.0498348 -0.410695 0.284095 -0.140943 0.106318 0.0908385 0.260442 -0.234807 0.0415313 0.150973 -0.108538 -0.185837 0.168166 -0.189247 0.114518 -0.0673514 0.0362568 0.00387266 0.122695 -0.591825 0.0143198 0.206093 -0.543353 0.181093 -0.334326 0.103663 -0.13231 -0.0937488 0.127011 0.138401 -0.336526 0.276218 -0.211851
4744 -0.0669478 -0.202548 0.0730139 0.0510422 -0.0423276 -0.582785 0.0483098 -0.459975 0.230155 -0.125051 0.0396707 -0.0193211 -0.146165 0.097317 -0.154083 0.35203 -0.192026 0.0901372 0.152711 -0.333049 0.0328186 0.0867876 0.012634 0.0398229 0.242613 0.0796133 0.0308774 -0.0667331 -0.136709 -0.384886 -0.117839 0.383589 0.305078 0.332996 -0.166968 0.145946 -0.303749 -0.0246056 0.293034 -0.23789 -0.0623082 0.0821671 0.176441 -0.0365428 -0.12168 -0.0351153 -0.486737 0.188345 -0.440427 -0.0255734 -0.124256 -0.0642968 -0.0475992 -0.151493 0.183645 -0.0649279 -0.0441551 -0.0951562 0.0773819 0.138135 -0.18259 -0.122277 -0.372356 -0.36534 -0.0565258 0.172259 -0.0249178 -0.264595 -0.275624 0.0348899 0.472548 -0.323392 0.647463 -0.338376 -0.642805 -0.315919 0.0512951 0.230942 -0.223284 -0.150784 0.186822 0.084265 -0.012349 -0.0832995 0.0623546 -0.118633 0.225351 -0.0458801 -0.190619 -0.0898572 0.261811 0.215521 0.557951 0.118375 -0.144445 0.0745908 -0.370467 0.24318 -0.133188 0.0400884 0.277646 0.205325 -0.257672 0.209699 0.0581873 -0.185428 -0.285989 0.125321 -0.0517598 -0.0731495 -0.0762524 0.276146 0.173553 0.121566 -0.469713 0.100416 0.0404643 -0.646479 0.328569 -0.409161 -0.0120001 -0.257222 -0.0647355 0.333743 0.114888 -0.314339 -0.0688559 -0.188445
3897 0.0335753 -0.19653 0.0215724 0.0429322 0.0840187 -0.446154 0.034722 -0.430035 0.0916205 -0.0192001 -0.0761693 0.224735 -0.0756866 -0.045407 -0.272078 0.161941 -0.353747 -0.0903487 -0.0616606 -0.346321 0.0789294 -0.0886274 0.0216725 -0.0927429 -0.136079 0.26398 0.133331 -0.136713 -0.0525729 0.0691177 -0.0567502 0.297965 0.30814 0.377883 -0.204784 0.11951 -0.195466 0.207076 0.116544 -0.242641 -0.0710707 0.248424 0.0600535 -0.0783 -0.204539 0.0826168 -0.379019 -0.0383478 -0.464622 0.288757 -0.25286 -0.205201 -0.140443 -0.298476 0.103969 -0.227965 0.0428847 -0.15289 0.30675 -0.0434146 -0.147923 0.00625824 -0.207856 -0.158786 -0.0252994 0.274021 -0.336529 -0.0989776 -0.0459665 -0.0696459 0.500822 0.130837 0.500696 -0.102177 -0.385866 -0.297022 -0.265459 0.0146362 0.0123636 -0.353012 0.31396 0.0186641 -0.0506476 -0.0882109 -0.0811325 -0.0345249 0.106049 0.0388861 0.143455 -0.0658597 0.318581 0.398695 0.472214 0.0671714 -0.0674792 0.157761 -0.142624 0.21828 -0.0291397 0.042049 0.298047 0.0976392 -0.167556 0.0298971 0.0528081 -0.00841765 -0.20737 0.281243 -0.00540855 0.0205912 -0.0235433 0.198697 0.111425 0.419852 -0.377141 -0.0700387 0.0506371 -0.412622 0.43955 -0.163745 -0.246188 -0.332629 -0.26525 0.305789 0.151562 -0.306529 0.120643 -0.375509
3699 0.347169 -0.315832 0.0203018 -0.120556 0.0190168 -0.37486 -0.158512 -0.106802 -0.125301 0.19409 -0.0477095 0.5358 0.143711 -0.19374 -0.364 0.0493081 0.160452 0.142148 0.0830817 0.00714307 0.17277 -0.0900885 -0.0940551 -0.100289 0.200208 -0.0804253 -0.0124947 -0.0827764 0.0234268 -0.0291364 0.0063315 0.27256 0.154682 0.37997 -0.553475 0.243953 -0.783032 0.0762352 0.377666 -0.244068 -0.0942395 0.0471132 -0.110083 -0.0899393 -0.210729 0.0922613 -0.0545904 -0.276995 -0.46978 0.161866 -0.477891 -0.19759 -0.207608 -0.236497 -0.0519504 -0.135371 0.386172 -0.336974 0.215122 -0.0452472 -0.357711 -0.169295 -0.236421 -0.0775061 -0.089195 0.385763 0.216333 0.329212 -0.087959 0.4728 0.349068 -0.443535 0.454464 -0.00894128 -0.359481 0.10344 0.0559577 0.347601 -0.192933 -0.183989 0.406299 -0.186153 -0.0481814 -0.0977553 0.0317382 0.0373773 0.247085 0.171843 0.18482 0.236897 0.540646 0.506141 0.320785 -0.0103326 0.00532805 0.0901016 0.0259477 0.329087 0.33333 0.0511805 0.205368 -0.191095 0.0878733 0.307687 -0.0886677 -0.187476 -0.0961022 0.435946 0.041015 0.0573532 -0.11236 0.463985 -0.215738 0.0886389 -0.210856 -0.00177764 -0.0284948 -0.494416 0.198236 -0.29938 -0.126555 -0.196598 -0.310692 0.18333 0.400673 -0.199362 -0.338559 0.00437568
366 0.323271 -0.268663 -0.0440171 -0.215916 -0.0978425 -0.172408 -0.0610987 0.0258122 0.0944684 -0.108206 0.131149 0.431428 -0.00226222 0.0924219 -0.367868 -0.0701368 0.488484 0.0727419 0.17963 -0.127679 0.258828 -0.17369 -0.424976 0.24331 -0.163957 -0.250045 -0.0678663 -0.290427 0.166922 0.041976 -0.124588 0.183701 0.135799 0.0401223 -0.740743 0.438461 -0.85497 -0.139963 0.556265 -0.669014 0.0721856 -0.110419 0.0595035 -0.033279 -0.322741 -0.0723613 -0.115529 0.0222536 -0.366397 0.389182 -0.507121 -0.404633 -0.247511 -0.165576 0.116387 -0.172213 0.289006 -0.333501 -0.256086 0.206636 -0.146131 -0.0266995 -0.386634 -0.0378203 -0.421005 0.512137 0.156284 0.233549 0.166914 0.351884 0.259696 -0.507276 0.230595 0.0678294 -0.45233 0.213868 0.263376 0.475596 -0.115661 -0.1744 0.237379 -0.112486 0.0852776 -0.192906 0.199122 -0.0519085 0.271466 0.0129382 0.367587 0.330436 0.555754 0.669673 0.464194 -0.277538 0.0866548 -0.0147276 0.0899587 0.309511 0.429314 -0.0850019 -0.137285 -0.105842 0.302447 0.145551 -0.0201221 -0.256032 -0.082307 0.247548 0.129481 -0.164594 -0.198893 0.263153 -0.0392018 0.049035 0.0487208 0.327551 -0.205792 -0.584949 0.0947323 0.154477 0.221683 -0.0842495 -0.159801 0.167802 0.163083 -0.00166741 -0.183977 0.415319
432 0.151947 0.0771014 -0.118735 -0.103978 -0.163752 -0.230126 -0.0878548 -0.0332349 -0.0157237 -0.0308652 0.0575675 0.351329 0.363932 -0.25882 -0.431389 -0.142071 0.147621 0.0640272 -0.0399092 -0.063818 0.412594 -0.218455 -0.0703964 0.302255 -0.29183 -0.271352 0.0231524 -0.33592 0.0358146 -0.00747262 0.0819313 0.0234389 0.186307 0.115447 -0.747103 0.314148 -0.615922 -0.203562 0.323434 -0.613215 -0.0112731 -0.0780402 -0.00189315 0.0225681 0.0571254 -0.0299703 -0.107606 -0.0903634 -0.139022 0.163912 -0.448923 -0.239949 -0.300967 -0.160795 0.18022 -0.176571 0.207081 0.308904 -0.0737772 0.259168 0.146604 0.0486849 -0.257255 0.0405541 -0.325692 0.850263 -0.0430428 0.141763 0.0780949 0.420936 0.362895 -0.657826 0.325238 -0.0361677 -0.723482 0.0173834 -0.0194082 0.300654 -0.0298058 -0.123126 0.153745 -0.0229774 0.0201573 0.0083258 0.0552818 -0.286972 0.285122 0.19341 0.396942 0.37442 0.579222 0.440819 0.307398 -0.325884 0.168848 0.0945692 -0.147255 0.176595 0.321111 -0.142488 -0.162161 -0.213386 0.303332 0.276736 0.132492 -0.390498 -0.165417 0.0395095 0.245919 -0.0545798 -0.162521 0.459925 0.0231786 0.0525694 -0.125564 0.11351 -0.0825794 -0.580716 0.16618 0.286798 0.345774 -0.346432 -0.193535 0.0736002 -0.215902 -0.238168 -0.030221 0.106735
274 0.142378 0.230178 -0.150573 0.108465 0.089776 -0.334744 -0.110558 -0.056846 0.120234 -0.0305241 -0.206997 0.191267 0.502007 -0.176052 -0.182166 -0.169786 -0.197179 0.205286 -0.333747 -0.107591 0.351489 -0.260549 0.0690018 0.177021 -0.382352 -0.211332 0.29056 -0.261837 -0.0993736 -0.174277 0.146724 0.0258944 0.093187 0.34192 -0.375181 0.168919 -0.133334 -0.0812296 0.247181 -0.511846 -0.059894 0.0105158 -0.0161101 0.123734 0.269743 0.0781726 -0.213421 -0.16392 0.144548 0.206373 -0.0408486 -0.211784 -0.0400555 0.0293307 0.0502186 -0.180761 -0.00227391 0.456597 0.246256 0.464306 0.220574 0.327306 -0.303841 -0.0212295 0.0336627 0.664563 -0.10045 0.0201908 0.0115682 0.483665 0.507235 -0.673506 0.284337 -0.0191538 -1.0231 0.0417947 -0.186943 -0.28838 -0.151826 -0.00861671 0.333424 0.0443137 -0.107914 0.107513 0.110048 -0.226494 0.17164 0.0331532 0.308033 0.192924 0.223482 0.0408615 0.0879162 -0.442045 0.4211 0.132166 -0.244456 0.204419 0.0838156 -0.0565863 -0.152081 -0.208072 0.0574689 0.156945 0.202116 -0.357399 -0.216938 0.115744 0.413931 0.307896 -0.0666964 0.365402 0.262323 0.244989 -0.528806 0.179809 -0.000195793 -0.480541 0.275268 0.11704 0.484062 -0.533038 -0.0927438 0.158053 -0.192886 -0.259785 -0.0542491 0.0241005
2187 0.275471 -0.340645 0.171271 -0.168197 0.100972 0.0341476 0.15356 0.0292201 0.272844 0.0212387 -0.182363 0.237867 0.320507 -0.441386 -0.315069 0.415936 0.0212585 0.241525 -0.343206 -0.431388 0.126453 -0.39327 -0.209877 0.370299 -0.52164 0.0727867 0.248234 -0.187995 -0.113969 0.038162 -0.0519289 0.16032 0.243829 -0.00610003 -0.394185 0.203962 -0.226116 -0.288121 0.33605 -0.539515 0.189218 -0.381829 -0.11428 -0.0878299 0.0677005 -0.014672 -0.2436 -0.23636 0.0681948 0.292235 -0.569287 -0.261588 -0.208235 -0.0920258 0.198367 -0.332547 0.0258204 0.249893 -0.0412869 0.402104 0.135632 0.216655 -0.42528 0.392357 -0.146002 0.642487 -0.0429237 -0.064814 -0.363564 0.216974 0.151309 -0.397802 0.165257 0.0507544 -0.523519 0.0052293 0.214689 0.132717 0.0188226 -0.422155 0.100521 -0.00975924 0.1242 -0.0627291 0.139227 -0.500507 -0.193844 0.114315 0.261691 0.0849858 0.444844 0.0688619 0.286912 0.0753891 0.270016 0.294999 -0.0134634 0.412335 0.161809 0.309955 -0.290478 -0.107335 0.00233583 -0.0484065 0.486566 -0.0319952 -0.0142483 0.122173 0.243778 0.188267 -0.0573528 0.253731 0.31106 0.230551 -0.480791 -0.0322226 -0.0693292 -0.448079 0.214186 0.0059786 0.289643 -0.324496 -0.044109 0.211054 0.081323 -0.275002 -0.185679 0.288543
1352 0.220823 0.00221669 0.0186974 -0.166428 0.287987 -0.167729 -0.294548 -0.143899 0.166166 0.122104 -0.163266 0.15407 0.241605 -0.03481 -0.0366786 0.231796 -0.0438822 0.16678 -0.113723 -0.14439 0.0373645 0.0330651 -0.130719 0.440837 -0.157648 0.191513 0.119429 -0.00122264 -0.0332495 -0.142675 -0.134397 0.0972912 0.428289 0.231278 -0.293039 -0.204861 -0.20509 0.308058 0.239316 -0.370154 0.263495 -0.296749 0.0929584 0.0824796 -0.0747033 0.325778 -0.118184 -0.551238 -0.333225 0.158695 -0.301781 -0.0169542 -0.0362818 -0.541076 -0.17541 -0.10139 -0.0421448 0.0528451 -0.265666 0.254221 -0.118191 0.331799 -0.22949 -0.0790348 -0.170012 0.152488 0.19968 -0.0201321 0.224266 -0.0216112 0.291773 -0.242836 -0.108233 -0.0572015 -0.3272 0.0637128 0.34255 0.255428 0.175784 -0.0249062 0.110509 0.0981476 -0.101865 0.157734 0.0247813 -0.169037 -0.46018 0.176335 -0.130846 -0.0990304 0.348314 0.259313 0.384455 0.127415 0.00391964 0.114479 -0.436376 0.318619 0.27717 0.0948546 0.0566433 -0.13335 -0.11605 -0.30093 0.252821 -0.0425195 0.00738396 0.461475 0.118895 0.144173 0.310994 0.07685 0.350234 0.214689 -0.463405 0.088991 0.156191 -0.182648 0.0858819 -0.0657636 0.0842659 -0.245048 -0.013468 0.0314098 -0.309457 -0.0060814 -0.304756 0.0166905
3029 0.119776 -0.170357 0.0805537 -0.132771 0.331771 -0.199682 -0.216757 -0.235963 -0.119509 -0.0299396 -0.151496 0.229788 0.361211 -0.169337 0.0979153 0.108064 -0.243442 0.270435 -0.0920814 -0.111388 0.244668 -0.110688 -0.221807 0.508513 -0.40093 0.12552 0.297317 -0.0716292 0.147585 0.00499081 -0.147549 -0.178361 0.327756 0.317894 -0.351485 -0.274897 -0.153192 0.15214 0.170979 -0.0800973 0.198902 -0.367749 0.00637283 0.181918 -0.00452687 0.231435 -0.038844 -0.549442 -0.400199 0.145198 -0.226341 0.0150074 -0.128473 -0.416901 -0.253184 -0.0780985 -0.13423 0.233849 -0.318481 0.31818 -0.233275 0.229408 -0.212127 0.0943347 -0.248247 0.211472 0.129626 0.0173226 -0.00187014 0.105301 0.104372 -0.306383 -0.093754 -0.0313258 -0.404728 0.141654 0.32255 0.186404 0.328713 0.0578795 0.00832886 0.300224 -0.202075 0.240256 -0.0216399 -0.168784 -0.43864 0.203873 0.0232094 -0.0676345 0.350318 0.386227 0.314308 0.355229 -0.147597 0.126026 -0.43894 0.391391 0.285421 0.203002 0.0955576 -0.205022 -0.169983 -0.293638 0.379413 -0.09736 0.0798445 0.383493 0.0828648 0.13007 0.315891 -0.00439248 0.359872 0.234791 -0.5343 0.142766 0.110056 -0.237221 0.475236 -0.186596 0.201805 -0.293887 -0.0232029 0.147893 -0.18304 0.0102731 -0.274874 -0.154883
664 0.103025 -0.443652 0.123116 -0.256094 0.184974 -0.24849 -0.300817 -0.246706 -0.265321 0.125082 -0.0351817 0.737684 0.417009 -0.213871 0.0879989 0.167422 -0.140655 -0.427789 -0.382255 -0.0902869 0.120078 -0.212792 -0.163573 -0.0632441 -0.244806 0.0373507 0.0726938 0.0346008 -0.0747725 0.0541292 0.225274 -0.293465 0.174701 0.381622 -0.16625 0.172738 -0.116964 0.207964 0.58774 -0.28628 0.124171 -0.340003 -0.0325341 0.387365 -0.0883456 0.5055 0.141427 -0.00350256 -0.233586 0.325385 -0.474529 -0.157781 0.251404 -0.34041 0.0420045 -0.089969 -0.366785 0.356969 -0.393363 0.406131 -0.107913 0.541659 -0.0472968 0.140415 -0.425714 0.214779 -0.257949 -0.0995438 0.222875 0.26441 0.0437509 -0.324433 0.166992 0.229188 -0.525498 0.0176288 0.231224 0.432148 0.319872 0.168404 0.418398 0.102809 0.0430383 0.0210473 -0.0551967 -0.132377 -0.336914 0.243272 0.499009 -0.168944 0.0416468 0.274214 0.363583 0.0799827 0.0627922 0.0777699 -0.382896 0.319269 0.0256291 -0.19871 0.00624916 -0.0337544 -0.136855 0.0234058 0.174276 -0.325566 0.0798753 0.413994 -0.0317755 0.0225542 0.382692 -0.115128 0.24602 -0.0191837 -0.865877 -0.0745178 -0.0348483 -0.278613 0.255307 -0.0867549 0.188329 -0.42034 -0.302224 -0.0945334 -0.0280226 0.236785 0.154953 0.0659362
650 -0.0337211 -0.472165 0.205363 -0.335736 0.303466 -0.65836 -0.501673 -0.254817 -0.156529 0.243981 -0.134678 0.653435 0.244442 -0.107962 -0.198825 0.366474 0.0367962 -0.499489 -0.59502 -0.366752 0.121137 -0.320168 -0.310878 -0.138087 -0.144312 -0.22185 0.242872 0.117075 -0.250978 0.0689657 0.221342 -0.23492 0.319306 0.594855 0.312872 0.235112 -0.0318319 0.0621207 0.307267 -0.575719 0.160653 -0.416446 0.0287295 0.192753 -0.170076 0.329582 0.262656 0.056141 0.0114954 0.0472777 -0.21948 -0.318957 0.109279 -0.352927 0.120663 -0.134841 -0.391599 -0.0580868 0.00886516 -0.0984659 -0.0921882 0.398013 -0.204712 -0.121351 -0.00546097 0.23673 -0.261774 0.0723407 0.277296 0.0431938 -0.180798 -0.300316 0.0023512 -0.00446035 -0.588134 0.0982703 0.467053 0.39506 -0.0382226 0.0876075 0.438203 -0.0274322 0.0156179 0.163556 0.105268 -0.0793503 0.0967442 0.123418 0.485253 -0.158497 0.0725151 0.47999 0.457483 0.224843 0.339071 0.170596 -0.113194 0.2308 0.217379 -0.208336 0.123828 -0.0447708 -0.0344877 0.0924372 0.173055 -0.134544 0.277363 0.627906 0.15488 0.246695 0.252598 -0.212821 0.343911 -0.0874315 -0.66053 0.169655 0.213173 -0.152798 0.290469 0.270272 0.367415 -0.203913 -0.448622 -0.104304 0.0843107 0.114789 -0.17671 0.411046
654 0.234985 -0.362274 0.207206 -0.329352 0.34419 -0.711891 -0.391869 -0.261417 -0.147654 0.27226 -0.278952 0.852964 0.0755194 -0.128951 -0.0164492 0.243561 -0.111229 -0.443675 -0.289689 -0.293529 0.350761 -0.369856 -0.0864427 -0.0194971 -0.101029 -0.31427 0.0935013 0.224644 -0.522301 0.192404 0.312154 -0.370125 0.450536 0.371613 -0.0570441 0.188998 -0.252043 0.174831 0.299973 -0.413343 0.242175 -0.232071 0.152353 -0.0337958 -0.174345 0.192397 0.274489 0.212101 -0.3558 0.0527961 -0.165636 -0.083273 -0.0547453 -0.307624 -0.166897 -0.32642 -0.361297 0.258132 0.176926 -0.274955 0.021861 0.390493 -0.0638664 0.198302 0.111455 0.25709 -0.074069 -0.124097 0.156906 -0.00362043 0.215908 0.0534983 0.0591051 0.100597 -0.625582 -0.0487082 0.394257 0.208433 -0.142178 0.0419026 0.521607 -0.0743801 0.186757 -0.0368487 0.122793 0.0946203 0.0130967 0.264118 0.523678 -0.210794 -0.0760253 0.343091 0.631861 0.166086 0.0959639 0.143051 -0.166278 0.170157 0.0184078 -0.296655 0.0670714 -0.210113 -0.06431 0.211946 0.221508 -0.128572 0.0566624 0.446602 -0.010894 0.237622 0.334243 -0.22524 0.219834 -0.252429 -0.529464 0.0796965 0.278978 -0.231649 0.138339 0.0462944 0.524986 -0.250601 -0.599876 -0.19227 0.195165 0.278417 -0.144515 0.0120423
23 -0.0322778 -0.148397 0.291357 -0.419687 0.117805 -0.526878 -0.207783 -0.279894 0.0987132 0.0499615 -0.0308207 0.519405 0.667149 -0.232286 -0.461564 0.688495 -0.00633847 -0.045504 -0.106226 -0.408137 -0.0298205 -0.0702322 -0.212251 0.275561 -0.262785 0.122447 -0.122702 -0.210017 -0.245284 0.0546338 -0.122267 0.0590029 0.367472 0.282405 0.0892416 -0.0635422 0.00972521 0.172902 0.119434 -0.368926 -0.113988 -0.353186 -0.0108748 -0.0677077 0.115842 0.169742 0.291272 -0.00021145 -0.182174 0.0371793 -0.0913213 -0.45324 0.163559 -0.576616 0.0903952 -0.180531 -0.0339958 0.279261 0.217989 0.192369 0.206423 0.51285 -0.378226 -0.184241 -0.00485483 0.358277 -0.0391784 -0.34022 -0.38259 -0.16996 -0.0348849 -0.517551 -0.0568059 -0.00658359 -0.480421 0.120639 0.172456 -0.0951143 -0.0321245 -0.132889 0.576329 0.12879 0.216123 0.167769 0.0666962 -0.29209 0.0231731 0.304363 0.30752 -0.389301 -0.0150252 0.403403 0.437183 0.186325 0.350517 0.0808991 0.111634 -0.188197 0.174518 -0.0844661 0.0488363 0.0846996 -0.0403829 0.0791387 0.276619 -0.520887 -0.0819163 0.577554 0.187409 0.201751 0.153347 0.163846 0.545753 0.214065 -0.371154 0.224346 -0.207237 -0.0959217 -0.150837 -0.142603 0.493082 -0.00979253 -0.138515 0.00735439 -0.0793645 0.281067 0.0149989 0.24251
32 -0.0416995 -0.0926981 0.163986 -0.520472 0.107894 -0.364677 0.0457569 -0.39073 0.0800564 0.0187802 0.0658477 0.437736 0.562951 -0.219558 -0.376231 0.519708 -0.251792 -0.0667792 -0.267816 -0.429888 0.0827398 0.000231738 -0.284581 0.267296 -0.416324 0.051714 -0.0424102 -0.143518 -0.204869 -0.0881463 -0.00712466 -0.0901773 0.0446288 0.414563 0.312151 -0.115886 0.133088 0.0619404 0.177499 -0.468311 -0.0423589 -0.279741 0.13827 -0.122207 0.289643 0.0792952 0.260367 -0.131156 -0.126821 0.0383166 -0.220781 -0.583904 -0.0677485 -0.530927 0.100686 -0.290648 -0.14146 0.305605 0.0569095 0.0382025 0.0746748 0.499536 -0.364952 -0.232785 -0.0561932 0.39519 -0.1543 -0.16258 -0.189395 -0.171224 0.0313717 -0.609616 0.276035 -0.0653783 -0.44296 0.0986553 0.420561 -0.0447292 0.0584172 -0.165299 0.226608 0.0815696 0.0123736 0.0190616 -0.154781 -0.377221 0.0459712 0.173101 0.440916 -0.097066 0.176404 0.290184 0.359209 0.222388 0.403592 0.0991792 -0.171531 -0.206421 0.20834 -0.148707 -0.00753006 0.0408999 0.00500823 0.0421926 0.174272 -0.339733 -0.104825 0.462692 0.189359 0.228214 0.107396 0.19748 0.42925 -0.0254549 -0.645607 0.244198 -0.0736987 -0.242261 -0.203841 0.0171919 0.412558 0.043979 -0.0693158 -0.293895 -0.191059 0.17191 -0.172191 0.305254
4285 -0.0502642 0.144647 -0.0803069 0.139041 -0.0816849 -0.338529 -0.200804 -0.0105795 0.35596 -0.397187 -0.144803 0.27471 0.19698 -0.092269 0.00389726 0.160194 0.0282757 0.0255769 -0.596385 -0.0820438 0.352937 -0.107343 0.0368864 0.319015 -0.0629016 -0.285854 0.656884 -0.25942 0.201721 -0.3047 0.0190661 0.43319 -0.124526 0.102349 -0.552491 0.385785 0.0339296 -0.301474 0.43709 -0.139566 0.288674 0.070306 -0.17466 -0.50876 0.16056 -0.162817 -0.115049 -0.139581 -0.797213 0.359766 -0.203079 0.0111605 -0.591976 -0.36334 0.209 -0.124584 -0.113927 0.171285 -0.14877 0.169399 -0.0374348 0.080683 -0.295458 0.0250119 -0.44042 0.45401 -0.0497339 -0.104894 -0.207533 -0.0256488 0.782914 -0.711537 0.34071 -0.256294 -0.731496 -0.405187 0.0546489 -0.0776485 -0.0820137 -0.423876 -0.0189956 -0.427917 0.447554 -0.124581 0.394882 -0.81671 0.0108674 -0.206607 -0.0749314 -0.0745299 0.0955788 0.174953 0.53637 0.0164405 0.284024 0.254903 -0.162774 -0.00978971 0.0492961 -0.628347 0.30337 0.243148 0.544253 0.0204042 0.220295 -0.402182 0.478564 0.173002 -0.112569 0.31925 0.220569 -0.340495 0.398749 0.30544 -0.322057 -0.0265526 -0.225926 -0.0145374 -0.00809142 0.126023 0.204521 0.115034 -0.17142 0.0902737 0.145705 -0.0718289 -0.113266 -0.0594374
4467 -0.176156 -0.0263307 -0.190734 0.0838582 0.132776 -0.357193 -0.338314 0.0996455 0.501574 -0.244103 -0.39737 0.0808986 0.16411 -0.1393 -0.103624 0.113748 -0.111971 -0.140648 -0.523929 -0.0945763 0.159722 -0.233362 0.252794 0.288172 -0.156646 -0.182135 0.605895 -0.304182 0.328131 -0.0865156 -0.0178376 0.435637 -0.22262 0.186465 -0.368097 0.442306 0.126821 -0.252729 0.311812 0.117173 0.39281 0.0722555 -0.286706 -0.480754 0.103382 -0.0982704 -0.216834 -0.179539 -0.92834 0.198607 -0.184118 0.0671196 -0.722375 -0.390602 0.044936 0.0219202 -0.00647035 0.152021 -0.220433 0.0727161 0.0500614 0.108289 -0.184393 -0.0857621 -0.454079 0.320086 -0.112674 -0.104157 -0.015888 0.147475 0.737655 -0.695215 0.35056 -0.252082 -0.857779 -0.385023 0.114655 -0.0884293 -0.0530993 -0.315261 0.104894 -0.44123 0.427603 -0.0111644 0.321532 -0.617613 0.1315 -0.18397 -0.0561884 -0.222131 0.0902434 0.173273 0.529409 -0.041815 0.213415 0.235711 -0.0798525 0.035416 -0.0381927 -0.565266 0.188946 0.17838 0.493724 0.16482 0.267251 -0.472004 0.535041 0.129531 -0.126093 0.164111 0.280716 -0.414957 0.302472 0.288834 -0.262632 0.0124587 -0.264021 -0.0251388 -0.0885531 0.106251 0.290618 0.23073 -0.342403 0.0723552 0.231091 0.0413049 -0.242305 -0.121341
4908 -0.0966904 0.0388311 -0.140527 0.160926 0.0730418 -0.400161 -0.214956 -0.0340777 0.464247 -0.294268 -0.347261 0.248753 0.150612 -0.0869415 -0.0150938 0.0157528 -0.0240895 -0.230522 -0.565978 0.0412959 0.249943 -0.103869 0.266376 0.299392 -0.110116 -0.309529 0.640677 -0.31404 0.334913 -0.0969589 0.0301051 0.358952 -0.221308 0.209132 -0.342977 0.501718 0.0462574 -0.247701 0.466163 -0.0111277 0.333807 0.0974076 -0.167454 -0.478796 0.0915122 -0.135913 -0.100026 -0.144043 -0.793142 0.206849 -0.245686 0.0754447 -0.635972 -0.2502 0.120672 0.00478226 -0.13682 0.159396 -0.154843 0.0262058 0.0529031 0.120411 -0.311596 -0.0274484 -0.480759 0.433863 -0.0715263 -0.0158905 -0.211779 0.0881249 0.631451 -0.780868 0.399598 -0.219727 -0.826313 -0.358281 0.0610101 -0.0439022 -0.159624 -0.308576 0.111956 -0.466887 0.471539 -0.0446206 0.402875 -0.723331 0.209801 -0.220905 -0.0408264 -0.202634 -0.043406 0.186515 0.464759 -0.0482208 0.127987 0.26348 -0.114651 -0.0233592 0.0296013 -0.672926 0.339002 0.157262 0.495526 0.127856 0.232092 -0.479774 0.612447 0.01247 -0.179759 0.144226 0.245946 -0.551806 0.217468 0.150863 -0.222861 0.0201596 -0.234717 0.020679 0.0254036 0.1051 0.283276 0.200125 -0.324154 0.0319 0.211849 -0.0072319 -0.195794 0.036836
4764 -0.135888 0.167848 -0.169226 0.229043 0.0533426 -0.23521 -0.11706 -0.0410071 0.448513 -0.312283 -0.347997 0.232704 0.184845 -0.139687 0.030814 0.0552872 -0.0782229 -0.155106 -0.592588 0.0182894 0.270174 -0.106295 0.190211 0.299461 -0.18855 -0.282959 0.73098 -0.336047 0.285338 -0.133415 -0.0598377 0.347773 -0.247791 0.223999 -0.327401 0.430145 0.0107401 -0.211349 0.447678 -0.0221227 0.362976 0.129441 -0.281427 -0.494525 0.199645 -0.141166 -0.0601544 -0.0916237 -0.822723 0.231356 -0.224708 -0.0186396 -0.699033 -0.262897 0.147201 -0.0634771 -0.161068 0.185289 -0.152075 -0.00775672 0.0568725 0.171949 -0.375769 0.0515451 -0.402955 0.521929 -0.00209007 -0.0431163 -0.291912 0.0571766 0.814919 -0.835678 0.450443 -0.282072 -0.781845 -0.333658 0.0319066 -0.00428169 -0.119757 -0.304767 0.145496 -0.453207 0.411652 -0.0290349 0.43923 -0.755993 0.209258 -0.243368 -0.0193696 -0.258098 0.0591715 0.236133 0.477884 -0.0770005 0.202585 0.311953 -0.182237 -0.0709313 0.0770016 -0.602077 0.396526 0.259816 0.507456 0.0451496 0.235337 -0.418581 0.596773 -0.0331403 -0.118551 0.121221 0.314311 -0.517215 0.177688 0.151506 -0.236209 0.0653279 -0.232898 -0.0936591 -0.0386434 0.0468834 0.237898 0.165928 -0.275786 -0.0200829 0.166208 0.00648985 -0.248499 0.103525
4174 0.013818 0.136729 -0.0680978 0.271197 0.136364 -0.097544 -0.0211449 0.0806593 0.338843 -0.291772 -0.241338 0.324154 0.233843 -0.0101716 -0.0338789 0.18592 -0.374134 -0.186608 -0.566199 -0.114573 0.352079 -0.160061 -0.0821788 0.471339 -0.268811 -0.0567251 0.800704 -0.112368 0.219818 -0.307752 0.0202052 0.326232 -0.0327325 0.263509 -0.53104 0.331308 0.0215122 -0.204581 0.303674 -0.126905 0.26839 -0.0569559 -0.249428 -0.371857 0.207045 0.0108885 -0.153281 -0.156717 -0.719308 0.281972 -0.178879 0.0245908 -0.396496 -0.463361 0.170062 -0.0587669 -0.256357 0.25967 -0.0890986 0.068545 -0.000471444 0.231873 -0.405164 0.0591554 -0.381077 0.409761 -0.0684433 0.0638055 -0.123793 0.117121 0.583301 -0.740959 0.259142 -0.252552 -0.699864 -0.233622 -0.0417697 0.192872 0.00105706 -0.306205 -0.175173 -0.36792 0.519581 0.20979 0.398799 -0.636152 0.0110202 -0.227466 -0.203519 -0.375562 0.126151 0.130302 0.49967 0.0889606 0.0090631 0.329282 -0.229135 0.106878 -0.0502185 -0.722911 0.33915 0.126406 0.453104 -0.0433389 0.301702 -0.27541 0.548641 0.0577561 -0.0578543 0.0917647 0.152371 -0.286147 0.321752 0.145711 -0.392633 -0.046361 -0.294326 -0.102034 -0.22629 -0.0888094 0.00673097 -0.126628 -0.16421 0.050905 0.0899892 -0.13854 -0.160448 -0.12519
3527 0.0738341 0.102087 0.168337 0.0956046 0.0709269 -0.209916 -0.172172 -0.00909493 0.328515 -0.165841 -0.221869 0.290075 0.113017 0.158696 -0.0444441 0.378547 -0.409499 0.113013 -0.580294 -0.169873 0.500839 -0.352556 -0.218842 0.670315 -0.264876 -0.19001 0.441225 0.0774652 -0.0287371 -0.261299 0.047666 0.369438 -0.0786109 0.375103 -0.524886 0.168391 0.132627 -0.149962 0.202054 -0.267379 0.0847653 -0.245638 -0.320651 -0.315127 0.32214 -0.00780251 -0.194471 -0.266464 -0.439469 0.351563 -0.375027 0.0683745 -0.152291 -0.693046 0.201638 0.0446557 -0.297629 0.207426 -0.169749 -0.0290041 -0.0614854 0.221845 -0.451721 -0.230346 -0.00582036 0.177962 -0.278183 -0.0631651 -0.24095 -0.0862874 0.227474 -0.63585 0.269443 -0.15478 -0.511333 -0.185176 -0.194344 0.134648 0.0351083 -0.399384 -0.265319 -0.137043 0.350188 0.25657 0.24233 -0.288781 0.0868095 -0.181919 -0.115804 -0.186627 0.107 -0.00285664 0.393532 0.124839 -0.164959 0.0511137 -0.17152 0.341759 0.0420399 -0.44275 0.251444 0.123105 0.517343 -0.145926 -0.0139319 -0.207591 0.285843 0.259348 -0.134903 0.26371 0.203715 0.0878502 0.368967 0.112588 -0.598408 -0.144375 -0.218872 -0.244907 -0.233007 -0.139989 -0.169996 -0.268156 0.0271835 0.151848 -0.0580592 -0.16717 -0.129042 -0.0208231
5207 0.208138 0.0122037 0.179374 0.0188921 0.129802 -0.234622 -0.0298779 0.0659936 0.337821 -0.280015 -0.139573 0.289247 0.187698 0.000954039 -0.082677 0.298422 -0.462479 -0.324932 -0.48531 -0.0852775 0.414933 -0.197514 0.00361441 0.74481 -0.332866 -0.0883907 0.518908 -0.0141452 0.0807551 -0.281845 0.0377457 0.33526 -0.0078232 0.443231 -0.404323 0.157808 -0.0613596 -0.155781 0.194266 -0.273386 -0.0248855 -0.183051 -0.144173 -0.431807 0.431672 -0.115084 -0.113855 -0.232686 -0.413074 0.211336 -0.26442 0.110132 -0.197781 -0.528698 0.264726 -0.0534176 -0.296361 0.129571 0.0880003 -0.0607563 -0.250244 0.174169 -0.437667 -0.0773135 -0.150196 0.329098 -0.0462858 -0.035055 -0.0957013 -0.124028 0.452649 -0.606479 0.40359 -0.137792 -0.582584 -0.158484 0.0955385 0.0176883 0.172027 -0.533004 -0.218373 -0.103112 0.333257 0.311014 0.285842 -0.565817 -0.108185 -0.219807 -0.153429 -0.242697 0.111176 0.0776146 0.409935 0.200767 -0.187123 0.2316 -0.369636 0.185175 -0.0823539 -0.532467 0.209794 0.00132582 0.309524 -0.178929 0.159421 -0.362966 0.320104 0.139597 -0.211149 0.19555 0.172241 -0.0380492 0.348954 0.0898738 -0.536609 -0.0956361 -0.0626991 -0.0334293 -0.165556 -0.239701 -0.0589943 -0.0944799 -0.0296089 0.237376 -0.0100385 -0.0934718 -0.184561 -0.0984556
4650 0.443944 -0.0198931 0.352774 -0.220576 0.032904 -0.140555 -0.220879 0.0871099 0.388309 -0.0789363 -0.135244 0.158153 0.0456694 -0.103102 -0.0255242 0.270014 -0.394606 -0.245484 -0.241786 -0.344708 0.321479 -0.18046 0.335471 0.377361 -0.0162876 0.302282 0.349191 0.0462459 0.391242 0.101307 0.0143732 0.120795 -0.221646 0.269146 -0.40751 0.386166 0.0910927 -0.199398 -0.0351472 0.00354438 0.0333931 -0.281516 -0.235158 -0.696843 0.367237 0.0295372 -0.268818 -0.123569 -0.759596 0.202855 0.00367728 0.066564 -0.681868 -0.7381 0.297168 0.212918 -0.0232438 0.197252 0.0207607 -0.0776613 0.0588988 0.209043 -0.384569 -0.361671 -0.221458 0.433757 -0.351723 -0.0714137 0.218926 -0.0904502 0.500034 -0.573341 0.196965 -0.0766406 -0.486102 -0.379585 0.269506 -0.183474 -0.111148 -0.89266 -0.0373923 -0.186326 0.0632225 0.150502 0.0826029 -0.550531 0.136228 -0.149247 0.107487 -0.240766 0.11315 0.112303 0.135516 0.180108 0.00986364 0.312318 -0.120708 0.469278 -0.194809 -0.52496 0.0605105 -0.133038 0.575483 0.0434617 -0.0291786 -0.344579 0.204233 -0.0201047 -0.030475 0.201705 0.16968 -0.192269 0.371924 0.239252 -0.598999 0.0444265 -0.143407 -0.207882 0.00430054 0.175911 0.0443272 0.16418 0.200245 0.478448 -0.0221239 0.0744963 -0.198744 -0.0845594
4930 0.485132 0.00104028 0.418596 -0.286528 0.0636922 -0.256266 -0.273924 0.089015 0.431835 -0.35378 0.00189251 0.153812 0.175545 -0.0905112 0.010527 0.270922 -0.57168 -0.37214 -0.408768 -0.247029 0.443596 -0.334753 0.418236 0.479778 -0.130367 0.425283 0.280194 0.231564 0.385204 -0.0138414 0.104567 0.0328506 -0.271435 0.276378 -0.207504 0.426897 0.0224357 -0.219375 0.0466039 0.0973339 -0.0659871 -0.310678 -0.072214 -0.820323 0.421025 -0.11262 -0.16441 -0.143078 -0.75211 0.166525 0.0232941 0.0404486 -0.819899 -0.758583 0.237248 0.165918 -0.221829 0.0763147 -0.14922 -0.160576 -0.146052 0.203782 -0.626031 -0.384211 -0.352832 0.508989 -0.49076 0.0308553 0.163452 -0.285604 0.560123 -0.728283 0.35769 -0.195997 -0.779003 -0.200516 0.21635 0.0520849 -0.157117 -0.884187 -0.273733 -0.228651 0.193838 0.0434342 0.149672 -0.603871 0.198104 -0.0575381 -0.16261 -0.165415 0.22713 0.305874 0.0875662 0.0217037 0.0780117 0.504105 -0.0862064 0.267143 -0.17511 -0.444248 -0.000381001 -0.0204063 0.646788 0.0429945 0.0815452 -0.456127 0.476012 0.0212423 -0.0570085 0.0724371 0.215016 -0.0638486 0.336751 0.170958 -0.670628 0.00827076 0.0102175 -0.422226 -0.155629 0.197566 0.187587 0.157816 0.150666 0.363612 -0.0689663 0.0569103 -0.337056 -0.115015
4927 0.350182 0.0306314 0.411025 -0.197205 0.0603031 -0.297202 -0.331844 0.0414361 0.51158 -0.362308 0.162979 0.206018 0.146359 -0.0196044 0.0777077 0.218115 -0.502234 -0.300654 -0.409525 -0.114942 0.382927 -0.309425 0.394001 0.546635 -0.149146 0.43279 0.340171 0.150236 0.493924 0.04164 0.137872 -0.101478 -0.315069 0.342632 -0.221404 0.489872 0.0894736 -0.31098 0.0734113 0.0527922 -0.0442301 -0.240615 -0.0223064 -0.764214 0.360954 -0.0887175 -0.167669 -0.168897 -0.828479 0.163124 0.0506614 0.00984635 -0.789598 -0.673189 0.244144 0.13314 -0.269146 0.0283631 -0.217933 -0.16431 -0.15085 0.222418 -0.548119 -0.382483 -0.348913 0.419897 -0.412791 0.0936578 0.167269 -0.272359 0.573128 -0.785537 0.412194 -0.221509 -0.858747 -0.169453 0.149498 0.0307875 -0.14311 -0.731079 -0.232978 -0.283266 0.214636 0.0565899 0.163706 -0.593728 0.277743 -0.0862982 -0.126411 -0.135651 0.225227 0.408419 0.105205 -0.0136563 0.122607 0.538112 -0.124558 0.219729 -0.183524 -0.49119 0.127988 0.0103512 0.665754 0.0548246 0.191838 -0.454728 0.522098 0.0049827 0.0017055 0.0287668 0.223911 -0.0483923 0.398055 0.165182 -0.620989 -0.0396594 -0.0117143 -0.38079 -0.032041 0.18657 0.195624 0.225458 0.0634463 0.303573 -0.0546218 -0.00113072 -0.319576 -0.148796
4525 0.0781344 0.462906 -0.0120608 0.0228381 0.0911518 -0.387168 -0.159181 0.0796155 0.376357 -0.117814 -0.0557561 0.318514 0.217225 -0.335397 0.022382 0.118039 -0.448321 -0.12782 -0.388708 -0.393701 0.172528 -0.349854 0.215616 0.616224 -0.0372191 -0.072098 0.175124 -0.0800276 0.365832 -0.0149929 0.0882089 -0.179118 -0.235195 0.19833 -0.236239 0.552177 -0.0310185 -0.096315 -0.145029 -0.0597693 0.260161 -0.219631 -0.26039 -0.50812 0.22917 -0.187105 -0.418181 -0.419371 -0.885319 -0.121876 -0.111603 -0.140503 -0.552166 -0.622864 0.263672 0.258907 -0.128861 0.243996 -0.0955754 0.0463965 0.0796795 0.119657 -0.441077 -0.404117 -0.234541 0.561765 -0.197126 -0.134458 0.120989 -0.0130373 0.413264 -0.666866 0.157562 -0.188496 -0.806987 -0.473329 0.38473 -0.157568 -0.125217 -0.626368 -0.151199 -0.0923635 -0.0143697 0.344746 -0.0529045 -0.563755 0.254769 -0.275366 0.0513264 -0.13675 0.20842 -0.0668937 0.2666 -0.0915297 0.131575 0.233859 -0.327442 0.223248 0.0605252 -0.37894 0.0527335 -0.0190985 0.661763 0.131009 0.0479685 -0.509268 0.357364 0.0288186 0.156362 0.287357 0.171288 -0.0258115 0.685056 0.162173 -0.0252086 -0.192241 -0.217471 -0.296324 0.0449222 0.64849 0.0530179 0.0714277 -0.262762 0.122238 0.116865 -0.0301006 -0.215941 -0.378061
4301 -0.143331 -0.0049277 0.0603141 -0.0896677 0.0901188 -0.398622 -0.400806 -0.141054 0.370084 -0.271923 -0.426989 0.243615 0.198609 -0.0461589 -0.0136526 0.258206 -0.106194 -0.0206806 -0.501074 -0.0887401 0.212563 -0.354322 0.170383 0.169453 -0.119482 0.087222 0.519266 -0.297059 0.433747 0.0993333 -0.0374678 0.465809 -0.212334 0.222467 -0.455111 0.403766 0.0573386 -0.383413 0.199987 -0.0308808 0.214437 0.10496 -0.176566 -0.459462 0.22833 -0.0434259 -0.151105 -0.275677 -0.796687 0.265902 -0.0894684 0.00208567 -1.08908 -0.521216 0.0510172 0.0616147 -0.00173754 0.0218308 -0.242849 0.0633471 -0.0420075 -0.0173052 -0.160518 -0.179364 -0.506767 0.175187 -0.214005 -0.0710822 -0.0272086 -0.0103711 0.727726 -0.550951 0.169772 -0.2661 -0.891822 -0.311184 0.2247 -0.315492 -0.0477614 -0.365364 -0.0076887 -0.412733 0.308301 0.209687 0.503929 -0.513112 -0.0222286 0.010572 -0.0398348 -0.39821 0.0576745 0.179918 0.3299 0.108627 0.288429 -0.000156647 -0.212609 0.0919443 0.0676691 -0.361753 0.0639643 0.00203691 0.28399 0.151512 0.19956 -0.396866 0.531436 0.0630996 -0.032074 0.180651 0.106518 -0.494702 0.332361 0.462001 -0.187417 -0.0786016 -0.307783 -0.00501376 0.0328412 0.225574 0.256132 0.379083 -0.173288 0.172396 0.241955 0.109869 -0.116897 -0.188502
4330 -0.13177 0.0796233 -0.0643612 0.0933781 0.285382 -0.295749 -0.222872 0.130034 0.520375 -0.223203 -0.416004 0.320856 0.133976 -0.0196738 -0.045251 0.237423 -0.140196 -0.178041 -0.486145 -0.180864 0.375444 -0.377815 0.119069 0.683687 -0.185747 -0.14433 0.585221 -0.233696 0.414498 -0.298635 -0.0246047 0.492519 -0.0421661 0.164317 -0.388102 0.341942 0.0470787 -0.193568 0.355461 -0.105478 0.301996 -0.156173 -0.30805 -0.371912 0.202848 0.0217212 -0.242468 -0.311127 -0.544236 0.275675 -0.143602 0.224897 -0.416112 -0.459434 0.128532 0.0803342 -0.103258 0.104716 -0.185791 0.0406468 0.0220148 0.213217 -0.237939 -0.239262 -0.442213 0.258562 -0.208946 -0.093494 -0.057756 0.00436584 0.442203 -0.610571 0.282138 -0.0554954 -0.722685 -0.307029 0.176317 0.116014 0.0212103 -0.339519 -0.239381 -0.1452 0.27773 0.0795499 0.283828 -0.509483 -0.239174 -0.180282 -0.133269 -0.332427 0.173362 0.0779282 0.366799 0.118773 -0.0299117 0.251113 -0.299735 0.30863 -0.0891648 -0.440309 0.185123 0.0229256 0.216379 -0.0937842 0.13359 -0.401467 0.432295 0.19192 -0.241023 0.263782 0.105256 -0.306134 0.448699 0.306682 -0.383818 -0.190757 -0.111124 -0.0824452 -0.163562 0.0907956 0.141697 0.034788 -0.237793 0.268992 0.108863 -0.051585 -0.154145 -0.203809
4541 -0.0346454 0.0485429 -0.0943771 0.0367148 0.197053 -0.328893 -0.357807 -0.0824368 0.48622 -0.181639 -0.452956 0.185501 0.111581 -0.145566 -0.0174725 0.0862926 -0.111851 -0.128763 -0.483464 -0.212143 0.141095 -0.277696 0.394567 0.243199 -0.072427 -0.0252222 0.480512 -0.304835 0.679106 0.0324303 -0.0286724 0.35854 -0.252012 0.291286 -0.325995 0.502302 0.0578811 -0.235828 0.325991 0.149333 0.274029 -0.00969729 -0.227481 -0.428519 0.0952673 0.0150135 -0.301913 -0.28694 -0.848944 0.0741291 -0.130005 0.0794164 -0.838833 -0.486427 0.149765 0.103658 -0.0503062 0.0482314 -0.215911 -0.0110649 0.0518673 -0.0100815 -0.0831548 -0.323704 -0.531306 0.259591 -0.361172 -0.154877 0.116527 0.118597 0.581965 -0.574685 0.273451 -0.133924 -0.923447 -0.351465 0.209115 -0.00300975 -0.0869373 -0.403922 0.031318 -0.362513 0.132586 0.0796368 0.344012 -0.399142 0.0749056 -0.184148 -0.0574246 -0.263633 0.0411662 0.254839 0.317952 -0.0564672 0.0665016 0.199223 -0.166173 0.222516 -0.0924645 -0.420512 0.140221 0.109557 0.383641 0.253099 0.10354 -0.528571 0.422599 0.0780697 -0.151619 0.209783 0.214411 -0.424105 0.348024 0.28392 -0.344953 -0.0615035 -0.193414 -0.104724 0.108456 0.241368 0.371241 0.242382 -0.422958 0.212263 0.148898 0.0436802 -0.193252 -0.276213
4466 -0.111838 -0.0226395 -0.109892 0.0319453 0.167285 -0.356241 -0.322983 0.0444853 0.519835 -0.233219 -0.390048 0.100544 0.179584 -0.14968 -0.0223593 0.0436209 -0.0998985 -0.159776 -0.521025 -0.125082 0.173604 -0.288559 0.338818 0.400299 -0.0940855 -0.0876511 0.520311 -0.329816 0.587963 -0.0378657 0.017974 0.375968 -0.203061 0.24633 -0.32223 0.52956 0.0769352 -0.26064 0.257315 0.0401595 0.375509 -0.0693287 -0.346289 -0.354753 0.0787615 0.0419413 -0.231034 -0.29054 -0.813986 0.147019 -0.114781 0.201069 -0.770134 -0.394361 0.22189 0.127943 -0.0790774 0.0550067 -0.239363 0.0856987 -0.00915816 0.0604125 -0.150463 -0.298424 -0.640431 0.309207 -0.312542 -0.191568 0.132705 0.0674395 0.495541 -0.604237 0.259825 -0.102401 -0.9123 -0.254459 0.198255 0.0314414 -0.030267 -0.288808 -0.100097 -0.297066 0.174531 0.0302009 0.362465 -0.527622 -0.0289752 -0.12554 0.0151669 -0.229675 0.0858252 0.243827 0.372728 -0.0225294 0.147615 0.125705 -0.181551 0.153863 -0.076129 -0.528068 0.180127 0.015219 0.456641 0.201847 0.151764 -0.488521 0.444388 0.0344227 -0.12455 0.177983 0.200123 -0.476476 0.400355 0.23768 -0.303056 0.0208619 -0.152292 -0.051822 0.111492 0.321755 0.321825 0.301692 -0.36159 0.191888 0.144249 -0.0194152 -0.291794 -0.190486
4798 -0.0995133 0.012676 -0.0989629 0.0813628 0.173088 -0.323562 -0.389351 0.040815 0.549779 -0.19076 -0.311425 0.122253 0.18504 -0.180067 0.0265731 0.0691653 -0.131414 -0.137884 -0.436476 -0.173079 0.155625 -0.298528 0.349898 0.399495 -0.0650287 -0.0385157 0.601027 -0.226999 0.621899 0.0157903 0.0878026 0.251363 -0.179528 0.29554 -0.400234 0.481162 0.0731802 -0.306809 0.183596 0.071911 0.380998 -0.079507 -0.212384 -0.372023 0.00850568 0.0377833 -0.165033 -0.279138 -0.834704 0.0394865 -0.138757 0.144221 -0.68695 -0.42743 0.144032 0.131925 -0.0485848 0.0402753 -0.259774 -0.0211078 0.00963689 0.160878 -0.161256 -0.296786 -0.548467 0.367954 -0.326208 -0.0772436 0.179303 0.0764286 0.534541 -0.610524 0.145713 -0.144629 -0.816477 -0.330003 0.241737 0.0291388 -0.0339518 -0.345716 -0.0390373 -0.33461 0.151046 0.095404 0.370519 -0.484484 0.0371798 -0.201333 -0.00322459 -0.24896 0.177889 0.241948 0.367106 -0.040969 0.174814 0.147458 -0.0919204 0.287048 -0.0853639 -0.520707 0.139545 0.000841055 0.392804 0.145988 0.267188 -0.493544 0.442175 0.0750455 -0.180712 0.196375 0.252521 -0.466942 0.41104 0.318594 -0.247185 -0.00131393 -0.14241 -0.106422 0.152276 0.240236 0.313942 0.24657 -0.3674 0.179776 0.185924 0.0348404 -0.306015 -0.238736
3869 -0.131886 0.0447092 -0.102382 0.15197 0.186388 -0.39581 -0.343032 -0.109455 0.604623 -0.270137 -0.332745 0.151231 0.130107 -0.153585 -0.0491808 0.0866044 -0.0588703 -0.106564 -0.468945 -0.18464 0.250528 -0.240465 0.366141 0.37656 -0.038533 -0.0840234 0.489815 -0.308052 0.578629 -0.0274216 0.0726066 0.301677 -0.168583 0.207644 -0.408158 0.601654 0.0737502 -0.295967 0.221973 0.0251808 0.392618 -0.00736609 -0.112712 -0.470844 0.062051 -0.0270007 -0.251225 -0.289353 -0.896635 0.0927032 -0.101201 0.108665 -0.791847 -0.406537 0.184945 0.112773 -0.0437891 0.0851554 -0.197516 -0.0362325 0.0521411 -0.013031 -0.14041 -0.291448 -0.552634 0.272095 -0.284427 -0.182247 0.0608965 0.111925 0.607566 -0.5115 0.188403 -0.170838 -0.840735 -0.380949 0.140395 -0.0753863 -0.0978488 -0.32236 -0.00796653 -0.338012 0.188532 0.0196094 0.362018 -0.514418 0.0593186 -0.210002 0.0166845 -0.289006 0.085195 0.205535 0.384301 -0.0538515 0.190712 0.139541 -0.108085 0.174919 -0.0135442 -0.468023 0.249215 0.0676984 0.399917 0.154951 0.128776 -0.564651 0.371503 0.00286866 -0.108278 0.235888 0.258227 -0.508616 0.432924 0.366873 -0.228755 -0.0652139 -0.198368 -0.0839155 0.178031 0.266131 0.286066 0.284248 -0.326388 0.252425 0.277181 -0.02603 -0.209313 -0.230309
3776 -0.23982 -0.122884 -0.0831409 0.237171 0.0286394 -0.38741 -0.33864 -0.220401 0.576108 -0.315643 -0.552235 0.343949 0.192829 -0.104407 0.0589809 0.206207 -0.187794 -0.127235 -0.610573 -0.14651 0.187607 -0.0451711 0.179912 0.575226 -0.253105 -0.0335204 0.46931 -0.374257 0.656603 0.0756668 -0.135399 0.415951 -0.356357 0.303468 -0.387444 0.675427 0.132479 -0.0832589 0.369176 0.0480551 0.420728 -0.0308877 -0.123419 -0.451242 0.126918 0.114549 -0.133863 -0.61141 -1.01418 -0.023607 -0.273342 -0.0403951 -0.791436 -0.38906 0.232246 0.101226 -0.0552727 0.0745822 -0.200585 0.0329691 -0.100704 0.0746429 -0.2714 -0.280418 -0.715346 0.0172298 -0.381966 -0.15478 0.199073 -0.0306848 0.558485 -0.67645 0.187788 -0.0283283 -0.59262 -0.265829 0.195341 -0.242206 -0.0135097 -0.246661 0.192782 -0.339574 0.0590962 0.0750826 0.452112 -0.53749 0.0734999 -0.371269 -0.0456216 -0.282133 -0.0233877 0.426643 0.336083 0.00748372 0.0688137 0.315973 -0.087156 0.110161 -0.0404396 -0.570073 0.229409 0.172115 0.631843 0.166757 0.185046 -0.685685 0.63808 0.0227044 -0.171478 0.216299 0.474388 -0.592935 0.552316 0.217198 -0.219718 0.0918524 -0.444596 -0.100281 -0.00261459 0.12582 0.0955956 0.174157 -0.410987 0.111247 0.267339 0.124714 -0.403708 -0.0343596
4936 -0.116302 -0.0134816 -0.16191 0.0724021 0.217088 -0.465256 -0.447506 -0.0183483 0.493746 -0.134588 -0.366336 0.150389 0.164208 -0.122949 0.00827053 0.158181 -0.131085 -0.0410286 -0.481659 -0.189918 0.0997635 -0.237217 0.306141 0.205198 0.0140953 -0.124201 0.615502 -0.229481 0.567959 -0.000803855 0.101022 0.364037 -0.242082 0.271695 -0.339553 0.431958 0.114105 -0.313305 0.231796 0.0400308 0.371371 -0.0417318 -0.233719 -0.488218 0.062521 0.0226774 -0.266169 -0.281986 -0.835097 0.109324 -0.0123512 0.0613847 -0.737795 -0.400883 0.107626 0.152323 -0.0707642 0.185648 -0.281535 0.0438385 -0.00753455 -0.00157797 -0.0615696 -0.293024 -0.490196 0.329035 -0.269889 -0.0934156 0.0600784 0.0628426 0.585308 -0.668943 0.221145 -0.218969 -0.886971 -0.334972 0.168589 -0.06184 -0.117711 -0.375858 -0.0471636 -0.374062 0.155144 0.0156059 0.303378 -0.479563 0.0619687 -0.173086 -0.0273622 -0.230767 0.089511 0.116242 0.280761 -0.00540754 0.163227 0.103614 -0.152078 0.132528 -0.0932641 -0.457909 0.226023 0.057826 0.373221 0.182692 0.152113 -0.484532 0.41561 0.157087 -0.0863013 0.151884 0.185234 -0.447219 0.333629 0.290204 -0.352074 -0.00178367 -0.197514 -0.106525 0.0355565 0.304517 0.292604 0.294924 -0.402676 0.133801 0.129307 0.0519391 -0.261316 -0.191057
4172 0.279067 -0.495852 0.264034 0.0602715 0.0467982 -0.324374 -0.388299 0.120889 0.424972 -0.00116067 -0.253181 -0.059925 0.146244 0.0234936 0.204316 0.174835 -0.158911 -0.0961631 -0.106105 -0.254223 0.100358 -0.311659 0.722803 -0.0411308 0.0858292 -0.182705 0.279387 -0.057619 0.591133 0.211908 0.216154 0.501045 -0.179192 0.410328 -0.53975 0.355597 0.205971 -0.174888 -0.0689307 -0.184011 -0.278808 0.0868559 -0.0357396 -0.700628 -0.0458305 0.411086 -0.223941 0.0772673 -0.678371 0.440531 0.116969 -0.120582 -0.636222 -0.308317 0.03824 0.129889 0.347059 -0.18374 0.156724 0.22215 0.0558936 0.285186 -0.18153 -0.220336 0.189096 0.256092 -0.276615 0.106893 0.376319 -0.0596049 0.404001 -0.299848 0.224695 -0.0265601 -0.175394 -0.137317 0.0532257 0.209922 -0.0178748 -0.537464 0.506441 -0.118207 -0.204693 -0.0400877 0.0636618 -0.516812 0.293737 -0.108632 0.0988601 -0.0434914 0.0681644 0.0463173 0.292367 0.0175227 0.063075 0.145453 0.0758597 0.264681 -0.285019 0.0318064 -0.0213587 -0.185702 0.138876 0.0920959 0.218508 -0.155827 0.304682 0.262252 0.132632 0.340542 0.180565 0.00632732 0.255162 0.436281 -0.520389 0.228889 0.276586 -0.429067 0.127889 0.10034 0.0701906 -0.0964256 0.0442228 0.694233 0.0746173 0.0244872 -0.196769 0.00908534
4623 0.38076 -0.288454 0.0908544 0.0576105 0.0389195 -0.291552 -0.476839 0.172279 0.560314 -0.0471127 -0.147202 0.212903 0.0308005 0.120671 0.089589 0.225592 -0.241811 -0.00818417 -0.000378809 -0.2271 0.0915441 -0.377415 0.875765 -0.167919 0.0652323 0.32598 0.245708 0.156065 0.645091 0.253944 0.234161 0.245513 -0.282051 0.376497 -0.488293 0.56745 0.0426015 -0.149179 0.109481 -0.189691 -0.226008 -0.0833389 -0.0330605 -0.604526 -0.167667 0.25701 -0.0966258 0.00129319 -0.79481 0.313535 -0.0255678 -0.21244 -0.70131 -0.273751 0.0968742 0.205862 0.0965471 -0.138684 -0.0366368 -0.00881087 0.178656 0.405822 -0.120731 -0.11865 0.0519225 0.158946 -0.256102 0.115258 0.0865078 0.0889702 0.309376 -0.402147 0.260003 -0.0149274 -0.417252 -0.227011 0.0846138 0.235369 -0.0431716 -0.665161 0.118767 -0.179984 0.0832569 0.035523 0.269579 -0.29934 0.219909 0.123021 -0.025953 -0.058107 0.215943 0.183052 0.0644417 -0.0906763 0.140204 0.199207 0.226184 0.194612 -0.305378 -0.230755 0.194609 -0.0533676 0.209697 0.259796 0.226739 -0.108333 0.271707 0.267222 0.211167 0.148341 0.100194 -0.0767006 0.0678244 0.405444 -0.515998 0.223724 0.223172 -0.40212 0.15889 0.200094 0.224898 -0.058846 0.0817545 0.601232 0.0228316 0.0319992 -0.221344 -0.116923
3260 0.0238265 0.396352 9.33183e-05 0.0607302 -0.0689199 -0.366552 -0.479131 0.0698796 0.35749 -0.405628 -0.089657 0.180255 0.270335 -0.142162 0.020166 0.157422 -0.278336 -0.096843 -0.453138 -0.32201 0.269053 -0.362789 0.138057 0.537337 -0.13715 0.0415219 0.322586 -0.0975883 0.298308 0.0673672 0.189278 -0.0581474 -0.407677 0.150801 -0.152274 0.383284 0.141471 -0.306839 -0.0342457 0.0894832 0.326312 -0.361413 -0.195151 -0.595263 0.306162 -0.0575347 -0.188047 -0.284868 -0.762101 -0.190334 0.0708329 -0.145947 -0.667069 -0.544385 0.220253 0.288933 -0.20512 0.210577 -0.143951 0.0276118 -0.151126 0.186672 -0.307025 -0.370884 -0.362814 0.403885 -0.322038 -0.0609281 0.244776 -0.116094 0.385336 -0.704567 -0.0580025 -0.150622 -0.855074 -0.130743 0.406357 -0.0343734 -0.215804 -0.524654 -0.300863 -0.112698 0.0964897 0.382533 0.119984 -0.397151 0.321032 -0.216328 0.167233 -0.161309 0.100358 0.109899 0.347632 -0.115664 0.239377 0.299075 -0.185895 0.211194 -0.22142 -0.429186 0.0475254 -0.0608154 0.775595 0.297883 0.179206 -0.542316 0.387442 0.0802299 0.236935 0.098469 0.125338 -0.147254 0.665741 0.177534 -0.046256 -0.202658 -0.00512865 -0.36336 0.0333664 0.398808 0.2856 0.102739 -0.22642 0.0571738 -0.00714072 -0.0204126 -0.318529 -0.359246
