353 128
2625 -0.125993 -0.473049 -0.0955283 0.0731851 0.292446 -0.094445 -0.19826 0.1259 -0.189345 -0.024367 0.394286 0.200217 -0.115852 -0.176477 -0.32246 0.455141 -0.340472 0.168545 -0.0244513 0.0610241 -0.367568 -0.28895 -0.294718 -0.246062 -0.332709 -0.313249 0.51023 -0.310565 0.0833227 -0.0802388 0.179378 0.017997 -0.0232883 -0.00424336 -0.363673 0.0924368 -0.188129 0.0192239 -0.274481 -0.0628658 0.0775503 0.0966732 -0.0300908 0.0824214 0.475713 -0.0217045 -0.385053 0.384655 -0.0368384 0.533349 0.0951778 -0.0038199 -0.149752 0.270394 0.316446 0.217381 -0.104436 -0.25082 0.600471 0.120256 -0.228102 0.327751 -0.172736 -0.258166 -0.382809 0.141946 -0.0259929 -0.240635 -0.58751 0.132416 0.471716 0.268783 0.400729 -0.444964 0.0409369 0.013477 0.109783 0.00898405 -0.162657 0.0384017 -0.353693 -0.179719 0.0201738 0.146412 -0.00068867 0.239431 0.230289 0.27522 -0.0598922 0.0502176 -0.149249 0.133841 -0.377048 0.306812 -0.141845 -0.0874216 0.494157 0.327636 -0.511342 0.0836336 0.0301544 0.0245394 0.348744 0.0773306 -0.298736 0.367878 0.0752345 0.153802 0.0960408 -0.237964 0.213307 -0.0431253 0.0389457 -0.00902545 0.276244 -0.418609 0.0299677 0.0564075 -0.172438 0.464806 -0.0337028 -2.29371e-05 -0.0955263 0.129819 0.297942 -0.189732 -0.194818 0.143532
3168 -0.108497 -0.281801 0.0711853 0.230123 0.235804 -0.0183502 -0.116942 0.24538 -0.175795 -0.159338 0.439591 0.310764 0.136577 -0.271962 -0.282024 0.49382 -0.41773 0.353815 0.0409643 -0.0541492 -0.257796 -0.399768 -0.318058 -0.36917 -0.275941 -0.301656 0.648138 -0.358463 0.300403 0.115165 0.390585 0.077493 0.0938558 0.0848507 -0.340081 0.172763 -0.157054 0.231496 -0.330538 -0.030168 0.0535312 0.0878844 0.0843262 0.315829 0.443274 -0.0427546 -0.723502 0.429613 -0.0252477 0.808766 0.134095 -0.0484906 -0.169745 0.218323 0.20838 0.133074 -0.0567889 -0.129475 0.667723 0.248896 -0.230756 0.0953845 -0.115833 -0.334062 -0.194164 0.310009 -0.167723 -0.102706 -0.582847 0.283398 0.538787 0.37495 0.331867 -0.264646 -0.0508891 0.112923 0.25667 -0.00655964 -0.398017 0.0451741 -0.420215 -0.096797 0.029444 0.0253457 0.116338 0.127557 0.0212861 0.360757 0.005988 0.0406031 0.121059 0.165895 -0.214083 0.27069 -0.000546105 -0.191247 0.277121 0.365586 -0.480426 -0.00208013 0.0421935 0.167955 0.469516 0.182201 -0.00812103 0.440834 0.109388 -0.0427569 0.167845 0.0325753 0.132073 -0.0362176 0.0181723 -0.22169 0.25492 -0.416249 0.191659 -0.0897908 -0.190666 0.32752 0.0366224 0.135951 -0.0510444 0.101337 0.215357 -0.105502 -0.398056 0.281198
2642 -0.0706379 -0.289713 -0.0438594 0.423187 -0.00416456 0.373763 0.0276805 0.324486 -0.109484 0.0318472 0.450076 0.159263 0.260125 -0.22924 -0.540589 0.398462 -0.585386 0.330502 0.209863 0.01531 -0.116352 0.0921758 -0.213289 -0.239074 -0.44976 -0.357606 0.53171 -0.416669 0.544436 -0.00652919 0.323295 0.119824 0.149231 0.238913 -0.510557 -0.0452183 -0.421399 0.150379 -0.409339 -0.253239 0.076494 0.074519 -0.0849294 0.0189057 0.487938 -0.23071 -0.6121 0.474973 0.11958 0.765389 -0.296958 0.209498 -0.423418 0.261325 -0.137363 -0.134274 -0.107186 -0.317021 0.445654 0.280721 -0.131768 0.265676 -0.235018 -0.620512 -0.216255 0.17132 -0.18098 -0.039655 -0.374029 0.421135 0.569146 0.354395 0.360348 -0.276907 -0.20793 0.0654691 0.176458 -0.0798047 -0.351271 -0.236451 -0.428116 0.0565404 0.230424 0.0441992 0.115172 0.190923 0.122432 0.245856 -0.159715 0.171962 0.215958 0.220098 -0.159021 0.16794 -0.00310195 -0.363821 0.252428 0.26403 -0.48749 -0.139219 0.0598506 0.238274 0.55564 0.0824999 0.0435598 0.417352 0.224904 -0.116266 0.194379 -0.237551 0.113062 0.11022 0.0554608 0.188676 0.372972 -0.35703 0.0645015 -0.189231 0.0137037 0.381245 -0.114662 0.208873 0.174862 -0.0335181 0.297175 -0.175089 -0.530913 0.326918
3479 0.0318128 -0.497693 0.0605943 0.40124 0.00683441 0.387563 -0.123516 0.130341 -0.14165 0.163802 0.400777 0.162245 0.0123349 -0.433369 -0.474487 0.260027 -0.322117 0.28618 0.275744 -0.00549954 -0.0635905 0.197267 -0.0696142 -0.260479 -0.58268 -0.181927 0.631928 -0.379804 0.558326 -0.070439 0.155957 0.0121275 -0.100604 0.289294 -0.637986 -0.0597024 -0.393001 0.131912 -0.403479 -0.284902 0.104257 -0.106586 0.160857 0.123234 0.547058 -0.215912 -0.493643 0.269383 0.122201 0.856142 -0.107671 0.225575 -0.349496 0.113586 -0.165921 -0.0136466 0.0736431 -0.405199 0.548334 0.340057 -0.317518 0.162946 -0.275786 -0.521235 -0.138028 0.315495 -0.326087 -0.0835923 -0.263047 0.644418 0.462122 0.393153 0.356851 -0.253039 -0.279873 0.189616 0.236991 -0.0620863 -0.325093 -0.286478 -0.392606 0.0424528 0.21312 -0.112091 -0.0843048 0.152748 0.0461171 0.0406818 -0.327778 0.391408 0.442856 0.239557 -0.260969 0.181687 0.100958 -0.206976 0.0488046 0.417206 -0.514189 -0.0714365 0.287316 0.299369 0.543687 -0.0948009 0.367536 0.474719 0.168246 -0.244508 0.0528218 -0.220946 0.300328 0.18805 0.236819 0.151041 0.190676 -0.52021 0.0279625 -0.249143 0.0871975 0.418274 -0.0311497 0.0506992 0.0945341 0.0235612 0.200681 -0.151428 -0.533383 0.315571
35 -0.0230603 -0.369154 -0.0301264 0.488281 -0.099109 0.377926 -0.112791 0.0652238 -0.136861 0.0455574 0.302986 0.158276 0.098846 -0.4289 -0.370675 0.378748 -0.426624 0.403543 0.241984 -0.0334733 -0.117149 0.275069 -0.0147498 -0.180985 -0.476796 -0.126877 0.587893 -0.359387 0.597078 -0.131118 0.0770943 -0.0925838 0.0427004 0.362626 -0.70574 -0.183303 -0.438658 0.0266227 -0.479328 -0.345551 0.215309 -0.107298 0.126983 0.0138955 0.645492 -0.243517 -0.48962 0.402372 0.0645386 0.797256 -0.246939 0.227667 -0.26647 0.065911 -0.239802 0.0510852 0.00817912 -0.31347 0.410427 0.383853 -0.275743 0.16774 -0.396159 -0.452499 -0.232329 0.188679 -0.183045 -0.0658763 -0.219233 0.523469 0.454497 0.302878 0.312515 -0.227506 -0.327153 0.148788 0.116719 -0.175686 -0.19373 -0.385451 -0.264673 0.0384158 0.135346 0.0169524 -0.171202 0.185121 0.0712549 0.0734549 -0.404401 0.212327 0.296352 0.0903652 -0.213576 0.135965 0.0516523 -0.188847 -0.00772595 0.295992 -0.40758 -0.0649391 0.195971 0.321113 0.621809 0.0153148 0.407719 0.395213 0.171374 -0.180623 0.0461201 -0.200045 0.263991 0.15619 0.172317 0.234078 0.131027 -0.501289 -0.0584178 -0.242815 0.101301 0.437095 -0.0847015 0.103973 0.222011 0.0685031 0.17702 -0.235888 -0.462131 0.309391
3860 0.016054 -0.464743 0.125994 0.379563 -0.0196612 0.380369 -0.127622 0.184271 -0.126227 0.105042 0.464426 0.160004 0.120311 -0.431637 -0.400003 0.323662 -0.339042 0.323693 0.225846 -0.0559303 -0.0627443 0.142697 -0.0955543 -0.297016 -0.431982 -0.225375 0.634709 -0.36624 0.537483 -0.0164038 0.221344 -0.0480436 -0.0820122 0.265281 -0.607136 -0.0207324 -0.35899 0.203756 -0.420848 -0.298577 0.114285 -0.0307179 0.0959419 0.096252 0.585192 -0.221866 -0.549152 0.296796 0.13549 0.869494 -0.128082 0.2163 -0.354694 0.13777 -0.137799 -0.0167519 0.0223936 -0.434486 0.579972 0.348138 -0.309575 0.132731 -0.222882 -0.494763 -0.124998 0.33576 -0.282464 -0.0488058 -0.324859 0.620199 0.507052 0.403426 0.321549 -0.210016 -0.306317 0.234125 0.217391 -0.0390156 -0.373288 -0.247286 -0.443639 0.0114117 0.197242 -0.0546106 -0.00983337 0.163651 0.0439036 0.134297 -0.226166 0.322729 0.384369 0.258208 -0.252616 0.164716 0.0565703 -0.213524 0.0559053 0.35273 -0.498705 -0.0137561 0.20654 0.28631 0.607134 -0.0258277 0.262333 0.50939 0.155833 -0.265844 0.0667601 -0.126729 0.251757 0.155294 0.169077 0.0125224 0.21621 -0.515134 0.0768071 -0.244025 0.0746629 0.398259 -0.0264885 0.092744 0.11006 0.062019 0.279733 -0.145884 -0.572912 0.310513
5229 0.052058 -0.415124 0.147296 0.507376 -0.0683536 0.362487 -0.193739 0.110743 -0.185761 0.121054 0.330771 0.237133 0.15995 -0.499039 -0.383501 0.258569 -0.375874 0.354825 0.289864 -0.100462 -0.0257634 0.28818 -0.135244 -0.143827 -0.59837 -0.286369 0.532258 -0.24187 0.639673 -0.150884 0.0787508 -0.0418287 -0.103132 0.419046 -0.604844 -0.157555 -0.273322 0.110809 -0.485815 -0.372029 0.253744 0.0136608 0.117547 -0.00281059 0.630363 -0.243984 -0.45558 0.34821 0.215776 0.745184 -0.206997 0.298899 -0.418332 0.05863 -0.276021 0.0508259 0.126409 -0.350929 0.34541 0.289849 -0.310999 0.105713 -0.32298 -0.542426 -0.236932 0.221938 -0.287232 -0.131901 -0.125002 0.529005 0.433871 0.385871 0.24782 -0.14761 -0.286989 0.175258 0.198612 -0.185296 -0.328219 -0.45106 -0.304096 0.203487 0.275444 -0.0285481 -0.215731 0.0763569 0.107602 -0.0408948 -0.318331 0.378854 0.392986 0.237631 -0.334719 0.125524 0.0582234 -0.153787 -0.0171207 0.315357 -0.325987 -0.0308745 0.0841977 0.266413 0.586158 -0.0429899 0.337274 0.516159 0.155462 -0.202776 0.113564 -0.196983 0.224553 0.226881 0.306362 0.115892 0.156959 -0.541201 -0.0541737 -0.293275 0.0898961 0.427965 -0.0937062 0.123183 0.11012 0.101412 0.17551 -0.205967 -0.5279 0.312031
1664 0.0083019 -0.402561 -0.0613546 0.492195 -0.149481 0.209637 -0.26995 -0.0708376 -0.347071 -0.0269271 0.142191 0.204469 0.138477 -0.368922 -0.0491754 0.522531 -0.208803 0.436005 0.183232 -0.260217 -0.160642 0.140395 0.0210512 -0.0576375 -0.313357 -0.0275893 0.405642 -0.0967361 0.475512 -0.149118 -0.24449 -0.207 0.0407917 0.368874 -0.622125 -0.224908 -0.295342 -0.0312286 -0.557519 -0.305883 0.367024 0.0643321 0.1376 -0.0174154 0.672959 -0.107788 -0.270928 0.215543 -0.0164189 0.425349 -0.144115 0.262422 -0.210705 -0.202261 -0.148111 0.270445 0.145853 -0.345137 0.261865 0.266526 -0.352652 0.0616262 -0.420671 -0.093151 -0.346117 0.0455411 -0.131338 -0.154321 -0.104146 0.299126 0.161602 0.200635 0.196467 -0.0214828 -0.235741 0.0693116 -0.0170553 -0.26694 -0.221196 -0.393428 -0.167745 0.0622974 0.0442957 -0.0789379 -0.461243 0.0549884 0.0911628 -0.0380573 -0.339232 0.0976761 0.204997 0.066344 -0.333684 0.0922577 -0.0344234 -0.101657 -0.100969 0.168248 -0.155257 -0.0605557 -0.00576213 0.390668 0.431645 -0.00752522 0.285144 0.329655 0.0577264 -0.237089 0.106824 -0.0845525 0.297292 0.0371344 0.262549 -0.00358294 -0.135219 -0.418876 -0.108137 -0.161681 -0.060631 0.261524 -0.104869 -0.00579631 0.209727 0.241309 -0.0302189 -0.342841 -0.248388 0.163886
1281 0.107549 -0.573819 -0.0412241 0.441953 -0.0476604 0.213676 -0.280831 -0.142175 -0.357209 0.0763961 0.212904 0.203145 0.00122143 -0.406496 -0.161369 0.487354 -0.0958697 0.396275 0.238633 -0.21774 -0.187635 0.33036 0.182169 -0.0285534 -0.358249 -0.0423946 0.48664 -0.124673 0.693902 -0.238704 -0.22609 -0.141995 -0.0383707 0.27317 -0.642563 -0.216659 -0.387827 -0.0503981 -0.641498 -0.311865 0.374512 -0.130591 0.175761 0.0504083 0.664733 -0.167786 -0.24505 0.17627 -0.0116718 0.576009 -0.183524 0.370197 -0.119749 -0.205807 -0.183851 0.284551 0.0235614 -0.22123 0.168441 0.33585 -0.452826 -0.0155302 -0.517208 -0.184764 -0.3799 0.0226926 -0.18506 -0.133072 -0.121394 0.356987 0.2613 0.140658 0.350776 -0.00190027 -0.159709 0.117192 0.014194 -0.268448 -0.0581126 -0.480702 -0.230575 -0.00833054 0.118902 -0.0512421 -0.470029 0.0626331 0.141192 -0.180559 -0.433948 0.175074 0.208654 0.0472937 -0.373371 0.196135 0.0777473 -0.0742058 -0.142084 0.200781 -0.206193 -0.0521712 0.0358202 0.403108 0.408634 -0.131873 0.28593 0.251747 0.0319378 -0.268775 0.015702 -0.189241 0.32425 0.0777228 0.276046 0.11703 -0.0940636 -0.596551 -0.226519 -0.183235 0.0792023 0.386768 -0.0653808 -0.00741744 0.180445 0.279073 -0.0392839 -0.427088 -0.296972 0.236885
7 0.0928342 -0.420169 -0.0895709 0.142619 -0.289353 0.267828 -0.192438 -0.132253 -0.400824 0.209832 0.0495852 0.0772386 -0.0286106 -0.517439 -0.29678 0.20446 0.0117498 0.451613 0.221559 -0.205121 -0.115112 0.217548 0.418802 -0.0275983 -0.293334 0.311133 0.455985 -0.237304 0.555463 -0.253621 -0.312168 0.00064983 0.0267453 0.184835 -0.639109 -0.230836 -0.38986 -0.225646 -0.385274 -0.114457 0.121763 -0.220893 0.177198 0.0464136 0.57024 -0.264323 -0.12345 0.196374 -0.146809 0.301771 -0.173671 0.417285 0.130456 -0.333496 -0.152701 0.219849 0.225554 -0.131068 0.256855 0.431652 -0.459525 -0.0567923 -0.573597 -0.0128734 -0.149183 0.082986 -0.282393 -0.0885341 -0.043895 0.514201 0.0707318 0.148297 0.341429 -0.0634092 -0.0999768 -0.06802 -0.0742653 -0.104649 -0.20055 -0.389096 -0.0473332 -0.283749 0.10323 -0.0641324 -0.392295 0.0330988 0.0084134 -0.168418 -0.445301 0.186298 0.233588 -0.106875 -0.277697 0.0347434 0.238267 -0.165563 -0.2036 0.14325 -0.331287 -0.300591 0.237193 0.496168 0.24477 -0.00351513 0.138633 -0.0121939 -0.114623 -0.388589 0.121916 0.0503264 0.240382 0.0945022 0.320883 0.0281456 -0.262782 -0.30068 -0.0177743 -0.342948 -0.115805 0.10804 -0.11942 -0.177212 0.194187 0.264267 -0.0204784 -0.488255 -0.228058 0.207506
4 0.0706095 -0.6039 -0.00184873 0.458614 -0.150405 0.201818 -0.271733 -0.169168 -0.338082 0.0771913 0.217044 0.235556 0.0750066 -0.407252 -0.058863 0.57591 -0.022142 0.441945 0.189669 -0.265292 -0.154092 0.334367 0.162326 -0.0224603 -0.334357 -0.104461 0.553334 -0.0558136 0.695186 -0.339158 -0.258083 -0.166478 -0.0949658 0.307012 -0.646272 -0.251805 -0.430008 0.0306079 -0.637501 -0.370313 0.464398 -0.0207417 0.0986694 -0.0353634 0.705477 -0.193795 -0.183849 0.212508 0.0495478 0.524909 -0.236296 0.396376 -0.113636 -0.272435 -0.18234 0.356715 -0.0339278 -0.251731 0.14832 0.281315 -0.460927 -0.0443753 -0.561615 -0.133083 -0.380486 0.0460771 -0.134593 -0.112228 -0.0228432 0.270674 0.247934 0.187067 0.37188 -0.0145683 -0.102222 0.123829 -0.0620174 -0.285743 -0.0402015 -0.558146 -0.185362 0.0104476 0.0749511 0.0156021 -0.498195 0.0797403 0.263773 -0.197544 -0.412494 0.181328 0.138371 0.0694846 -0.375132 0.223131 0.0632136 -0.0167364 -0.113007 0.136925 -0.170837 0.0128008 0.0315484 0.457807 0.43003 -0.0917186 0.329427 0.268465 0.094864 -0.139187 0.0495796 -0.217679 0.373275 0.116758 0.282332 0.0713345 -0.152801 -0.60533 -0.289063 -0.159039 0.108467 0.431445 -0.11882 0.00709661 0.248382 0.353409 -0.00975282 -0.432081 -0.33246 0.123178
1629 0.134129 -0.565445 0.0774011 0.361019 0.203917 -0.11609 -0.273905 -0.0101824 -0.488237 -0.0914174 0.299953 0.328789 0.0592643 -0.270672 -0.129899 0.450921 -0.0688605 0.314911 0.207534 -0.246188 -0.355068 -0.0627962 -0.017489 -0.0692897 -0.238175 -0.0896234 0.21638 -0.0536164 0.526984 -0.204706 -0.0422504 -0.0125529 0.0365773 0.148469 -0.341194 -0.0319203 0.0258553 -0.13149 -0.498898 -0.116542 0.362395 -0.0325164 0.164052 0.034821 0.501797 -0.0367471 -0.324327 0.237729 -0.0515739 0.439789 -0.113902 0.389876 -0.100906 -0.0993155 0.0577353 0.344727 -0.0120623 -0.0375038 0.134479 0.199545 -0.391431 -0.0353727 -0.430306 -0.163476 -0.657804 -0.0424083 -0.119026 -0.182141 -0.163645 0.0320108 0.28052 0.0332004 0.28615 0.00168276 0.072086 0.0953123 0.0726632 -0.177486 -0.0741043 -0.238225 -0.269724 -0.0052355 0.104432 -0.0492618 -0.38147 0.0544946 0.213012 -0.141815 -0.214991 0.00957719 0.00226429 0.100681 -0.521252 0.303251 0.0326609 -0.136591 0.0662031 0.131552 -0.219152 -0.096086 -0.355084 0.150348 0.0901747 -0.0870012 -0.212417 0.152669 -0.0397274 -0.127359 0.154416 -0.183546 0.0312182 -0.092739 0.170897 -0.0113305 0.0517449 -0.516024 -0.142649 -0.0226018 -0.203229 0.398268 0.052945 -0.00727172 -0.0679288 0.335769 -0.00273456 -0.400592 -0.176392 0.17321
25 -0.0190079 -0.106087 0.0978445 -0.0290235 0.136429 -0.262497 -0.221151 0.0563251 -0.0736461 -0.0874126 0.166555 0.230907 0.0365477 -0.0329549 -0.036636 0.381305 -0.203332 0.277589 0.0342358 -0.0346225 -0.241845 -0.312681 -0.284116 -0.0671184 0.0765584 -0.0527212 0.413258 -0.189115 0.416076 -0.157244 0.0827418 0.159075 -0.151464 0.098758 -0.134632 0.0620049 -0.0622493 -0.00869573 -0.2254 0.211869 0.111011 -0.0741489 0.0877128 -0.101421 0.449839 -0.0637134 -0.198393 0.455811 -0.134314 0.425617 -0.116387 0.279119 0.244354 -0.134824 0.0492562 0.294126 0.202666 0.244013 0.247635 0.173501 -0.281672 -0.20458 -0.303568 0.0782944 -0.266093 0.0750368 -0.00711039 -0.315189 -0.0843567 0.0618849 0.250083 0.197659 0.37633 0.0118436 0.219852 -0.108471 0.170603 -0.230772 -0.0210823 -0.305532 -0.125302 -0.197146 -0.00543662 0.205074 -0.158628 -0.00738335 0.176656 -0.0494135 -0.0739063 -0.274264 -0.176012 -0.166054 -0.218983 0.323594 0.000406254 -0.176361 0.140655 0.101235 -0.0725177 -0.0931726 -0.174578 0.116935 0.041227 0.0693291 -0.230382 0.208469 -0.115914 0.0818999 0.255485 0.186186 0.0785029 -0.273354 -0.174011 -0.158311 0.137474 -0.348238 -0.222374 -0.0734934 -0.294106 0.409136 -0.341339 0.0121881 -0.100393 0.498928 -0.0621903 -0.0839781 -0.043629 -0.175474
1162 0.0402641 -0.189678 0.227708 0.0886051 0.0714667 -0.229885 -0.22229 0.143726 -0.136605 -0.240419 0.336785 0.312346 0.0886525 -0.0259653 0.040117 0.550914 -0.115152 0.283661 0.0529665 -0.190177 -0.339833 -0.341679 -0.350241 -0.0704491 0.249928 -0.0522315 0.376798 -0.207576 0.426803 -0.0678207 0.0884017 0.122114 -0.078639 0.0680885 -0.200518 0.0859138 -0.0628222 -0.0382715 -0.203854 0.169347 0.101033 -0.022141 0.0745805 -0.0218543 0.539079 -0.0937131 -0.251221 0.464109 -0.16982 0.506839 -0.145441 0.326375 0.266315 -0.200727 0.00477641 0.230479 0.232666 0.1515 0.179032 0.175889 -0.361022 -0.246733 -0.236902 0.0811483 -0.230866 0.124631 -0.0573407 -0.20852 0.0372006 0.0736032 0.259083 0.176231 0.325985 0.10021 0.274952 -0.0486647 0.193826 -0.24792 -0.128186 -0.312727 -0.212871 -0.070747 0.0299788 0.196469 -0.213623 -0.00522027 0.176681 0.0209281 -0.0421898 -0.271316 -0.141814 -0.0474701 -0.313062 0.356844 -0.051144 -0.15137 0.103067 0.119135 -0.0734035 0.010625 -0.171731 0.229324 -0.00663527 0.0484736 -0.34074 0.256228 -0.099207 0.0858026 0.144624 0.268799 0.116082 -0.372178 -0.197348 -0.214815 0.158589 -0.417153 -0.182297 -0.0965847 -0.253077 0.400971 -0.304797 0.0658807 -0.150383 0.467703 -0.0984202 0.0125768 -0.0219388 -0.18089
1585 0.0169027 -0.231358 0.22407 0.134633 0.0473556 -0.205109 -0.25498 0.132798 -0.184601 -0.226456 0.323887 0.320526 0.103564 -0.0561106 0.052759 0.52943 -0.122921 0.307962 0.0446109 -0.185012 -0.350637 -0.358624 -0.324437 -0.0703065 0.225253 0.00051524 0.356939 -0.191574 0.435809 -0.102232 0.0879935 0.13721 -0.110294 0.108941 -0.190734 0.110145 -0.00551819 -0.0565942 -0.202989 0.157349 0.092193 -0.0356278 0.130931 -0.0168964 0.517492 -0.0851248 -0.227368 0.452655 -0.160128 0.431671 -0.206903 0.353301 0.319489 -0.202116 0.00650459 0.198691 0.272076 0.146249 0.195183 0.198345 -0.324772 -0.205425 -0.232691 0.108347 -0.221013 0.098901 -0.0570033 -0.21455 0.0183453 0.0858082 0.22329 0.184874 0.26293 0.157998 0.207457 -0.086624 0.186592 -0.208107 -0.134689 -0.285629 -0.150992 -0.111963 -0.0004553 0.179319 -0.235141 -0.0262351 0.159435 0.022547 -0.0436832 -0.261665 -0.0969932 -0.0492583 -0.283228 0.315189 -0.0167052 -0.124384 0.0860268 0.127831 -0.0668678 -0.000100968 -0.135037 0.219078 0.00250749 0.0663985 -0.400768 0.260483 -0.112167 0.0476495 0.167047 0.29845 0.112587 -0.3577 -0.17159 -0.208278 0.131493 -0.363859 -0.17108 -0.0724261 -0.27112 0.358818 -0.254722 0.0357808 -0.161733 0.448589 -0.0853583 0.0185482 -0.0381132 -0.162486
644 0.057727 -0.109455 0.248179 0.0904058 0.0884834 -0.221614 -0.207231 0.169047 -0.128248 -0.265451 0.351108 0.325987 0.105813 -0.00833953 0.0592534 0.573267 -0.105784 0.256491 0.0241017 -0.195608 -0.321468 -0.340811 -0.375263 -0.0255293 0.248375 -0.0472459 0.290459 -0.158342 0.432695 -0.0385217 0.0939651 0.129712 -0.119635 0.0624131 -0.151739 0.0689539 -0.0369422 -0.0285598 -0.175896 0.240885 0.0960539 0.0165736 0.0845123 0.0436849 0.517555 -0.0236656 -0.220062 0.390712 -0.194536 0.423605 -0.102736 0.336666 0.294945 -0.198027 0.0248831 0.222843 0.304663 0.112339 0.192696 0.161275 -0.367734 -0.234837 -0.195197 0.102698 -0.211567 0.0910636 -0.073034 -0.24676 0.0496275 0.0677451 0.219827 0.186288 0.258523 0.128422 0.285564 -0.0426467 0.189239 -0.222952 -0.14157 -0.284478 -0.137817 -0.0335344 0.0265711 0.157132 -0.224448 -0.0466631 0.164772 0.0366535 -0.0277317 -0.262699 -0.0372549 -0.00514608 -0.316338 0.368745 -0.0293075 -0.176314 0.0689463 0.10533 -0.0357564 -0.059919 -0.137706 0.263376 -0.0517812 0.0305213 -0.195119 0.216764 -0.09372 0.0785104 0.0862405 0.306449 0.171006 -0.394344 -0.174535 -0.209742 0.095274 -0.314486 -0.147486 -0.102954 -0.251878 0.347355 -0.281253 0.0930482 -0.166781 0.433452 -0.119631 0.0327921 -0.0334623 -0.138805
2961 -0.0147065 -0.166238 0.189429 0.110713 0.155453 -0.262666 -0.266022 0.100317 -0.163184 -0.260902 0.288578 0.31687 0.045172 -0.0462269 0.0299743 0.568728 -0.157548 0.247081 0.026595 -0.194747 -0.337208 -0.322485 -0.381602 -0.0307803 0.232718 -0.060841 0.36833 -0.145132 0.469631 -0.101382 0.0884662 0.147542 -0.163352 0.0635447 -0.14921 0.110104 0.0147295 -0.0271719 -0.218225 0.167419 0.123307 -0.0239789 0.125711 0.0317172 0.54896 -0.0484658 -0.192853 0.458357 -0.179299 0.433907 -0.144606 0.357488 0.329113 -0.193297 0.0694574 0.250902 0.242225 0.162065 0.157189 0.180033 -0.360042 -0.208666 -0.229876 0.122595 -0.292621 0.0513395 -0.0279525 -0.279396 -0.0453892 -0.0163487 0.250709 0.196637 0.324957 0.149429 0.249438 -0.105966 0.208641 -0.230409 -0.0816144 -0.27608 -0.180695 -0.0987557 0.00689913 0.209352 -0.270366 -0.0654882 0.156636 0.027599 -0.0789115 -0.311158 -0.115325 -0.0610928 -0.310531 0.358999 -0.0304502 -0.106487 0.166563 0.126857 -0.0304016 0.0126815 -0.163087 0.217385 0.0229523 0.0473712 -0.3224 0.256136 -0.108562 0.0979986 0.149994 0.302024 0.154477 -0.356357 -0.18496 -0.194018 0.133871 -0.438813 -0.176679 -0.0365136 -0.257985 0.378155 -0.243479 0.062969 -0.165811 0.467969 -0.101718 0.0148824 -0.0213127 -0.17308
3981 0.248281 0.171828 0.312241 -0.0920945 -0.143677 -0.292478 -0.220122 0.139894 0.0391111 -0.495435 0.551132 0.347026 0.229596 -0.0299461 0.0248524 0.488506 -0.467443 0.177213 -0.276096 -0.339349 -0.319546 -0.391755 -0.281365 -0.0395572 0.335154 -0.0929296 0.279912 -0.147894 0.2522 -0.0677385 0.0758764 0.0720709 0.0911734 -0.0225012 -0.133608 -0.112535 -0.014899 -0.0961587 -0.026569 0.42052 0.140069 -0.0608191 -0.152365 0.0393719 0.626034 -0.12286 -0.357669 0.413353 -0.175684 0.258643 -0.0547005 0.316375 0.27431 -0.153907 0.0414078 0.298708 0.0995029 0.170737 0.261942 0.30569 -0.510276 0.0363534 -0.314265 -0.0313904 -0.324342 0.0322735 -0.0174095 -0.278294 0.162908 -0.0763978 0.172091 0.0568871 0.106585 -0.183495 0.356495 0.0555044 0.0221273 -0.273012 0.0126591 -0.317425 -0.141657 0.060181 -0.00711923 0.295536 -0.124771 -0.164504 0.454572 0.227653 -0.111954 -0.281855 -0.0295519 0.0246168 -0.392352 0.430805 -0.00440381 -0.117069 0.191574 0.00163341 -0.0962052 0.0139058 -0.253106 0.274257 0.0724044 0.286174 -0.307452 -0.087155 0.0334403 0.220556 0.068035 0.186727 0.0291696 -0.434239 -0.149696 -0.0244497 0.0570429 -0.126338 -0.170303 -0.425421 -0.22321 0.253473 -0.470508 0.20906 -0.0512263 0.392282 0.0891818 -0.0271673 -0.166717 -0.135831
3982 0.12616 0.0830075 0.273251 -0.0320844 -0.216937 -0.322152 -0.336401 0.143308 0.0110101 -0.352412 0.498975 0.303568 0.207974 -0.178453 -0.33793 0.39004 -0.44888 0.137568 -0.167679 -0.204442 -0.327179 -0.489876 -0.0860125 -0.159237 0.219293 -0.081777 0.155025 -0.261192 0.185799 -0.26234 0.150066 0.0855773 0.0327012 0.141001 -0.117212 -0.0556818 0.0187848 -0.0973194 0.058941 0.312578 0.0350637 -0.034934 -0.208894 0.00563319 0.655238 -0.238925 -0.340221 0.556884 -0.169976 0.122891 -0.128548 0.295926 0.251453 0.0506292 0.203137 0.414961 -0.0347265 0.221676 0.384873 0.302055 -0.577549 0.283801 -0.59221 -0.0541412 -0.584638 0.207183 0.0789349 -0.207504 0.0128147 -0.135809 0.223393 0.169101 0.192217 -0.463163 0.427242 -0.238539 -0.0815359 -0.32429 0.0970493 -0.143451 0.0267977 -0.0603519 0.0827933 0.514657 -0.15626 -0.0979929 0.589839 0.161682 -0.13052 -0.244757 -0.0925716 0.103098 -0.362262 0.299412 0.036926 0.00996502 0.418173 0.0551261 -0.302359 0.0467687 -0.437872 0.0675961 0.0722337 0.48901 -0.0816135 -0.251738 0.131604 0.509035 0.288421 -0.0479964 -0.0145829 -0.40863 -0.0706977 -0.153745 -0.0040505 -0.00433662 -0.0945605 -0.495078 -0.22536 0.464012 -0.448076 0.211038 0.00743443 0.586708 0.435627 -0.303754 -0.216961 -0.104344
5458 0.160661 0.192135 0.30413 -0.0613098 -0.306204 -0.272982 -0.298263 0.118126 0.0601548 -0.479356 0.552353 0.288663 0.197511 -0.203173 -0.238022 0.319531 -0.645355 0.113117 -0.313853 -0.357952 -0.285752 -0.329965 -0.0905507 -0.0335495 0.285272 -0.169121 0.226765 -0.143109 0.139289 -0.280858 0.10965 0.0867427 0.0685289 -0.043449 -0.195269 -0.110812 0.0287509 -0.115558 0.0599916 0.345213 0.153983 -0.0204981 -0.280382 -0.0155985 0.765696 -0.239968 -0.302159 0.448862 -0.099229 0.0901046 -0.153142 0.388096 0.230705 0.00839454 0.096563 0.416713 -0.11225 0.111762 0.303595 0.313977 -0.585529 0.327439 -0.553233 -0.159926 -0.607125 0.107204 -0.0150033 -0.267869 0.0526252 -0.227442 0.214655 0.131004 0.138757 -0.488365 0.316544 -0.107588 -0.103899 -0.301749 0.12436 -0.220227 -0.0929433 0.0757749 0.03621 0.47421 -0.125988 -0.118286 0.593853 0.237363 -0.219541 -0.220533 -0.0462525 0.101874 -0.424413 0.392046 0.0229846 -0.000240681 0.400055 -0.0409115 -0.245833 0.136377 -0.409808 0.0874569 0.137211 0.495162 -0.248518 -0.201344 0.151902 0.448561 0.146266 -0.0120476 -0.0866284 -0.360336 -0.0439492 0.0178032 0.0483734 -0.0779035 -0.133083 -0.491287 -0.178297 0.304926 -0.503416 0.26079 0.0610985 0.394132 0.377519 -0.152092 -0.273045 -0.160463
4004 0.191176 0.190892 0.312094 -0.0657782 -0.303614 -0.287836 -0.31605 0.0955732 0.0202185 -0.511888 0.513982 0.313707 0.161459 -0.252964 -0.281003 0.313141 -0.595533 0.128183 -0.345235 -0.347371 -0.321184 -0.32834 -0.0146591 -0.0256221 0.260332 -0.125756 0.25841 -0.188582 0.172931 -0.289764 0.102141 0.0985695 0.106583 -0.0335242 -0.242473 -0.157894 0.0206674 -0.141149 0.0702074 0.346693 0.138523 -0.0746336 -0.257349 0.0523794 0.788155 -0.261533 -0.324931 0.45944 -0.151159 0.0766361 -0.128373 0.349395 0.2861 -0.00327696 0.112194 0.469958 -0.0863927 0.17104 0.318133 0.346379 -0.636591 0.28721 -0.596316 -0.188386 -0.64175 0.115444 -0.0134224 -0.242397 0.0756392 -0.212281 0.243409 0.135171 0.13881 -0.480398 0.396244 -0.119287 -0.105732 -0.337228 0.153295 -0.239805 -0.0623007 0.0819718 0.0383344 0.49455 -0.155927 -0.129347 0.606923 0.237239 -0.231964 -0.2082 -0.0303724 0.0922351 -0.413858 0.390074 0.045203 0.0244261 0.391537 -0.0090788 -0.301153 0.121875 -0.361037 0.123343 0.127391 0.483662 -0.166538 -0.255558 0.146774 0.449099 0.132181 -0.00877542 -0.0203969 -0.352612 -0.0346608 0.00750178 0.0121477 -0.0773881 -0.155623 -0.533222 -0.167875 0.309067 -0.501588 0.249532 0.0419507 0.405777 0.363688 -0.169809 -0.2809 -0.126592
3983 0.157438 0.204993 0.293193 -0.0821948 -0.296885 -0.270379 -0.270245 0.108399 0.0890878 -0.440298 0.543936 0.265151 0.17307 -0.157055 -0.235772 0.305423 -0.625732 0.104449 -0.265496 -0.339366 -0.282487 -0.341045 -0.102607 -0.0128634 0.290517 -0.128646 0.20432 -0.148761 0.118301 -0.282067 0.0808534 0.103566 0.0822201 -0.0501712 -0.221306 -0.0914949 -0.0133339 -0.15976 0.0679172 0.386079 0.120804 -0.007612 -0.292396 -0.0617916 0.766383 -0.241941 -0.249708 0.442348 -0.112988 0.095041 -0.157429 0.395032 0.248225 -0.00922733 0.0613141 0.393952 -0.06232 0.0922355 0.2935 0.313716 -0.578514 0.32015 -0.575846 -0.131223 -0.576938 0.137378 -0.0357527 -0.26329 0.0770283 -0.19891 0.193949 0.131283 0.141175 -0.495267 0.315128 -0.120659 -0.106006 -0.301196 0.113904 -0.2454 -0.091797 0.0513911 0.0411469 0.453629 -0.14787 -0.0909207 0.573407 0.216417 -0.237684 -0.232826 -0.0493149 0.0857318 -0.44082 0.383286 0.0072098 -0.0339936 0.380857 -0.0255822 -0.227559 0.086512 -0.414184 0.0736571 0.0602367 0.477971 -0.226484 -0.191798 0.140508 0.434107 0.138837 -0.0302295 -0.104054 -0.38802 -0.0345271 0.0298732 0.0527528 -0.0737956 -0.138816 -0.485184 -0.211952 0.307571 -0.516946 0.240612 0.0506945 0.401634 0.324135 -0.132916 -0.234506 -0.215146
3844 0.174601 0.212529 0.289072 -0.0755156 -0.266852 -0.288222 -0.303134 0.128093 0.0765333 -0.456339 0.523634 0.259475 0.174261 -0.133759 -0.257603 0.316499 -0.557355 0.0857857 -0.2908 -0.344936 -0.307471 -0.380455 -0.145751 -0.0145472 0.278004 -0.164097 0.162595 -0.16981 0.178941 -0.313157 0.134682 0.11666 0.0230964 0.00972141 -0.149654 -0.101454 0.0494244 -0.102546 0.163792 0.397486 0.110426 -0.0121175 -0.290924 -0.0138988 0.713349 -0.265833 -0.252381 0.451766 -0.141621 0.00812233 -0.179176 0.385663 0.29661 -0.0326733 0.0860861 0.416775 -0.054801 0.16058 0.324035 0.281646 -0.583592 0.290635 -0.523466 -0.111952 -0.580665 0.10834 -0.0050745 -0.256189 0.132843 -0.225 0.210652 0.150741 0.154675 -0.404239 0.42761 -0.122805 -0.0726366 -0.342148 0.149968 -0.253388 -0.00773516 0.0841541 0.0324966 0.480043 -0.122032 -0.139714 0.655349 0.163028 -0.21594 -0.255988 -0.0400775 0.125576 -0.428013 0.392157 0.0211678 0.00443932 0.417856 -0.00286485 -0.219889 0.10556 -0.409862 0.0887696 0.0517042 0.423916 -0.0800967 -0.268243 0.174355 0.524853 0.214237 -0.0250841 -0.0150091 -0.403524 -0.0592348 0.030659 -0.0134202 -0.0457116 -0.139864 -0.501398 -0.12568 0.404359 -0.540969 0.293327 0.039494 0.427607 0.350823 -0.116841 -0.251297 -0.199854
786 -0.147919 0.160315 0.200389 0.31707 0.118642 -0.196049 -0.237209 0.0261181 -0.0372731 -0.377656 0.158651 0.104158 0.0286987 -0.218681 0.0392206 0.326665 -0.219788 0.126944 -0.0233236 -0.312466 -0.0359155 0.0293722 -0.41234 0.175578 0.268784 -0.283092 0.35089 -0.0120695 0.722779 -0.0611407 0.32842 0.130663 -0.386259 0.0145814 -0.168075 0.0965361 0.205089 0.171433 -0.174763 0.00382421 0.230921 0.0744572 0.128686 -0.0841376 0.526576 -0.0838073 -0.241874 0.48598 0.0559678 0.385825 -0.309462 0.570906 0.237019 -0.108264 0.0820248 0.22206 0.0762695 -0.0201779 0.0626406 0.147996 -0.270111 -0.113103 -0.157016 0.0332128 -0.441431 0.149512 -0.118862 -0.20705 -0.0065572 -0.315901 0.316107 0.44208 0.393536 0.306789 0.0739958 -0.148519 0.270379 -0.163809 -0.102286 -0.157055 -0.324879 -0.01042 0.115239 0.210307 -0.256971 -0.12696 0.216661 -0.0279911 -0.0616911 -0.324164 -0.128922 0.041969 -0.236884 0.424296 -0.0120761 0.0697895 0.32623 0.153182 -0.0729159 0.0933777 -0.28476 0.211259 0.156228 -0.044798 0.457161 0.221033 0.0845134 0.235019 0.321786 0.432797 0.155462 -0.154192 -0.255936 -0.111408 0.119004 -0.503774 -0.0653146 0.0877387 -0.0433644 0.546024 -0.347634 0.175754 0.0313884 0.337843 0.0383462 0.0420724 -0.0681184 -0.187654
539 0.00211867 0.0334441 -0.0385941 0.0407652 -0.00111383 -0.127649 -0.278545 0.0854147 -0.272185 -0.0280491 -0.134278 0.157829 0.0351074 -0.161826 -0.131737 0.293644 -0.0422931 0.403455 0.0835394 0.0354404 -0.285679 -0.325062 0.137245 -0.166478 0.177515 0.285725 0.613391 -0.296443 0.469649 0.0879303 0.0250873 0.116465 -0.258597 0.1814 -0.429351 0.0414451 0.0782254 -0.263665 -0.307995 0.197915 0.0071799 -0.34874 0.352439 0.0594993 0.591811 -9.7174e-05 -0.367348 0.45953 -0.344003 0.258081 -0.107232 0.449179 0.490933 -0.354656 0.104278 0.275342 0.443435 0.217498 0.469523 0.445686 -0.558944 -0.249593 -0.418902 0.266232 -0.280006 0.0554915 -0.124198 -0.449172 -0.20752 0.233861 0.0963942 0.170149 0.287845 0.0240132 0.146492 -0.353471 0.179501 -0.142726 -0.300442 -0.151586 0.00649484 -0.556503 0.0737877 0.114656 -0.262611 0.0158938 0.00722912 0.0758203 -0.00285925 -0.228609 -0.0436821 -0.283677 -0.461797 0.191377 0.000803317 -0.214186 -0.0822083 0.102211 -0.30415 -0.207175 -0.111849 0.383165 -0.0792607 0.141641 -0.248698 0.0827206 -0.341282 -0.128604 0.233681 0.516529 0.171525 -0.443691 -0.124415 -0.353667 0.000615631 -0.109693 -0.149757 -0.117732 -0.515209 0.183225 -0.311054 -0.169448 -0.14534 0.565619 0.0783651 -0.256693 0.0101173 0.00354087
1771 0.0351291 -0.120173 0.192873 0.0755166 0.0749911 -0.268876 -0.280983 0.128536 -0.185166 -0.260235 0.27976 0.307295 0.114762 -0.0277053 0.0397493 0.508342 -0.143106 0.310953 0.0201329 -0.261365 -0.361065 -0.348048 -0.296555 -0.0671476 0.266307 -0.0698371 0.375804 -0.199437 0.425671 -0.0731048 0.0779095 0.118889 -0.0648216 0.0591343 -0.209342 0.062209 0.0118406 -0.0511096 -0.181703 0.158654 0.139403 -0.0331935 0.0675289 0.0207225 0.565241 -0.105999 -0.261006 0.423246 -0.193093 0.383652 -0.163375 0.344795 0.292299 -0.260496 0.0157903 0.262771 0.220134 0.165997 0.174403 0.19297 -0.370181 -0.212888 -0.233373 0.126914 -0.255189 0.061171 -0.0449001 -0.234372 0.0105213 0.0189027 0.206194 0.143448 0.319815 0.100678 0.270962 -0.111328 0.170875 -0.254842 -0.117081 -0.278971 -0.169594 -0.0674151 0.00903778 0.188969 -0.205925 -0.0467114 0.206331 0.0164354 -0.0682723 -0.278276 -0.126687 -0.0732993 -0.320259 0.338046 -0.0598198 -0.117828 0.123938 0.0848781 -0.0645441 0.0411142 -0.204651 0.22904 0.0180206 0.081485 -0.312672 0.178029 -0.0887229 0.0887199 0.197438 0.307638 0.0928709 -0.391124 -0.179189 -0.205236 0.0773097 -0.370397 -0.162761 -0.100439 -0.244563 0.353591 -0.313529 0.0861129 -0.116201 0.449415 -0.0653637 -0.00406598 -0.00507349 -0.166103
4592 0.0175495 -0.270742 0.205149 0.106416 0.128671 -0.244329 -0.263612 0.101448 -0.250436 -0.232879 0.274168 0.319438 0.0628113 -0.0600635 0.0451986 0.57224 -0.0204003 0.283973 0.0331363 -0.208699 -0.364465 -0.358666 -0.338963 -0.036164 0.205387 -0.0437532 0.376166 -0.168265 0.438103 -0.106533 0.0769053 0.124022 -0.0928891 0.0773652 -0.196376 0.106285 -0.0276426 -0.0183094 -0.197792 0.135752 0.105743 0.00622604 0.0975072 0.0156561 0.493727 -0.0735668 -0.205819 0.439025 -0.192119 0.407216 -0.163154 0.297112 0.30579 -0.198864 0.0651696 0.281095 0.216308 0.151243 0.173517 0.144005 -0.324272 -0.276286 -0.227668 0.107388 -0.267262 0.0704702 -0.0436845 -0.182013 -0.0165356 0.028814 0.259792 0.210199 0.313806 0.195717 0.299405 -0.0683894 0.16823 -0.227489 -0.113457 -0.271697 -0.16995 -0.0756473 0.00301728 0.205669 -0.25928 -0.00632914 0.202381 -0.00521744 -0.036774 -0.279222 -0.152766 -0.0457029 -0.275781 0.318329 -0.0518868 -0.0884701 0.150931 0.148821 -0.0765508 -0.00359351 -0.154623 0.234354 -0.000550014 -0.000457285 -0.32956 0.230862 -0.0995648 0.0777473 0.185877 0.276978 0.185499 -0.315523 -0.167977 -0.249164 0.110358 -0.437971 -0.16236 -0.0410617 -0.226254 0.420113 -0.207827 0.0467908 -0.158932 0.457197 -0.110589 -0.0267161 -0.00508426 -0.154826
57 -0.0017619 -0.175078 0.181242 0.0557123 0.0914302 -0.239411 -0.249001 0.164148 -0.185789 -0.179438 0.248381 0.323331 0.0945616 -0.0322381 0.0144459 0.517866 -0.179756 0.355712 0.0582103 -0.116117 -0.346137 -0.362283 -0.30287 -0.0581954 0.207313 -0.0357908 0.386979 -0.203448 0.441586 -0.113271 0.0563848 0.164571 -0.0972224 0.0965623 -0.225768 0.104128 -0.0261032 -0.0682205 -0.237781 0.151794 0.116043 -0.00864221 0.102933 -0.0421234 0.576822 -0.0648631 -0.246062 0.436635 -0.199504 0.430691 -0.162349 0.312645 0.248298 -0.223051 0.0387108 0.263342 0.303069 0.161138 0.206409 0.20043 -0.360167 -0.21989 -0.262793 0.107633 -0.269686 0.0677236 -0.032451 -0.33072 -0.0610433 0.116367 0.260198 0.150689 0.304695 0.0765607 0.224801 -0.108095 0.191332 -0.245027 -0.133929 -0.305566 -0.112401 -0.139764 0.00719922 0.193453 -0.23958 -0.00357935 0.107496 0.0518505 -0.0532096 -0.268194 -0.126166 -0.0766129 -0.363472 0.324912 -0.0563729 -0.221578 0.123349 0.117633 -0.0724376 -0.0535987 -0.164014 0.209658 0.0113609 0.105922 -0.399175 0.307948 -0.163252 0.0125821 0.158219 0.289246 0.114216 -0.366144 -0.150485 -0.237934 0.105427 -0.370556 -0.146165 -0.0894231 -0.341543 0.288087 -0.286677 0.051516 -0.140664 0.49375 -0.0823283 -0.00774973 -0.0705004 -0.141646
309 -0.00237593 -0.208821 0.242931 0.0818348 0.165176 -0.231418 -0.203202 0.16548 -0.183372 -0.286259 0.365106 0.318806 0.0473089 -0.0576502 -0.0147637 0.606732 -0.084215 0.191411 -0.0198885 -0.221871 -0.341885 -0.37059 -0.407071 -0.0203838 0.289252 -0.0439182 0.283461 -0.148982 0.437167 -0.0913363 0.106571 0.206297 -0.139308 0.0133164 -0.135983 0.146586 -0.00264576 -0.00718397 -0.127408 0.23767 0.0417339 0.0557798 0.0716179 0.0284187 0.54073 -0.0608682 -0.134647 0.464901 -0.223464 0.378478 -0.147624 0.334123 0.346219 -0.178008 0.117047 0.255521 0.274645 0.120958 0.177818 0.145846 -0.370732 -0.253077 -0.216605 0.0834789 -0.306918 0.0496808 -0.0037374 -0.23611 -0.0354057 -0.000759776 0.29456 0.240696 0.288209 0.210445 0.346039 -0.0639897 0.208954 -0.216474 -0.111261 -0.277255 -0.152485 -0.0878378 -0.0202813 0.248963 -0.273083 -0.0570577 0.157941 0.0884691 -0.0120315 -0.328968 -0.114176 0.0173137 -0.335155 0.375307 -0.0462548 -0.153849 0.214367 0.13159 -0.0569586 -0.00706082 -0.116905 0.243843 -0.0563875 0.0376962 -0.373014 0.28787 -0.120998 0.122501 0.142935 0.317391 0.237685 -0.3857 -0.18968 -0.270781 0.165917 -0.433078 -0.0973504 -0.0602214 -0.29076 0.385304 -0.246724 0.091828 -0.20714 0.475849 -0.125816 0.081491 -0.0598624 -0.186406
353 0.0511169 -0.185024 0.200708 -0.0656999 -0.172139 -0.0793581 -0.125729 0.172027 -0.249828 -0.0202969 0.276095 0.269555 0.221288 -0.0263037 0.0521314 0.297912 0.195532 0.255988 0.0593461 -0.35001 -0.289776 -0.2672 -0.130945 -0.171979 0.241318 -0.0625189 0.408758 -0.256757 0.327383 -0.219424 0.144054 0.148227 -0.226962 0.0930624 -0.236733 0.110537 -0.102093 0.0338214 0.0500824 0.18313 0.0120485 -0.165836 -0.0222617 -0.0225719 0.389459 -0.279928 -0.117145 0.359711 -0.187609 0.208584 -0.302362 0.48666 0.487309 -0.313158 -0.121228 0.0663216 0.11424 0.186384 0.369952 0.109913 -0.318926 -0.30607 -0.160021 -0.0115014 -0.104801 0.103895 -0.105951 -0.00125399 0.0621997 0.14515 0.194915 0.125531 0.235818 0.133169 0.32407 -0.067476 0.0928021 -0.145679 -0.13839 -0.281274 -0.0711456 -0.152526 0.05713 0.230837 0.109039 0.0717612 0.385075 -0.112695 0.00179597 -0.13974 -0.084972 -0.0177924 -0.249042 0.304539 0.0383218 -0.102791 -0.0603331 0.0296687 -0.0907267 0.103122 -0.0425985 0.235662 -0.146823 0.0102424 -0.555906 -0.0857614 -0.13039 0.177 0.181711 0.334926 0.0264748 -0.323852 -0.18484 -0.169634 -8.38717e-05 -0.358447 -0.041331 -0.133958 -0.0253256 0.49298 -0.25136 0.127184 -0.154189 0.327454 0.0686952 0.00858548 -0.0184248 -0.204168
468 0.0776474 0.129017 0.163528 -0.214277 -0.12909 -0.0551691 0.0239369 -0.0278853 -0.444386 0.122177 0.220765 0.214053 0.150195 0.00813564 -0.125557 0.21073 0.1353 0.263458 0.385442 -0.433579 -0.25439 -0.170186 -0.0879248 -0.147269 0.0266532 -0.0407523 0.552267 -0.401854 0.559956 -0.246864 0.176992 0.163392 -0.161399 0.0852373 -0.368473 0.167522 -0.163064 0.0340339 0.166841 0.191584 -0.0973948 -0.156714 0.143427 0.0763751 0.471998 -0.507053 -0.0530828 0.263908 -0.280932 0.0913495 -0.435219 0.454568 0.519167 -0.516711 -0.267813 -0.161536 0.295991 0.0497401 0.516145 0.386848 -0.259147 -0.149156 -0.251658 -0.0479586 0.139515 0.103737 -0.234386 0.0655217 -0.0693856 0.378038 0.0679321 0.153553 0.289031 0.197004 0.127045 -0.283917 -0.118592 0.122238 -0.210527 -0.244879 0.0408226 -0.448176 0.159037 0.140241 0.0329155 0.0870278 0.387218 -0.0929843 -0.122519 -0.155262 0.14079 -0.125154 -0.352016 0.276014 0.0421681 -0.176152 -0.0281839 0.136817 0.0252294 -0.189262 0.0564945 0.316454 -0.0568276 0.134788 -0.105847 -0.347124 -0.0986367 0.118854 0.284858 0.289983 -0.0742128 -0.0420803 -0.130528 -0.0348778 -0.383225 -0.209705 0.279681 -0.272385 -0.0665157 0.325513 -0.165768 0.295538 0.0635826 0.277286 0.124201 0.0459262 -0.141219 -0.194049
134 0.088439 -0.0274413 0.0961128 -0.291197 -0.221914 0.117748 0.0239569 0.102039 -0.384867 0.286383 0.198741 0.116232 0.196895 0.0100693 -0.29208 0.111642 0.277336 0.249153 0.33707 -0.431864 -0.214639 -0.184832 2.95645e-05 -0.247731 0.045981 -0.0277537 0.553901 -0.480523 0.430685 -0.311373 0.196534 0.231778 -0.251212 0.130352 -0.421679 0.124888 -0.308476 0.0807 0.263761 0.250269 -0.197274 -0.202615 -0.0471913 0.019952 0.421085 -0.558665 0.0193764 0.2784 -0.304839 -0.00322078 -0.486901 0.518431 0.582094 -0.442501 -0.313689 -0.131311 0.194316 0.0503723 0.618831 0.311674 -0.328803 -0.225668 -0.282706 -0.117936 0.195365 0.0971822 -0.22084 0.142519 -0.0121449 0.509633 0.116084 0.26394 0.302471 0.159461 0.222922 -0.218013 -0.081348 0.0500141 -0.233575 -0.304249 0.109438 -0.414886 0.10611 0.197974 0.215855 0.166358 0.464546 -0.17192 -0.126909 -0.0783486 0.122378 -0.092072 -0.267296 0.245771 0.1062 -0.229846 -0.0424038 0.0769906 -0.121751 -0.163953 0.192959 0.333235 -0.141348 0.0677561 -0.217431 -0.341987 -0.0828436 0.149732 0.372788 0.25079 0.0372019 -0.102022 -0.108441 -0.0638433 -0.291225 -0.211975 0.26193 -0.309498 0.0462136 0.484247 -0.246102 0.318831 0.0286893 0.250594 0.19967 0.035892 -0.187495 -0.233013
1415 0.050879 -0.0356836 0.0836828 -0.260573 -0.211375 0.126765 0.0263598 0.0865091 -0.359633 0.282898 0.176127 0.118137 0.176192 -0.000368581 -0.270279 0.0999396 0.258185 0.237118 0.342829 -0.398851 -0.176837 -0.162821 0.00693378 -0.23025 0.0334152 -0.068673 0.594034 -0.442658 0.430818 -0.307234 0.195997 0.236876 -0.272631 0.132544 -0.384495 0.160158 -0.293404 0.111391 0.228274 0.197791 -0.187794 -0.210206 -0.0208333 0.0384102 0.387942 -0.52493 0.0019305 0.270976 -0.249793 0.0289965 -0.457847 0.521986 0.531031 -0.426069 -0.285189 -0.148886 0.167815 0.0573727 0.586387 0.286441 -0.305816 -0.224143 -0.262596 -0.125081 0.188138 0.117543 -0.215248 0.128106 -0.0419951 0.458167 0.12263 0.255034 0.323609 0.155298 0.179589 -0.216759 -0.0608106 0.067386 -0.2219 -0.27415 0.0658488 -0.417108 0.115451 0.192397 0.208618 0.165997 0.411404 -0.165559 -0.102262 -0.0668551 0.107924 -0.0731843 -0.242386 0.231836 0.0983113 -0.215329 -0.046342 0.085243 -0.0999285 -0.139654 0.17982 0.314712 -0.120086 0.0586784 -0.228754 -0.298069 -0.0887886 0.120671 0.350305 0.242709 0.0123495 -0.076959 -0.0981758 -0.0650572 -0.254078 -0.241254 0.238348 -0.260615 0.0453647 0.43893 -0.210959 0.28906 0.0248826 0.236335 0.189551 0.0455929 -0.178381 -0.229948
295 0.0742256 -0.0789147 0.0657529 -0.291375 -0.159801 0.0843531 0.0244289 0.0434404 -0.402555 0.289202 0.157299 0.120027 0.169414 0.00945547 -0.281156 0.143965 0.278866 0.221683 0.335745 -0.383641 -0.209943 -0.199116 0.014015 -0.238654 0.0177739 -0.0459339 0.617509 -0.43592 0.413388 -0.302706 0.174438 0.215206 -0.259161 0.142323 -0.369639 0.156237 -0.298862 0.103015 0.2128 0.216406 -0.194766 -0.227852 -0.008116 0.0451077 0.358453 -0.513773 0.0102676 0.289949 -0.304273 0.0196668 -0.43206 0.463987 0.56599 -0.419236 -0.249074 -0.113011 0.16044 0.0981245 0.601043 0.302437 -0.300995 -0.250764 -0.286209 -0.108341 0.164293 0.0626775 -0.174199 0.138977 -0.0874137 0.465303 0.121177 0.253564 0.325665 0.168524 0.22758 -0.227066 -0.0932295 0.0625813 -0.193571 -0.272199 0.0770618 -0.474995 0.0997922 0.227691 0.182959 0.173817 0.448329 -0.152729 -0.0979823 -0.10434 0.0612881 -0.136397 -0.242782 0.221831 0.0823374 -0.208 -0.0192956 0.0913641 -0.102869 -0.168864 0.168982 0.318316 -0.111496 0.0645079 -0.303647 -0.336955 -0.123461 0.136667 0.368185 0.221226 0.0378397 -0.0566846 -0.107825 -0.0967603 -0.273554 -0.250804 0.231232 -0.273625 0.0270005 0.469694 -0.190069 0.283319 0.019377 0.274792 0.202926 -0.0105314 -0.145841 -0.209554
3707 0.0218493 -0.0708317 0.102514 -0.220044 -0.193561 0.0857519 -0.0158904 0.155276 -0.380926 0.264766 0.142327 0.15328 0.209681 0.0284075 -0.223749 0.0972452 0.254011 0.314272 0.304393 -0.351124 -0.182599 -0.183427 -0.0136564 -0.211545 0.0827162 -0.0430849 0.53438 -0.43455 0.44949 -0.323069 0.177912 0.237812 -0.239929 0.149596 -0.389526 0.142497 -0.264227 0.0852763 0.188937 0.199405 -0.141909 -0.185754 -0.0167837 -0.0221287 0.408089 -0.480769 0.00592919 0.279437 -0.244953 0.00749274 -0.487697 0.52447 0.534329 -0.418308 -0.287772 -0.0987675 0.197175 0.0854424 0.540024 0.249677 -0.28471 -0.256342 -0.253445 -0.116994 0.124949 0.0996687 -0.193088 0.0852128 -0.0104925 0.43887 0.149396 0.213342 0.286035 0.172756 0.203543 -0.23331 -0.00931596 0.00116886 -0.222346 -0.272881 0.084047 -0.348936 0.100149 0.18157 0.203178 0.16853 0.388716 -0.183236 -0.0930766 -0.089863 0.0662138 -0.075243 -0.257009 0.257919 0.106169 -0.253396 -0.0459299 0.0565851 -0.106667 -0.127407 0.127814 0.275115 -0.16015 0.0427283 -0.269192 -0.226736 -0.116348 0.104019 0.346584 0.301102 0.00636701 -0.150479 -0.12003 -0.0799735 -0.212059 -0.215164 0.183707 -0.21628 0.0126179 0.43466 -0.234962 0.247747 -0.0114535 0.243348 0.140949 0.0396594 -0.16139 -0.226136
921 0.0891712 -0.0393444 0.149639 -0.247904 -0.264814 0.156475 0.0200568 0.182732 -0.318266 0.26919 0.235599 0.109366 0.24242 -0.0027312 -0.214602 0.121669 0.279014 0.249032 0.295268 -0.425731 -0.174854 -0.166845 -0.0239916 -0.218417 0.13275 -0.0162897 0.512 -0.4222 0.408682 -0.282632 0.194022 0.253943 -0.30477 0.141609 -0.412836 0.146553 -0.29641 0.0861717 0.245167 0.244564 -0.192836 -0.18575 -0.0647446 -0.02437 0.406201 -0.506989 0.00925974 0.274484 -0.285975 0.0260943 -0.492742 0.570907 0.583285 -0.428277 -0.326812 -0.165767 0.227793 0.0268635 0.557878 0.260893 -0.323082 -0.273818 -0.222475 -0.0858473 0.208723 0.100141 -0.228089 0.124924 0.0372656 0.519561 0.114691 0.274721 0.256116 0.213458 0.218592 -0.187498 -0.0255924 0.0122045 -0.27181 -0.329579 0.100788 -0.341452 0.109946 0.19669 0.229347 0.133496 0.40135 -0.158904 -0.095714 -0.0418293 0.148536 -0.0720934 -0.246983 0.224614 0.114436 -0.242761 -0.0920888 0.0696489 -0.0975033 -0.134548 0.205663 0.362319 -0.171121 0.0412662 -0.348089 -0.238933 -0.124569 0.112068 0.331407 0.337308 0.0458797 -0.169496 -0.105919 -0.111308 -0.219542 -0.237248 0.224438 -0.29676 0.051434 0.455459 -0.245151 0.292243 -0.00519142 0.246528 0.163749 0.0709986 -0.180676 -0.221291
546 0.153329 0.174236 0.174307 -0.351442 -0.195334 0.0025731 0.0709082 0.101283 -0.305628 0.0700716 0.370941 0.16113 0.138525 -0.0330253 -0.25036 0.202012 0.179787 0.115693 0.227931 -0.699053 -0.330162 -0.222009 -0.06284 -0.2535 0.16968 0.128701 0.372993 -0.44017 0.40356 -0.143895 0.150677 0.340975 -0.0728143 -0.24215 -0.402435 0.0745653 -0.363578 -0.010317 0.326485 0.534191 -0.199559 -0.100577 -0.124644 0.130464 0.566797 -0.684365 0.219851 0.158209 -0.422894 -0.0581355 -0.350536 0.479605 0.698493 -0.484873 -0.346394 -0.114596 0.272494 -0.0400315 0.353166 0.350045 -0.384686 -0.120854 -0.362155 0.0653414 0.372735 0.0894839 -0.244669 0.128236 0.26085 0.49571 -0.118869 0.367024 0.337266 0.178688 0.276707 -0.301965 -0.179542 0.0579123 -0.262674 -0.411039 0.187812 -0.271207 0.0220875 0.0409673 0.0964012 -0.0867223 0.405795 -0.141858 -0.227341 -0.0327855 0.307835 -0.113126 -0.264556 0.405668 0.193892 -0.192138 0.00757724 0.0874765 -0.0180382 -0.142422 0.355943 0.426314 -0.269787 0.126907 0.0499261 -0.397044 0.0202897 0.14753 0.280188 0.277025 0.0832763 -0.179306 -0.0207312 -0.0389343 -0.466706 -0.0477042 0.406337 -0.338292 -0.0895082 0.29302 -0.274418 0.454158 0.0291262 0.193789 -0.0787408 0.225794 -0.181528 -0.312142
1895 0.168611 0.224428 0.278416 -0.361401 -0.200553 -0.0510361 0.0800239 0.0854665 -0.350442 0.0139524 0.400339 0.202316 0.130956 -0.0715537 -0.264738 0.221713 0.216156 0.098061 0.200751 -0.73706 -0.306656 -0.193258 -0.069217 -0.178086 0.208007 0.198068 0.271959 -0.422152 0.443375 -0.155783 0.152151 0.384173 -0.0252783 -0.322765 -0.395802 0.0292324 -0.408285 -0.0299561 0.337301 0.610428 -0.219601 -0.0102441 -0.136918 0.139062 0.582092 -0.682027 0.293551 0.142742 -0.476384 -0.0878556 -0.357732 0.435996 0.731754 -0.443017 -0.341867 -0.0813993 0.338656 -0.0575198 0.239108 0.351694 -0.371643 -0.149709 -0.42556 0.0790017 0.365133 0.102663 -0.266053 0.153684 0.346213 0.472154 -0.143689 0.443679 0.289499 0.241537 0.309122 -0.344858 -0.237282 0.0559075 -0.232601 -0.415724 0.249142 -0.19449 0.0377648 0.0543453 0.01311 -0.157915 0.381285 -0.141746 -0.258329 -0.049822 0.327039 -0.126377 -0.212192 0.441832 0.265328 -0.190136 0.0504407 0.0824159 -0.0146236 -0.234556 0.37195 0.453167 -0.315518 0.159098 0.193802 -0.437581 0.0689175 0.16908 0.257329 0.340456 0.101359 -0.148989 -0.0484075 -0.0717392 -0.521253 0.0195294 0.47103 -0.376852 -0.135894 0.237845 -0.257636 0.479574 0.0510841 0.212714 -0.172901 0.200689 -0.191759 -0.31862
2125 0.157964 -0.186229 0.0986705 -0.317802 0.414606 -0.235271 -0.068014 -0.364731 -0.187514 -0.194562 0.0993164 0.0685832 -0.641838 -0.487875 -0.552669 0.41141 0.19792 -0.467994 -0.245613 -0.26368 -0.221436 -0.0590877 0.0290799 0.232339 0.0566596 0.0341226 0.478556 0.000810401 0.230041 -0.242534 -0.0852688 0.426234 -0.267056 -0.410256 -0.208608 0.154836 -0.251317 -0.209869 0.143459 0.401842 -0.357043 -0.164392 0.0172928 0.468511 0.366329 -0.232316 0.222092 0.438711 -0.588581 0.193216 0.318311 -0.0253825 0.758689 -0.0572552 0.480592 0.411065 0.312287 0.360419 0.0745457 0.1953 -0.644147 -0.308546 -0.439903 0.0135754 -0.478408 -0.104263 -0.0112226 -0.0707304 -0.282603 -0.147349 0.316503 0.552787 0.442629 0.192843 0.856193 -0.27471 -0.0150003 -0.247924 0.237931 -0.389113 0.0192933 -0.301193 0.0600786 0.557703 -0.590578 -0.247851 0.205837 0.19607 -0.101306 -0.18928 -0.0642488 -0.198335 -0.22816 0.175186 0.0399136 0.185416 0.55923 0.452362 -0.23855 -0.0796285 0.425609 0.43294 -0.119047 -0.0383031 -0.252509 -0.154656 -0.224718 0.520043 -0.05588 0.0665034 0.770372 -0.0246331 0.0733727 -0.320178 -0.0665979 -0.844281 -0.0200333 -0.38307 -0.158798 0.37861 -0.00860054 0.123313 -0.288873 0.532806 -0.259069 -0.0768178 0.0799427 -0.066252
4578 0.0509916 -0.0596462 0.185685 -0.264744 0.414571 -0.250164 -0.0427785 -0.236857 -0.07995 -0.281307 0.12197 0.111966 -0.504956 -0.452321 -0.460903 0.469999 0.107713 -0.342917 -0.247373 -0.184224 -0.206824 -0.0198704 0.0488019 0.161493 0.195447 -0.0451472 0.460535 -0.0329616 0.336672 -0.201684 -0.0188106 0.279859 -0.237701 -0.318156 -0.214981 0.164992 -0.155956 -0.0805702 0.058069 0.327374 -0.239966 -0.172376 -0.0129409 0.328021 0.533288 -0.23594 0.160909 0.470863 -0.393158 0.236165 0.209851 0.0464942 0.660292 -0.0411747 0.447587 0.47587 0.162945 0.300275 0.119033 0.238735 -0.66226 -0.287521 -0.424494 -0.0938207 -0.550772 -0.037187 0.106871 -0.128812 -0.316765 -0.179776 0.406112 0.390356 0.402805 0.082405 0.701831 -0.1937 0.0201111 -0.24136 0.249217 -0.343229 -0.0289051 -0.335397 0.0110764 0.625583 -0.504994 -0.156657 0.170287 0.242332 -0.0140483 -0.291188 -0.170379 -0.112696 -0.278377 0.234216 -0.0986051 0.0766842 0.44487 0.309344 -0.171178 0.0710441 0.276583 0.280296 -0.0740837 0.0395084 -0.094961 0.0136543 -0.252472 0.409021 -0.0934767 0.0792899 0.656728 -0.112458 -0.0105043 -0.352155 0.0456771 -0.787513 -0.0555438 -0.244538 -0.198719 0.402838 -0.0343902 0.214687 -0.270726 0.559681 -0.177729 0.0321734 0.0389777 -0.124926
1832 0.0770054 0.0608686 0.144863 -0.314551 0.380285 -0.259558 -0.016979 -0.292855 -0.0930382 -0.255259 0.0897191 0.037474 -0.628276 -0.458164 -0.511025 0.461122 0.188414 -0.457471 -0.201385 -0.223342 -0.181967 0.0190812 0.0548992 0.250058 0.189438 0.0102164 0.454328 -0.00903771 0.274114 -0.154609 -0.0219338 0.33562 -0.367346 -0.396287 -0.225119 0.161503 -0.201455 -0.147407 0.0890791 0.422081 -0.304774 -0.127051 0.00644239 0.388177 0.515895 -0.151584 0.225539 0.445879 -0.496241 0.209319 0.311757 0.106805 0.756672 -0.0109893 0.461883 0.467923 0.239945 0.231617 0.12685 0.247766 -0.698855 -0.274222 -0.486573 -0.0209619 -0.524024 -0.00974622 -0.0178335 -0.118453 -0.313521 -0.205938 0.326913 0.537914 0.424717 0.0958358 0.737468 -0.270511 -0.0395802 -0.204529 0.178558 -0.27297 -0.0172478 -0.388309 0.0926535 0.61898 -0.587335 -0.142516 0.202228 0.227692 -0.0520771 -0.254646 -0.0851992 -0.151125 -0.305665 0.227656 -0.0644659 0.178817 0.464133 0.370342 -0.201612 -0.038822 0.276076 0.390002 -0.167546 0.00924237 -0.0129641 -0.121481 -0.239753 0.537643 -0.111888 0.116532 0.69897 -0.102471 0.0196736 -0.375577 -0.0126057 -0.738468 -0.000742406 -0.302389 -0.210162 0.447107 -0.101649 0.207363 -0.256332 0.578397 -0.173306 -0.0734418 0.105655 -0.110453
4363 -0.00437831 -0.0966756 0.213209 -0.159154 0.269654 -0.364693 -0.0900059 -0.157097 -0.210544 -0.279671 0.166481 0.279083 -0.256938 -0.371334 -0.265312 0.53273 0.0652038 -0.187847 -0.121072 -0.251356 -0.257698 -0.0676329 0.0267852 0.0750088 0.170748 -0.0817591 0.425092 -0.0437065 0.381233 -0.143522 0.0620143 0.20146 -0.248514 -0.238433 -0.0590213 0.203412 -0.0168489 -0.0405389 -0.153894 0.225173 -0.120598 -0.0899613 0.0789495 0.338809 0.455134 -0.0890027 0.0338039 0.362228 -0.282462 0.223825 0.144385 0.174368 0.635156 0.0423298 0.471915 0.42737 0.094444 0.257208 0.125054 0.180331 -0.516794 -0.189185 -0.340906 -0.0324062 -0.432944 -0.0443358 0.102134 -0.13822 -0.433598 -0.187161 0.297677 0.288006 0.316354 0.0724046 0.500815 -0.189977 -0.0198749 -0.115967 0.0898096 -0.116804 -0.0305353 -0.370909 0.0486487 0.469086 -0.394529 -0.0673659 0.147189 0.201818 0.0610858 -0.240513 -0.115992 -0.0473956 -0.229381 0.249822 -0.0791865 0.124981 0.324485 0.187545 -0.0699472 0.0322036 0.108867 0.232171 -0.0339154 0.145593 -0.195921 -0.0594106 -0.298584 0.386194 -0.110931 0.178788 0.408238 -0.156177 -0.00761818 -0.455227 -0.0978999 -0.556601 0.0579968 -0.158844 -0.189652 0.310442 0.0302208 0.246966 -0.275329 0.516315 -0.0153233 -0.0998021 -0.0155995 0.0287758
5522 -0.00873688 -0.232979 0.251546 0.00280483 0.11298 -0.289047 -0.200544 0.129143 -0.257163 -0.21836 0.343102 0.375747 0.106037 -0.0112203 0.0265265 0.610593 -0.0128794 0.2975 0.0894732 -0.196897 -0.353029 -0.361232 -0.373825 -0.113017 0.227919 -0.0464086 0.368864 -0.220703 0.417258 -0.0913188 0.0917098 0.116645 -0.0588876 0.0213605 -0.194006 0.0907268 -0.101928 -0.00335311 -0.213738 0.190977 0.130566 0.0372308 0.0820498 -0.00619017 0.570171 -0.0964668 -0.156305 0.485999 -0.193347 0.477237 -0.139181 0.313185 0.317464 -0.1821 0.042655 0.272353 0.210835 0.119454 0.21701 0.148583 -0.33794 -0.274672 -0.277978 0.0568349 -0.23765 0.116771 -0.0386969 -0.148351 -0.0163255 0.0592598 0.27719 0.183092 0.328255 0.0966666 0.306946 -0.0814464 0.152575 -0.191068 -0.139304 -0.250644 -0.241103 -0.120003 0.0176494 0.215858 -0.222095 0.0453697 0.200837 0.0196039 -0.00544659 -0.295476 -0.202467 -0.0503805 -0.325387 0.417543 -0.050012 -0.159454 0.122084 0.0685247 -0.0807188 -0.00364928 -0.188108 0.203206 -0.0299702 0.0669649 -0.329859 0.240623 -0.102258 0.105219 0.152464 0.287898 0.10369 -0.343472 -0.247507 -0.261319 0.158125 -0.395483 -0.111593 -0.0165939 -0.306681 0.455789 -0.235595 0.0542909 -0.188684 0.480017 -0.116363 -0.0221839 0.00144649 -0.20508
2812 0.0352764 -0.150496 0.233578 0.0883214 0.0339058 -0.246969 -0.297202 0.164148 -0.205445 -0.245857 0.291634 0.309759 0.11946 -0.0427114 0.0326211 0.495748 -0.137953 0.359447 0.0928474 -0.208396 -0.374641 -0.443066 -0.301051 -0.0905314 0.284442 0.0358924 0.391658 -0.241508 0.384029 -0.0845629 0.111079 0.136353 -0.0818866 0.10807 -0.254372 0.123985 0.0127527 -0.108114 -0.146839 0.186083 0.0800411 -0.034236 0.1174 -0.0398096 0.559483 -0.0960223 -0.289702 0.478745 -0.233985 0.422114 -0.209153 0.365787 0.345888 -0.235135 -0.0245182 0.233614 0.288745 0.15943 0.251708 0.212765 -0.357438 -0.237681 -0.25551 0.164706 -0.238027 0.130684 -0.0990346 -0.218321 0.00995974 0.106795 0.206768 0.180122 0.285575 0.102805 0.212737 -0.121899 0.164181 -0.226838 -0.174642 -0.255808 -0.140395 -0.129565 0.00760209 0.19957 -0.203039 0.02455 0.167228 0.02633 -0.0662529 -0.28453 -0.113455 -0.105859 -0.338675 0.28625 -0.0539676 -0.155672 0.0930644 0.112817 -0.108825 -0.0296825 -0.230132 0.201696 -0.0387211 0.110583 -0.417957 0.216844 -0.129214 0.0708369 0.211915 0.349668 0.0413765 -0.410574 -0.189729 -0.246391 0.112176 -0.352203 -0.148204 -0.102152 -0.31407 0.367993 -0.290572 0.045688 -0.144501 0.46596 -0.0508155 -0.00660696 -0.021417 -0.188358
1810 -0.00393812 -0.114562 0.372288 0.0878604 -0.0628145 -0.334948 -0.300149 0.0957293 0.0284333 -0.250102 0.281619 0.191929 -0.150923 -0.284568 0.210436 0.213207 -0.273449 0.338533 0.109291 -0.157644 -0.284764 -0.323646 -0.289084 0.238095 0.277465 -0.0109224 0.359675 -0.157826 0.272397 -0.14675 0.129292 0.343767 -0.147243 -0.14304 -0.340701 0.277401 -0.153178 -0.211457 -0.15544 0.130009 -0.0451001 0.0644602 0.00377226 -0.330599 0.370314 -0.170243 -0.32808 0.4259 -0.0812577 0.766974 -0.0985152 0.207133 0.288732 -0.00752769 -0.0390495 0.195594 0.340418 0.233546 -0.0764584 0.0758985 -0.16368 -0.187192 -0.172729 0.277285 -0.0256897 0.398718 -0.268245 -0.187727 0.113391 0.064569 0.213357 0.453872 0.435558 0.0509932 0.149932 -0.236486 0.155911 -0.313125 -0.198466 -0.399937 -0.0482945 -0.00699749 0.153748 0.240698 -0.253991 0.0870673 -0.0177263 -0.0516981 -0.075057 -0.136216 -0.167401 -0.22397 -0.161712 0.217874 -0.0067373 -0.0262692 0.22993 0.470582 -0.154641 -0.0634315 -0.0697376 0.125134 -0.0747362 0.10866 -0.498115 0.31233 -0.174126 0.234774 0.0483872 0.302315 -0.0416153 -0.151916 0.0146406 -0.299959 0.0704438 -0.591655 -0.0909667 -0.198849 -0.35142 0.308049 -0.402875 0.206074 -0.0280265 0.412957 -0.171823 0.0353819 0.048367 -0.103214
547 0.0553209 -0.167679 0.210269 0.0711516 0.103515 -0.240424 -0.2282 0.155377 -0.173197 -0.271121 0.320867 0.32174 0.0976216 0.00454766 0.0349814 0.550306 -0.124313 0.26867 0.0157933 -0.189666 -0.362264 -0.395158 -0.365062 -0.0509638 0.234874 -0.0398213 0.321528 -0.192198 0.405492 -0.0647097 0.0904706 0.122466 -0.0622839 0.079776 -0.1605 0.0845851 -0.00847791 -0.0464506 -0.141998 0.208472 0.0922645 -0.00671983 0.0747784 0.0198722 0.492471 -0.0644397 -0.238667 0.428587 -0.210539 0.384887 -0.143966 0.296495 0.287225 -0.208128 0.0349953 0.238912 0.254343 0.159897 0.203016 0.161114 -0.337823 -0.234651 -0.191786 0.0923061 -0.238482 0.0618689 -0.0428269 -0.230767 0.0354779 0.0511398 0.238273 0.151965 0.271973 0.134871 0.299392 -0.0430264 0.186407 -0.234539 -0.108479 -0.279493 -0.152924 -0.0558091 -0.00307251 0.190781 -0.207291 -0.023455 0.202357 0.0379233 -0.0325012 -0.297483 -0.108747 -0.0270225 -0.315422 0.332988 -0.0616415 -0.162965 0.135191 0.109686 -0.0677728 -0.0320409 -0.177963 0.221122 -0.0259525 0.0373234 -0.318357 0.19827 -0.0917039 0.0999448 0.152502 0.278791 0.149885 -0.380604 -0.192378 -0.197581 0.114634 -0.342271 -0.15869 -0.0977446 -0.247323 0.36905 -0.274272 0.0821867 -0.165669 0.431915 -0.0887717 0.0255484 -0.0277883 -0.154371
425 0.0350042 -0.200925 0.202034 0.137918 0.0998903 -0.215342 -0.254105 0.125107 -0.141867 -0.256311 0.345869 0.326812 0.0808152 -0.0653701 0.0477834 0.558165 -0.198539 0.277453 0.0497714 -0.16205 -0.366248 -0.35294 -0.349373 -0.0538874 0.189971 -0.0316369 0.338721 -0.17139 0.43179 -0.0876337 0.0859167 0.135337 -0.132889 0.13211 -0.143024 0.0981424 0.0105349 -0.0274212 -0.219397 0.152153 0.108188 -0.0467803 0.11949 -0.00677846 0.521425 -0.0643631 -0.2461 0.430999 -0.144967 0.440905 -0.144799 0.326653 0.261443 -0.17579 0.046936 0.227008 0.238068 0.143212 0.204158 0.195096 -0.348595 -0.175976 -0.231329 0.0925827 -0.243859 0.0702633 -0.00622621 -0.267199 -0.0186098 0.0700488 0.231482 0.168337 0.281343 0.117063 0.212502 -0.0418177 0.179621 -0.221317 -0.0962683 -0.300298 -0.126983 -0.108948 0.00270035 0.200488 -0.245489 -0.0349483 0.151005 0.0372623 -0.057706 -0.270386 -0.0796857 -0.0211999 -0.300921 0.333531 -0.0359445 -0.127176 0.111226 0.13339 -0.018656 -0.0139934 -0.151094 0.207809 0.0437206 0.0824932 -0.365989 0.250553 -0.120992 0.0379322 0.119554 0.226307 0.129549 -0.332725 -0.13703 -0.193544 0.11796 -0.361974 -0.178818 -0.0930427 -0.272571 0.347139 -0.22117 0.0879812 -0.142369 0.453228 -0.0540055 0.0183683 -0.0879284 -0.122206
2942 0.00160322 -0.205528 0.259934 0.083157 0.0718239 -0.157903 -0.188915 0.357755 -0.126528 -0.264503 0.484467 0.415378 0.195989 -0.127614 -0.100177 0.520342 -0.25526 0.329928 0.0136503 -0.0363895 -0.358017 -0.332382 -0.389549 -0.3615 0.0345366 -0.130234 0.468684 -0.422998 0.272805 0.169152 0.277183 0.0171809 -0.0201201 0.14864 -0.26042 0.00240433 0.00660927 0.0112319 -0.220051 -0.0391866 0.11552 -0.0886399 0.113322 0.133237 0.528884 -0.0114618 -0.557461 0.485987 -0.086284 0.704318 -0.0100185 0.165244 0.0160718 0.0608599 0.131854 0.101157 0.15882 -0.0668464 0.447202 0.205899 -0.303388 -0.0200341 -0.0336774 -0.169883 -0.0949086 0.141614 -0.011715 -0.194401 -0.154031 0.240154 0.360914 0.122578 0.256949 -0.244626 0.142087 0.0702147 0.288311 -0.0494516 -0.305373 -0.0355557 -0.366351 -0.0194521 0.104306 0.147992 0.0183509 0.113423 0.109045 0.300052 0.0348104 -0.00881592 -0.0144355 0.0703161 -0.264619 0.259154 -0.107684 -0.17653 0.169812 0.132035 -0.376605 0.0916212 0.0114086 0.224408 0.313795 0.106539 -0.400468 0.365813 -0.0668715 0.015812 -0.0192681 0.218266 0.117961 -0.299529 -0.232895 -0.185246 0.319615 -0.237152 0.00411076 -0.0869117 -0.228353 0.351956 -0.119055 0.0588471 -0.236048 0.212765 0.268582 0.0260278 -0.157619 0.126673
4937 -0.121669 -0.280323 0.0841878 0.124457 0.238463 0.0284283 0.00346173 0.334849 -0.0509692 -0.119828 0.507421 0.305767 0.0260302 -0.178516 -0.406974 0.461856 -0.380811 0.219946 0.0342702 0.104048 -0.265121 -0.280545 -0.457958 -0.435611 -0.321497 -0.314278 0.591968 -0.465074 0.24673 0.114161 0.43064 0.113745 -0.0158875 0.0503742 -0.306477 0.0921946 -0.175142 0.172119 -0.15762 -0.00566826 0.0136541 -0.00347523 0.0663221 0.233453 0.4558 -0.0580041 -0.583066 0.509867 0.00580715 0.83174 0.116689 -0.00767668 -0.161621 0.252259 0.196585 0.0371108 0.0137297 -0.188785 0.707222 0.179276 -0.230151 0.124371 -0.0425048 -0.450032 -0.129404 0.276805 -0.0891856 -0.166729 -0.419586 0.330108 0.578744 0.343925 0.431647 -0.398725 0.0884207 0.146465 0.353129 0.0652997 -0.365923 -0.01819 -0.473094 -0.05314 0.0964516 0.0915491 0.167386 0.215896 0.0787422 0.395251 0.026857 0.0952293 0.0871541 0.219492 -0.281404 0.321283 -0.0670251 -0.234895 0.34976 0.296019 -0.551386 0.0652711 0.203814 0.174027 0.432195 0.069769 -0.0648181 0.490187 0.098472 0.097617 0.00411309 -0.0454967 0.257892 -0.0988937 -0.094892 -0.039264 0.423395 -0.362971 0.116571 -0.063617 -0.141899 0.470453 -0.0522479 0.094391 -0.192793 0.0449536 0.283187 0.0711127 -0.372175 0.208586
4559 -0.144146 -0.26612 0.0962515 0.123001 0.271301 -0.000191984 0.00965132 0.32328 -0.107272 -0.0917309 0.478167 0.336064 0.0432193 -0.220283 -0.419976 0.442944 -0.34452 0.234209 0.0673474 0.0687377 -0.227659 -0.246755 -0.449576 -0.436443 -0.372256 -0.377694 0.590141 -0.417877 0.263915 0.0943893 0.414437 0.0963385 -0.035362 0.0544745 -0.317458 0.0869423 -0.136623 0.191118 -0.192581 -0.0265546 0.0652963 0.034083 0.070281 0.229418 0.485027 -0.0484033 -0.576966 0.515893 0.0375939 0.810214 0.150726 0.00822214 -0.21224 0.226911 0.206844 0.0836168 0.00747149 -0.211206 0.706947 0.154273 -0.264813 0.111336 -0.0707082 -0.484845 -0.208448 0.277797 -0.0880133 -0.195804 -0.454098 0.288889 0.594255 0.34158 0.439015 -0.423389 0.108452 0.133807 0.34376 0.0628124 -0.398496 -0.0174624 -0.477092 -0.0395334 0.133598 0.0941562 0.137009 0.220263 0.0883019 0.374941 0.0532103 0.128195 0.0781424 0.245269 -0.354499 0.338096 -0.0900296 -0.236682 0.348619 0.279933 -0.531326 0.0787298 0.139289 0.15619 0.425719 0.0757334 -0.00254705 0.507448 0.0950973 0.115418 0.0316795 -0.0637083 0.24173 -0.0698878 -0.0570081 -0.0898706 0.411147 -0.393301 0.144898 -0.0528227 -0.170401 0.499083 -0.0314712 0.109992 -0.199458 0.0740435 0.29131 0.0256489 -0.372604 0.233308
4030 -0.152263 -0.258594 0.085874 0.108328 0.288071 0.0510205 0.0529236 0.369438 -0.0955165 -0.0585066 0.465317 0.282777 0.0581708 -0.144338 -0.394014 0.442976 -0.30012 0.220025 0.05318 0.0720411 -0.225341 -0.278121 -0.478639 -0.440335 -0.304091 -0.37282 0.608066 -0.446925 0.291979 0.138475 0.465581 0.152232 -0.0578149 0.042736 -0.279227 0.150133 -0.157052 0.240076 -0.128028 0.005252 -0.0317577 0.0233205 0.0524663 0.248212 0.394263 -0.0691782 -0.579418 0.476246 0.0157257 0.776992 0.101683 -0.00694039 -0.153286 0.207097 0.19698 -0.0194519 0.027104 -0.19429 0.7122 0.150402 -0.19141 0.0564849 0.0375086 -0.447165 -0.0804224 0.251367 -0.0838592 -0.159511 -0.457054 0.351072 0.57955 0.370075 0.441722 -0.298021 0.10573 0.128449 0.365842 0.0999425 -0.425419 -0.0022984 -0.437334 -0.0739762 0.107979 0.0802924 0.23253 0.209793 0.0616424 0.392323 0.113621 0.0857936 0.105709 0.237842 -0.264594 0.314354 -0.0767221 -0.264201 0.337817 0.307047 -0.508246 0.0486016 0.238826 0.198758 0.393739 0.0307934 -0.0549974 0.484425 0.0706137 0.0970614 0.0581287 0.0231017 0.275375 -0.0940933 -0.0914633 -0.105447 0.393003 -0.364041 0.187654 -0.0350596 -0.120791 0.456224 -0.0184567 0.148696 -0.199596 0.0290161 0.275093 0.106306 -0.374561 0.227167
4893 -0.17217 -0.304952 0.0725642 0.129771 0.302186 -0.0150146 -0.0177349 0.310434 -0.160364 -0.0677147 0.464908 0.339097 0.0411625 -0.190129 -0.383979 0.485446 -0.320969 0.259133 0.0792556 0.0440874 -0.255058 -0.273609 -0.475684 -0.427672 -0.363197 -0.394949 0.633358 -0.416455 0.308332 0.0765792 0.407971 0.116785 -0.0773295 0.0581548 -0.323659 0.11451 -0.142285 0.214239 -0.20969 -0.0297364 0.0718729 0.0495149 0.0952967 0.244243 0.48609 -0.0426134 -0.561059 0.49692 0.00909532 0.797933 0.124214 0.0302807 -0.178516 0.188274 0.219056 0.0813796 0.023105 -0.219864 0.710326 0.154421 -0.248424 0.0944557 -0.058925 -0.438986 -0.190968 0.245656 -0.100547 -0.219986 -0.486032 0.289081 0.585837 0.358169 0.46908 -0.364809 0.0879855 0.10151 0.350309 0.076011 -0.399397 -0.000898862 -0.470402 -0.0695288 0.114511 0.077725 0.124038 0.220272 0.0983448 0.354197 0.0433651 0.101505 0.0681963 0.221941 -0.358648 0.36556 -0.0857657 -0.239175 0.363234 0.306857 -0.518013 0.0625223 0.155649 0.183169 0.42003 0.0474159 -0.040553 0.519002 0.0874023 0.0989782 0.066956 -0.0218945 0.261982 -0.0689551 -0.0602747 -0.0934204 0.371347 -0.411204 0.155066 -0.00795549 -0.165401 0.494264 -0.0267882 0.113738 -0.188927 0.0791374 0.276935 0.024757 -0.354384 0.213675
3976 -0.131312 -0.243857 0.0976587 0.116864 0.283907 0.0154712 0.0185033 0.337412 -0.0933481 -0.114145 0.448173 0.312018 0.0489092 -0.191558 -0.409017 0.497775 -0.327904 0.229805 0.0431636 0.0711489 -0.246718 -0.273484 -0.464819 -0.419106 -0.332197 -0.365131 0.621008 -0.434451 0.319088 0.134247 0.450833 0.129805 -0.0661452 0.0788668 -0.291912 0.107468 -0.131351 0.215363 -0.175698 -0.00382233 0.0192685 0.0217433 0.0749663 0.255644 0.440781 -0.0447002 -0.605394 0.524439 -0.0180393 0.814884 0.126041 0.00416192 -0.157567 0.220489 0.222187 0.0769169 0.0320825 -0.168547 0.712968 0.172961 -0.246384 0.0468857 -0.0291272 -0.444465 -0.150628 0.236551 -0.0799946 -0.204989 -0.454974 0.315835 0.598384 0.375746 0.443478 -0.323483 0.129929 0.151949 0.371408 0.0591717 -0.397679 -0.0327819 -0.44108 -0.0708123 0.122031 0.118386 0.141333 0.202687 0.0873818 0.400111 0.0772836 0.0696898 0.0859761 0.22096 -0.305595 0.311599 -0.0958494 -0.248202 0.339399 0.297874 -0.523785 0.0246944 0.181829 0.221082 0.424275 0.0448126 -0.0193616 0.496458 0.0622341 0.103152 0.0522757 0.00529854 0.304109 -0.0916568 -0.0837724 -0.122547 0.391888 -0.389686 0.150155 -0.0685818 -0.152336 0.492554 -0.0386093 0.148131 -0.200643 0.0922623 0.291499 0.0412286 -0.37246 0.248571
4554 -0.154012 -0.232348 0.0647795 0.106308 0.268892 -0.000703245 0.033965 0.307093 -0.117943 -0.0816452 0.452535 0.303565 0.0501815 -0.191003 -0.41055 0.46324 -0.315731 0.219349 0.0869605 0.0456464 -0.219787 -0.27575 -0.45288 -0.433915 -0.365063 -0.362464 0.599095 -0.407361 0.239675 0.111924 0.425955 0.102663 -0.0406862 0.0465467 -0.315726 0.111166 -0.168189 0.218638 -0.172254 -0.00363939 0.0415066 0.0770268 0.0691343 0.244115 0.438552 -0.0484742 -0.558603 0.515316 0.00070579 0.790365 0.157995 -0.00690136 -0.181837 0.218515 0.209759 0.0854801 -0.0162978 -0.216523 0.715229 0.150677 -0.230702 0.0886469 -0.0751999 -0.44886 -0.156995 0.277575 -0.123115 -0.144542 -0.47729 0.273213 0.567169 0.381631 0.430721 -0.399033 0.0933613 0.1146 0.31528 0.0775175 -0.409048 0.0196225 -0.46777 -0.0784783 0.109731 0.0903885 0.141684 0.233162 0.0966757 0.370292 0.054543 0.0948159 0.0722612 0.206372 -0.32253 0.323266 -0.0916696 -0.237044 0.353552 0.289927 -0.522865 0.0345604 0.116312 0.165197 0.397931 0.0829464 0.030329 0.477346 0.114109 0.121464 0.0781828 -0.0463745 0.229019 -0.0487947 -0.0633381 -0.111431 0.381193 -0.371673 0.192302 -0.0429796 -0.173857 0.498326 -0.0134172 0.129553 -0.164002 0.0583095 0.286695 0.00583572 -0.345294 0.22029
4875 -0.142665 -0.235175 0.0788808 0.0757314 0.269602 0.00548434 0.0041292 0.322287 -0.117089 -0.0573512 0.44573 0.295761 0.0476252 -0.217198 -0.445042 0.406988 -0.345654 0.223625 0.0618033 0.0595296 -0.202315 -0.267546 -0.439371 -0.431645 -0.3834 -0.382718 0.615106 -0.405185 0.229798 0.100704 0.429947 0.11305 -0.0639267 0.0587446 -0.330063 0.114424 -0.131922 0.201906 -0.143109 -0.0227782 0.0340918 0.0548598 0.055715 0.233441 0.446894 -0.059285 -0.585297 0.49114 -0.0004095 0.765405 0.150967 -0.00238098 -0.217121 0.233097 0.233643 0.081096 0.00266056 -0.223919 0.729214 0.160282 -0.24618 0.109402 -0.0557155 -0.459178 -0.174326 0.250582 -0.113558 -0.190415 -0.488839 0.294913 0.572804 0.378209 0.42291 -0.42076 0.0971106 0.107532 0.329019 0.0781624 -0.411704 0.0135177 -0.45179 -0.0594119 0.138094 0.0991683 0.154143 0.216572 0.101397 0.379021 0.0500059 0.144828 0.0956896 0.211583 -0.344686 0.306393 -0.0849596 -0.238026 0.385054 0.307614 -0.564147 0.0412903 0.138181 0.169132 0.430019 0.0842458 -0.0234819 0.476988 0.0904022 0.119176 0.0865163 -0.0398601 0.237174 -0.0329523 -0.0354376 -0.112014 0.365672 -0.380833 0.20163 -0.0836853 -0.164173 0.469153 -0.00604406 0.122467 -0.169116 0.0558081 0.336084 -0.00264515 -0.372515 0.250368
3487 -0.0458626 -0.442982 0.408534 0.423606 -0.180353 0.221377 -0.288015 0.146259 0.177997 -0.223541 0.427816 0.0816056 -0.168848 -0.367024 -0.299736 0.32462 -0.579533 0.0651028 0.0239281 0.0857175 -0.198556 -0.286839 -0.477209 0.310493 0.0801109 0.314999 0.169394 -0.154078 0.435908 -0.441842 0.214589 0.623254 -0.364134 0.312004 -0.163886 0.311733 -0.0971922 -0.104609 0.000795436 0.15241 -0.333504 0.0309526 0.0992776 -0.306411 0.354192 -0.184865 -0.0306721 0.555098 -0.0468154 0.499107 -0.622088 0.350865 0.319658 0.247291 -0.0958642 0.00197418 0.413086 0.0866308 0.0558111 0.251402 -0.069056 -0.0664955 -0.365053 0.0234495 -0.125859 0.214105 -0.0640213 -0.170627 0.083821 0.372819 0.304679 0.752977 0.120377 0.412828 -0.0998018 -0.0773276 0.197028 -0.319217 0.0586488 -0.567602 0.18527 0.00496757 -0.00541226 0.438258 -0.435018 -0.10605 -0.0961659 0.0717971 -0.388703 -0.285878 0.206875 0.0241887 0.183234 -0.0210783 0.227115 -0.0615706 0.362775 0.50721 -0.100636 -0.30502 0.230261 0.178603 0.132073 0.160121 -0.794125 0.569514 -0.0590871 0.0856294 0.159006 0.169711 0.255014 -0.0910893 0.102978 -0.0759623 0.361617 -0.481231 -0.173495 -0.35473 -0.212465 0.248747 -0.112219 0.155776 -0.0323415 0.328588 -0.0586108 0.218324 -0.466352 -0.191453
4907 -0.12284 -0.334232 0.310624 0.339069 -0.185757 0.131843 -0.28411 0.102818 0.203378 -0.190137 0.291011 0.0223736 -0.185786 -0.367776 -0.244952 0.35347 -0.640513 0.0672525 0.00668058 0.0705326 -0.202852 -0.283886 -0.38615 0.291383 0.136386 0.302251 0.142709 -0.146935 0.304996 -0.382176 0.157232 0.546087 -0.444591 0.222504 -0.205927 0.341779 -0.0660128 -0.161182 -0.0901854 0.163793 -0.289706 0.13147 0.079696 -0.371093 0.459864 -0.122085 0.00536037 0.571316 -0.147153 0.477491 -0.534915 0.345937 0.368931 0.252011 -0.0238052 0.100487 0.453493 0.0569061 0.102039 0.263478 -0.0932936 0.0333598 -0.407669 0.193368 -0.160659 0.138744 -0.071839 -0.28335 -0.121679 0.261277 0.253721 0.773072 0.0928301 0.308337 -0.192046 -0.176954 0.184583 -0.29703 -0.0189651 -0.460599 0.189382 -0.176231 -0.0564984 0.459826 -0.459303 -0.0729786 -0.143713 0.160187 -0.383964 -0.319336 0.102169 -0.136693 0.072771 -0.0803092 0.125879 -0.0409291 0.368087 0.45914 -0.129281 -0.25162 0.132454 0.173191 0.195713 0.264575 -0.859119 0.625388 -0.140709 0.0868704 0.190569 0.247664 0.19105 -0.144843 0.0448851 -0.160601 0.332102 -0.465637 -0.075154 -0.290905 -0.323451 0.229916 -0.610822 0.1591 0.0118663 0.436278 0.0101797 0.0924096 -0.355076 -0.177642
4291 0.0138368 -0.39921 0.273013 0.237185 -0.0934481 -0.00777812 -0.333052 0.175215 -0.0193243 -0.22283 0.404467 0.151306 -0.00294674 -0.164746 -0.0900484 0.455538 -0.412344 0.187529 0.0213932 -0.00581972 -0.306097 -0.429 -0.472532 0.161522 0.18152 0.225987 0.210928 -0.0809917 0.308566 -0.267435 0.133738 0.36942 -0.294225 0.273098 -0.107599 0.221035 -0.00490028 -0.123616 -0.128743 0.201862 -0.103375 0.0232945 0.0762358 -0.285909 0.380275 -0.0354423 -0.130835 0.494832 -0.124274 0.382588 -0.435829 0.384186 0.275362 0.101221 0.031605 0.158857 0.274634 0.0641255 0.171532 0.19193 -0.172783 -0.105933 -0.328069 0.150507 -0.239877 0.0588195 0.00384562 -0.27517 0.00436499 0.231012 0.208497 0.444701 0.137706 0.267171 0.00812653 -0.0322726 0.120157 -0.2686 0.0134246 -0.401439 0.0739824 -0.111696 -0.0315576 0.355064 -0.367207 -0.00771326 0.0587592 0.0624034 -0.207692 -0.375919 -0.0267398 -0.024568 -0.0946919 0.17499 0.0783301 -0.156113 0.254272 0.280222 -0.0584898 -0.250676 -0.0950965 0.168832 0.0356123 0.145899 -0.870544 0.419191 -0.139361 0.0181413 0.19169 0.196468 0.154175 -0.264881 0.0200506 -0.204981 0.290463 -0.331246 -0.194336 -0.207855 -0.352267 0.290304 0.0384347 0.0712596 -0.0999992 0.421023 -0.000930887 0.013456 -0.247893 -0.172676
3250 0.0458062 -0.191423 0.256876 0.0426358 0.0920634 -0.274932 -0.234615 0.137998 -0.172206 -0.243629 0.350399 0.34917 0.0782556 -0.036536 0.0627601 0.554038 -0.111559 0.263152 0.0145256 -0.19339 -0.3429 -0.326767 -0.335908 -0.0153534 0.249679 -0.0401177 0.312928 -0.162922 0.399012 -0.102077 0.0550451 0.154612 -0.0720581 0.0192431 -0.163528 0.0814319 -0.0672314 -0.0541388 -0.22759 0.18693 0.0979513 -0.000405091 0.0504359 0.00139528 0.510577 -0.0578746 -0.182517 0.401318 -0.173523 0.437214 -0.110679 0.304856 0.305375 -0.151735 0.0535441 0.236294 0.225349 0.160255 0.122371 0.153155 -0.335559 -0.216457 -0.221115 0.0816526 -0.222848 0.0753648 -0.0366103 -0.217509 -0.00481837 0.039778 0.231185 0.163935 0.266882 0.106531 0.275734 -0.0682883 0.150704 -0.235905 -0.0967038 -0.274002 -0.152534 -0.0596283 0.0271465 0.213044 -0.228766 -0.0281476 0.16374 0.0336419 -0.0418593 -0.256267 -0.129835 -0.0448001 -0.28383 0.354694 -0.027466 -0.129885 0.117719 0.122461 -0.0422581 -0.0196116 -0.130576 0.2205 -0.023901 0.0677142 -0.435335 0.218346 -0.13134 0.0930389 0.0648334 0.285605 0.107276 -0.347608 -0.155179 -0.219722 0.122471 -0.380587 -0.145397 -0.0921811 -0.253039 0.329541 -0.234009 0.0984926 -0.171993 0.435469 -0.115971 -0.0172213 -0.0150052 -0.128742
178 0.00980613 -0.112413 0.250577 0.00129011 0.110708 -0.272102 -0.191513 0.209342 -0.166662 -0.215916 0.344151 0.339499 0.137652 0.00279863 0.0778852 0.480312 -0.101979 0.31271 0.0394748 -0.222796 -0.326885 -0.337296 -0.338573 -0.0903613 0.284506 -0.126775 0.388542 -0.222263 0.426237 -0.0466878 0.126329 0.167474 -0.0464309 -0.0212578 -0.197274 0.12342 -0.0469106 -0.00250629 -0.169756 0.172637 0.0855307 -0.0138205 0.0166216 -0.0177982 0.524058 -0.138112 -0.251145 0.401848 -0.121643 0.456716 -0.133026 0.320686 0.277316 -0.219881 0.0220455 0.181884 0.195388 0.156336 0.159278 0.143639 -0.323856 -0.236095 -0.156566 0.0436798 -0.157019 0.115597 -0.0390909 -0.210131 -0.0106371 0.0677896 0.263084 0.133519 0.347531 0.064497 0.287582 -0.106137 0.198526 -0.197137 -0.177804 -0.253915 -0.20039 -0.0655116 0.0468747 0.189794 -0.0922942 0.00553443 0.176867 0.0425882 0.036291 -0.2427 -0.158868 -0.0316715 -0.311846 0.400573 -0.0574787 -0.187031 0.135695 0.102608 -0.0708794 0.0484997 -0.128629 0.194591 -0.0361171 0.0738444 -0.413659 0.216981 -0.132663 0.0958121 0.124632 0.331113 0.0492423 -0.362148 -0.194299 -0.23744 0.118466 -0.390795 -0.0906259 -0.069418 -0.257162 0.333577 -0.268118 0.142372 -0.1613 0.408752 -0.0629417 0.0632703 -0.0142585 -0.165856
13 0.106539 0.00961786 0.0487511 -0.0750468 -0.169737 0.0468412 -0.18268 0.140588 -0.290946 0.109394 0.0702864 0.126037 0.236935 -0.174139 -0.067305 0.189845 0.144315 0.346635 0.102607 -0.161961 -0.166878 -0.101452 0.151719 -0.198157 0.16722 0.215025 0.49735 -0.19681 0.418195 -0.0763222 -0.0279607 0.0964292 -0.365227 0.322928 -0.417765 -0.0793739 -0.0202544 -0.179243 -0.207001 0.116608 0.0993238 -0.416193 0.23937 -0.00994617 0.542278 -0.126997 -0.222468 0.328416 -0.35817 0.246255 -0.185424 0.606122 0.424607 -0.339471 -0.0720328 0.120715 0.368114 0.178337 0.458552 0.341136 -0.524037 -0.32838 -0.383641 0.105514 -0.215616 0.00161483 -0.0869232 -0.249442 -0.0351341 0.325406 0.0964512 0.100981 0.135083 0.055939 0.131048 -0.213354 0.0806511 -0.135467 -0.163139 -0.284597 0.0232517 -0.4297 0.155058 0.124946 -0.0681274 -0.00240549 0.121027 -0.0677775 -0.0432292 -0.0678709 0.0778632 -0.248896 -0.414984 0.295657 0.142736 -0.22818 -0.330828 -0.00106215 -0.170869 -0.152266 -0.0332455 0.412328 -0.0860458 0.0911082 -0.482224 -0.0536202 -0.366895 -0.148751 0.190801 0.472777 0.0143513 -0.338268 -0.129417 -0.220779 -0.0746428 -0.209114 -0.0943252 -0.203254 -0.336029 0.318692 -0.251013 -0.120733 -0.0978378 0.465857 0.124195 -0.316012 0.0100964 0.0419448
616 0.206269 -0.102599 0.0999215 0.203509 -0.34815 0.13619 -0.290652 -0.0916956 -0.458957 0.188755 -0.0788911 0.21472 0.203597 -0.256 -0.242441 0.156344 0.129294 0.503898 0.367132 -0.252464 -0.130023 0.0142903 0.451238 -0.103859 -0.0876166 0.173019 0.634243 -0.304607 0.633653 -0.167786 -0.0670624 0.0415294 -0.171306 0.301496 -0.616922 -0.15274 -0.284362 -0.197956 -0.342235 -0.0266951 0.0716259 -0.31059 0.269408 0.145149 0.557324 -0.167087 -0.356054 0.201706 -0.304546 0.2236 -0.360869 0.590583 0.277545 -0.468823 -0.346069 0.121526 0.39771 -0.0107456 0.367611 0.467286 -0.547459 -0.235942 -0.613553 0.0258678 -0.232316 0.163626 -0.366507 -0.16224 0.051891 0.420201 -0.0076976 0.152341 0.24142 0.0480841 -0.0218768 -0.248349 -0.0857771 -0.143773 -0.23256 -0.317089 0.0663496 -0.240648 0.250332 -0.0260903 -0.262602 0.0688364 0.213684 -0.203522 -0.31055 0.154375 0.294954 -0.17478 -0.327094 0.0599656 0.163047 -0.219788 -0.338695 0.00606674 -0.254945 -0.362782 -0.089769 0.490655 -0.0245571 0.0441926 0.201164 -0.201279 -0.0829838 -0.203403 0.208407 0.231498 0.0754049 -0.161606 0.0544281 -0.137481 -0.28513 -0.130633 -0.164189 -0.33666 -0.13002 0.169193 -0.214665 -0.0853972 0.109164 0.421445 0.0567551 -0.395876 -0.182821 0.0152922
1483 0.0345425 -0.465514 0.121535 0.546192 -0.0252302 0.3484 -0.192014 0.0997252 -0.172089 0.10849 0.317578 0.225285 0.105301 -0.491865 -0.387482 0.290085 -0.39588 0.339483 0.241453 -0.0586183 -0.0447392 0.288037 -0.140291 -0.131118 -0.597902 -0.293317 0.540104 -0.246977 0.669072 -0.135145 0.0758033 -0.0510248 -0.0857659 0.385283 -0.60255 -0.167593 -0.29045 0.0973685 -0.523226 -0.353877 0.256142 -0.000827544 0.121437 0.0107256 0.637982 -0.224501 -0.463609 0.348449 0.221914 0.773189 -0.183959 0.261608 -0.413145 0.0792277 -0.239413 0.0713543 0.133644 -0.337371 0.332154 0.287475 -0.32246 0.123614 -0.323247 -0.544321 -0.294083 0.224257 -0.266568 -0.177521 -0.134917 0.505603 0.467744 0.39259 0.278457 -0.151826 -0.275831 0.189309 0.224954 -0.200343 -0.30801 -0.45432 -0.321574 0.200532 0.253577 -0.0448773 -0.233517 0.0729149 0.0957002 -0.0139562 -0.312977 0.342434 0.362524 0.249911 -0.335099 0.146054 0.0592735 -0.153128 -0.00869262 0.325357 -0.356219 -0.0273002 0.131205 0.279176 0.587378 -0.0700003 0.403326 0.539401 0.161746 -0.197187 0.082438 -0.199984 0.297431 0.180461 0.297 0.134645 0.183182 -0.559263 -0.0947329 -0.252531 0.100183 0.446996 -0.113824 0.100533 0.0873099 0.123284 0.137792 -0.20324 -0.511111 0.319446
3594 0.0643935 -0.46764 0.0762716 0.538011 -0.063193 0.395779 -0.227432 0.10514 -0.225338 0.134847 0.333393 0.199491 0.123565 -0.466604 -0.408924 0.279101 -0.379621 0.380355 0.28317 -0.108368 -0.0599657 0.274446 -0.109029 -0.140163 -0.595146 -0.260291 0.549293 -0.257465 0.664563 -0.141862 0.0543319 -0.0462198 -0.0762853 0.414548 -0.636124 -0.169085 -0.28275 0.0674582 -0.501708 -0.36918 0.248238 -0.0236216 0.12839 0.0350779 0.648945 -0.23753 -0.497786 0.29692 0.178731 0.716809 -0.220707 0.315539 -0.410152 0.0253004 -0.264377 0.0351321 0.143534 -0.367738 0.379186 0.331734 -0.337035 0.141419 -0.312046 -0.496306 -0.261138 0.199933 -0.29124 -0.16329 -0.139977 0.556685 0.422255 0.35774 0.278542 -0.119832 -0.300967 0.172037 0.21014 -0.179251 -0.343182 -0.445045 -0.31396 0.185573 0.265343 -0.0800853 -0.224619 0.06892 0.096288 -0.0342032 -0.348947 0.368401 0.417397 0.254496 -0.356352 0.126528 0.069374 -0.157364 -0.0216252 0.334245 -0.360029 -0.0564155 0.12751 0.32534 0.592282 -0.0771123 0.342475 0.49208 0.148926 -0.25294 0.118935 -0.194829 0.276122 0.170336 0.32145 0.159967 0.132202 -0.522927 -0.0783355 -0.282467 0.107373 0.410487 -0.110816 0.0841016 0.12011 0.0941377 0.157906 -0.229132 -0.53141 0.333815
1566 0.124867 -0.550928 -0.046841 0.400475 -0.0475215 0.169969 -0.311056 -0.18733 -0.344471 0.0387606 0.163877 0.204737 -0.0380978 -0.376175 -0.132147 0.491618 -0.0799008 0.396763 0.266801 -0.221548 -0.225636 0.297849 0.127537 -0.0230531 -0.372576 -0.00864983 0.500084 -0.153743 0.66619 -0.244191 -0.231971 -0.154344 -0.0244166 0.309587 -0.593316 -0.23202 -0.350355 -0.0718184 -0.586996 -0.333481 0.376551 -0.157922 0.212558 0.0389953 0.645094 -0.200182 -0.238554 0.208329 -0.0409779 0.578978 -0.201472 0.343681 -0.0808268 -0.23489 -0.224901 0.286915 0.0384343 -0.152337 0.152165 0.333137 -0.423772 -0.0457203 -0.487077 -0.125148 -0.313243 0.0167591 -0.172408 -0.0937767 -0.0379673 0.345562 0.217606 0.107685 0.366937 0.0375776 -0.151786 0.130193 0.0017518 -0.28535 -0.0176257 -0.510156 -0.210239 -0.0226804 0.0893915 -0.0423743 -0.497405 0.0632874 0.160425 -0.224798 -0.465458 0.141089 0.169913 -0.0084418 -0.342808 0.169103 0.0459602 -0.0199697 -0.166002 0.197022 -0.146656 -0.029014 0.0253898 0.382277 0.429016 -0.144858 0.28916 0.226339 0.0265187 -0.251982 0.047727 -0.209181 0.311002 0.0872084 0.239268 0.157871 -0.104751 -0.603145 -0.280513 -0.170471 0.0877552 0.428783 -0.0990787 -0.0186944 0.166821 0.289944 -0.0798921 -0.37197 -0.254132 0.176763
5546 0.0695481 -1.00346 0.287309 0.415285 -0.497693 0.0853733 0.202571 -0.334384 -0.207319 0.210904 1.35135 -0.220542 -0.229094 -0.0343539 -1.09113 0.450419 -0.386128 -0.308069 0.0814739 -0.959883 -0.310588 -0.203438 -0.0197111 0.161786 0.172566 -0.55927 0.281402 -0.270078 0.0192564 -0.552681 0.353116 0.330638 -0.264285 -0.208109 -0.433484 0.423363 -0.736514 -0.184571 0.306731 0.420596 -0.532142 0.678014 -0.654133 0.213651 0.140208 -0.584793 0.00591565 0.0675475 -0.629832 0.120206 -0.631058 -0.00523972 0.43084 0.187197 -0.211423 -0.425131 0.633703 -0.520519 0.103779 0.288122 -0.202626 0.481491 -0.108023 -0.169549 0.0972709 0.118576 -0.525833 0.278726 -0.328287 0.62603 -0.0812332 1.06523 -0.0614265 0.541646 -0.0489992 -0.151024 -0.0670307 -0.201638 -0.270179 -0.230739 -0.161312 0.00480667 -0.00383229 0.0372198 -0.000712492 -0.28288 -0.0464797 0.276334 -0.154034 -0.2182 0.145033 0.479467 0.259546 -0.21254 0.172169 0.0426799 0.621208 0.607662 -0.475402 -0.366658 0.596872 0.463195 0.19205 0.457814 -0.0354 0.0722218 0.60515 0.181245 0.569547 -0.165764 0.286091 -0.275627 -0.0368863 -0.0315625 -0.284843 -0.431396 0.751479 -0.65458 0.127872 0.347373 -0.463123 0.972215 0.507813 0.224974 -0.349873 -0.375871 0.0503955 -0.204505
2934 0.0839076 -1.01193 0.281735 0.440557 -0.486115 0.121738 0.17412 -0.335084 -0.212239 0.214675 1.35482 -0.22305 -0.219826 -0.0599561 -1.08878 0.472064 -0.386181 -0.285334 0.0686928 -0.982447 -0.30182 -0.202559 -0.0105492 0.174846 0.172109 -0.535524 0.290331 -0.264987 0.0564722 -0.562752 0.32429 0.315375 -0.264336 -0.196878 -0.479683 0.399322 -0.748886 -0.206893 0.274204 0.432243 -0.534374 0.686522 -0.663613 0.227404 0.172737 -0.589315 0.00263378 0.0828548 -0.630665 0.109526 -0.643712 0.0198271 0.455373 0.162519 -0.242001 -0.432161 0.654093 -0.55251 0.118614 0.305601 -0.221026 0.490229 -0.129057 -0.161988 0.074464 0.11663 -0.5453 0.264149 -0.321297 0.657019 -0.07663 1.08067 -0.0791217 0.543432 -0.0563058 -0.153443 -0.0780427 -0.21297 -0.273593 -0.26354 -0.140772 0.0207321 -0.000828559 0.0368183 -0.027606 -0.299145 -0.0204335 0.255699 -0.177592 -0.207503 0.174231 0.472299 0.249795 -0.223096 0.176658 0.0423553 0.603356 0.617735 -0.488342 -0.377111 0.608709 0.487953 0.203447 0.436859 -0.0245605 0.0645297 0.600324 0.180761 0.56316 -0.141034 0.30596 -0.285937 -0.0105133 -0.0167679 -0.304579 -0.442027 0.725845 -0.677327 0.141622 0.348091 -0.455957 0.961918 0.49846 0.223588 -0.350815 -0.410258 0.0380803 -0.169832
4315 0.0428605 -0.210973 0.190733 0.106106 0.0806269 -0.258065 -0.273265 0.122271 -0.209824 -0.237239 0.300493 0.324972 0.104002 -0.018269 0.0412489 0.579717 -0.0855116 0.310034 0.0577343 -0.200374 -0.359713 -0.402035 -0.335142 -0.077502 0.216394 -0.00892791 0.349381 -0.191379 0.403738 -0.0668173 0.0618758 0.0931034 -0.0933392 0.106911 -0.191671 0.0659015 -0.0251751 -0.0714427 -0.21263 0.185538 0.129759 0.00685454 0.110738 0.00162539 0.521104 -0.0308679 -0.247033 0.441738 -0.222142 0.414879 -0.146728 0.337147 0.279608 -0.222592 0.021652 0.267879 0.267811 0.109536 0.22896 0.171289 -0.35623 -0.234778 -0.257261 0.151825 -0.267332 0.0980303 -0.0670996 -0.250205 0.0134456 0.0662733 0.201085 0.166279 0.288212 0.116208 0.247783 -0.0545273 0.160957 -0.218437 -0.147757 -0.257406 -0.163262 -0.101983 0.00220145 0.161674 -0.24732 -0.00752483 0.184936 0.0113952 -0.0507596 -0.27523 -0.12554 -0.0476558 -0.336891 0.332162 -0.0598452 -0.151516 0.082746 0.0883004 -0.0811207 -0.0503814 -0.220857 0.237665 -0.024236 0.0466128 -0.287331 0.214543 -0.0882646 0.0545476 0.182685 0.284641 0.130475 -0.406666 -0.189597 -0.236966 0.108942 -0.332714 -0.172269 -0.0681791 -0.288948 0.393943 -0.264165 0.0174462 -0.155922 0.471951 -0.0983275 -0.0576419 0.00192656 -0.157743
1618 0.0151032 -0.117226 0.204399 0.0424133 0.0985381 -0.239739 -0.217027 0.144715 -0.10961 -0.212935 0.278144 0.258329 0.0509301 -0.0458875 0.0359403 0.496129 -0.111536 0.264291 0.0822465 -0.144418 -0.328119 -0.370851 -0.323672 -0.0682933 0.262446 -0.0134537 0.370541 -0.223674 0.398017 -0.0101244 0.136971 0.157297 -0.144166 0.0541472 -0.183035 0.15013 -0.03659 -0.0495174 -0.17376 0.18336 0.0292898 -0.0192134 0.100449 -0.0422746 0.462355 -0.0806265 -0.26304 0.46433 -0.202723 0.500857 -0.125137 0.295645 0.304375 -0.158872 0.0339757 0.193531 0.277396 0.148688 0.219314 0.180881 -0.313626 -0.239201 -0.189122 0.157216 -0.140727 0.153594 -0.0709537 -0.223899 -0.0285864 0.0911273 0.230473 0.225197 0.323092 0.122131 0.226811 -0.0889838 0.191757 -0.196042 -0.167962 -0.247722 -0.145009 -0.173813 0.0336205 0.20897 -0.188158 0.0191957 0.108423 0.0444519 0.00429311 -0.27898 -0.130596 -0.0918228 -0.280882 0.287411 -0.0734911 -0.159621 0.111708 0.175654 -0.0872744 -0.0445535 -0.137372 0.212543 -0.0234388 0.0614773 -0.322245 0.248246 -0.142544 0.0590241 0.151489 0.308678 0.115387 -0.351581 -0.195718 -0.276132 0.130218 -0.366297 -0.0977485 -0.0888341 -0.293477 0.37845 -0.261402 0.10121 -0.144994 0.468383 -0.0663815 0.0176555 -0.00176126 -0.14111
363 0.0365235 -0.144996 0.217214 0.0735002 0.0678757 -0.264555 -0.249925 0.109147 -0.183997 -0.240236 0.280117 0.320463 0.0725667 -0.0383722 0.0623025 0.435659 -0.103217 0.290779 0.0476532 -0.191815 -0.34636 -0.352407 -0.327103 -0.0510675 0.186889 -0.0518804 0.370592 -0.209412 0.395268 -0.100019 0.117144 0.135171 -0.0821973 0.0680918 -0.191325 0.0918291 0.00175044 -0.0559172 -0.128653 0.154832 0.0960386 -0.0515257 0.11631 0.00824399 0.472081 -0.107464 -0.261936 0.427145 -0.161192 0.412795 -0.144729 0.305444 0.31015 -0.212402 0.00370945 0.200943 0.241121 0.19662 0.193238 0.15998 -0.304155 -0.211424 -0.190998 0.086354 -0.202368 0.128811 -0.0885652 -0.170561 0.0485194 0.0382335 0.223763 0.164063 0.291621 0.10669 0.266407 -0.100646 0.170153 -0.21282 -0.115427 -0.259242 -0.158553 -0.0615891 0.028762 0.162564 -0.170269 -0.00127289 0.210109 -0.0205595 -0.0482708 -0.232425 -0.118572 -0.0657061 -0.293067 0.336116 -0.0253054 -0.0917643 0.120402 0.147105 -0.0861355 0.0130803 -0.159404 0.183181 -0.0232521 0.0520014 -0.276353 0.148257 -0.080979 0.112193 0.15747 0.271387 0.0724537 -0.309638 -0.175513 -0.151971 0.0829111 -0.367158 -0.151385 -0.0771495 -0.226596 0.384346 -0.286583 0.0668539 -0.144357 0.388746 -0.0831691 0.0356245 -0.00966065 -0.155841
3429 -0.0347269 -0.127305 0.210597 0.140347 0.152655 -0.219163 -0.227178 0.156828 -0.13503 -0.250716 0.290595 0.304113 0.0555282 -0.0147111 0.0701802 0.553451 -0.13559 0.261288 0.042798 -0.194706 -0.315087 -0.299744 -0.441462 0.0258316 0.24364 -0.10982 0.348772 -0.164193 0.521712 -0.0861783 0.107403 0.181319 -0.162247 0.0845613 -0.166325 0.1355 0.00858346 0.00801917 -0.17899 0.149182 0.0887481 0.0255946 0.0845893 -0.0156364 0.52468 -0.05954 -0.199808 0.41512 -0.124726 0.416357 -0.189876 0.361662 0.29834 -0.225655 0.0354013 0.207208 0.269232 0.123548 0.134122 0.145135 -0.310126 -0.23458 -0.154114 0.0978667 -0.211139 0.0725918 -0.0240259 -0.279841 -0.0109066 0.0378952 0.259866 0.22656 0.324598 0.214405 0.244267 -0.0801865 0.244412 -0.239528 -0.141967 -0.309613 -0.138728 -0.048873 0.0285187 0.197303 -0.242289 -0.0521819 0.142668 0.0144207 -0.0458991 -0.30793 -0.0911218 0.00438584 -0.299779 0.345168 -0.0639718 -0.123881 0.163326 0.175247 0.00815063 0.00100127 -0.102924 0.247808 -0.00893764 0.00396101 -0.253982 0.306346 -0.106815 0.114977 0.144607 0.325524 0.202184 -0.36908 -0.15096 -0.201475 0.109093 -0.439459 -0.14203 -0.0433395 -0.206845 0.376445 -0.274279 0.141643 -0.156664 0.430647 -0.121633 0.0925695 -0.0406886 -0.173158
342 0.00459037 -0.17508 0.222552 0.123253 0.095107 -0.202812 -0.244538 0.168259 -0.129519 -0.222265 0.281232 0.308511 0.13723 -0.040775 0.0309792 0.527858 -0.177654 0.279065 -0.0234757 -0.141696 -0.266053 -0.309357 -0.35135 -0.0293266 0.214706 -0.0863621 0.337127 -0.137795 0.489291 -0.0881928 0.0893863 0.165751 -0.121584 0.117737 -0.125073 0.0840678 -0.00927236 0.0100778 -0.236533 0.150312 0.108178 0.00750458 0.0571697 -0.0218591 0.493621 -0.0505293 -0.252209 0.427795 -0.105305 0.417951 -0.160756 0.333434 0.216118 -0.165952 0.07733 0.235856 0.233534 0.155743 0.131765 0.156052 -0.31187 -0.219809 -0.217346 0.0748425 -0.270837 0.0529625 -0.0118109 -0.299083 -0.00477774 0.0439248 0.253099 0.200518 0.281056 0.132883 0.255502 -0.0872667 0.224016 -0.266301 -0.113533 -0.298864 -0.147289 -0.0206163 0.045699 0.201959 -0.224205 -0.0793823 0.163911 0.0321134 -0.00831504 -0.272788 -0.0994747 -0.00225925 -0.254058 0.319301 -0.0094681 -0.156718 0.159705 0.117841 -0.0603454 -0.0299644 -0.153798 0.246037 0.0391868 0.0534416 -0.337108 0.283708 -0.0936704 0.0605655 0.175467 0.303409 0.158907 -0.353554 -0.147609 -0.219546 0.148765 -0.353444 -0.180191 -0.105512 -0.236806 0.327342 -0.272436 0.0811723 -0.126773 0.469873 -0.0639179 -0.0405463 -0.0712438 -0.114065
1352 -0.064389 -0.127224 0.21747 -0.193132 -0.103743 -0.207974 -0.240425 0.279426 -0.544936 0.0859213 0.188519 0.419681 0.284209 0.123577 -0.0150063 0.283886 0.154682 0.590008 0.216343 -0.278069 -0.266482 -0.253588 -0.326368 0.0267142 0.148059 -0.0293018 0.253109 -0.335367 0.506191 -0.524391 0.0927357 0.19346 -0.123392 0.169342 -0.389477 -0.0327507 -0.218079 0.0427523 -0.0340183 0.188123 0.211832 0.0732051 -0.0368334 -0.172743 0.667262 -0.198202 0.0851635 0.280795 -0.274151 0.0448792 -0.512497 0.572047 0.517243 -0.289407 -0.240354 0.249116 0.170495 0.0894511 0.351071 0.117721 -0.261695 -0.29522 -0.348519 -0.120038 -0.251023 0.0354738 -0.131893 -0.0660559 0.00805174 0.218378 0.320226 0.109872 0.161278 0.154218 0.235651 -0.178364 0.0640287 -0.232915 -0.084657 -0.275131 0.0552842 -0.0270799 0.0351809 0.209775 0.0164327 0.186368 0.399044 -0.298758 -0.327116 -0.226987 -0.131369 -0.0521921 -0.413674 0.579402 0.152952 -0.294856 0.0428661 -0.0121154 -0.0462101 -0.164464 -0.197708 0.100317 -0.149039 0.0282692 -0.313942 -0.0217346 -0.127786 0.177517 0.260779 0.413563 -0.0496916 -0.304794 -0.222152 -0.062256 -0.103464 -0.243253 0.0471777 -0.0421474 -0.0859686 0.529891 -0.257348 0.150451 -0.101066 0.30579 -0.0512854 -0.101824 -0.148329 -0.255266
3642 0.0286146 -0.174127 0.199871 0.051506 0.0982372 -0.254662 -0.238965 0.15136 -0.22097 -0.205308 0.305282 0.338191 0.12926 0.0102489 0.0548069 0.528621 -0.0553071 0.314516 0.0515303 -0.187321 -0.331991 -0.372646 -0.393647 -0.101944 0.181785 -0.0539886 0.370021 -0.21095 0.419725 -0.0674869 0.109774 0.131477 -0.0886624 0.0874742 -0.180715 0.0694272 -0.0337614 -0.0230189 -0.188755 0.178466 0.12821 -0.0107536 0.103387 0.0266763 0.502264 -0.0659269 -0.248026 0.443502 -0.181171 0.440186 -0.130768 0.325574 0.288698 -0.21849 0.0123502 0.207602 0.249391 0.148542 0.228138 0.163062 -0.319441 -0.252245 -0.198082 0.082239 -0.189524 0.0895215 -0.0903136 -0.193635 0.0180257 0.0722842 0.236902 0.172959 0.282505 0.130716 0.286003 -0.0629517 0.20306 -0.20421 -0.164154 -0.258945 -0.210531 -0.0602234 0.0318259 0.144146 -0.174272 -0.0120638 0.209587 -0.00480741 -0.0336558 -0.238816 -0.116075 -0.0474342 -0.309107 0.359508 -0.014096 -0.140548 0.101402 0.118461 -0.0888563 -0.0280809 -0.150745 0.240501 -0.00172265 0.0224089 -0.335887 0.214687 -0.0852174 0.0734887 0.183493 0.309149 0.115787 -0.356157 -0.211436 -0.19396 0.132731 -0.347965 -0.151283 -0.0590647 -0.247865 0.404977 -0.252529 0.0279275 -0.173548 0.42565 -0.0972763 -0.0133405 -0.017541 -0.149988
788 -0.0203708 -0.150814 0.236306 0.0639881 0.0990213 -0.230911 -0.210824 0.177368 -0.181562 -0.196647 0.272277 0.313506 0.0874811 -0.0523069 -0.011335 0.463479 -0.0562251 0.307353 0.079742 -0.120352 -0.296858 -0.332559 -0.30742 -0.077503 0.263616 -0.0113654 0.373506 -0.218116 0.4334 -0.0686167 0.14021 0.160979 -0.110546 0.0533369 -0.219537 0.124712 -0.0167956 -0.0448536 -0.184365 0.162937 0.0695129 -0.015955 0.120726 -0.0269077 0.544388 -0.0865781 -0.218068 0.462791 -0.159303 0.453907 -0.167698 0.350711 0.314419 -0.169252 0.0340084 0.216017 0.269643 0.136798 0.207807 0.171253 -0.346959 -0.268682 -0.244804 0.0577274 -0.248922 0.164617 -0.0660714 -0.194524 -0.0202708 0.0744482 0.288757 0.193105 0.301897 0.0926721 0.249345 -0.122885 0.210894 -0.187193 -0.171176 -0.217982 -0.191136 -0.124246 0.0372609 0.190118 -0.186561 0.0423347 0.105179 0.0313524 0.00396232 -0.25339 -0.146298 -0.0391305 -0.304542 0.356564 -0.0368529 -0.18544 0.111431 0.103995 -0.123993 -0.019285 -0.160466 0.172435 -0.0707159 0.0721083 -0.304664 0.279331 -0.141729 0.0611473 0.153131 0.336531 0.0922286 -0.362734 -0.217747 -0.267919 0.17557 -0.36937 -0.124943 -0.024257 -0.319433 0.360257 -0.236211 0.0188309 -0.193258 0.447067 -0.07681 0.0394463 -0.0258527 -0.18618
5013 0.0331999 -0.139308 0.18157 0.119544 0.116999 -0.224818 -0.234834 0.0951632 -0.131189 -0.265553 0.285199 0.267276 0.028227 -0.0609826 0.0534927 0.53208 -0.0958295 0.237511 0.0537617 -0.174313 -0.330461 -0.306039 -0.354612 -0.0182934 0.249963 0.001259 0.353721 -0.168697 0.446598 -0.0332689 0.0923014 0.147777 -0.133956 0.0450814 -0.197783 0.0801079 -0.0236215 -0.0617843 -0.224793 0.187259 0.0941168 -0.0515864 0.135268 -0.0165236 0.527403 -0.0528544 -0.21666 0.457723 -0.159935 0.496011 -0.117386 0.362267 0.315408 -0.20222 0.0138439 0.225632 0.263576 0.13888 0.166308 0.187247 -0.361012 -0.250671 -0.24553 0.12043 -0.254725 0.130093 -0.0730235 -0.211593 0.0356004 0.026806 0.234043 0.219841 0.332355 0.159524 0.25386 -0.0740894 0.215714 -0.233173 -0.138304 -0.298055 -0.22675 -0.104797 0.0302854 0.161114 -0.272362 -0.0221685 0.136545 0.00204392 -0.047675 -0.290916 -0.116502 -0.058384 -0.303214 0.358325 -0.0420216 -0.10656 0.0961206 0.148587 -0.0628721 -0.00828672 -0.155519 0.239296 -0.02936 0.00190259 -0.265204 0.25341 -0.107385 0.0865886 0.13563 0.29668 0.152619 -0.375218 -0.201327 -0.214425 0.176125 -0.416238 -0.20476 -0.055722 -0.281245 0.407924 -0.28347 0.0179656 -0.164794 0.456397 -0.141457 0.0234131 0.0110481 -0.185742
3830 0.0628055 -0.0507746 -0.0155229 -0.309797 0.362554 -0.213613 -0.0251999 -0.17668 -0.278842 -0.186003 0.245334 0.117939 -0.303227 -0.4296 -0.387332 0.488706 -0.0697322 -0.109885 -0.228816 -0.241974 -0.26241 -0.0625826 0.15016 -0.0400248 -0.00415507 -0.176469 0.379716 -0.114096 0.084702 -0.0961962 -0.0410744 -0.0142323 0.0429326 -0.335774 -0.394411 -0.0040809 -0.268057 0.00119871 -0.124841 0.209363 0.0246561 -0.0234454 -0.154624 0.213418 0.612468 -0.180164 -0.051217 0.356596 -0.324539 0.236946 0.299424 -0.122025 0.231997 0.0538655 0.43905 0.504682 -0.202903 -0.0547277 0.403352 0.306648 -0.570639 0.0995894 -0.479014 -0.24735 -0.662389 -0.0813733 0.133964 -0.136438 -0.608007 -0.158463 0.421613 0.207405 0.332076 -0.300143 0.423252 -0.0865822 -0.195757 -0.123176 0.126343 -0.103246 -0.128165 -0.358085 0.00945924 0.520236 -0.321439 0.0283577 0.351455 0.365215 -0.0442976 -0.205827 -0.241873 -0.0687411 -0.445884 0.276936 -0.184314 -0.0144546 0.526876 0.259668 -0.327223 0.0899363 0.0132051 0.139616 0.251877 0.153816 -0.09943 -0.108363 -0.0687786 0.341177 -0.0157123 -0.201438 0.387656 0.0499104 0.0325877 -0.263688 -0.0127791 -0.520492 0.170578 -0.20986 -0.230045 0.407813 -0.00439475 0.268767 0.00619904 0.424362 0.127794 -0.310308 -0.056647 0.118427
3129 -0.0587321 -0.286963 -0.0916974 -0.1473 0.293365 -0.2489 -0.133338 -0.220296 -0.286643 -0.142012 0.216926 0.20443 -0.272825 -0.27275 -0.310347 0.62872 -0.182138 -0.0737686 -0.0943185 -0.216349 -0.422594 -0.0516483 -0.0672371 -0.0464971 -0.273387 -0.363318 0.509406 -0.0689754 0.110408 -0.205174 -0.0437865 -0.0480263 -0.121873 -0.172687 -0.272638 0.00981853 -0.214813 0.0454469 -0.267364 0.0639266 0.169385 0.0206849 -0.0625421 0.304766 0.574831 -0.0895688 -0.00418793 0.270558 -0.177089 0.255665 0.271301 0.000113453 0.185205 0.100936 0.359921 0.534716 -0.243015 -0.0497373 0.401666 0.154159 -0.444276 0.134524 -0.417103 -0.233037 -0.51573 -0.117894 0.0325573 -0.190911 -0.613499 -0.111018 0.333245 0.249014 0.409258 -0.34845 0.295613 -0.0149288 -0.121791 -0.0794135 0.126123 -0.0873801 -0.248265 -0.2687 -0.0128235 0.368921 -0.292089 0.162314 0.395708 0.192648 -0.152026 -0.145926 -0.149258 -0.0155777 -0.427739 0.322605 -0.193188 0.137349 0.383957 0.190622 -0.232397 0.142052 -0.0128534 0.129299 0.293502 0.104964 -0.121775 0.0231137 -0.0190079 0.354931 -0.0775453 -0.311732 0.373677 0.0603139 0.121601 -0.109644 -0.0223162 -0.526046 -0.00155576 -0.0741005 -0.0508743 0.470789 -0.0186024 0.235621 -0.0687903 0.265404 0.214171 -0.298216 -0.0489832 0.0879744
3656 0.0355285 -0.24845 -0.173261 0.0156836 0.27337 -0.227028 -0.176661 -0.13484 -0.149633 -0.189122 0.460068 0.183196 -0.273971 -0.112071 -0.124738 0.613267 -0.328156 0.0507684 0.195814 -0.201411 -0.449994 -0.16598 -0.338504 -0.0529924 -0.201724 -0.0795841 0.233174 -0.165443 0.00721395 -0.102091 -0.023329 -0.130713 -0.0683339 -0.0905018 -0.324048 0.00971111 -0.224079 -0.159455 -0.31852 0.103297 0.248864 0.0314433 0.0754047 0.0784955 0.574076 0.0375343 -0.136558 0.318615 -0.250911 0.563028 0.232967 0.130991 0.133627 0.0845297 0.119417 0.293903 -0.0773896 -0.219926 0.446681 0.192809 -0.388143 0.318345 -0.309109 -0.0363293 -0.403776 0.0214831 -0.0794422 -0.168646 -0.444733 -0.0293501 0.239042 0.104951 0.340005 -0.322289 -0.000780339 0.121795 -0.00983837 -0.101655 -0.00221554 -0.114904 -0.33774 -0.25923 -0.0250471 0.105564 -0.302101 0.221243 0.204016 0.10181 -0.375279 -0.13994 -0.0739956 -0.0398721 -0.614395 0.398394 -0.169756 0.00355279 0.259735 0.283995 -0.151446 0.0225927 -0.207305 0.0686437 0.278708 0.0316384 -0.11751 0.117052 0.0216993 0.215618 -0.137708 -0.340461 0.138582 -0.135779 0.0306184 0.125064 0.121899 -0.488906 -0.0133118 -0.0199112 -0.174287 0.592411 -0.101643 0.125881 -0.036517 0.216807 0.0252698 -0.241531 -0.0423318 0.0479455
3802 -0.0742355 -0.427129 -0.207689 0.0231809 0.269453 -0.265746 -0.185249 -0.11059 -0.407162 0.0181601 0.352609 0.276411 -0.107596 -0.0601513 -0.117939 0.629766 -0.168382 0.180363 0.114529 -0.276612 -0.424269 -0.286724 -0.298366 -0.159882 -0.341533 -0.320251 0.441076 -0.0758076 0.0810135 -0.183998 -0.0914418 -0.0679782 -0.0597074 -0.106138 -0.326161 0.0159101 -0.255487 -0.053251 -0.380666 0.102289 0.296029 0.183428 0.00472606 0.205663 0.543312 0.00701429 -0.129687 0.258346 -0.203745 0.346889 0.238583 0.110634 0.0356614 -0.0672564 0.235021 0.328568 -0.0372696 -0.2115 0.463611 0.0831551 -0.357599 0.259444 -0.33891 -0.0264263 -0.409416 -0.0339909 -0.135545 -0.294668 -0.503579 -0.0366461 0.204078 0.177186 0.398138 -0.338867 0.134413 -0.0683051 -0.0406837 -0.0241013 -0.139206 -0.0612949 -0.304455 -0.217684 0.00834116 0.0371076 -0.252655 0.145698 0.329025 0.083459 -0.178377 -0.0389647 -0.128341 0.0208026 -0.63166 0.440569 -0.0937538 -0.0347142 0.307228 0.222405 -0.22202 0.0112124 -0.134567 0.18311 0.197597 0.0680863 -0.196986 0.13143 0.0772513 0.223078 0.0644039 -0.225421 0.168021 -0.0644195 0.131906 0.00350212 -0.0418127 -0.397175 0.0564502 0.0505679 -0.221832 0.448102 -0.0509552 0.0486111 -0.0475643 0.250822 0.039924 -0.383002 0.00927978 0.0589954
