1366 128
3461 -0.143879 -0.24471 0.1889 0.446591 -0.288021 0.189908 -0.0933327 -0.224825 0.242594 0.116423 0.00615361 0.137683 -0.144067 -0.0358776 0.213825 -0.412876 0.264502 0.183158 -0.222813 -0.0894444 0.233192 0.385855 -0.452995 0.456033 0.107611 -0.18782 0.181646 -0.283397 0.275741 0.105528 -0.104439 0.20373 0.00323114 0.202747 -0.170059 -0.394646 -0.308115 0.113636 -0.132137 0.0778064 -0.143252 0.340608 0.0475329 0.138447 0.103429 0.0870631 0.0549626 -0.288381 0.196916 -0.307027 -0.332245 -0.0824746 -0.440697 0.240017 -0.265556 0.21798 0.160932 0.229624 0.130888 0.119184 0.23049 0.049668 0.126115 -0.341805 0.25532 0.324369 -0.38553 -0.0699234 -0.123778 -0.0134914 0.335916 0.0803705 0.187725 -0.221299 -0.247697 -0.176557 0.0617117 -0.177721 0.121924 -0.320258 0.124233 -0.0421775 -0.0896795 -0.426023 0.588635 0.373259 0.0678873 0.0574487 0.11875 0.392561 -0.0434423 -0.0217625 -0.180006 -0.186382 0.263328 0.1266 0.174402 -0.256747 0.0629486 -0.127169 -0.237066 -0.0844416 0.210555 -0.429678 0.086253 0.353665 -0.121247 -0.330118 0.143749 -0.197896 0.390526 -0.431892 -0.102358 -0.123051 -0.237905 -0.305949 -0.103838 -0.231533 0.305844 0.527259 -0.0526408 -0.104393 0.199781 -0.326246 -0.106227 0.185382 -0.439655 -0.00557807
72 0.00627789 -0.102416 0.131593 0.196351 -0.158005 0.0286836 -0.133669 -0.126556 0.0962007 0.0590913 -0.261276 0.101494 -0.103275 0.0453466 0.0450648 -0.138833 0.104118 0.063311 -0.216118 -0.0108077 0.0385312 0.334719 -0.166211 0.17386 0.0698837 -0.0236591 -0.0743331 -0.20028 0.0966279 0.202908 -0.0920272 -0.00542091 0.0247811 0.135149 -0.260851 -0.31726 -0.441765 0.0505178 0.285156 -0.0344828 -0.150178 0.584845 -0.0938471 0.233197 0.158123 -0.140789 0.0545747 -0.0332528 0.179327 0.0986933 -0.218517 -0.0193339 -0.568763 -0.00861997 -0.0500246 0.00914671 -0.0353274 0.500563 -0.340802 0.0924321 0.106134 -0.126651 0.0441157 -0.205806 0.266604 0.115968 -0.229021 -0.00782328 -0.156096 0.0316805 0.339798 0.0113552 0.261176 -0.135939 -0.166099 -0.160707 0.135612 -0.10352 0.110521 -0.0345905 -0.191978 0.11402 -0.089767 -0.383799 0.22303 0.169305 0.0902444 0.229572 0.215555 0.291663 0.134454 -0.00996152 -0.225603 -0.241669 0.104344 0.260945 0.430933 -0.20779 -0.0225599 0.0513289 -0.329016 -0.113823 0.216536 -0.451433 -0.0462078 0.0843342 0.129558 -0.211545 0.214113 -0.103579 0.122489 -0.333526 -0.151209 0.177351 -0.262421 -0.290485 0.252949 -0.00384946 0.413047 0.277786 0.0564668 -0.185588 0.330608 -0.246397 0.059155 0.104031 -0.244433 0.0471532
370 0.0169373 -0.11804 0.172347 0.489382 -0.149141 0.100151 -0.187832 0.0190748 0.17532 0.078126 -0.213948 0.0125288 -0.18799 -0.00653161 -0.00680873 -0.347687 0.165896 0.0698685 -0.402012 0.0909877 -0.00769147 0.365571 -0.205988 0.337374 0.101655 -0.197748 -0.0683648 -0.138807 0.03643 0.116709 -0.0349708 0.0468395 -0.049033 0.134155 -0.111526 -0.372026 -0.296655 0.110845 0.283677 -0.0682546 -0.0489109 0.433592 0.0361097 0.0613915 0.271821 -0.0368141 0.0399666 -0.00693715 0.218521 0.0741288 -0.16216 -0.32273 -0.220166 0.0950012 -0.195757 0.0942242 0.0619482 0.456802 -0.134983 0.129241 0.126041 -0.117971 0.0953106 -0.307191 0.153128 -0.0577784 -0.112175 0.0476212 -0.193194 0.0832922 0.297263 -0.0281078 0.30336 -0.0238722 -0.187747 -0.144041 0.202214 -0.0329175 0.216095 -0.261682 -0.228546 -0.0194671 -0.119221 -0.489594 0.430563 0.416166 0.148061 0.0822998 0.193536 0.237949 0.0722667 -0.0295018 -0.173912 -0.267365 0.0857206 0.252861 0.488646 -0.129615 -0.285211 -0.0388171 -0.242317 -0.0339312 0.271531 -0.450396 -0.119716 0.0456856 0.255923 -0.260858 0.191241 -0.148498 0.153746 -0.302278 -0.271478 0.125759 -0.361125 -0.15698 0.213156 -0.0737866 0.493185 0.359085 0.0951241 -0.185654 0.405941 -0.141488 0.184007 -0.00298982 -0.133544 -0.00896595
2323 0.0632639 -0.0754391 0.245423 0.574 -0.118138 -0.0282274 -0.393706 -0.134176 0.233937 0.21955 -0.3061 0.160562 -0.0903144 0.0499865 -0.335448 -0.504859 0.331267 0.428165 -0.353835 -0.153259 0.0951051 0.339745 0.0506951 0.146647 -0.0143164 -0.274463 -0.19236 -0.0552371 0.0515816 0.0344306 0.198002 -0.0216956 -0.0346067 -0.205304 0.078372 -0.251284 -0.511141 0.0320326 0.333352 -0.280179 -0.0960998 0.282001 0.0900841 -0.0120149 -0.0846971 -0.254788 -0.00683073 0.22389 0.39182 0.0336182 -0.240995 -0.165547 -0.135284 0.000281067 -0.263422 -0.0162182 -0.0109003 0.586403 -0.11336 0.022986 0.208796 -0.393808 0.30936 -0.271408 0.203188 0.00399642 -0.430702 0.169394 -0.347287 0.0744091 0.00263292 0.0683151 0.138297 -0.00061461 -0.133701 -0.084015 0.0963469 -0.303636 0.289365 -0.398824 -0.187043 0.0694634 0.119683 -0.0361431 0.287753 0.263554 0.261326 -0.122866 0.0943187 0.266488 -0.0575354 -0.0434897 -0.125787 -0.188188 0.0710844 0.177854 0.146882 0.0214097 -0.171779 0.0578264 -0.5132 -0.150578 0.146807 -0.350848 0.161316 0.195875 0.00194033 -0.293541 0.371332 -0.00791336 0.39225 -0.432327 -0.14424 0.294876 -0.142147 -0.105949 -0.0644627 -0.01716 0.330993 0.350844 -0.11729 -0.504758 0.559141 -0.48293 0.301795 0.341099 -0.189288 -0.078737
321 -0.0519322 -0.0627579 0.113823 0.436396 -0.0958624 0.0975124 -0.161592 -0.0206787 0.273545 0.100377 -0.273905 -0.0368107 -0.141893 -0.0690978 0.0296806 -0.337518 0.138897 0.115077 -0.361144 0.0276953 -0.0767003 0.332401 -0.267604 0.258513 0.135571 -0.147041 0.00291105 -0.208516 0.104279 0.0803985 -0.0700153 0.132487 -0.139617 0.131062 -0.139948 -0.268568 -0.253862 0.0721731 0.265046 -0.019015 -0.145657 0.486474 0.150258 0.0359226 0.241843 -0.0109555 0.0814573 0.00109675 0.191618 -0.125568 -0.281357 -0.29452 -0.344723 0.0856523 -0.233346 0.0365476 0.0381386 0.390982 -0.117989 0.122072 0.0892539 -0.0966221 0.130832 -0.36737 0.282368 0.00815259 -0.0904856 -0.0489398 -0.173555 0.0101084 0.267011 -0.0516903 0.306817 -0.0498428 -0.182418 -0.234265 0.149779 -0.0224201 0.186226 -0.245288 -0.159528 -0.0212948 -0.0466196 -0.464177 0.503537 0.359261 0.189879 0.173958 0.209443 0.228647 0.0199131 0.00673907 -0.21059 -0.2666 0.132919 0.251833 0.408883 -0.13216 -0.174024 -0.105625 -0.170833 -0.0289301 0.376177 -0.411683 -0.0314215 0.141688 0.235189 -0.337246 0.184591 -0.165403 0.0806051 -0.381494 -0.261116 0.14396 -0.35647 -0.242785 0.149791 -0.129807 0.463099 0.41047 0.0307217 -0.135259 0.354106 -0.134962 0.0852346 -0.0117391 -0.147826 0.054768
2542 -0.0885261 -0.0658624 0.120694 0.507791 -0.190092 0.142936 -0.159409 -0.0794952 0.22627 0.184805 -0.193733 0.0391748 -0.0994056 -0.0502328 -0.0063334 -0.325855 0.132791 0.130627 -0.338557 0.130233 -0.0207175 0.258614 -0.328943 0.348527 0.102697 -0.0628498 -0.0527534 -0.133415 0.0449014 0.0786078 -0.0558115 0.0716364 0.0125732 0.137703 -0.100993 -0.330406 -0.244444 0.0208277 0.29528 -0.0799103 -0.183525 0.324626 0.0781653 0.0771057 0.142046 -0.0373864 0.0227855 0.0497181 0.10705 -0.033662 -0.155511 -0.25206 -0.255406 -0.00536214 -0.181517 0.0739719 0.0740805 0.348551 -0.150787 0.0997099 0.0652759 -0.137494 0.0908941 -0.265204 0.13501 -0.0190901 -0.0545535 0.0686089 -0.148771 -0.0549777 0.195643 -0.0750759 0.318066 -0.0529013 -0.102675 -0.137468 0.220699 0.0304072 0.120132 -0.160937 -0.141437 0.00270268 -0.0544653 -0.397578 0.463403 0.402068 0.157739 0.100935 0.233453 0.212876 0.185001 -0.00247992 -0.245744 -0.259752 0.223424 0.213692 0.510792 -0.111628 -0.224973 -0.0915375 -0.199728 -0.0283152 0.297839 -0.38649 -0.0690207 0.113451 0.262395 -0.267698 0.204507 -0.159244 0.150128 -0.281547 -0.282057 0.134337 -0.274633 -0.177581 0.150539 -0.0684302 0.48644 0.373289 0.131762 -0.165952 0.343376 -0.116607 0.15769 0.0564423 -0.167275 0.0191421
5360 -0.123634 -0.108632 0.227469 0.441276 -0.142945 0.0804105 -0.171097 -0.0661737 0.148522 0.13662 -0.199932 0.000703217 -0.140619 -0.0336886 0.0503375 -0.329412 0.143051 0.119349 -0.366417 0.0368165 0.0672849 0.312499 -0.276694 0.425767 0.114243 -0.106075 0.00839719 -0.151848 0.0126668 0.0925101 -0.00856249 0.00539531 -0.0569264 0.144506 -0.138776 -0.338946 -0.269611 0.113983 0.244303 -0.0524767 -0.0594136 0.35124 0.0886043 0.0408277 0.237913 -0.037179 0.0215019 -0.0661571 0.19262 0.0174244 -0.132644 -0.229291 -0.160117 -0.000103677 -0.23144 0.0569455 0.0675129 0.423375 -0.0832882 0.143729 0.158488 -0.0945026 0.0257069 -0.281656 0.167537 -0.0814726 -0.137494 0.00792117 -0.124365 0.0513687 0.266728 -0.0261849 0.222105 -0.0810912 -0.117317 -0.215174 0.257933 -0.0306133 0.161664 -0.2524 -0.156672 -0.0623152 -0.0468747 -0.557593 0.472384 0.376773 0.157967 0.142101 0.195636 0.230241 0.0812111 0.0103661 -0.194622 -0.342867 0.130542 0.251889 0.467665 -0.157644 -0.162698 -0.00206625 -0.295499 -0.0160269 0.260781 -0.418407 -0.118471 0.0979165 0.22477 -0.284851 0.196482 -0.0925278 0.0797967 -0.338998 -0.253334 0.154398 -0.366695 -0.229718 0.161626 -0.138441 0.463585 0.411024 0.112473 -0.188648 0.313902 -0.144287 0.227718 0.0136447 -0.163977 -0.0280358
5666 -0.122503 -0.09049 0.204846 0.553569 -0.189772 0.131911 -0.248669 -0.026465 0.145479 0.126315 -0.153311 0.0231093 -0.192446 0.00979216 0.0130312 -0.300119 0.158807 0.118767 -0.383157 0.0892391 -0.0353431 0.269627 -0.279885 0.316604 0.0791004 -0.130431 -0.0582472 -0.100289 0.0648749 0.0778845 -0.0863125 0.0410365 -0.0437249 0.126739 -0.15363 -0.305126 -0.329437 0.0530411 0.234606 -0.0439497 -0.195856 0.477931 0.0966538 0.168956 0.17555 0.0572129 0.0150596 -0.0066173 0.192437 0.000750396 -0.253904 -0.197874 -0.328378 0.108139 -0.234804 0.00326925 0.0743475 0.400808 -0.181301 0.0789977 0.0245169 -0.119369 0.110842 -0.33448 0.148772 -0.0409286 -0.132434 0.0277245 -0.199023 0.0928914 0.254418 0.0190693 0.243556 -0.112531 -0.203517 -0.195934 0.185872 0.0663995 0.199822 -0.297137 -0.084379 0.0400869 -0.153416 -0.468323 0.487067 0.289619 0.208031 0.0794425 0.145146 0.2223 0.0406538 0.0551555 -0.124616 -0.224887 0.116491 0.239143 0.439908 -0.160138 -0.212043 -0.0541061 -0.195867 -0.023343 0.272948 -0.433788 -0.145942 0.073595 0.24706 -0.254302 0.183422 -0.158363 0.125026 -0.252834 -0.23932 0.101839 -0.353423 -0.242124 0.163925 -0.00536113 0.44753 0.346574 0.091101 -0.138812 0.40205 -0.138431 0.137437 0.0904611 -0.206952 -0.0543
4416 -0.0791396 -0.0417832 0.218711 0.466079 -0.174648 0.0538439 -0.174954 -0.0507545 0.166894 0.0684843 -0.215166 -0.0246455 -0.18446 -0.0724608 0.0506657 -0.327685 0.134732 0.108887 -0.433539 0.0387104 0.0489597 0.262453 -0.28415 0.378766 0.146156 -0.177511 -0.0805792 -0.185408 0.0275493 0.0712926 -0.0902952 0.0385656 -0.0099093 0.148739 -0.102146 -0.340518 -0.292555 0.11195 0.282827 -0.00111591 -0.136411 0.470528 0.106129 0.119876 0.222823 -0.0122992 0.0399017 -0.0518513 0.223402 0.0358083 -0.161261 -0.278956 -0.285527 -0.00146752 -0.246505 0.0607344 0.0606495 0.455419 -0.186197 0.134469 0.120664 0.0200477 0.0279865 -0.356338 0.226747 0.0336801 -0.153562 -0.0145199 -0.17678 -0.00671157 0.280676 -0.053809 0.171177 -0.06779 -0.175758 -0.204887 0.122221 -0.0265101 0.159638 -0.232033 -0.206696 0.0204321 -0.00139022 -0.459756 0.475711 0.396052 0.159889 0.0536085 0.177772 0.239797 0.0489913 0.0425905 -0.194802 -0.270021 0.140389 0.223238 0.53073 -0.177592 -0.176603 -0.0375268 -0.237641 0.0260099 0.296067 -0.415636 -0.13036 0.0354988 0.217878 -0.252467 0.154076 -0.161667 0.199351 -0.34307 -0.275009 0.10565 -0.377564 -0.195555 0.227756 -0.138678 0.470116 0.383209 0.1758 -0.237412 0.34603 -0.102895 0.191562 0.056155 -0.140595 0.0291725
4824 -0.453952 -0.470524 0.0790902 0.435164 -0.733466 0.168629 0.01015 -0.271604 0.186453 0.208828 -0.105615 0.346943 0.0314487 -0.0373676 0.0723446 -0.181496 0.221822 0.109731 -0.084473 0.00294593 0.0528566 0.436438 -0.472302 0.204748 0.16036 -0.00939952 0.0991311 -0.0882493 0.105484 0.0398384 -0.0780777 0.215571 -0.0211141 0.145045 -0.122824 -0.481334 -0.216188 0.290783 -0.0206448 -0.0450135 -0.188181 0.242707 -0.176578 0.208734 -0.0283808 -0.019191 0.0290063 -0.116695 0.0768385 -0.150472 -0.358535 0.087078 -0.377445 0.339158 -0.253603 0.162436 0.174138 0.193356 0.0733967 0.244067 0.120541 -0.00161747 0.0639233 -0.382177 -0.023597 0.149809 -0.233045 0.227802 -0.338534 0.0206316 0.398028 0.0921493 0.378185 -0.146175 -0.112925 -0.0950148 0.00759187 -0.0286372 0.0768973 -0.137458 0.230546 0.00784001 0.0198862 -0.354603 0.449905 0.458105 -0.016326 0.124095 0.17578 0.440505 0.164703 -0.0846403 -0.253497 0.0401601 0.219196 -0.0343959 0.301839 -0.170122 0.129982 -0.135746 -0.191589 -0.0365973 0.0968321 -0.414062 0.135202 0.232564 -0.123699 -0.0752771 0.0317192 -0.0503916 0.282133 -0.254284 0.0176559 -0.0969089 -0.0760331 -0.159933 -0.0987868 -0.167566 0.193864 0.426834 -0.0120098 -0.00059915 0.410753 -0.383118 -0.101884 0.0696152 -0.252054 0.0154005
1184 -0.0540774 -0.316303 0.0372294 0.633744 -0.252851 0.133005 -0.177158 -0.00705857 0.25629 0.117117 -0.237319 0.0357802 -0.0526784 -0.0430724 0.16587 -0.320726 0.234096 0.0388719 -0.231085 0.234979 -0.0356075 0.229075 -0.205137 0.161167 -0.0268875 0.138726 -0.0212078 0.046722 0.0821908 0.298212 -0.139768 -0.0397837 -0.222547 0.275578 -0.211479 -0.475983 -0.440212 -0.0405771 0.208097 -0.110448 -0.0699573 0.298759 0.127781 0.161462 0.20726 -0.045839 0.233389 0.034194 -0.0223481 0.0340745 -0.237328 -0.196538 -0.425159 0.17294 -0.168419 0.17694 0.0153783 0.360682 -0.0608027 0.182044 0.173009 -0.0660472 0.137361 -0.0553152 0.231309 0.00670173 -0.0290042 0.0776738 -0.280103 0.0923614 0.266898 -0.165881 0.421268 0.0879993 -0.283703 -0.176427 0.387398 -0.208871 0.343618 -0.0386164 -0.141766 0.0826902 -0.350897 -0.321942 0.386035 0.374445 0.0965698 0.248927 0.218551 0.249197 0.0208134 -0.174478 -0.124645 -0.269246 0.13988 0.272923 0.22101 -0.355652 -0.249237 -0.0504926 -0.249224 -0.122536 0.253892 -0.307583 0.0348208 0.347899 0.30847 -0.328017 0.422272 -0.337419 -0.00669686 -0.0367541 -0.113516 0.263733 -0.132405 -0.0414381 0.205304 0.0382479 0.433101 0.408637 0.053474 0.0676054 0.453706 -0.319931 -0.121065 -0.202042 -0.117657 0.0132544
2760 -0.063825 -0.105718 0.206356 0.443785 -0.117032 0.11411 -0.151033 -0.0163395 0.113563 0.0841933 -0.195737 -0.0676906 -0.173296 -0.0110891 0.0342403 -0.27477 0.14349 0.169872 -0.331538 0.0199131 0.0503724 0.352473 -0.235115 0.38439 0.118325 -0.0816116 -0.155124 -0.147731 0.0515422 0.0627911 -0.105779 0.0357674 -0.0564853 0.0894485 -0.123763 -0.371381 -0.342063 0.179451 0.238801 -0.0519139 -0.124286 0.428868 0.0896078 0.145401 0.199437 -0.010463 0.0191525 -0.0111365 0.0984884 0.00218051 -0.150072 -0.252222 -0.282335 -0.0654019 -0.203365 0.0346091 0.046447 0.409423 -0.181092 0.170715 0.100668 -0.0748379 0.0369212 -0.301671 0.227181 0.0452901 -0.169493 0.132893 -0.150344 0.0575142 0.263619 -0.0641009 0.210489 -0.00568425 -0.170034 -0.176731 0.21448 -0.0376973 0.216194 -0.142348 -0.212475 0.0576723 0.0130264 -0.41945 0.344053 0.395486 0.221375 0.0592626 0.184576 0.195736 0.0848485 3.42719e-05 -0.238672 -0.258241 0.227357 0.23481 0.460209 -0.143086 -0.185888 -0.00705853 -0.306566 -0.0712041 0.330697 -0.416717 -0.0798541 0.0995605 0.245819 -0.21064 0.195275 -0.100875 0.15207 -0.322067 -0.218065 0.115185 -0.309643 -0.153687 0.204305 -0.136798 0.49214 0.426287 0.222868 -0.218728 0.370008 -0.0868703 0.109818 0.0257378 -0.243927 0.0157676
5691 -0.0616026 -0.00266785 0.127488 0.433836 -0.228106 0.109851 -0.152588 -0.0697841 0.152389 0.044399 -0.17699 -0.0110699 -0.118036 -0.0544506 0.0641634 -0.31928 0.12247 0.00922051 -0.422806 0.0309109 0.00131421 0.320303 -0.273869 0.322452 0.0641623 -0.194045 -0.0717623 -0.173912 0.06157 0.101493 -0.0591191 0.0780789 -0.0278255 0.117005 -0.123198 -0.321858 -0.235354 0.0922756 0.25417 -0.00545517 -0.12771 0.438879 0.0842842 0.11812 0.270598 -0.0693998 0.0687972 -0.0768413 0.133309 0.0182381 -0.143981 -0.268503 -0.214246 0.103034 -0.158852 0.0297637 0.0443639 0.365728 -0.103151 0.139604 0.106432 -0.0307792 0.0157297 -0.341561 0.186069 0.0241802 -0.109001 0.023193 -0.138915 0.00858356 0.254087 -0.0640209 0.248529 -0.11207 -0.180331 -0.222085 0.105134 -0.0207678 0.177179 -0.255693 -0.179031 0.0299598 -0.0548922 -0.509379 0.439001 0.388991 0.139132 0.0796027 0.108126 0.196276 0.0295985 0.0189194 -0.108142 -0.206012 0.115644 0.181994 0.508787 -0.183119 -0.221682 -0.00376319 -0.157396 -0.00552169 0.188906 -0.419527 -0.0482058 0.0376818 0.222759 -0.19543 0.079932 -0.186536 0.178025 -0.242678 -0.216515 0.0541405 -0.398728 -0.249988 0.195205 -0.100495 0.426665 0.358672 0.124931 -0.160484 0.279446 -0.143148 0.144804 0.0693063 -0.103907 0.0102534
3000 -0.00814652 -0.045284 0.127741 0.440191 -0.0868611 0.102763 -0.151231 -0.0421428 0.154309 0.0329387 -0.13624 -0.0379825 -0.0784197 -0.0754626 0.0372653 -0.354328 0.227225 0.0732259 -0.323899 0.119858 -0.0134664 0.369965 -0.287598 0.325693 0.140121 -0.137997 -0.0647149 -0.13603 0.042038 0.132471 -0.0840424 0.092238 -0.0406619 0.147284 -0.0808738 -0.34743 -0.280966 0.0714477 0.215401 -0.0538828 -0.123414 0.444511 0.12891 0.0355078 0.28625 -0.0236839 0.00826357 -0.0676877 0.113519 -0.00833965 -0.177576 -0.301875 -0.163676 0.0378494 -0.208972 0.0566495 0.12514 0.408427 -0.0867471 0.154809 0.0779377 -0.0726468 0.108469 -0.275522 0.164999 -0.0271541 -0.0785871 -0.01432 -0.160625 0.0740008 0.305838 2.7764e-06 0.322841 -0.0391391 -0.209151 -0.235763 0.316166 0.0594156 0.199247 -0.269525 -0.132237 0.0238848 -0.132 -0.579345 0.45929 0.385894 0.181713 0.11268 0.220683 0.152735 0.13001 -0.0297148 -0.154682 -0.276934 0.135206 0.220285 0.513243 -0.139155 -0.215567 -0.0409603 -0.257363 -0.0402778 0.275581 -0.430828 -0.0764639 0.0695687 0.278453 -0.301597 0.196747 -0.104824 0.0543198 -0.284205 -0.276924 0.144134 -0.322393 -0.156136 0.150394 -0.0475465 0.520398 0.43851 0.126492 -0.11617 0.416687 -0.13534 0.179847 0.00046963 -0.179662 -0.0239235
2688 -0.177592 -0.0264562 0.402965 0.264862 -0.235373 -0.0386754 -0.230489 0.0010578 0.312542 0.308533 -0.321772 0.159755 -0.103977 0.0573145 -0.289566 -0.425511 0.137967 0.225341 -0.259574 0.248669 0.257683 0.343838 -0.253064 0.225505 0.0458336 -0.225494 -0.176238 0.199491 -0.106018 0.128315 -0.0697215 -0.120523 0.024388 0.0871043 0.0111579 -0.378759 -0.37414 0.0622685 0.312228 -0.161683 -0.200035 0.200024 -0.298286 0.268474 -0.0407736 -0.126513 -0.0221947 0.210965 0.13934 0.15529 -0.181851 0.114424 -0.134254 0.0634834 -0.130374 0.0430521 -0.0286349 0.171551 -0.117349 0.0718287 0.123956 -0.209263 0.142098 -0.336391 0.239875 0.18267 -0.176125 0.0562568 -0.192675 0.0707836 0.0352999 -0.054357 0.323481 -0.208033 -0.0275764 -0.0869193 -0.0932174 0.0468982 0.125856 -0.111551 0.107821 -0.0298249 0.00392606 -0.119249 0.504459 0.285104 -0.123765 0.0611842 0.246112 0.193986 0.177059 -0.0283797 -0.50933 -0.209664 0.124156 0.273798 0.52528 -0.0307608 -0.0235593 -0.000824019 -0.349589 0.140982 0.0205828 -0.171116 -0.00543983 -0.0525628 0.126378 -0.320266 0.220352 0.0709142 0.138301 -0.25787 -0.338611 0.164458 0.00991657 -0.143105 -0.0343399 -0.00811146 0.47079 0.528047 -0.00965959 -0.177365 0.267848 -0.272636 0.0826269 0.114327 -0.328903 -0.0999099
4712 -0.0930818 -0.0215416 -0.00146093 0.0246219 -0.197786 0.0777229 -0.173055 -0.0769969 0.198818 0.2632 -0.433055 0.235902 -0.0514772 0.149915 -0.224666 0.086417 0.0398186 0.113649 -0.311802 0.0638557 0.11495 0.201728 -0.215431 0.149847 0.0558111 -0.115592 0.00345658 -0.105014 -0.046711 -0.00939955 -0.115061 0.0359597 -0.156118 0.184297 -0.127086 -0.447638 -0.3261 0.215326 0.312389 -0.193322 -0.362768 0.464438 -0.30752 0.253357 0.135837 0.0171072 0.25162 0.242033 0.0391965 0.168526 -0.351958 0.0544171 -0.515649 -0.0907198 -0.168092 0.197358 0.0363045 0.161485 -0.125071 0.18417 -0.0867362 -0.10995 -0.110853 -0.191756 0.201568 0.333358 -0.194815 0.394011 -0.29789 -0.219754 0.107188 -0.145401 0.219153 -0.0756787 -0.280034 0.0241732 -0.0869791 -0.169749 0.0791592 0.0650751 -0.142586 0.0494663 0.221763 -0.146462 0.196698 0.110524 0.0522225 0.237837 0.166797 0.573183 0.0181563 0.0253604 -0.462105 -0.164118 0.35202 0.297584 0.217815 -0.275356 0.181857 0.0154508 -0.344974 0.0315637 0.186018 -0.0496649 0.029126 -0.0161336 0.245024 -0.243583 0.196563 -0.153019 0.0159792 -0.266776 -0.127041 0.152164 0.140725 -0.264278 0.166204 -0.078635 0.325961 0.298023 0.108239 0.0198471 0.0912081 -0.222581 -0.15258 0.0780532 -0.147844 0.118942
4828 0.119697 0.217594 -0.241251 0.177704 -0.0163905 0.359378 -0.157249 -0.333541 0.211668 0.175073 -0.0480862 0.242852 -0.0581599 -0.027696 -0.438847 -0.0384124 0.105415 0.114159 -0.258318 0.0595057 -0.104784 -0.0628652 -0.568826 0.131613 -0.0819255 0.0946114 -0.220198 -0.0309257 0.00706011 0.0365423 -0.387826 0.156394 0.00103816 0.163279 -0.187251 -0.515189 -0.313617 0.236402 -0.166469 -0.0321631 -0.554346 0.783797 -0.500707 0.348637 -0.146626 0.157661 0.109945 0.295462 0.026665 -0.0399011 -0.190818 0.147473 -0.528712 -0.0428476 -0.518905 -0.0397225 0.237289 0.296359 -0.188184 0.0474101 -0.00944576 -0.0903901 0.175506 -0.498108 0.0257431 0.315254 -0.0529549 0.0775016 -0.0119005 -0.142151 0.0766552 -0.0431659 0.121876 -0.117858 -0.179276 0.0572261 -0.15051 0.2035 -0.177544 0.158659 0.193689 0.320744 0.107083 -0.135448 0.150395 -0.0317384 0.0670713 -0.0208821 0.341193 0.407644 0.0681023 0.226736 -0.615183 -0.253954 0.446398 -0.395582 0.0921156 0.216602 0.137251 -0.166388 -0.26697 -0.172613 -0.311754 -0.349261 0.20921 -0.0607335 0.276491 -0.0441916 -0.0401625 -0.323527 0.288418 0.00668475 -0.29203 0.137475 0.039397 -0.577267 0.266368 0.017339 0.381125 0.327701 0.297046 0.225535 0.0190261 -0.641064 -0.388971 0.50636 -0.297572 0.0981955
6068 -0.0456072 0.0847189 -0.158404 0.188769 -0.31211 0.153797 -0.230203 -0.20059 0.116517 0.351432 -0.378901 0.403977 -0.0563325 -0.233095 -0.497482 0.147866 0.277996 -0.211097 -0.307209 0.077328 -0.0401516 0.168579 -0.137775 0.292188 -0.275786 -0.110166 -0.207244 0.251553 0.238893 -0.20411 -0.327392 -0.109351 0.0231698 0.133055 -0.125677 -0.342345 -0.119801 0.234679 -0.194576 -0.0530188 -0.564755 0.767797 -0.355048 0.557764 -0.111691 0.0253137 0.224669 0.517684 0.0981301 -0.136688 -0.191752 -0.139268 -0.69853 -0.283399 -0.336923 0.184258 0.0318455 0.156747 -0.262486 0.0284272 -0.491018 0.210336 0.173091 -0.384951 0.38354 0.150876 0.209384 -0.0862535 -0.094465 -0.0639323 -0.0297181 -0.242039 0.186521 -0.0371392 0.0197241 -0.0461968 -0.035509 -0.183988 0.0560045 0.0915888 -0.018975 0.278706 0.39361 -0.187613 0.0392623 0.0877811 0.21439 -0.0493249 0.0829592 0.509665 -0.139263 0.249539 -0.408024 -0.391394 0.331699 0.108048 0.292817 -0.103292 0.0291759 0.0665486 -0.058969 0.132268 -0.0633216 -0.238352 -0.145545 0.0819866 0.338502 -0.244938 0.0339583 0.0533614 0.447964 0.186144 -0.213904 0.132232 -0.133601 -0.444222 0.271568 -0.1764 0.533304 0.369936 0.46066 -0.185801 0.433804 -0.0191969 -0.386947 0.59195 -0.0282876 0.32892
5210 -0.207557 0.00584116 -0.123327 0.21044 -0.49877 0.289138 -0.309043 -0.424143 -0.0828985 0.258769 -0.125588 0.578993 0.141143 -0.226914 -0.524537 0.420568 0.329617 -0.118431 -0.0691113 0.0573853 -0.104525 0.211528 -0.363397 0.240291 -0.088811 -0.0542444 -0.010947 0.115363 0.150825 0.144585 -0.189529 0.0467947 -0.0638456 -0.0901287 -0.0683964 -0.439088 -0.13382 0.166027 -0.32287 -0.175133 -0.379318 0.475753 -0.421095 0.275188 -0.196689 0.0231488 0.102104 0.317786 -0.236847 -0.0203868 -0.158885 0.0465928 -0.313075 -0.0121314 -0.356761 0.191396 0.238223 0.2337 -0.0701142 0.141977 -0.114574 -0.248206 0.126714 -0.326133 0.0557821 0.0954012 0.186555 -0.0389407 -0.0799017 0.00229408 0.0369802 -0.232366 0.405928 0.00881582 0.124214 0.033519 0.226341 0.0184968 -0.0716798 0.153013 0.256057 0.170309 0.1678 -0.323842 -0.0500416 0.0796743 0.174643 0.00213688 0.0797498 0.604505 0.145109 0.221414 -0.451356 -0.251942 0.224306 -0.141162 0.210362 -0.041212 0.0428983 0.104675 -0.249146 -0.0717116 -0.13322 -0.251384 0.160236 0.208621 0.331699 -0.0429364 0.0881763 -0.136257 0.141159 0.0205879 -0.041614 0.302504 -0.00386644 -0.42486 0.163189 -0.0892022 0.44296 0.367204 0.276969 0.22201 0.372459 -0.280461 -0.289944 0.444264 -0.26313 0.0549869
4948 -0.37938 -0.18072 -0.0805956 0.291582 -0.428307 0.299601 -0.290795 -0.233602 0.148033 0.409489 -0.295045 0.384678 0.0115832 0.115088 -0.271817 0.10513 -0.00678833 -0.114229 -0.24789 0.0459661 -0.000683716 0.286267 -0.282874 0.420922 0.0323284 0.106919 -0.145415 0.111587 0.0726588 0.115119 -0.167152 0.31205 0.0988326 -0.0960364 -0.302493 -0.46429 -0.413026 0.256202 0.0411338 -0.0375153 -0.188516 0.650035 -0.355058 0.366024 0.0311293 0.0309008 0.110999 0.174136 -0.253186 0.0831306 -0.0178022 0.117382 -0.188758 -0.0931376 -0.19973 0.175165 0.0606883 0.246074 0.00700745 0.223317 -0.217009 -0.230865 0.0473522 -0.269499 0.178924 -0.0445147 -0.0853393 0.362047 -0.124736 -0.0734217 0.22158 0.0229116 0.134629 -0.0334469 -0.0960279 -0.112442 0.0199869 -0.0122372 0.0666598 0.0760643 -0.132164 0.165671 0.225353 -0.142738 0.183568 0.222605 0.149852 0.133776 0.0429954 0.29237 0.112207 -0.0224466 -0.453567 -0.22119 0.405196 -0.0505426 -0.0971104 -0.211983 0.166906 0.0474037 -0.418414 -0.0652221 -0.127725 -0.314765 0.0468716 0.220015 -0.00847999 0.15452 0.203192 -0.173747 0.250821 0.0502662 0.0123901 0.143368 0.211313 -0.163649 0.0397641 0.00481291 0.243342 0.163547 0.037509 -0.0440575 0.190115 -0.381466 -0.253598 0.423159 -0.350835 -0.0354245
4600 -0.216797 -0.171191 -0.332644 -0.0257925 -0.431109 0.22693 -0.215899 -0.373166 -0.329229 0.300791 -0.323999 0.569253 0.350167 0.0877919 -0.276767 0.122758 0.410785 -0.218654 -0.299548 -0.0402785 -0.0830195 0.164577 -0.147883 0.387277 0.0417443 -0.139145 -0.136579 0.2652 0.252364 0.261 0.0584817 0.540556 0.344499 0.0305142 0.13915 -0.496655 -0.255508 0.0996819 -0.476579 0.110168 -0.228961 0.889564 -0.300445 0.00633158 0.0147394 -0.0340481 -0.296983 0.058783 -0.249754 -0.0298768 0.119105 -0.101508 0.08912 -0.391237 -0.420467 0.268182 0.529843 0.490028 0.173848 0.283577 -0.0423993 -0.267017 0.244153 -0.140175 -0.0208747 0.018508 -0.126858 0.039535 -0.183173 -0.153369 0.45394 -0.173304 0.325928 0.156798 -0.121743 -0.115178 0.205759 -0.0513812 -0.555585 0.120024 -0.0606419 0.0875436 0.11454 -0.476875 0.0959369 0.124801 0.233766 0.197646 -0.0271756 0.342909 0.25242 -0.0906841 -0.432319 -0.160726 0.145144 -0.170122 -0.388685 -0.0517506 0.204994 0.15944 -0.682657 -0.0864403 -0.0837092 -0.321231 0.213713 -0.0555989 0.297407 0.193089 0.0121325 -0.0984076 0.126575 -0.182626 0.181805 0.287573 0.411853 -0.254193 -0.0255276 -0.0471381 0.518476 0.286735 0.161443 0.125808 0.0575859 -0.428408 0.0169721 0.48185 -0.179751 -0.106921
5483 0.0356266 -0.0836978 -0.25855 -0.183253 -0.30204 0.139837 -0.101946 -0.310082 -0.404029 0.3459 -0.329387 0.685671 0.461758 0.0180446 -0.25131 0.168415 0.463663 -0.332803 -0.269544 -0.215864 -0.0414993 0.313208 -0.126522 0.536093 -0.0528724 -0.172273 -0.197148 0.266891 0.339534 0.304039 0.136347 0.605257 0.396078 -0.0146095 0.100721 -0.447673 -0.174417 0.134862 -0.574472 0.225395 -0.225319 0.959335 -0.403958 0.012512 0.155301 -0.170105 -0.327631 0.0019431 -0.241328 -0.17119 0.181819 -0.200635 0.186504 -0.431698 -0.414336 0.321866 0.462689 0.4944 0.162271 0.226484 0.0392383 -0.311735 0.389907 -0.235865 0.0600292 -0.0994827 -0.0560804 -0.0363027 -0.0662212 -0.176922 0.621556 -0.268028 0.405218 0.18223 0.0436274 -0.11398 0.325799 -0.110747 -0.786954 0.0759708 -0.155366 -0.08027 0.227811 -0.555804 0.226233 0.164633 0.202186 0.315099 0.0273026 0.34189 0.247687 -0.0944956 -0.508206 -0.300229 0.0287539 -0.183389 -0.467198 -0.0158782 0.180598 0.211475 -0.788914 -0.0539122 -0.0263052 -0.403055 0.243262 -0.0366611 0.279197 0.264897 -0.113206 -0.0444226 0.291486 -0.216349 0.175401 0.324378 0.303471 -0.334641 4.26309e-05 -0.0212564 0.508743 0.306721 0.174103 0.124232 0.0483079 -0.315545 0.070226 0.554568 -0.0270626 0.0164678
4894 -0.0343217 -0.0528175 0.0358364 0.0546827 -0.370779 0.436419 -0.357334 -0.362462 -0.267682 0.533734 -0.183058 0.412664 0.113396 -0.0272018 -0.345215 0.145758 0.238602 0.0837743 -0.108429 -0.0262998 0.0431696 0.0817741 -0.435559 0.476059 -0.0790596 -0.156978 0.106444 0.0404114 0.237372 0.322284 -0.0994897 0.411367 -0.00522684 0.0634779 0.169659 -0.346196 -0.310495 0.154692 -0.115754 -0.0742224 -0.305794 0.456294 -0.113105 0.194984 -0.0791307 0.0493532 -0.211852 0.215671 -0.233679 0.0437895 -0.152076 0.0404094 -0.209515 -0.345341 -0.42895 0.332819 0.342593 0.198888 -0.0233693 0.314801 -0.0546507 -0.371932 0.10118 -0.0155433 0.169066 0.160193 -0.188934 -0.032086 0.0574054 -0.106951 0.244707 -0.399824 0.4564 0.0615329 -0.116967 -0.0820849 0.0519179 0.0282471 -0.301078 -0.0409616 0.121218 -0.0729097 0.210646 -0.264277 0.261451 -0.0156916 0.217329 0.241444 0.153599 0.31347 0.213662 -0.0667144 -0.517932 -0.350768 0.217351 -0.10215 0.140876 0.0239849 0.337887 0.162126 -0.458549 0.0433344 0.0580072 -0.135279 0.236206 0.136302 0.180187 -0.0371088 0.255715 0.0848995 -0.0295677 -0.211768 -0.154659 0.256981 0.0680194 -0.338177 -0.0764714 -0.100782 0.555273 0.581167 0.0394784 0.205009 0.20763 -0.118784 -0.2434 0.593449 -0.573445 -0.260607
5459 -0.343059 -0.104449 -0.054621 0.426322 -0.212218 0.296242 -0.38182 -0.191123 0.0863395 0.200782 -0.217282 0.331058 -0.161158 0.180314 -0.312297 -0.0954014 0.161288 0.0653632 -0.332447 0.224591 -0.231724 0.235721 -0.174928 0.308855 0.189407 -0.20065 -0.0143115 0.0457558 0.166107 -0.0431985 -0.205268 0.239373 0.0571215 0.130088 0.0643579 -0.591817 -0.301907 -0.00188515 0.0376569 -0.242095 -0.359952 0.559924 -0.136779 0.0814985 0.0703933 0.327118 -0.0296307 0.0921295 -0.0518515 0.0297501 -0.190468 -0.112162 -0.162842 -0.171086 -0.253768 0.109238 0.319673 0.24287 -0.0636521 0.119648 -0.0259351 -0.122599 0.101292 -0.199423 0.0123467 0.16411 0.0258263 0.0131113 -0.196187 -0.0608377 0.0718177 -0.146351 0.216603 0.0374277 -0.154957 -0.0467498 0.0575123 0.140074 -0.0206772 0.02963 -0.0979765 0.220341 0.0750258 -0.481746 0.25846 0.155722 0.132572 0.143943 0.259419 0.374752 0.21876 0.0217719 -0.456159 -0.10977 0.346077 0.204904 0.105673 -0.0664118 0.0145014 -0.204806 -0.303143 0.131424 0.0749365 -0.320486 0.0701704 0.0150104 0.429949 -0.245241 0.0507048 -0.144593 0.0207496 -0.0836113 -0.173637 0.192888 0.0711051 -0.196445 0.0887945 -0.091562 0.588423 0.344323 0.245584 0.126485 0.236766 -0.297626 -0.00303239 0.167496 -0.411739 -0.138463
5454 -0.641346 -0.16606 -0.0339813 0.188102 -0.677051 0.324648 -0.281129 -0.304924 -0.0215887 0.409165 -0.310279 0.170376 -0.0226846 0.109129 -0.342966 0.0533202 -0.0195468 -0.0394988 -0.442626 0.0895208 0.223547 0.335976 -0.171414 0.216517 0.0342884 -0.15374 -0.111371 -0.054511 0.20518 0.0926954 -0.265573 0.12935 0.0429279 0.212981 -0.0822194 -0.441656 -0.252472 0.252714 0.141491 0.0476937 -0.209991 0.450652 -0.239031 0.262838 0.113443 0.0862972 0.14425 0.155991 -0.0959536 0.229561 -0.0482917 0.0565226 -0.281789 -0.164378 -0.169047 0.0412371 0.259033 0.160839 -0.101805 0.22531 -0.108181 -0.0600141 -0.137954 -0.156049 0.132276 0.189019 -0.235183 0.100343 -0.24636 -0.0222372 0.0693615 -0.381517 0.102677 -0.236963 -0.199705 0.132073 -0.153448 -0.104322 -0.110118 0.0604859 -0.128927 0.177164 0.248786 -0.202758 0.177933 0.101377 0.00690268 0.015089 -0.0650803 0.553347 0.0862284 0.0873934 -0.326789 -0.0616788 0.152911 0.0611164 0.156124 -0.316622 0.143632 0.0231475 -0.251216 -0.0236702 -0.147385 -0.24199 -0.0700195 -0.0176595 0.236791 -0.12106 0.233419 -0.0327415 0.27511 0.0134006 -0.141356 0.0659418 0.208726 -0.285932 0.249705 -0.162191 0.385908 0.264138 0.257085 0.111476 0.0404405 -0.296901 -0.167857 0.218829 -0.258371 -0.0618804
2592 -0.456508 -0.134011 -0.353968 0.187814 -0.583925 0.247663 0.154411 -0.173499 0.00832706 0.391561 -0.117102 0.323062 0.165213 0.155575 -0.437092 -0.00152808 -0.212317 -0.0834545 -0.292393 -0.0518795 -0.094164 0.462218 -0.525933 0.212047 0.0908231 0.257797 -0.354084 0.0154315 0.0857939 0.310707 -0.179903 0.430434 0.116048 -0.00896857 -0.133881 -0.325405 -0.242963 0.518077 0.113993 0.38905 -0.432716 0.925062 -0.351157 0.536029 0.0154671 -0.0564856 0.158752 0.25657 0.138219 -0.0285118 0.0788498 -0.0157101 -0.198445 -0.0180691 -0.0726907 0.168573 0.404647 0.295949 0.019797 0.169079 -0.22479 0.101296 0.223072 -0.244923 0.106155 0.0180713 0.124926 0.00931667 0.0414825 -0.121509 0.0530746 -0.0504126 0.244855 -0.424111 -0.0671719 0.140219 0.345187 0.286274 -0.294792 -0.0555576 -0.147323 0.158819 0.237513 -0.284828 0.0898351 0.144024 -0.0964794 0.107319 -0.205367 0.328861 0.130157 0.153409 -0.272351 0.087018 0.300236 -0.0244126 -0.108948 -0.332686 0.134678 -0.0315001 -0.461101 -0.414049 -0.190739 -0.283352 0.118732 0.170306 0.179307 0.143488 -0.118477 -0.240411 0.305845 0.182318 -0.200175 -0.0911914 0.00154803 -0.206731 0.117221 -0.271863 0.273525 0.415865 0.305 0.0185427 0.310318 -0.30032 0.0800056 0.495993 -0.290842 0.0450338
4342 0.07872 -0.075293 -0.317321 0.0995282 -0.487983 0.160265 0.272867 -0.110284 0.0845946 0.500991 -0.139091 0.148111 0.045842 0.168505 -0.474593 -0.125483 -0.12541 0.0146564 -0.522514 -0.133523 -0.172826 0.0674421 -0.526918 0.288504 -0.060798 0.254939 -0.356666 -0.0454123 0.175465 0.259139 -0.169543 0.238643 -0.133939 0.2703 -0.0350678 -0.352798 -0.253337 0.60913 0.142852 0.382097 -0.584371 0.866007 -0.371736 0.534512 0.0482151 -0.237613 0.21832 0.400363 0.252539 0.0298543 -0.0763913 -0.16483 -0.236591 0.108144 -0.0676027 0.147349 0.510169 0.411111 -0.0368729 0.231061 -0.278387 0.153028 0.0548221 -0.26316 0.0746342 0.0443521 0.072848 0.0992967 0.0208063 0.029274 -0.0140168 -0.0118703 0.404082 -0.594905 -0.233778 0.24447 0.36452 0.357667 -0.197262 -0.146232 -0.241654 0.143436 0.088807 -0.470317 0.127981 0.179684 0.0405267 0.128737 -0.182165 0.303712 0.0250238 0.165471 -0.100488 0.136491 0.164722 0.0276434 -0.0288247 -0.331151 0.0181016 0.0700856 -0.349211 -0.544844 -0.167952 -0.151278 0.259841 0.0601659 0.38494 0.0774713 -0.214903 -0.162615 0.30342 0.00850774 -0.319477 -0.218926 -0.33287 -0.193262 0.0907073 -0.377507 0.312756 0.617544 0.370305 0.0995789 0.357744 -0.230041 0.102794 0.431942 -0.297757 -0.127062
6618 -0.694954 -0.284627 -0.1271 0.249058 -0.656485 0.161701 -0.26033 -0.36069 -0.0260672 0.418305 -0.266887 0.310387 0.0781477 0.156282 -0.341293 0.00313592 -0.000565409 -0.172233 -0.225205 0.0182534 -0.119183 0.412254 -0.387954 0.276712 0.125702 0.069025 -0.216459 0.122839 0.0190459 0.11694 -0.223018 0.281237 0.0954222 0.034707 -0.171228 -0.516182 -0.309341 0.339018 -0.0479502 0.0434449 -0.0653514 0.524619 -0.329671 0.328315 -0.0539078 0.182885 0.153877 0.14435 -0.0801629 0.145054 0.043267 0.160469 -0.0395393 -0.152513 -0.214193 0.187145 0.311924 0.280884 0.0540979 0.226696 -0.182444 -0.165032 0.0594058 -0.215951 0.111778 -0.174158 -0.0807078 0.183256 -0.194618 0.0332953 0.212976 -0.0238677 0.145826 -0.0515581 -0.0785065 -0.0919673 0.0995573 -0.00524301 -0.142981 0.0373175 -0.133048 0.15927 0.298743 -0.343926 0.224469 0.206508 0.228376 0.158798 -0.140215 0.483652 0.120249 0.12769 -0.381652 -0.0750656 0.305959 -0.143328 -0.153418 -0.220435 0.144555 0.0761656 -0.449754 -0.111129 -0.151068 -0.283498 0.0996505 0.213239 0.157955 0.160566 0.14887 -0.285072 0.25369 0.147379 -0.00185485 0.244927 0.250432 -0.234184 0.0919904 0.0311955 0.344444 0.207241 0.16004 0.212362 0.121101 -0.485922 -0.0722506 0.362734 -0.180786 0.0657979
5026 -0.715965 -0.271244 -0.154977 0.315811 -0.777143 0.299697 -0.261871 -0.371478 -0.0451048 0.365992 -0.175006 0.285412 0.0776459 0.101309 -0.262324 -0.0415006 0.0419121 -0.169751 -0.161507 0.0547556 0.00578135 0.468874 -0.264394 0.26654 0.0205972 0.0827492 -0.203879 0.067979 0.0115284 0.00574776 -0.0977496 0.210369 0.154319 0.00817531 -0.145129 -0.454531 -0.267562 0.229183 -0.142877 0.0294057 -0.152092 0.499996 -0.304709 0.228938 0.0307232 0.122323 0.104931 0.0547112 -0.147096 0.155962 0.069585 0.0990933 -0.079308 -0.0907182 -0.175667 0.170719 0.251673 0.239214 0.102469 0.191444 -0.144149 -0.118948 0.0422277 -0.16951 0.0202657 -0.106846 -0.0329276 0.242014 -0.142936 -0.113729 0.231642 -0.0341896 0.103246 -0.0330806 -0.0927862 -0.113057 0.18924 -0.0271084 -0.0931116 0.000708527 0.000367969 0.143621 0.178382 -0.184094 0.180011 0.146268 0.176395 0.157498 -0.0717821 0.343188 0.0687338 0.0461321 -0.302713 -0.120289 0.316762 -0.1486 -0.0123915 -0.133915 0.107905 0.12484 -0.409134 -0.126325 -0.144659 -0.313322 0.175293 0.184384 0.120385 0.100984 0.0551477 -0.150046 0.174587 0.142242 0.0338959 0.153944 0.286109 -0.174662 0.0654409 -0.007702 0.272881 0.283158 0.12144 0.0572849 0.0168841 -0.513377 -0.0957762 0.355203 -0.161761 0.0400617
4124 -0.566121 -0.352581 0.192231 0.433468 -0.668345 0.0223818 -0.00524762 -0.0573153 0.103829 0.28341 -0.27216 0.273764 0.0381001 0.0488366 -0.219756 -0.181997 0.122524 0.0769302 -0.190799 0.119924 -0.0312172 0.363838 -0.275305 0.205964 0.105671 -0.0453429 -0.184463 0.0400255 -0.147227 0.0918274 -0.210696 0.0938794 0.123915 0.127485 -0.0815199 -0.37541 -0.340084 0.266288 0.0324894 -0.071762 -0.20295 0.357647 -0.33986 0.235825 0.0637653 -0.00335843 -0.0352336 0.105481 -0.0227496 0.0931249 -0.134028 -0.0709655 -0.131201 0.12581 -0.10515 0.0229421 0.13357 0.227322 -0.194056 0.201465 -0.0444127 -0.112649 0.193563 -0.275603 -0.0823806 -0.00146372 -0.183089 0.371082 -0.317767 0.129038 0.45978 0.059098 0.429373 -0.112562 -0.14973 -0.0212756 0.0657787 0.0704171 0.0670198 -0.111139 0.073058 -0.0103296 -0.0124713 -0.261385 0.347924 0.317727 0.0791859 -0.0498876 0.235871 0.328887 0.27657 -0.0818724 -0.368405 -0.0207894 0.178707 0.0431539 0.400061 -0.062282 -0.0699783 -0.115474 -0.261382 -0.0624047 0.134613 -0.470938 -0.034578 0.0976397 0.0861166 0.0866997 0.108024 -0.0250984 0.14503 -0.11853 -0.0851997 0.174726 0.0617376 -0.128117 0.0648555 0.0290942 0.294186 0.327784 0.128552 0.0419033 0.432555 -0.316746 0.00042865 0.0800772 -0.191628 -0.10551
4310 -0.0459862 0.202918 -0.127304 0.56515 -0.285076 0.236758 -0.571627 -0.288596 0.13458 0.247014 -0.20486 0.564988 -0.168355 -0.0239716 -0.17939 0.0580197 0.0855574 0.0414649 -0.433878 0.306978 -0.0478715 -0.30672 -0.153273 0.435458 -0.0362672 -0.163689 0.103925 -0.143099 0.170107 0.0957517 -0.0535047 0.302531 0.0112945 0.0728901 -0.0308315 -0.342572 -0.323793 -0.256706 0.277935 -0.0862974 -0.537582 0.626362 0.117648 0.25857 0.0184638 0.0207366 -0.0767896 -0.00927427 -0.0724599 0.0375873 -0.180157 -0.289859 -0.225822 -0.151445 -0.313257 0.44387 0.113166 0.232506 -0.0759307 0.168282 -0.14843 -0.159565 0.0964535 -0.282455 -0.0271568 0.404667 -0.150813 -0.0264046 -0.261835 -0.539244 0.139763 -0.242509 0.380834 -0.0791119 -0.190704 0.0211977 -0.195483 -0.199119 -0.0740917 -0.134994 -0.254958 0.254939 0.133883 -0.0674492 0.363883 0.0641977 0.302715 -0.105299 0.197034 0.403574 0.14492 -0.00612299 -0.277163 -0.299007 0.328591 0.24104 0.456342 -0.368808 0.113672 -0.131776 -0.21898 0.308232 -0.0362146 -0.26384 -0.188176 0.103885 0.175484 -0.123379 0.402378 -0.282649 0.0998486 -0.303278 -0.122878 0.328185 0.17208 -0.289015 -0.0219941 0.184784 0.454408 0.0580652 -0.0473941 -0.118508 0.10799 -0.0847714 -0.0957706 0.384726 -0.226897 -0.00918927
1667 -0.205188 -0.0200114 -0.224853 0.36473 -0.316503 0.333264 -0.500187 -0.419932 -0.0179395 0.316721 -0.354417 0.38039 -0.0448248 0.155009 -0.493927 0.225716 -0.0498908 0.108633 -0.31268 0.529132 0.175016 0.150458 -0.218992 0.112502 0.0573759 -0.351588 0.163999 0.0115694 0.108677 0.221878 -0.108765 0.0647344 0.163274 0.110173 0.0869659 -0.426854 -0.352874 0.0902823 0.260118 -0.128573 0.0176306 0.319991 -0.279802 0.0232404 -0.116775 -0.0209216 -0.155014 0.282527 0.41235 0.142793 -0.0241203 0.034866 -0.365196 -0.0774848 -0.429975 0.335433 0.166794 0.395013 -0.0961669 0.180389 -0.308163 -0.546128 0.318161 -0.23776 0.0724274 0.0301475 -0.20732 0.168785 -0.0577549 -0.0952111 0.272604 -0.0259901 0.505155 -0.00968012 -0.227612 0.204935 -0.150186 0.0146974 -0.184429 -0.116684 -0.0976851 0.0755573 0.00504763 0.0667853 0.172704 0.160675 0.19226 -0.130573 -0.0847604 0.427775 0.315362 -0.155182 -0.444474 -0.487316 0.147636 -0.158829 0.422144 -0.140099 -0.0589744 0.111405 -0.393838 0.0523925 -0.0920368 -0.182354 -0.191759 0.025372 0.0139693 -0.246028 0.783259 -0.199559 0.171029 -0.189171 -0.175689 0.238404 0.19014 -0.454316 0.0901347 0.0903631 0.213332 -0.226076 -0.0429329 -0.104511 0.295895 -0.0395587 -0.0372419 0.460774 -0.199281 0.144981
8134 -0.192956 0.0924878 0.0397304 0.332015 -0.413859 0.31497 -0.443173 -0.261775 -0.0353784 0.392571 -0.143731 0.436121 -0.253644 -0.135325 -0.419973 0.464448 0.0151969 -0.038488 -0.375966 0.073769 0.294411 -0.299749 -0.162244 0.450014 -0.345187 -0.201268 -0.0427361 -0.0682684 0.222926 0.401474 -0.311633 -0.0328304 -0.0500082 -0.0511978 -0.0917401 -0.214875 -0.381405 0.297906 0.0390882 0.035607 -0.322842 0.605694 -0.172596 0.63745 -0.23224 -0.219246 0.123046 0.299371 -0.181273 0.0711125 -0.244155 -0.0422405 -0.515815 0.122107 -0.283665 0.352475 0.00573651 0.236522 -0.1699 0.194763 -0.125792 -0.338842 0.0585718 -0.437047 0.339844 0.240178 -0.0884577 0.0272387 0.0264511 -0.0998048 -0.00462298 -0.276721 0.319056 -0.180203 0.0417646 0.24086 -0.229716 -0.301173 0.156963 0.0060925 -0.161606 0.178051 0.236639 -0.00715211 -0.00586766 0.125308 0.279852 -0.275362 -0.127404 0.503935 -0.00875297 0.294506 -0.231174 -0.563214 0.182305 -0.135634 0.479658 -0.286134 -0.112479 0.140622 -0.221222 0.0425075 -0.171588 -0.21187 -0.189526 0.252297 0.0156248 0.193328 0.568662 -0.153115 0.366468 -0.1612 0.010399 0.0579838 -0.110284 -0.440928 0.12019 0.051437 0.375775 0.207093 0.195341 -0.166062 0.189517 -0.0461328 -0.36014 0.545584 -0.202144 -0.00534926
3786 -0.413593 0.0823753 0.0361496 0.261164 -0.367806 0.146142 -0.121515 -0.391022 0.209499 0.355864 -0.312905 0.293033 -0.0456938 -0.0752481 -0.0789491 -0.104229 -0.0256725 -0.0755681 -0.563778 0.0518317 0.193322 0.451512 -0.0791323 0.262307 0.0869432 -0.247061 0.207916 -0.0102274 0.199203 0.350175 -0.172725 0.262923 0.199117 0.334616 -0.125487 -0.38035 -0.425963 0.108116 0.0961541 -0.104804 -0.14852 0.397053 -0.157061 0.412055 0.113111 -0.00422895 0.22607 -0.00539627 -0.00465528 0.110048 0.0640103 -0.246463 -0.433872 0.0996478 -0.060263 0.411546 0.20159 0.193774 -0.0390932 0.311969 0.0952417 -0.0234307 -0.0840556 -0.182504 0.38445 0.327576 -0.2382 0.0737198 -0.0929621 -0.230287 0.282513 -0.181191 0.0965296 -0.158012 -0.232444 0.208416 -0.189135 -0.355137 0.144656 0.0684337 -0.19858 0.226447 0.53402 -0.10917 -0.0346839 0.314382 -0.0145762 -0.0314996 -0.148548 0.477512 0.00813422 0.158738 -0.288484 -0.228965 0.33987 0.0363401 0.189935 -0.418609 0.0673675 0.0154776 -0.219022 -0.121041 -0.168475 -0.188037 -0.139897 0.0957184 -0.111607 0.224424 0.461267 -0.0481632 0.265105 0.0840823 -0.0282782 0.172513 -0.0545859 -0.275227 0.221992 -0.11154 0.273402 0.398439 0.191719 0.0494444 0.149356 -0.235458 -0.0788839 0.229155 -0.271014 -0.0513059
737 -0.741236 -0.310093 -0.0332842 0.250571 -0.588055 0.271867 -0.411468 -0.137941 0.0046808 0.500796 -0.485977 0.188777 -0.22122 0.11812 -0.271873 0.0768213 -0.0876039 -0.127151 -0.371956 0.0447547 -0.0959778 0.0708958 -0.169545 0.131377 -0.0567455 -0.11099 0.0224531 -0.144349 0.159577 0.285264 -0.309672 0.221938 -0.0950551 0.182318 -0.0675694 -0.221336 -0.413029 0.216148 0.29827 0.0269154 -0.0679598 0.500103 -0.124079 0.363801 -0.0408939 0.123543 0.0957881 0.325855 0.0293574 0.0602848 -0.0765416 0.0560363 -0.510123 -0.0833825 -0.229745 0.181109 0.107185 0.267817 -0.107764 0.168463 -0.127199 -0.302946 0.132408 -0.222869 0.353539 0.13692 -0.152568 -0.0793346 -0.218986 -0.178801 0.165782 -0.257608 0.272278 -0.234126 -0.247658 0.105031 -0.412069 -0.233048 -0.0350865 -0.00980445 -0.508226 -0.00754279 0.197698 0.0335228 0.246696 0.013091 0.163398 0.0620448 0.0191588 0.443006 -0.00143752 0.0899151 -0.414498 -0.276317 0.0699193 -0.0139831 0.0487784 -0.216651 0.199167 -0.102171 -0.135295 0.0542828 -0.0386563 -0.22607 -0.149497 0.0874303 0.149224 0.0915171 0.537351 -0.319729 0.184432 -0.18563 -0.151593 0.244162 0.252482 -0.301645 0.0971177 0.0181907 0.233188 0.04223 -0.0558849 0.0603951 -0.0954286 -0.0513674 -0.314128 0.285217 -0.129833 -0.00882771
3260 -0.451516 0.0659584 0.00152025 0.320738 -0.63069 0.37441 -0.246348 -0.384327 0.200746 0.334778 -0.199878 0.181133 -0.0635778 -0.116895 -0.0773297 -0.0012471 -0.0508243 -0.175254 -0.696697 0.065467 0.291886 0.199324 -0.156748 0.297808 -0.0542756 -0.292574 0.153914 -0.233205 0.312925 0.318706 -0.308268 0.288354 0.0896569 0.250145 -0.168287 -0.269796 -0.234159 0.134514 0.111983 -0.0350834 -0.194388 0.30082 0.0412429 0.406562 0.127412 -0.0881099 0.281509 -0.0130119 -0.0854637 0.110328 0.0858712 -0.239352 -0.461383 -0.0346784 -0.106743 0.38055 0.261639 0.302682 0.0278636 0.494994 0.0772757 0.0126639 -0.122618 -0.233075 0.364384 0.29647 -0.19771 -0.0312121 -0.0377433 -0.203598 0.152128 -0.351174 0.0970904 -0.147221 -0.210221 0.17651 -0.146678 -0.374058 0.0947798 -0.0888205 -0.390481 0.132254 0.4605 -0.226974 0.16485 0.313002 0.0637474 -0.0495267 -0.195051 0.382341 -0.0258071 0.101482 -0.0976318 -0.331332 0.397641 -0.019761 0.240863 -0.535591 -0.0187598 0.0114404 -0.203121 -0.0778462 -0.147321 -0.19926 -0.140936 0.162211 0.0920715 0.130281 0.49347 -0.12537 0.415056 -0.00368944 -0.0767402 0.132314 -0.0388783 -0.23647 0.154759 -0.144178 0.355211 0.337013 0.275771 0.114975 0.03616 -0.169462 -0.100068 0.239477 -0.192049 -0.114804
2354 -0.661153 -0.255155 0.0109455 0.365006 -0.792097 0.329397 -0.200805 -0.492359 0.159411 0.328256 -0.11655 0.341293 0.0477988 -0.0699401 -0.0157822 -0.053902 0.169044 0.0176522 -0.274727 -0.136099 0.278533 0.40905 -0.438367 0.306588 -0.0364655 -0.0910159 0.0306198 -0.260313 0.239103 0.144579 -0.33807 0.305004 0.0200838 0.142322 -0.194923 -0.411865 -0.249109 0.271413 -0.216617 0.0590752 -0.207845 0.357257 -0.0909064 0.261449 -0.0173599 -0.0536829 0.158589 -0.106075 -0.028307 -0.131538 -0.161875 0.0649615 -0.393495 0.0664603 -0.207196 0.144847 0.239269 0.159378 0.140856 0.344135 0.108186 0.0863718 0.0183762 -0.305649 0.19877 0.392866 -0.372076 0.0570279 -0.152451 -0.0684 0.173549 -0.143171 0.104422 -0.20719 -0.199158 -0.0119934 -0.139593 -0.333677 0.0346612 -0.188694 0.0712853 0.100055 0.247458 -0.219064 0.317631 0.199545 0.115888 -0.0174499 -0.0760946 0.615264 -0.00235147 0.0581189 -0.221645 -0.205633 0.343124 -0.160376 0.0498532 -0.338212 0.252196 -0.0534778 -0.279987 -0.0956861 -0.165669 -0.391503 0.0827995 0.323861 -0.126985 -0.00452636 0.277627 -0.165545 0.477534 -0.150178 0.0493684 0.00445082 0.117503 -0.394547 -0.0793712 -0.174418 0.170518 0.402568 0.0711299 0.0860052 0.0206243 -0.497204 -0.277387 0.422321 -0.266533 -0.0205993
5804 -0.372544 -0.0163234 0.0423971 0.1162 -0.267491 0.25165 -0.300393 -0.0851861 0.226573 0.328438 -0.251741 0.0208499 -0.0760052 0.187432 -0.174988 -0.192599 0.0554251 0.028844 -0.386052 0.0900328 0.25241 0.142137 -0.253876 0.18451 0.0799279 -0.125024 0.0100607 -0.0302921 -0.0102857 0.059962 0.00450647 0.0689782 -0.0017813 0.246632 -0.101901 -0.441117 -0.27426 0.082121 0.368414 -0.0973439 -0.298196 0.412228 -0.197305 0.282654 0.132893 0.150902 0.125391 0.157713 -0.0257671 0.255868 -0.0831103 0.0831271 -0.229461 -0.182351 -0.146058 0.272283 0.0741216 0.0617884 -0.0262792 0.0772151 -0.0701624 -0.185103 -0.144276 -0.0946818 0.211715 0.292592 -0.224057 0.142003 -0.188157 -0.236066 -0.0569249 -0.235528 0.0366112 -0.0859507 -0.203522 0.00690893 -0.175706 -0.119242 -0.000946505 0.116747 -0.190398 0.0859324 0.160757 -0.0955134 0.340148 -0.0180494 -0.0591721 0.131922 0.189284 0.403914 -0.0266337 0.18689 -0.414564 -0.177613 0.358594 0.162735 0.146073 -0.123954 0.149485 -0.0359956 -0.247282 0.0791763 -0.0184114 0.0208286 -0.0670925 -0.185597 0.300574 -0.240902 0.235114 -0.212938 0.0515106 -0.143659 -0.272346 0.103001 0.307461 -0.235505 0.229586 0.0190352 0.56029 0.443048 0.07505 0.0521795 -0.201476 -0.35728 -0.0945141 0.0567238 -0.2255 0.022048
5463 -0.273366 -0.0148872 -0.0237209 0.17007 -0.478733 0.235391 -0.102589 -0.1509 0.141141 0.263814 -0.176667 0.0378187 -0.139233 0.263732 -0.155666 -0.161908 -0.0766298 -0.163015 -0.565121 -0.0400615 0.0355013 0.173887 -0.213934 0.21061 -0.0691864 -0.323767 -0.0914439 -0.221997 0.0204769 0.109963 -0.323551 0.331719 0.300055 0.330978 -0.0306741 -0.449842 -0.401281 0.255024 0.021774 -0.0281754 -0.0647891 0.537693 -0.293854 0.287038 0.167622 0.217969 0.173402 0.0334037 -0.00157781 0.298961 0.120721 -0.290263 -0.126706 -0.165685 -0.00175469 0.307524 0.202631 0.118826 -0.112759 0.242833 -0.321831 -0.0672845 -0.0653271 0.00890834 0.140215 0.270166 -0.492149 0.374191 -0.0707317 0.125545 0.199129 -0.11691 0.19346 0.0109915 -0.265159 0.00623969 -0.375966 -0.223399 -0.00254255 -0.145899 -0.328669 0.0730237 0.129779 -0.237737 0.20708 0.0877711 0.226592 -0.0966439 -0.0109608 0.546995 0.102369 0.0878839 -0.251758 -0.21959 0.412752 -0.231986 0.124174 -0.247993 0.0286584 -0.104645 -0.131744 -0.0683296 -0.164958 -0.423333 -0.138518 -0.0954405 0.122543 0.188905 0.335774 -0.355395 0.417942 -0.00431554 -0.1221 0.0300433 0.259304 -0.446141 0.195787 -0.00448333 0.527935 0.25602 0.142891 0.185855 -0.179353 -0.450365 -0.195856 0.390341 -0.063544 -0.177696
2364 -0.0795367 0.152181 -0.224669 0.119945 -0.21801 0.330242 -0.158053 -0.247017 0.172993 0.409711 -0.125726 0.243897 0.0572092 0.188749 -0.422789 -0.121828 0.0696064 -0.0085777 -0.343163 -0.0216552 -0.271265 -0.0753754 -0.483257 0.0816663 -0.0855449 0.187354 -0.264645 0.0549875 -0.0865471 0.196989 -0.16417 0.318451 0.142115 0.110752 -0.15414 -0.472528 -0.262283 0.13905 -0.0413336 -0.00646447 -0.61319 0.738664 -0.29086 0.334395 -0.0167302 0.203357 0.0166749 0.263509 -0.0774841 0.0983416 0.0320279 -0.0747584 -0.182267 -0.329853 -0.187493 0.144184 0.366721 0.213914 -0.132104 0.0513543 -0.27532 -0.155838 0.174486 -0.0320234 0.0332094 0.308076 0.0193307 0.169739 0.0909041 -0.245411 -0.0107404 -0.0997893 0.29729 -0.0936739 -0.163837 0.0871564 0.00768674 0.104414 -0.259851 -0.0458584 -0.0408656 0.192916 0.144834 -0.0529436 0.0844956 -0.180107 0.140797 0.0427344 0.115186 0.363509 0.0259977 0.0967449 -0.469437 -0.0730436 0.488908 -0.118421 -0.0855425 0.013006 0.265455 -0.0636865 -0.387323 -0.186638 -0.243987 -0.21128 0.230111 0.0229661 0.35778 -0.00327953 0.0835156 -0.346756 -0.00453193 0.0557302 -0.355842 0.283458 0.218981 -0.551051 0.0837953 0.0203643 0.506257 0.503551 0.235799 0.244666 -0.0747113 -0.524846 -0.165908 0.525026 -0.405778 -0.114876
4077 -0.286893 -0.284289 0.12231 0.0231533 -0.47085 0.175753 0.00409928 0.120551 0.100883 0.372066 -0.287529 0.0247751 0.0279339 0.118699 -0.309878 -0.0930611 0.0895025 0.0234079 -0.305006 0.109721 0.355194 0.0122564 -0.191657 0.170488 0.00524829 -0.126712 0.00612472 0.177718 -0.0363039 0.144787 -0.0452764 -0.0189436 0.114605 0.283334 -0.00214702 -0.313992 -0.481313 0.210054 0.499343 -0.0663244 -0.156965 0.369083 -0.445904 0.275959 0.130687 -0.151924 -0.050908 0.245215 -0.0655094 0.339496 -0.196099 0.101629 -0.276495 -0.0068428 -0.187795 0.101785 0.0109496 -0.00490335 -0.0910106 0.111742 -0.0916149 -0.116992 -0.083402 -0.123783 0.202681 0.23189 -0.314196 0.393395 -0.256179 -0.136782 0.230148 -0.193192 0.22705 -0.221671 -0.0990212 0.103767 -0.27816 0.0328525 0.0031777 0.0674927 0.0533212 -0.0901284 0.0386286 -0.095423 0.334458 0.152807 -0.316032 0.122348 0.249206 0.274745 0.196168 -0.0251449 -0.449639 -0.156154 0.222593 0.26936 0.389169 -0.189878 0.0797218 -0.0795496 -0.270847 0.158357 0.072684 -0.120685 -0.0696497 -0.0810274 0.1008 -0.350864 0.295603 0.0305263 0.125723 -0.201248 -0.24916 -0.0923377 0.353292 -0.0620957 0.161923 -0.0222019 0.534134 0.364726 0.030219 -0.168044 0.0729717 -0.4923 -0.118884 0.00652401 -0.304017 -0.0781007
5776 -0.203581 -0.0339705 -0.00189309 -0.00946506 -0.286662 0.195465 -0.284147 -0.126974 0.103166 0.279615 -0.268844 -0.00919653 -0.099711 0.163061 -0.228591 -0.126036 0.12751 0.0281627 -0.416462 0.0530557 0.324823 0.0515632 -0.220514 0.242387 0.0144671 -0.14208 -0.0748461 -0.020117 0.0461978 -0.00530948 -0.0245661 -0.111996 -0.0645166 0.353206 0.0145138 -0.553364 -0.267245 0.23291 0.326418 -0.0889432 -0.248388 0.422635 -0.217488 0.272656 0.155489 0.0708606 0.0888215 0.158572 -0.0101126 0.25773 -0.162467 0.0758723 -0.196663 -0.178538 -0.231671 0.214503 0.105259 0.0749666 -0.0479415 0.0316297 -0.136923 -0.139943 -0.249593 -0.143268 0.211725 0.292823 -0.24453 0.234798 -0.291778 -0.133302 -0.074809 -0.246562 0.0773814 -0.1474 -0.203556 0.0488349 -0.184696 -0.19997 0.00810575 0.161086 -0.214926 0.129172 0.168667 -0.215808 0.276457 0.0904865 0.0265789 0.0280126 0.176473 0.511399 0.00585461 0.195697 -0.354205 -0.203269 0.224054 0.113466 0.294756 -0.147685 0.164119 0.0558738 -0.22583 0.127664 -0.0503156 0.0254332 -0.102805 -0.236718 0.345068 -0.299825 0.192865 -0.163179 0.156486 -0.217767 -0.23756 -0.0460704 0.21815 -0.272254 0.255281 -0.0533267 0.529473 0.437322 0.230283 -0.0259099 -0.174635 -0.307646 -0.120053 0.0349845 -0.115724 0.115858
2619 -0.286756 -0.120097 0.000708463 -0.0449865 -0.327655 0.306725 -0.230996 -0.0833868 0.197305 0.303554 -0.280924 0.0349722 -0.0429913 0.144224 -0.177035 -0.101688 0.136821 0.00146711 -0.319978 0.0140521 0.297599 0.056667 -0.282728 0.194109 -0.0295913 -0.0959372 -0.00981866 -0.0592456 0.0498544 0.0253401 -0.0247409 0.0124275 -0.0531483 0.236713 -0.0986352 -0.492505 -0.19056 0.224603 0.299781 -0.0811502 -0.291346 0.425606 -0.200367 0.273885 0.169126 0.0405354 0.128728 0.188408 -0.0866193 0.161545 -0.180235 0.0690247 -0.2973 -0.171354 -0.14209 0.262711 0.0182064 0.000562519 -0.0238825 0.0675853 -0.13555 -0.147315 -0.204536 -0.15687 0.244653 0.337703 -0.154529 0.167834 -0.189557 -0.164426 -0.0774226 -0.260327 0.122009 -0.0933487 -0.141588 -0.00980572 -0.164362 -0.243033 -0.0092833 0.0987115 -0.128226 0.0334496 0.156564 -0.156496 0.307433 0.0292525 -0.0592206 0.149443 0.21472 0.42953 -0.0387233 0.171526 -0.407588 -0.247035 0.327879 0.156312 0.235321 -0.133998 0.203165 -0.0267559 -0.225243 0.134952 -0.00672686 0.0149005 -0.0516439 -0.137361 0.314908 -0.353158 0.209219 -0.142601 0.0596929 -0.264428 -0.271838 -0.0393364 0.24207 -0.29147 0.138259 -0.0647866 0.55928 0.500518 0.121629 -0.0295273 -0.164907 -0.320762 -0.214341 0.044105 -0.189325 0.0716457
5810 -0.227959 -0.100074 0.00484994 -0.0271993 -0.180135 0.232542 -0.170328 -0.0329439 0.115894 0.347221 -0.313495 -0.00568334 -0.0375638 0.108337 -0.171362 -0.0711612 0.0732228 0.0166909 -0.305268 0.0280717 0.323753 0.0453125 -0.269942 0.217341 0.0275423 -0.0350929 -0.00377492 -0.0344998 0.0459184 0.0733023 -0.0741878 0.0330034 -0.0631508 0.341766 -0.0750676 -0.462368 -0.279541 0.198777 0.47911 -0.039728 -0.225497 0.471721 -0.232903 0.235608 0.208088 0.0180679 0.160644 0.193134 -0.00431879 0.253873 -0.173193 0.0890406 -0.247983 -0.227473 -0.194667 0.205322 0.0209798 0.0183995 -0.0715575 0.0501938 -0.0807613 -0.101812 -0.195671 -0.0795061 0.226806 0.262644 -0.253171 0.13233 -0.24356 -0.176433 0.00120416 -0.353807 0.0473682 -0.140929 -0.183894 0.0216976 -0.167198 -0.152339 -0.0555675 0.172462 -0.180664 0.0539788 0.156588 -0.181423 0.320605 0.00342875 -0.142667 0.182714 0.265945 0.479275 0.0352752 0.183911 -0.431358 -0.226745 0.198149 0.173695 0.191132 -0.162882 0.188521 -0.0545274 -0.22048 0.132027 -0.0155514 -0.0359114 -0.138814 -0.209338 0.313812 -0.345654 0.243471 -0.174966 0.107775 -0.15395 -0.305956 0.0183793 0.243382 -0.22632 0.328123 -0.0322818 0.608788 0.378959 0.11015 -0.00324922 -0.1 -0.324806 -0.182287 0.00718258 -0.149825 0.112425
6803 -0.283446 -0.143957 0.119634 -0.0245472 -0.308157 0.255027 -0.286426 -0.0600747 0.0889827 0.334453 -0.288589 -0.0165207 -0.0467073 0.119636 -0.217168 -0.131713 0.138589 -0.0203411 -0.374144 -0.0224246 0.265451 0.0107625 -0.274841 0.238399 0.050114 -0.0928111 0.0299138 0.0406347 -0.0231182 0.0885225 0.00305096 -0.00428393 -0.0431121 0.276359 -0.0522264 -0.540359 -0.289781 0.198572 0.27809 -0.06764 -0.159191 0.324832 -0.230651 0.192431 0.125449 0.113931 0.0172107 0.253185 -0.0309951 0.276764 -0.12037 0.0837161 -0.221943 -0.241696 -0.296106 0.195185 0.0303364 0.0419171 -0.0459747 0.018214 -0.108014 -0.204034 -0.181769 -0.0424194 0.222494 0.249707 -0.21471 0.153463 -0.221578 -0.0923908 -0.0479454 -0.283739 0.0440526 -0.0618501 -0.111091 0.0190573 -0.194176 -0.228884 0.016783 0.045189 -0.0704796 0.0318446 0.123929 -0.110728 0.307815 0.0460415 -0.0905871 0.0300367 0.193809 0.477468 -0.02804 0.206799 -0.380782 -0.2928 0.215382 0.153916 0.192022 -0.00549648 0.1984 0.0111728 -0.216469 0.0902231 -0.0672881 0.0485734 -0.194238 -0.205393 0.30496 -0.279071 0.25877 -0.236075 0.113933 -0.18528 -0.333387 -0.00531868 0.258311 -0.32582 0.243489 -0.0737148 0.596886 0.452591 0.104 -0.069858 -0.150803 -0.360085 -0.206347 0.0692222 -0.263769 0.0145706
885 -0.0943993 -0.160602 0.159011 0.450012 -0.16864 0.0614279 -0.127235 -0.0291499 0.162525 0.12386 -0.234616 0.0347559 -0.126733 -0.0582293 0.0717396 -0.295713 0.107328 0.117893 -0.327725 0.0551711 0.0268032 0.212377 -0.295408 0.353841 0.142587 -0.131148 -0.00824892 -0.186941 0.0708117 0.158522 -0.0694611 0.0631568 -0.0228662 0.153635 -0.107011 -0.351191 -0.263921 0.0969078 0.250898 -0.0301032 -0.0753147 0.401656 0.136228 0.0763863 0.187941 -0.065571 0.0231964 -0.0392144 0.140277 -0.0192583 -0.240674 -0.233289 -0.279658 0.0587751 -0.233876 0.100175 0.0906114 0.418285 -0.160138 0.129467 0.175232 -0.0614325 0.0975316 -0.316204 0.186646 -0.0427697 -0.114726 0.00813215 -0.191947 -0.0265707 0.325648 -0.0443443 0.259522 -0.0328189 -0.148257 -0.18765 0.203909 -0.0854299 0.133919 -0.132716 -0.192262 -0.0448951 -0.057611 -0.482852 0.452937 0.444608 0.143407 0.122337 0.250933 0.290846 0.0945515 -0.0609018 -0.251772 -0.236702 0.111028 0.186759 0.463803 -0.117032 -0.199037 -0.0511736 -0.254741 -0.00390021 0.342932 -0.403845 -0.0680441 0.123878 0.185882 -0.216545 0.148988 -0.169663 0.166221 -0.345654 -0.197609 0.101839 -0.34355 -0.178584 0.200792 -0.0735145 0.431838 0.392769 0.126898 -0.143228 0.358154 -0.117186 0.15655 -0.0165825 -0.132861 0.066807
440 -0.123006 -0.106464 0.206451 0.457411 -0.108341 0.100683 -0.165604 0.00800879 0.20905 0.0782459 -0.246327 0.0476618 -0.177489 0.00265539 0.0452709 -0.351132 0.174234 0.110962 -0.372193 0.0453142 0.00952686 0.435447 -0.229466 0.323886 0.0942079 -0.172893 -0.0510834 -0.153163 0.0591476 0.0582302 -0.0454933 0.0203641 -0.0685916 0.149692 -0.187535 -0.393555 -0.210139 0.138586 0.180983 4.89771e-05 -0.228839 0.481421 0.0312241 0.122758 0.242999 0.00806454 0.0800111 -0.0319464 0.231503 -0.123348 -0.270126 -0.261472 -0.405189 0.0894933 -0.184383 0.106342 -0.0191407 0.399206 -0.156176 0.116983 0.130402 -0.117015 0.138348 -0.3792 0.2002 0.0226137 -0.0451584 0.0089987 -0.128745 0.0452077 0.309031 -0.0361383 0.325149 -0.0435568 -0.17075 -0.19025 0.20884 -0.0495714 0.171467 -0.230709 -0.142471 0.0145303 -0.0600032 -0.447109 0.508817 0.374785 0.135001 0.164002 0.204081 0.234828 -0.0193961 0.0411815 -0.223062 -0.310011 0.170756 0.277543 0.435452 -0.0831502 -0.219475 -0.0322169 -0.269243 -0.0445479 0.335756 -0.399472 -0.0466774 0.051498 0.263769 -0.265 0.110974 -0.123181 0.0974364 -0.335189 -0.261945 0.0904988 -0.419134 -0.307788 0.182386 -0.13424 0.477886 0.485837 0.125525 -0.21178 0.365613 -0.067686 0.102845 -0.00246276 -0.170149 0.0649349
1718 -0.00761554 -0.104708 0.168722 0.494085 -0.220618 0.105869 -0.0972382 -0.0667097 0.144618 0.0848732 -0.145056 0.0319055 -0.0448713 -0.100614 0.0666043 -0.316877 0.242383 0.00437085 -0.370632 -0.00988405 -0.164298 0.378644 -0.290791 0.322647 0.0785662 -0.0583289 -0.0955538 -0.0041767 0.0177746 0.0488721 -0.0533625 0.0551812 -0.0814939 0.168975 -0.0923692 -0.353982 -0.311369 0.0448235 0.210003 -0.0401486 -0.209701 0.417743 0.0239219 0.102068 0.236393 -0.0929663 -0.0131571 -0.035425 0.0576704 -0.0441778 -0.116836 -0.252954 -0.248961 0.0509081 -0.220195 -0.0886003 0.0140362 0.402772 -0.153215 0.131553 0.0835129 -0.0477528 0.0910996 -0.331788 0.247746 -0.042306 0.00591752 0.0419017 -0.170308 0.0420168 0.290979 -0.0868988 0.31743 -0.0431392 -0.0983151 -0.291269 0.211087 0.123116 0.172494 -0.211953 -0.106129 0.0418838 -0.101785 -0.543754 0.436923 0.431137 0.157137 0.174494 0.249713 0.0621186 0.124437 -0.00745445 -0.156554 -0.236689 0.09562 0.171831 0.479727 -0.103484 -0.162127 0.0139427 -0.198419 -0.0322151 0.265026 -0.442519 0.0487898 0.0907871 0.282533 -0.207121 0.0272533 -0.116946 0.138903 -0.198535 -0.216516 0.0886336 -0.440612 -0.19784 0.196051 -0.0907127 0.420873 0.407012 0.157712 -0.164827 0.406151 -0.155743 0.131815 0.0355979 -0.128812 -0.0380026
865 0.276237 -0.112245 -0.0455453 0.234947 -0.235892 0.136653 -0.0964903 0.00668685 0.329618 0.267429 -0.307888 0.0420315 -0.093053 -0.122317 -0.103315 -0.313812 0.1508 -0.167266 -0.110835 0.2355 -0.117542 0.521966 -0.013767 0.0891116 -0.13937 -0.0504934 -0.0495437 -0.0232307 0.191115 0.102292 -0.0355785 0.0285279 -0.0931748 0.26188 -0.178872 -0.340937 -0.398223 -0.059208 0.0890961 -0.192535 -0.167257 0.289214 -0.201357 0.043896 0.248492 -0.177951 0.202594 0.0493575 -0.0581915 -0.0682462 -0.31701 -0.362548 -0.437495 0.305962 0.00984931 0.405105 -0.0258787 0.18865 -0.00703369 0.106624 -0.0279263 -0.323611 0.131406 -0.100607 0.243529 0.0958855 0.113917 0.115254 -0.0562774 -0.0166259 0.387443 -0.132783 0.701547 0.0132554 -0.122066 -0.052009 0.328324 -0.232819 0.303348 -0.138996 -0.0914124 0.0748302 -0.203686 -0.0991073 0.404611 0.373292 0.192391 0.317859 0.196868 0.0911663 0.0132777 -0.0809319 -0.272202 -0.358732 0.121054 0.251937 0.409488 -0.0980475 -0.395852 0.021897 -0.201333 -0.21029 0.269556 -0.27141 0.253995 0.270127 0.262042 -0.375631 0.3395 -0.149668 -0.143063 -0.230522 -0.110112 0.139472 -0.0988685 -0.00298736 -0.00446539 -0.019602 0.465246 0.526597 -0.0791648 -0.113284 0.145022 -0.212474 -0.168933 -0.220261 -0.209622 0.0631794
2643 0.0354588 -0.329058 -0.125062 0.309484 -0.418179 0.251946 -0.0110825 0.0618011 0.25985 0.209558 -0.341882 0.101216 0.157868 0.0428762 0.194578 -0.401215 0.195753 -0.0991705 -0.219483 0.252627 -0.0214492 0.256799 0.059306 -0.046831 -0.147716 0.153376 0.143285 0.197271 0.00488801 0.252428 0.172616 -0.012265 -0.207317 0.227214 -0.192021 -0.380051 -0.359021 -0.0955601 0.0870438 -0.183734 0.0567346 0.246262 -0.142685 0.191051 0.1869 -0.207641 0.285577 0.321521 0.2026 0.263517 -0.146513 -0.166266 -0.679128 0.202961 -0.200545 0.237987 -0.0784589 0.303243 0.149641 0.265805 0.134121 -0.0777655 0.255918 -0.0873945 0.211565 0.111528 0.174447 0.030993 -0.353953 -0.0213255 0.382357 -0.0896852 0.486593 0.147575 -0.363326 -0.107317 0.367635 -0.356519 0.288236 -0.166805 0.00309943 -0.0974745 -0.431127 -0.124147 0.188119 0.158855 -0.168728 0.439509 0.283627 0.243343 -0.155096 -0.275295 -0.0606511 -0.388484 0.137677 0.37941 0.135121 -0.276284 -0.0739257 0.125631 -0.223007 -0.26293 -0.0480132 -0.0416663 -0.0933124 0.00491905 0.394242 -0.28994 0.371633 -0.185839 -0.0950642 -0.0754747 -0.258519 0.321583 0.0543177 -0.207267 0.124711 0.110314 0.483825 0.484933 -0.294558 0.108041 0.463313 -0.499461 -0.248073 0.0032786 -0.115983 -0.0352766
2636 0.0830712 -0.306526 -0.118165 0.394627 -0.542663 0.193676 -0.0979489 0.0845082 0.268102 0.186062 -0.285991 0.0399753 0.146902 -0.127829 0.0420105 -0.299886 0.331314 -0.126026 -0.00222665 0.287369 0.0525481 0.313303 -0.0243593 -0.0409754 -0.305105 0.300749 -0.0128438 0.272383 0.0512637 0.359218 0.00343282 -0.0929289 -0.314313 0.311385 -0.102051 -0.392081 -0.459617 -0.0798494 0.132154 -0.124794 -0.0213482 0.204509 -0.121038 0.196655 0.215863 -0.271713 0.327383 0.355573 0.0470147 0.208389 -0.177825 -0.204659 -0.631266 0.285719 -0.157444 0.325813 -0.098266 0.274599 0.0672104 0.206213 0.109697 -0.0547533 0.196191 0.10551 0.305835 0.0281866 0.138953 0.0544363 -0.277346 0.00923106 0.230739 -0.355812 0.639308 0.187309 -0.209923 -0.0319179 0.487503 -0.354864 0.308653 -0.14038 0.0656494 -0.0436855 -0.410533 0.0331077 0.284681 0.221506 -0.120766 0.340163 0.16572 0.18133 -0.0928721 -0.222534 -0.0305364 -0.449552 0.136036 0.369958 0.191936 -0.280336 -0.283019 -0.0211294 -0.206672 -0.252939 0.161 -0.0921286 0.0715607 0.371117 0.436332 -0.487366 0.541668 -0.260252 -0.0222814 0.11129 -0.22155 0.411484 0.175011 -0.0035013 0.210799 0.130083 0.532444 0.445406 -0.12038 0.106924 0.435739 -0.557093 -0.316562 -0.111864 0.0515863 0.0911368
1538 0.126402 -0.142851 -0.0312854 0.593224 -0.224313 0.168393 -0.231198 -0.0224325 0.279376 0.0819678 -0.222677 0.0074697 -0.0708334 -0.070216 0.0697295 -0.340833 0.216841 -0.0176913 -0.257693 0.271943 0.00739039 0.238038 -0.171198 0.175445 -0.134356 0.0999287 -0.0641899 -0.012615 0.13213 0.262557 -0.124384 -0.0123845 -0.192277 0.266209 -0.16914 -0.431248 -0.379648 -0.0423771 0.241476 -0.0562447 -0.0956817 0.405568 0.125579 0.10003 0.302816 -0.134999 0.223066 0.068476 0.0234147 0.0228969 -0.242539 -0.271997 -0.428649 0.259913 -0.176214 0.180777 -0.037309 0.397203 -0.0579914 0.112308 0.0965949 -0.110893 0.135913 -0.0961463 0.220834 -0.061553 0.0118776 0.0473343 -0.212058 0.0715987 0.195944 -0.17538 0.476208 0.0511982 -0.232259 -0.195085 0.394007 -0.172574 0.315936 -0.179215 -0.133277 0.0470097 -0.401739 -0.290461 0.433734 0.380119 0.103243 0.196165 0.176945 0.139862 0.0186948 -0.181192 -0.0468831 -0.357438 0.104962 0.236861 0.339597 -0.286854 -0.323206 -0.100552 -0.175508 -0.0962163 0.26136 -0.349845 0.0315691 0.341712 0.345727 -0.412566 0.414082 -0.321376 0.0727206 -0.0515256 -0.188424 0.219082 -0.16977 -0.0685332 0.183062 0.046609 0.466865 0.339067 0.0261614 -0.0478504 0.408601 -0.296829 -0.106382 -0.0898157 -0.002516 0.0449209
1362 0.064009 -0.326311 -0.153158 0.321266 -0.479456 0.263792 -0.14873 0.110522 0.296054 0.113926 -0.330207 0.0528617 0.209834 -0.094072 0.0668013 -0.24419 0.388961 -0.207525 -0.0939538 0.183001 0.0686552 0.253891 -0.0303807 -0.0751871 -0.251653 0.253265 0.114723 0.293282 0.097526 0.375664 0.11357 -0.034961 -0.331536 0.237936 -0.174595 -0.371326 -0.324967 -0.0767522 0.125975 -0.100425 -0.0263201 0.249134 -0.096846 0.186145 0.287353 -0.249605 0.254224 0.382816 0.0280094 0.136304 -0.142609 -0.136296 -0.679033 0.261932 -0.179615 0.31244 -0.143394 0.291898 0.117552 0.190619 0.113903 -0.0975691 0.227063 0.0328413 0.335688 -0.0239524 0.223887 0.0693741 -0.271973 -0.0583611 0.206049 -0.272341 0.530906 0.210131 -0.241849 -0.0699825 0.447874 -0.333382 0.287103 -0.108467 0.0303789 -0.111758 -0.375313 -0.0138508 0.240284 0.18571 -0.204859 0.406327 0.194301 0.0895182 -0.163921 -0.227075 -0.00989812 -0.442584 0.17862 0.389023 0.0445065 -0.243725 -0.173585 0.0263401 -0.148609 -0.19412 0.193622 0.0173252 0.0486092 0.284665 0.428689 -0.448236 0.430646 -0.280143 -0.0448456 0.096792 -0.21602 0.367679 0.176942 -0.0717123 0.170067 0.114229 0.440998 0.397438 -0.172463 0.097974 0.402577 -0.509295 -0.328129 -0.102826 0.0525651 0.113578
285 0.130564 -0.287878 -0.179656 0.486914 -0.414631 0.224817 -0.204404 0.0465555 0.281818 0.112749 -0.255424 0.0354265 0.143152 -0.108403 0.122345 -0.332191 0.376666 -0.140693 -0.129045 0.254966 0.0373961 0.154012 -0.16104 0.0555612 -0.268199 0.252455 0.055058 0.283082 0.0327338 0.375511 0.118575 -0.145455 -0.346416 0.260379 -0.136143 -0.438246 -0.365739 -0.0936202 0.186232 -0.115014 0.0566584 0.179859 0.0239912 0.178851 0.220392 -0.237614 0.281992 0.35366 0.0936116 0.167304 -0.124254 -0.155677 -0.537054 0.214991 -0.22494 0.302466 -0.0892599 0.283616 0.138238 0.133703 0.131354 -0.0917674 0.182447 0.0704772 0.329218 -0.0423121 0.179034 0.105135 -0.285087 -0.0648683 0.0964663 -0.243902 0.519673 0.189156 -0.262376 -0.102252 0.447534 -0.307696 0.345266 -0.113711 -0.0218381 -0.0730456 -0.428983 -0.109795 0.290202 0.298464 -0.0674417 0.334956 0.153577 0.186748 -0.142328 -0.204175 0.0446007 -0.472059 0.184617 0.367691 0.166005 -0.314766 -0.24199 0.0819866 -0.148527 -0.156262 0.1285 -0.0226747 0.00921797 0.318611 0.414964 -0.487594 0.486732 -0.416064 0.0121331 0.0880772 -0.235508 0.341034 0.0759911 -0.108905 0.190044 0.108763 0.458623 0.372478 -0.127163 -0.00626766 0.427057 -0.513769 -0.276794 -0.0360018 0.0887515 0.165001
1709 0.207498 -0.277057 -0.158872 0.335344 -0.463781 0.215205 -0.130548 0.0804562 0.223124 0.117874 -0.211541 0.0130076 0.108342 -0.106327 0.0951428 -0.31495 0.327422 -0.168431 -0.0699943 0.282285 0.132015 0.223115 -0.0637124 0.0529132 -0.251365 0.267507 0.0609432 0.238919 0.130959 0.399731 0.0636987 -0.0601816 -0.302837 0.32315 -0.137995 -0.396831 -0.384036 -0.076252 0.0833503 -0.051914 0.0549822 0.21741 -0.0491737 0.221535 0.229409 -0.206954 0.277308 0.278985 0.0239885 0.214543 -0.169831 -0.181609 -0.628893 0.292696 -0.214884 0.399193 -0.0290756 0.269341 0.157372 0.192138 0.147821 -0.0163488 0.146986 0.0623951 0.297463 -0.00524329 0.129451 0.0236375 -0.290912 -0.0664291 0.223305 -0.290251 0.542231 0.158067 -0.240455 -0.0234386 0.459831 -0.377753 0.298092 -0.0805883 0.0376033 -0.0644996 -0.416093 -0.0565471 0.248687 0.262877 -0.12689 0.311143 0.135957 0.189071 -0.132369 -0.231786 0.0116282 -0.400146 0.169481 0.393386 0.166566 -0.314227 -0.248227 0.0236564 -0.158529 -0.215419 0.171796 -0.0251177 0.0103336 0.35606 0.40005 -0.466386 0.467708 -0.260197 0.0263194 0.0699506 -0.203364 0.318261 0.168835 -0.0131129 0.186286 0.132009 0.520738 0.438845 -0.12891 0.112979 0.353618 -0.53582 -0.318984 -0.11512 -0.000833621 0.129834
1863 0.135577 -0.279092 -0.180394 0.408205 -0.414879 0.218014 -0.137893 0.0749276 0.263987 0.136649 -0.201165 0.0367965 0.11079 -0.0686343 0.0978326 -0.315128 0.261321 -0.127777 0.0133141 0.337361 0.104512 0.166793 -0.137383 0.0503305 -0.253679 0.305533 0.0202929 0.220743 0.0974694 0.384069 0.0247821 -0.0576192 -0.29513 0.287831 -0.1231 -0.411516 -0.359207 -0.0743933 0.206096 -0.0353867 -0.0310201 0.281397 0.0166273 0.229612 0.206532 -0.25301 0.347138 0.308711 0.0907954 0.160312 -0.187022 -0.126676 -0.620017 0.292188 -0.167006 0.416657 -0.0639022 0.309928 0.113353 0.179213 0.144477 -0.0220731 0.176166 0.045285 0.279097 -0.0636908 0.218881 -0.0448219 -0.248313 -0.0887692 0.123864 -0.265453 0.525395 0.133647 -0.233294 -0.0895514 0.564652 -0.285944 0.258469 -0.0952629 -0.0140446 -0.0583382 -0.451116 -0.094249 0.365062 0.277096 -0.179074 0.381358 0.120662 0.102701 -0.118072 -0.207922 -0.012477 -0.389157 0.164655 0.343785 0.15257 -0.285288 -0.277636 -0.023445 -0.236229 -0.17306 0.17218 -0.0223245 0.0389414 0.351824 0.442753 -0.47191 0.45476 -0.335926 0.020447 0.115096 -0.240451 0.295586 0.105017 0.0642798 0.183519 0.139749 0.491831 0.388768 -0.0826036 0.0558883 0.407954 -0.44381 -0.231674 -0.0871689 0.0540015 0.184535
704 -0.0307219 -0.200047 0.0511469 0.649485 -0.216146 0.288814 -0.0699581 0.158913 0.271838 0.12481 -0.0881576 0.141958 -0.0599788 -0.0244814 0.183786 -0.302879 0.328546 0.0357043 -0.235571 0.161062 -0.0604024 0.265894 -0.159256 0.123768 -0.265743 -0.0437789 0.0426581 0.101473 -0.0562569 0.150999 -0.0310227 -0.0654014 -0.143276 0.293833 -0.118151 -0.262666 -0.506862 -0.159381 0.241781 -0.226383 -0.319257 0.342905 0.00397203 0.164309 0.30024 -0.116155 0.17526 0.0722885 0.098507 0.00380523 -0.209366 -0.33666 -0.548834 0.16938 -0.124431 0.11785 -0.0442565 0.23713 -0.0636789 0.126116 0.137444 -0.144461 0.260638 0.0127043 0.205026 0.177705 -0.0044536 0.23887 -0.163596 -0.124697 0.282499 -0.176134 0.458041 0.0670201 -0.340331 -0.0246215 0.321154 0.000298485 0.29207 -0.278362 -0.0752473 -0.070559 -0.363903 -0.190814 0.448035 0.183763 -0.0441647 0.367462 0.292939 0.151964 -0.0717207 -0.123827 -0.0404895 -0.42507 0.253908 0.342912 0.277439 -0.268073 -0.280446 -0.112292 -0.284301 -0.0797082 0.227139 -0.339886 -0.0116654 0.139052 0.294673 -0.356699 0.390469 -0.243007 -0.102721 -0.022515 -0.182405 0.216657 -0.119044 -0.103892 0.205506 0.0712752 0.36188 0.341284 0.0313399 -0.135974 0.444484 -0.313628 -0.0766779 -0.0247521 -0.0130187 -0.0530532
4073 -0.0587792 -0.113281 0.363816 0.31243 -0.305984 -0.0879285 -0.0399808 0.0454298 0.280622 0.321992 -0.263105 0.173481 0.0379077 -0.0395008 -0.23561 -0.454601 0.211078 0.201066 -0.0825642 0.225019 0.0962784 0.345489 -0.335843 0.200139 0.00147827 -0.148503 -0.278748 0.161916 -0.118553 0.204499 -0.24262 -0.0131094 0.00968576 0.0761745 -0.0329867 -0.216263 -0.496618 0.0775293 0.315923 -0.183608 -0.170837 0.152167 -0.310882 0.317349 -0.126889 -0.265537 -0.00376946 0.250373 0.146866 0.050307 -0.218439 0.0574873 -0.204529 0.106243 -0.108374 -0.0590352 0.0154461 0.187929 -0.177556 0.179403 0.123233 -0.185567 0.307919 -0.365267 0.236534 0.2138 -0.246325 0.0966306 -0.25119 0.13561 0.298552 0.0466776 0.515618 -0.240093 -0.137678 -0.0909643 -0.0477546 0.111953 0.210179 -0.182232 0.09248 -0.0727744 -0.0874571 -0.194661 0.522527 0.318104 -0.0615253 0.0510827 0.289219 0.18466 0.275558 -0.129779 -0.49168 -0.118529 0.136055 0.223661 0.543467 -0.0770492 -0.133183 -0.0615597 -0.379992 0.0118914 0.0779342 -0.302377 0.0365517 0.0901436 0.0857261 -0.247649 0.281113 0.0509655 0.184274 -0.29605 -0.335926 0.272343 -0.0251287 -0.0844188 -0.0738913 0.128958 0.444413 0.448122 -0.0490463 -0.0854984 0.495144 -0.294081 0.0224222 0.167683 -0.373964 -0.119007
3537 -0.00396079 -0.0498554 0.0342621 0.148153 -0.435728 0.0975295 0.0126275 0.133198 0.0346902 0.366451 -0.334351 0.182835 0.167546 -0.112686 -0.331725 -0.139095 0.12868 0.0115551 -0.0520481 0.106793 0.134206 0.365438 -0.234104 0.145845 -0.106537 -0.0869733 -0.157351 0.00383872 -0.127575 0.209604 -0.152234 0.189586 0.0383259 0.12438 -0.0845148 -0.187083 -0.468503 0.155844 0.391285 -0.0461196 -0.101865 0.523565 -0.358539 0.136919 0.301814 -0.163066 0.0478206 0.201451 -0.0165994 0.241964 -0.272443 -0.105506 -0.291728 0.207891 -0.220831 -0.0376064 0.047096 0.00931619 -0.112078 0.0206318 0.00847485 -0.07835 0.186788 -0.131833 0.103794 0.157018 -0.287512 0.338517 -0.278775 -0.258131 0.590999 -0.194074 0.401899 -0.178935 -0.256447 0.0592645 -0.120224 -0.0044223 0.0414041 -0.181353 0.168587 -0.152006 -0.0608922 0.0455771 0.277709 0.0335604 -0.135901 -0.0445135 0.246577 0.352009 0.0865832 -0.270024 -0.420166 0.00903572 0.0899506 0.210188 0.384242 -0.0188398 -0.066832 -0.212064 -0.268322 0.0361593 0.139093 -0.341632 0.0786488 0.145116 -0.00382264 -0.353522 0.161687 -0.0216736 0.0329793 -0.112863 -0.224769 0.227258 0.213171 -0.161599 0.201064 0.0856699 0.329479 0.234039 -0.170423 -0.0260993 0.221938 -0.496708 -0.197864 0.173543 -0.266573 -0.0158048
2981 -0.0143783 -0.163824 0.131591 0.130902 -0.517478 0.028989 0.191565 0.225691 0.0857105 0.320776 -0.179594 0.082829 0.250301 -0.085555 -0.365686 -0.235074 0.282552 0.0767728 -0.103686 0.105111 0.25462 0.192499 -0.368928 0.084835 -0.124812 -0.00412737 -0.174388 0.195627 -0.126916 0.360459 -0.165551 0.136415 0.0475849 0.240217 0.0658238 -0.111861 -0.454743 0.237115 0.418277 0.0154009 -0.199312 0.334717 -0.425605 0.253486 0.174665 -0.323575 -0.107402 0.267594 -0.0255531 0.172451 -0.111286 -0.0497343 -0.158061 0.239005 -0.178952 -0.0623838 0.132167 0.066044 -0.0662755 0.142488 0.0251079 -0.00527051 0.261427 -0.173645 0.0723049 0.187174 -0.306702 0.339337 -0.317063 -0.12336 0.407089 -0.0916424 0.504626 -0.394386 -0.231845 0.164187 -0.0412118 0.186467 -0.0118493 -0.219138 0.170232 -0.250631 -0.111394 -0.0603664 0.351453 0.185003 -0.35049 -0.0661157 0.259789 0.142711 0.276728 -0.244796 -0.384062 0.0750376 0.070309 0.168808 0.436481 -0.117119 -0.0059351 -0.234746 -0.261852 -0.0127517 0.0935486 -0.300803 0.0373591 0.101312 0.0673217 -0.268838 0.199044 0.0870665 0.172453 -0.0848768 -0.318317 0.128418 0.321883 -0.00530971 0.0713097 0.105019 0.325928 0.35854 -0.00655891 0.0480152 0.357913 -0.432825 -0.0462707 0.135719 -0.181603 -0.109087
435 -0.0944671 -0.065026 0.140708 0.46494 -0.127629 0.0354268 -0.18052 -0.0632791 0.1353 0.0973837 -0.186347 -0.0512403 -0.118837 -0.0711295 0.0139558 -0.303202 0.131948 0.0544719 -0.363986 0.072952 -0.00361374 0.327144 -0.233075 0.33617 0.185863 -0.118325 -0.0208449 -0.146032 0.0893658 0.0771058 0.0135493 0.0877248 -0.0200332 0.14076 -0.130142 -0.332794 -0.291483 0.0504404 0.321518 -0.0470912 -0.156639 0.494523 0.103878 0.0744874 0.226481 -0.0468594 0.020175 -0.0766953 0.166011 0.0137576 -0.205343 -0.256355 -0.211214 0.0809379 -0.266235 0.0951638 0.0461671 0.452001 -0.118133 0.136366 0.043428 -0.09932 0.0608149 -0.341282 0.137102 -0.0994398 -0.114844 -0.0240408 -0.203617 0.0226954 0.332335 0.000905826 0.237873 -0.09475 -0.138717 -0.264721 0.261043 -0.0084208 0.174165 -0.213133 -0.180326 0.0903186 -0.057062 -0.56615 0.483404 0.38576 0.180563 0.0990588 0.180706 0.163511 0.0947329 0.0637983 -0.178928 -0.216426 0.0566941 0.198382 0.504993 -0.10354 -0.232471 -0.0054636 -0.254237 -0.0410678 0.300393 -0.43179 -0.100226 0.0263572 0.256977 -0.227985 0.169381 -0.114184 0.135361 -0.286887 -0.229994 0.080823 -0.393166 -0.142913 0.248125 -0.0275473 0.522998 0.411264 0.108136 -0.168588 0.382179 -0.107806 0.240915 -0.014647 -0.179832 0.0494704
714 0.0562404 -0.0120318 0.184274 0.505785 -0.23157 0.105319 -0.171073 -0.0984207 0.169006 0.160094 -0.197406 -0.0329114 -0.116851 -0.109477 0.098145 -0.406321 0.236645 0.0395795 -0.492804 -0.0100922 -0.0165694 0.390255 -0.369718 0.405318 0.0521521 -0.144546 -0.128284 -0.195058 -0.0174606 0.125979 -0.0497315 0.0730837 0.000609053 0.181458 -0.152342 -0.337115 -0.316743 0.0794152 0.291613 -0.0431839 -0.152955 0.502717 0.10911 0.0479039 0.307138 -0.159998 0.0398804 -0.0506679 0.223769 0.0475839 -0.145832 -0.363713 -0.297659 0.0631187 -0.245876 -0.065556 0.084272 0.525879 -0.152119 0.150289 0.113603 -0.0643792 0.0759551 -0.351734 0.200848 -0.0367703 -0.0943983 0.0922314 -0.212433 -0.0379968 0.325587 0.0121673 0.239719 -0.157765 -0.291592 -0.239999 0.247454 -0.0484879 0.249196 -0.419775 -0.202689 -0.0517903 -0.113038 -0.56714 0.515876 0.451194 0.248122 0.0796416 0.138494 0.262222 0.0421225 0.0393891 -0.103185 -0.292571 0.0894611 0.179525 0.638443 -0.130789 -0.271065 0.0614945 -0.247901 -0.0657622 0.271093 -0.522034 -0.135543 0.0380447 0.245571 -0.198979 0.160345 -0.198859 0.187267 -0.331453 -0.274019 0.0871622 -0.459653 -0.294236 0.21245 -0.0669244 0.42722 0.429937 0.122952 -0.291985 0.369551 -0.145494 0.275293 0.128264 -0.0581944 0.00299879
1111 -0.106564 -0.0789939 0.216626 0.481013 -0.0471656 0.0411337 -0.177693 -0.0200254 0.20236 0.0708243 -0.229643 0.0179313 -0.224708 -0.0612094 -0.036071 -0.317763 0.186909 0.141712 -0.413669 -0.0505992 0.0257076 0.176397 -0.331902 0.301377 0.0979687 -0.222356 -0.0104449 -0.167734 0.0361794 0.130061 -0.112149 0.0529349 -0.0575944 0.170435 -0.089115 -0.270676 -0.327429 0.174506 0.3549 -0.027184 -0.174144 0.523497 0.107208 0.133894 0.175007 -0.00324478 0.025349 -0.0469666 0.263182 -0.0746211 -0.227766 -0.192609 -0.186345 0.0721679 -0.244213 0.0734981 0.0631084 0.429243 -0.160075 0.0842937 0.0990451 -0.0865076 0.112565 -0.355669 0.231228 -0.00312509 -0.283757 -0.0244939 -0.172094 0.0806269 0.236322 0.0187133 0.190958 -0.152321 -0.166497 -0.192266 0.028444 0.0137489 0.175409 -0.237651 -0.21632 0.0194888 0.0425508 -0.513704 0.513567 0.343819 0.141156 0.059716 0.201058 0.262612 0.0455666 0.11049 -0.199433 -0.27125 0.0682887 0.107299 0.394198 -0.161938 -0.111899 -0.101298 -0.204537 0.0438403 0.214735 -0.472817 -0.0925617 0.0602836 0.114466 -0.204834 0.19178 -0.178387 0.2112 -0.303304 -0.250964 0.0900249 -0.399533 -0.248416 0.194332 -0.099749 0.430651 0.36438 0.112416 -0.216012 0.381997 -0.147455 0.155606 0.0979552 -0.0896959 0.0116416
2702 -0.0871251 -0.221624 0.226241 0.295766 -0.455989 0.053881 0.0899942 0.0896588 0.158442 0.405716 -0.278002 0.0987525 0.049892 -0.146866 -0.226697 -0.212412 0.0868461 0.076443 -0.276412 0.15704 0.0276601 0.154797 -0.375007 0.344227 0.025933 -0.0372559 -0.0230846 0.00389358 0.0057145 0.129064 -0.212528 0.126169 -0.0022075 0.236648 -0.102022 -0.270073 -0.353602 0.26469 0.356364 -0.0982237 -0.190289 0.248933 -0.256615 0.178549 0.142485 -0.186622 -0.024346 0.158602 -0.0399776 0.0377615 -0.365074 -0.151259 -0.257957 0.237206 -0.289315 0.0128716 0.0671211 0.166112 -0.143267 0.232782 -0.021116 -0.116834 0.0823537 -0.357518 0.00161287 -0.0149662 -0.190941 0.332075 -0.252179 0.0247645 0.56667 -0.0362347 0.51784 -0.248625 -0.083124 -0.00998553 0.0310411 0.124752 0.115859 -0.241438 0.1025 -0.120738 -0.0112077 -0.352912 0.532967 0.452165 -0.0509372 0.0264677 0.289461 0.165363 0.254863 -0.199743 -0.38331 -0.0919364 0.105517 0.186743 0.582288 -0.0767774 -0.165927 -0.227199 -0.218785 0.0208355 0.258683 -0.377744 -0.00859722 0.174644 0.114867 -0.236993 0.209575 0.0668852 0.136878 -0.251723 -0.271546 0.0334514 -0.165204 -0.0445765 0.0666488 -0.0463246 0.420371 0.402435 0.0635001 -0.0200675 0.446865 -0.18297 -0.0148952 -0.00805071 -0.32645 -0.142991
710 0.0135304 -0.216922 0.041368 -0.00362464 -0.459647 0.0546143 0.183571 0.231844 0.0653871 0.324205 -0.230112 0.0937539 0.227349 -0.0901692 -0.36858 -0.248576 0.266874 0.0342145 -0.0407039 0.0775947 0.247594 0.117692 -0.326464 0.166757 -0.122617 0.0792506 -0.136233 0.165985 -0.0171964 0.306686 -0.0841034 0.147201 0.0683494 0.209733 0.0209422 -0.141664 -0.388003 0.287308 0.334036 0.0436743 -0.0984294 0.363102 -0.423553 0.202194 0.158281 -0.293028 -0.13051 0.321316 -0.07679 0.0971046 -0.249188 -0.0142249 -0.225611 0.238961 -0.258025 0.0102431 0.110565 0.0600974 -0.0140117 0.0776873 -0.0124136 -0.124384 0.235606 -0.192479 0.0495141 0.039278 -0.271915 0.385047 -0.313133 -0.116252 0.482302 -0.0517965 0.572573 -0.324435 -0.113007 0.13749 0.0213592 0.12841 -0.0471466 -0.134685 0.221905 -0.251694 -0.10146 -0.0931466 0.36551 0.240881 -0.305852 0.0186865 0.292675 0.160044 0.281841 -0.261934 -0.399527 -0.0127264 0.0967315 0.203335 0.375003 -0.0255965 -0.00889287 -0.237522 -0.222086 -0.0423936 0.173194 -0.291273 0.0503203 0.138272 0.0722358 -0.308626 0.184121 0.0878518 0.202566 -0.194403 -0.319463 0.0824398 0.311758 -0.0484324 0.0327259 0.0722735 0.4141 0.356277 -0.0606834 -0.0207156 0.334218 -0.462304 -0.146601 0.147193 -0.229519 -0.0256494
4338 -0.583418 -0.470483 0.137669 0.332126 -0.611143 0.156887 -0.13515 0.0174669 0.0866483 0.259199 -0.276833 0.171803 -0.144279 0.154579 -0.268706 -0.217271 0.138493 -0.000461004 -0.263729 0.201287 -0.00215284 0.428299 -0.194411 0.200139 0.147991 0.00510107 -0.187262 0.108306 -0.101802 0.0442767 -0.151029 0.0464626 -9.77283e-05 0.232758 -0.124395 -0.515922 -0.298688 0.256786 0.159518 0.0170221 -0.281104 0.435355 -0.408867 0.208657 0.158033 0.103094 -0.0289454 0.147086 -0.059034 0.240484 -0.129349 0.00110374 -0.216468 0.0345891 -0.141684 0.0216701 0.112326 0.170477 -0.120822 0.168965 -0.0608556 -0.0514808 0.0185535 -0.18537 -0.0547072 0.0850458 -0.0941293 0.238922 -0.343393 0.0877208 0.270874 -0.105357 0.39902 -0.182211 -0.190389 0.0126208 0.0140701 0.141208 0.0764374 -0.011281 0.0553318 0.115431 -0.0847338 -0.23256 0.348061 0.264467 -0.130574 0.112356 0.270898 0.312547 0.190662 -0.00894352 -0.417923 0.00712847 0.116393 0.23068 0.421671 -0.0590316 0.0426354 -0.0893588 -0.222807 -0.0123524 0.024247 -0.376558 -0.0683182 -0.0743985 0.280081 -0.132354 0.0686501 0.0549809 0.00566847 -0.0627036 -0.252617 0.0536235 0.171196 -0.0744391 0.161264 -0.0961102 0.451015 0.453229 0.136252 -0.0264051 0.283084 -0.324127 -0.110006 -0.0680478 -0.303562 -0.0964424
2972 -0.196601 -0.26334 0.0511797 0.0275507 -0.448725 0.138222 -0.00660366 0.0486025 0.185067 0.406339 -0.29451 0.0504209 0.144846 0.022525 -0.353368 -0.0930176 0.176991 0.0321112 -0.236303 0.162818 0.420407 0.0770033 -0.29794 0.119469 0.0174988 -0.000656606 -0.0739966 0.00430996 0.051322 0.159208 -0.0881932 -0.0543889 0.0412022 0.310428 -0.12605 -0.374278 -0.253083 0.248505 0.399299 -0.0189726 -0.322238 0.392072 -0.434462 0.286782 0.132938 -0.158311 0.0753177 0.311262 -0.0512787 0.198165 -0.233276 0.127401 -0.325019 0.0221272 -0.115868 0.142762 0.0434202 0.0150196 -0.152958 0.0534701 -0.0965961 -0.0557829 -0.0260581 -0.191316 0.0955935 0.181182 -0.208842 0.304178 -0.297259 -0.0980955 0.174626 -0.152723 0.251669 -0.289769 -0.113264 0.115508 -0.110197 -0.00681037 -0.0166457 0.176673 0.049227 -0.0714253 -0.0236946 -0.087768 0.343085 0.128723 -0.26073 0.0220892 0.359448 0.311106 0.226847 -0.00323041 -0.50922 -0.0435696 0.223089 0.18499 0.36455 -0.130496 0.0811011 -0.0760728 -0.206511 0.081919 0.123759 -0.0831017 -0.02784 -0.0835685 0.208979 -0.35988 0.168344 0.0474758 0.216219 -0.256898 -0.344817 -0.0591869 0.333891 -0.0790736 0.120127 0.00888003 0.535953 0.493875 0.066744 -0.0530774 0.0718395 -0.39605 -0.21561 -0.0109628 -0.287071 0.020431
6789 -0.328564 -0.0806599 0.0310771 0.0202397 -0.287158 0.195228 -0.301645 -0.0380346 0.135247 0.287365 -0.328375 0.0197752 -0.0286738 0.145826 -0.190074 -0.109622 0.121814 -0.0331502 -0.344723 0.0351475 0.259364 0.0218367 -0.213434 0.110315 0.00734731 -0.111881 0.068933 0.0434171 0.0219764 0.0352316 0.0515277 -0.0267056 -0.019844 0.266129 -0.0998467 -0.467208 -0.202428 0.107204 0.313884 -0.0643346 -0.304361 0.485808 -0.226113 0.268281 0.131356 0.15708 0.143372 0.195527 0.0412588 0.225652 -0.169784 0.131764 -0.305689 -0.134874 -0.21586 0.30337 -0.0124376 0.0720081 -0.0238113 0.00563132 -0.0807904 -0.0818897 -0.134507 -0.116313 0.189641 0.223959 -0.120789 0.0591427 -0.207705 -0.203801 -0.0362007 -0.237929 -0.0324839 -0.0900642 -0.156771 -0.0737213 -0.143917 -0.215587 -0.0634598 0.12782 -0.105222 0.0409867 0.123813 -0.114231 0.340323 -0.0782171 -0.153567 0.185083 0.16655 0.433181 -0.141325 0.212587 -0.392948 -0.182015 0.235613 0.151783 0.0475864 -0.100561 0.201395 -0.00461452 -0.225443 0.175093 -0.00670651 0.10676 -0.0306213 -0.214367 0.348985 -0.301143 0.121075 -0.243648 0.0519099 -0.107887 -0.256648 0.0360343 0.252806 -0.276807 0.249461 -0.00849598 0.544894 0.468358 0.0728401 0.0430135 -0.196501 -0.365215 -0.135507 0.0542452 -0.122157 0.128592
5217 -0.193988 -0.0274255 0.00135672 -0.0844216 -0.220733 0.187441 -0.229333 -0.0213056 0.154655 0.318541 -0.30833 -0.0300399 -0.0198717 0.125842 -0.213525 -0.138261 0.115768 -0.0312599 -0.368729 0.0824156 0.310871 0.0341361 -0.24049 0.178808 0.0303096 -0.149797 -0.0186398 0.0346106 0.0411107 0.0434731 0.0347852 -0.0418472 -0.0584771 0.322494 -0.0223733 -0.459925 -0.218581 0.128467 0.381385 -0.03826 -0.261697 0.368404 -0.228334 0.242556 0.13885 0.0430272 0.106111 0.241867 0.0152552 0.202698 -0.159602 0.0842248 -0.288861 -0.225693 -0.241093 0.246345 0.0340783 0.00585402 -0.0181059 0.031976 -0.106779 -0.163457 -0.140936 -0.111427 0.271743 0.286195 -0.139366 0.126365 -0.251533 -0.226886 -0.0664478 -0.300199 0.0967439 -0.132518 -0.149322 0.0439358 -0.199295 -0.188908 -0.0740749 0.137894 -0.172246 0.0261841 0.163 -0.119066 0.375435 0.0405581 -0.112013 0.128872 0.197129 0.43918 -0.00176681 0.204947 -0.403898 -0.246161 0.242173 0.206126 0.225713 -0.103119 0.148294 0.0278477 -0.209807 0.155397 0.000535079 0.112739 -0.135642 -0.266407 0.364513 -0.343613 0.224413 -0.188198 0.123779 -0.228251 -0.321939 -0.0231698 0.303904 -0.261164 0.226552 -0.0181768 0.578768 0.43648 0.104677 -0.060353 -0.207583 -0.276838 -0.15415 -0.00241955 -0.126645 0.159676
5531 -0.363986 -0.316605 0.0579317 0.440861 -0.214124 0.180744 -0.277881 0.101694 0.230841 0.383743 -0.537286 -0.0687787 -0.104468 0.0682169 -0.191575 -0.117848 -0.00649011 -0.0527788 -0.504067 0.0168677 -0.225549 0.212808 -0.219494 0.152728 0.215461 -0.265345 0.109349 -0.0620037 0.156917 0.114689 -0.0279121 0.174732 -0.174859 0.109408 -0.178909 -0.323857 -0.236387 0.0587501 0.49236 0.0146665 -0.141209 0.46431 -0.216189 0.089078 0.132833 0.0902522 0.0880948 0.34135 0.176546 -0.0354496 -0.148354 -0.121157 -0.386832 -0.0309657 -0.222828 0.020955 -0.174322 0.184442 -0.174511 0.0365072 0.0445999 -0.188461 0.226905 -0.382651 0.375042 0.0621151 0.0745622 -0.0440034 -0.190015 -0.0811452 0.132843 -0.22671 0.124327 -0.108342 -0.226679 -0.125639 -0.355916 0.0218158 0.0516258 0.0355905 -0.392965 -0.111827 -0.000509265 -0.194642 0.501535 0.236941 -0.00394546 0.166013 0.307191 0.231854 0.0337223 0.155123 -0.538458 -0.136416 0.0563132 0.228912 0.104657 -0.00419783 -0.0968343 -0.0720983 0.00346079 0.101058 0.278641 -0.214898 -0.00834858 -0.0829054 0.311152 -0.166184 0.137913 -0.445935 0.212839 -0.294888 -0.355546 0.0204414 -0.107198 -0.292079 0.288688 -0.092616 0.432851 0.283379 -0.152821 -0.0645165 0.0581283 -0.0387121 -0.176201 -0.0110028 -0.283377 0.0616969
8295 -0.247984 0.186829 0.0189217 0.382091 -0.216359 0.338755 -0.329327 -0.20988 0.146456 0.263613 -0.233415 0.233972 -0.01391 -0.0686388 -0.331767 0.066355 -0.00078487 -0.0153748 -0.67088 0.141298 -0.00903552 -0.184044 0.00356462 0.332451 0.058764 -0.282032 0.109089 -0.0846973 0.301542 0.0479667 -0.267442 0.224767 0.0219521 0.0740271 -0.0324806 -0.374558 -0.327132 -0.0178364 0.099143 -0.196777 -0.488552 0.504816 -0.0206216 0.136358 0.170237 0.0183635 -0.0142582 -0.0132311 -0.136499 -0.0131612 -0.206644 -0.251053 -0.111765 -0.194971 -0.288746 0.174742 0.260118 0.286846 -0.0161178 0.327756 -0.0153876 -0.0741507 0.101509 -0.306966 0.135715 0.399534 -0.121806 0.00631105 0.0194366 -0.1462 0.220388 -0.295587 0.189989 -0.0261665 -0.0665383 0.0426697 -0.0546421 0.00472083 0.030771 -0.120719 -0.243024 0.271632 0.259223 -0.383197 0.230075 0.140626 0.127823 -0.0140774 0.207892 0.192364 0.110362 -0.0828033 -0.339087 -0.342286 0.369474 0.264738 0.169758 -0.380751 -0.0119581 -0.130682 -0.408262 0.0943134 -0.0301401 -0.249516 0.0942173 0.102151 0.308331 -0.261142 0.26816 -0.142463 0.0853427 -0.179002 -0.177893 0.240265 0.00825953 -0.234366 0.0782736 -0.226001 0.573779 0.407619 0.292734 0.112703 0.112015 -0.251903 -0.0354648 0.176383 -0.563121 -0.32931
5321 -0.663989 -0.0702485 -0.0173507 0.589375 -0.824696 0.361397 -0.322039 -0.409464 0.215935 0.074457 -0.177012 0.298931 -0.144814 -0.118075 -0.0854221 -0.138876 0.0154241 -0.137113 -0.347383 0.263466 0.140676 0.3446 -0.170058 0.317436 0.119355 -0.209042 -0.282506 -0.313041 -0.0135819 0.0579773 -0.413574 0.0916474 0.137616 0.0897294 0.0226731 -0.474568 -0.143891 0.0948722 -0.0527997 -0.0500787 -0.249019 0.353721 0.0375721 0.11009 0.169369 -0.158688 0.133534 -0.0372771 -0.06235 0.218477 0.0309465 -0.122888 -0.462959 -0.0757545 -0.182609 0.0993309 0.365148 0.55736 -0.12168 0.439609 0.180436 0.190478 0.057575 -0.351146 0.141088 0.128916 0.0872296 0.0302948 -0.137759 -0.374238 0.339795 -0.227171 0.244184 0.0658733 -0.298765 -0.020819 0.151115 -0.110001 0.144401 -0.0118683 -0.29701 0.171715 0.19057 -0.17851 0.201742 0.4572 0.112678 0.0132643 0.0965594 0.342514 0.100022 -0.213196 -0.311348 -0.262879 0.30175 -0.119589 0.600723 -0.116613 -0.156887 0.144236 -0.380592 -0.000874728 -0.00906764 -0.354543 0.150415 0.0817843 0.172631 0.0783281 0.0585997 -0.0432592 0.34496 -0.0047661 -0.163312 0.193329 -0.111602 -0.0872277 0.227649 -0.109193 0.0812043 0.21493 0.436829 -0.0196755 0.190824 -0.107365 0.0666976 0.223725 -0.0204158 0.0697402
2576 -0.4974 -0.160627 -0.163356 -0.0127763 -0.860576 0.272474 -0.0324763 -0.332134 0.223286 0.557458 -0.195033 0.197379 0.0500537 -0.0293685 -0.377828 0.0669397 -0.230679 -0.355171 -0.340818 0.212066 -0.00931637 0.721999 0.133556 -0.134779 -0.117508 -0.243308 -0.121445 -0.347446 0.275979 -0.0874326 -0.325661 0.252552 0.0929786 0.230321 -0.293094 -0.117038 -0.270064 0.0914218 -0.149315 -0.014706 -0.254696 0.328819 -0.433813 0.0544883 0.0923698 -0.216341 0.322965 0.00869202 -0.0971425 0.0505826 -0.0952917 -0.236249 -0.489508 0.198685 0.0834834 0.246706 0.27812 0.294066 -0.00830353 0.393023 -0.295845 -0.391255 0.115485 -0.319184 0.15181 0.0313808 -0.0143874 0.0629605 -0.067774 0.0162123 0.547811 -0.0966557 0.560693 -0.167603 -0.0456496 0.19065 0.12085 -0.150888 -0.0546253 -0.212034 -0.196804 0.0881805 0.12995 0.0261074 0.285687 0.16675 0.335422 0.242368 -0.113002 0.27825 0.105666 0.0362663 -0.174403 -0.237874 0.118449 -0.144358 0.199095 -0.269251 -0.142661 0.0910985 -0.407723 -0.373877 -0.04042 -0.336748 0.227286 0.188015 0.15543 -0.0044032 0.399402 0.152643 0.0867603 -0.263943 0.0486725 0.138275 0.191672 -0.0383191 -0.13679 0.0277418 0.237662 0.273345 0.0224136 0.181787 -0.150939 -0.327884 -0.150483 0.00496814 -0.159069 -0.102063
7726 -0.632835 -0.301322 -0.0731554 0.310438 -0.75027 0.216327 -0.293842 -0.331854 -0.0101025 0.340555 -0.256239 0.309879 0.0806332 0.14241 -0.278691 0.0140864 0.0789501 -0.154767 -0.180442 -0.0125497 -0.0935784 0.540577 -0.291908 0.178181 0.0893825 0.118815 -0.233851 0.0769728 0.0291338 0.0734139 -0.177845 0.28104 0.0359097 0.0117994 -0.206537 -0.468552 -0.273959 0.245906 -0.0661552 0.0597383 -0.146407 0.460426 -0.360062 0.285256 -0.021228 0.1711 0.11786 0.134259 -0.161962 0.119949 0.0707501 0.138284 -0.193089 -0.108624 -0.16919 0.172455 0.199862 0.318153 0.00159203 0.222719 -0.139707 -0.214597 0.0910019 -0.207781 0.0834914 -0.113324 -0.0827762 0.199801 -0.236605 -0.0278659 0.235055 -0.104817 0.218864 0.00251366 -0.12544 -0.0851299 0.140771 -0.0649279 -0.124897 0.0798178 -0.132175 0.149013 0.209724 -0.14188 0.194948 0.146151 0.194583 0.185142 -0.05949 0.438043 0.0947089 0.0943574 -0.358792 -0.0495558 0.289791 -0.108472 -0.131434 -0.181169 0.130937 0.0809799 -0.371907 -0.184981 -0.0275465 -0.268676 0.177836 0.227919 0.197956 0.168572 0.0954842 -0.25552 0.213538 0.125291 0.0520305 0.312771 0.306243 -0.18941 0.141184 0.0437593 0.289114 0.202202 0.126497 0.245124 0.125905 -0.43507 -0.12452 0.27887 -0.100685 0.100183
3452 -0.572698 -0.473612 0.0171203 0.154409 -0.715429 0.179097 0.0379826 -0.107387 0.0705156 0.412666 -0.226131 0.208102 0.0850201 0.199312 -0.319366 -0.101716 0.0803875 0.0988753 -0.151276 0.124978 0.10534 0.327892 -0.243263 0.104953 0.0769791 -0.0802312 -0.112725 0.0526242 -0.0319101 -0.0218419 -0.0733529 0.0565093 0.0921781 0.251878 -0.058751 -0.429511 -0.351055 0.185595 0.188037 -0.0230534 -0.254388 0.313874 -0.550909 0.209217 -0.0610712 -0.0156319 0.110273 0.322457 -0.0128509 0.28523 -0.0780908 0.115276 -0.31766 -0.112506 -0.108112 0.048074 0.129117 0.0562972 -0.188912 0.152436 -0.108764 -0.137574 -0.0303067 -0.128285 0.00771122 0.148995 -0.2681 0.323346 -0.377312 -0.0122594 0.243049 -0.14944 0.308465 -0.152529 -0.139791 0.0875024 -0.117029 0.113077 -0.167389 0.151199 0.151539 0.00768534 0.0291828 -0.0736282 0.268977 0.121458 -0.161278 0.223218 0.234143 0.443402 0.265873 0.0436794 -0.504098 0.0630198 0.231909 0.0964364 0.214882 -0.0867866 0.169691 -0.016036 -0.323187 -0.077116 -0.00849253 -0.25707 0.0798278 -0.111188 0.215919 -0.153175 0.0834069 0.0827736 0.184068 -0.171206 -0.24014 0.0575445 0.313994 -0.1102 0.1437 -0.0127729 0.466131 0.346319 0.0590213 0.0134365 0.196887 -0.528038 -0.205308 0.105815 -0.270343 -0.0505849
3635 -0.338282 -0.1618 0.0488859 0.00787745 -0.220307 0.27854 -0.282866 -0.0705253 0.18375 0.255016 -0.277591 0.0512754 -0.0505815 0.13817 -0.145935 -0.136341 0.197132 0.0250931 -0.316605 -0.00963554 0.288371 0.0381066 -0.293506 0.190592 0.0403326 -0.0245076 -0.0198105 0.0350639 -0.0188917 0.104449 -0.015896 -0.0431684 -0.138541 0.266471 -0.0993628 -0.56685 -0.269232 0.203459 0.326085 -0.0759375 -0.299165 0.405275 -0.141595 0.253525 0.165406 0.0657634 0.128754 0.191738 -0.0446145 0.171458 -0.182023 0.165712 -0.291432 -0.244304 -0.26936 0.171368 0.0347606 0.0665185 -0.00710624 0.0507377 0.0200061 -0.14109 -0.18086 -0.0673417 0.272748 0.350979 -0.149964 0.10272 -0.260945 -0.182064 -0.134057 -0.303541 0.0412671 -0.0796228 -0.171167 0.00594306 -0.114188 -0.219878 0.0377911 0.128016 -0.133184 0.0920191 0.13611 -0.177217 0.306493 0.052028 -0.166949 0.159487 0.234328 0.461059 -0.104076 0.187361 -0.400503 -0.257125 0.27831 0.195535 0.0955727 -0.0951378 0.268777 -0.0116053 -0.31278 0.118523 -0.0762434 0.0558379 -0.0901351 -0.180531 0.340372 -0.351043 0.231268 -0.250334 0.0296988 -0.176069 -0.318616 0.0203245 0.261343 -0.272237 0.23297 -0.0994668 0.521915 0.493935 0.178667 -0.0851754 -0.121816 -0.39363 -0.215553 -0.025776 -0.214751 0.0928425
4717 -0.202836 -0.000863919 0.038066 0.0132058 -0.187171 0.298528 -0.292557 -0.0815576 0.262583 0.313533 -0.242397 0.0034473 -0.0265215 0.172091 -0.18287 -0.206487 0.120475 0.0331016 -0.391662 0.0310157 0.31169 0.112666 -0.229031 0.154254 0.024611 -0.164606 -0.0208617 -0.00984573 0.0555414 -0.02472 0.0383731 -0.0380238 -0.0847543 0.217169 -0.0796581 -0.494704 -0.223572 0.094753 0.352674 -0.11235 -0.381175 0.434329 -0.156938 0.262255 0.171002 0.0520834 0.141182 0.177539 0.0268944 0.17747 -0.229531 0.109091 -0.290871 -0.199315 -0.177453 0.208012 0.0167625 0.0175593 -0.0116908 0.00653692 -0.056565 -0.134579 -0.139209 -0.158482 0.278977 0.392911 -0.119345 0.077711 -0.200166 -0.211126 -0.16252 -0.269251 -0.00716621 -0.119623 -0.158214 -0.00972926 -0.133191 -0.195817 0.0189643 0.0666713 -0.136672 0.0894006 0.128069 -0.171049 0.378584 -0.0207932 -0.113425 0.158468 0.244738 0.434651 -0.111151 0.210403 -0.380987 -0.234001 0.313353 0.258665 0.173344 -0.115513 0.173612 0.027821 -0.300388 0.124056 -0.0670039 0.105468 -0.0476154 -0.253988 0.363482 -0.428827 0.139934 -0.179568 0.0838504 -0.232108 -0.326625 -0.0547423 0.196456 -0.286555 0.184663 -0.0557306 0.592387 0.562009 0.105286 -0.0751815 -0.185988 -0.386683 -0.103125 0.0524264 -0.279283 0.0742701
3334 -0.345118 -0.00180522 0.131937 0.400495 -0.336046 0.311942 -0.297981 -0.150898 0.198276 0.318303 -0.244368 0.0496698 -0.179465 0.0544616 -0.170386 -0.105386 -0.0765717 0.0580504 -0.628187 0.151773 0.206878 0.166458 -0.0205299 0.282376 -0.00978711 -0.348077 -0.0276368 -0.151784 0.253104 0.000675293 -0.194573 0.0200063 -0.0319773 0.0892565 -0.175553 -0.326398 -0.295128 0.0731758 0.262231 -0.128928 -0.226283 0.314356 -0.0760447 0.240804 0.119065 -0.0230284 0.211775 0.0470735 0.0350583 0.148765 -0.187667 -0.112131 -0.27373 -0.0546071 -0.130803 0.0901734 0.0610129 0.228036 -0.0939532 0.27903 0.0668573 -0.147328 -0.0799647 -0.391495 0.236224 0.230684 -0.222486 0.0490643 -0.100839 0.0376558 0.0984663 -0.286949 0.0570325 -0.10495 -0.11113 0.0208276 -0.160776 -0.101842 0.136613 -0.0861387 -0.254095 0.179139 0.164464 -0.269389 0.360297 0.202769 0.091071 0.0987552 0.0901585 0.29175 -0.00936534 0.068652 -0.252982 -0.305415 0.235915 0.212754 0.269295 -0.391269 -0.154972 0.000464991 -0.295556 0.0456419 -0.0789936 -0.26344 -0.0469673 -0.0353997 0.235143 -0.242599 0.306074 -0.0210072 0.248418 -0.211069 -0.192487 0.0648875 -0.128063 -0.206081 0.165615 -0.118873 0.495661 0.360816 0.151654 -0.0587902 0.0870405 -0.270792 -0.0590714 0.0784594 -0.327175 -0.190895
895 -0.0901987 -0.0183085 0.201972 0.439513 -0.271342 0.123845 -0.210684 -0.00318901 0.169122 0.017353 -0.218889 -1.84068e-05 -0.0907249 -0.0891881 -0.00667557 -0.362094 0.182586 -0.00885605 -0.407866 0.0487676 -0.0692919 0.363139 -0.243848 0.266338 0.140098 -0.224618 -0.110936 -0.125093 0.0335123 0.157011 -0.0731438 0.0629441 -0.00791334 0.0183522 -0.0971411 -0.247744 -0.280071 0.0779185 0.212394 -0.108434 -0.083583 0.377836 0.134267 0.157849 0.228467 -0.0296914 -0.0201936 0.0493294 0.068076 0.000912632 -0.135886 -0.263616 -0.304625 0.0463993 -0.211466 0.00637127 0.114278 0.457474 -0.156668 0.138298 0.0903472 -0.152782 0.0967618 -0.366396 0.270026 -0.00721054 -0.0374596 -0.0235995 -0.168765 0.0519008 0.302545 -0.0463176 0.325523 -0.0342381 -0.131954 -0.209158 0.174014 -0.00529384 0.264075 -0.230861 -0.192702 0.00186692 -0.0573468 -0.522583 0.379426 0.385203 0.176712 0.00948617 0.177539 0.178751 0.0685556 -0.0194472 -0.157903 -0.226921 0.144892 0.225755 0.557519 -0.111312 -0.28317 -0.00604789 -0.172837 -0.0616754 0.262271 -0.364701 -0.114132 -0.0107101 0.322398 -0.189865 0.115938 -0.146055 0.116622 -0.323505 -0.274048 0.165716 -0.388528 -0.212668 0.173534 -0.0882871 0.470493 0.408041 0.161617 -0.141514 0.395041 -0.09488 0.182831 0.0500713 -0.220347 -0.0555815
